4121 32
66 0.151568 -0.563227 -0.149148 -0.286037 0.236619 0.374969 -0.453257 -0.282656 0.800029 0.049425 0.053201 -0.737664 0.566551 -0.146010 0.220724 0.352435 -0.228580 -0.017668 0.095733 0.506162 -0.033454 -0.442669 -0.309268 -0.026949 -0.090278 -0.365450 0.314237 1.062421 0.083131 -0.139437 -0.967084 0.846618
189 0.198735 -0.791926 -0.439455 -0.320934 0.413360 0.400625 -0.060721 -0.654279 0.276656 0.448233 0.310915 -0.540678 0.330091 -0.474490 0.082284 0.316439 0.045249 -0.530361 0.421769 0.250854 0.304428 -0.756103 0.191817 -0.028896 -0.343298 -0.775270 0.254084 1.319052 -0.088424 -0.020333 -0.520269 0.680667
18 -0.159502 -0.214130 0.714120 -0.294353 0.317500 -0.061373 -0.457837 -0.368527 0.525104 -0.214177 -0.317879 -0.391476 -0.233944 0.254335 -0.244506 0.280793 -0.226767 -0.351823 0.368254 0.075598 0.045604 -0.423220 0.168616 -0.025335 -0.022772 -0.021700 0.694342 0.733532 0.195301 -0.014232 -0.474282 1.505703
19 0.050570 -0.137912 0.236813 0.556777 0.524233 -0.259596 -0.371269 -0.929222 0.556843 -0.597733 0.060447 -0.556945 -0.813195 0.065416 0.189572 0.090103 -0.643497 -0.509655 0.394716 -0.050969 0.404413 -0.467833 0.227216 0.222994 -0.412938 -0.033393 0.499719 0.668558 0.195065 0.153656 -0.198899 1.322126
41 -0.184841 0.027813 0.400582 0.433125 0.665506 -0.036155 -0.498781 -0.422943 0.566831 -0.192792 -0.253484 -0.056960 -0.306324 0.699162 0.419822 0.177445 -0.929963 -0.550808 0.517039 0.249518 -0.327924 -0.304340 -0.073531 0.014572 0.601048 -0.502702 0.441237 0.594847 0.120952 0.098497 -0.311729 1.295059
447 0.102158 0.162633 0.387216 0.059999 0.398006 -0.203875 -0.283821 -0.394522 0.620661 -0.310550 -1.029366 -0.333113 0.035156 0.179189 0.359422 0.498853 -0.677652 -0.444780 0.276838 0.302907 0.229717 -0.285252 -0.050502 0.459652 -0.302751 -0.259460 0.627440 0.916269 0.402821 0.416718 -0.263564 1.318402
1 0.429254 -0.543139 0.372056 0.004625 0.528266 -0.254962 -0.275062 -0.021398 0.653230 -0.010803 -0.893401 -0.581370 0.090460 0.189541 1.085424 -0.016459 0.092541 -0.340774 0.383242 0.516913 -0.072123 -0.150235 -0.223648 -0.142237 0.075101 -0.537780 0.543480 0.818971 0.094271 0.004034 0.393746 1.048928
327 0.465030 -0.337001 -0.272861 -0.583709 0.159365 0.558083 -0.242181 -0.829340 0.651021 0.066697 0.115716 -0.697490 0.443762 0.043565 -0.013759 0.745054 -0.003286 -0.198672 0.205665 0.813491 0.281556 -0.747286 -0.248580 0.129975 -0.404074 -0.487909 0.093804 1.238168 -0.009773 -0.066425 -0.478237 0.585508
771 -0.398098 0.659175 0.410753 0.592312 0.565726 -0.072061 -0.060195 -0.649110 0.126210 -0.478751 -0.541145 -0.500999 -0.018042 0.122588 0.114658 0.549081 -0.383755 -0.446769 0.170517 0.088327 -0.334692 -0.183954 0.343914 0.260621 0.106866 -0.029449 0.569178 0.912120 0.059863 0.303551 -0.558519 1.625291
57 0.161910 -0.727327 0.493742 0.382577 0.693815 0.889898 -0.329851 -0.616472 0.752590 -0.710455 -0.229601 -0.233419 -0.075525 -0.419181 -0.089090 -0.108408 0.084363 0.018085 0.292007 0.074361 -0.144477 -0.042628 0.796780 0.208298 0.209071 0.430170 0.702332 0.641615 0.492615 0.177674 -0.475564 1.115694
243 -0.171875 -0.049505 0.693328 0.224371 0.358264 -0.289787 -0.535331 -0.614805 0.220815 -0.278443 -0.575883 -0.293375 -0.430107 0.269638 0.257057 0.387524 -0.805791 -0.486011 0.660521 -0.024531 0.109458 -0.333224 0.191625 0.316794 -0.243757 -0.014523 0.689210 1.018623 0.229365 0.577618 -0.361799 1.163057
242 0.457210 0.143394 0.474986 0.057006 0.350359 -0.152115 -0.377976 -0.458747 0.405973 -0.271250 -0.745175 -0.172658 -0.264149 0.207473 0.177526 0.510196 -0.587355 -0.449863 0.403631 0.036153 0.189486 -0.338603 0.298982 0.483941 -0.071548 -0.235382 0.666994 1.050476 0.322394 0.465581 -0.360254 1.366550
16 -0.504683 -0.302642 0.420185 0.292292 0.460452 0.071328 -0.064067 -0.443925 0.339376 -0.101870 -0.525035 -0.280857 -0.165257 0.113817 0.263627 1.047108 -0.936964 -0.205638 0.513854 -0.406462 0.126207 -0.177805 0.414521 0.309164 -0.043610 -0.420044 0.776380 0.519543 0.475321 0.184047 -0.555242 1.286902
148 -0.407556 0.238397 0.512451 0.498115 0.250927 0.243405 -0.694092 -0.664666 0.603696 -0.019868 -0.630433 0.208930 -0.108105 -0.277821 -0.317044 0.332892 -0.616916 0.007836 0.519623 0.439898 -0.261465 -0.441569 0.318729 0.230913 -0.232124 -0.173678 0.585314 0.653518 0.434548 -0.217225 -0.547966 1.306751
3462 -0.054334 -0.020821 0.150188 0.166456 0.678244 -0.242571 -0.218332 -0.734188 0.644480 0.143355 -0.404911 -0.042497 -0.410783 0.309279 0.136307 0.339935 -0.959894 -0.211693 0.293833 0.030881 -0.393483 -0.128569 0.013329 0.237133 -0.052888 -0.384202 0.791563 0.637503 0.068788 0.486363 -0.371465 1.632158
1479 0.206776 -0.000047 -0.146980 0.155715 0.674787 -0.042532 -0.102753 -0.730496 0.554087 0.045356 -0.897570 -0.062791 -0.543610 0.380631 -0.168504 0.367895 -0.857534 -0.592340 0.434255 0.015394 -0.401465 -0.100196 0.130458 0.420635 0.417114 -0.415223 0.485612 0.716535 0.172231 0.430092 -0.267625 1.629584
3980 -0.019188 0.308661 0.509615 0.461347 0.864170 -0.190361 -0.254925 -0.420423 0.087883 0.000957 -0.322454 -0.113309 -0.150713 0.017484 -0.052310 0.550287 -0.702413 -0.633739 0.390343 0.163988 0.124024 -0.587943 0.493969 0.241267 0.052371 -0.403760 0.787977 0.491336 0.431019 0.753270 -0.533949 1.244331
613 -0.370419 -0.824912 0.257718 0.187866 0.340811 0.422778 -0.858230 -0.668602 0.178960 -0.510570 -0.255754 -0.049036 0.049713 0.257435 -0.319942 0.405115 -0.968741 0.093407 0.202769 0.270478 0.535450 -0.530025 -0.533585 0.098188 -0.139442 -0.444414 0.500053 0.766931 0.405812 0.205221 -0.131571 1.266066
388 -0.518851 -0.825901 0.421863 0.722392 0.831257 0.078002 -1.344582 -0.397728 0.537419 -0.878703 -0.340196 -0.361089 -0.168714 0.649537 -0.033765 0.182219 -0.578279 -0.023580 0.601106 0.300981 0.424152 0.151918 -0.429437 -0.260208 0.063440 0.352081 0.733893 0.764611 -0.131150 0.177795 0.065729 0.743789
295 -0.380632 0.291429 0.338991 0.393091 0.326649 -0.413684 -0.067704 -0.671492 0.812694 -0.518545 -0.594289 -0.370817 -0.042146 0.078050 0.011162 0.477191 -0.713849 -0.910411 0.230639 0.003353 -0.404447 -0.490176 0.221611 0.282455 0.362415 -0.435576 0.923506 0.465815 0.283766 0.524305 -0.301425 1.235013
1546 -0.380744 -0.375408 0.217974 0.229554 0.567569 -0.240295 -0.548724 -0.665659 0.206106 -0.143813 -0.582322 -0.139847 -0.363123 -0.242639 0.359279 0.465202 -0.692320 -0.364614 0.324444 -0.240497 -0.241173 -0.461518 0.602109 0.233974 -0.099235 -0.267483 0.404346 0.742129 0.221445 0.392860 -0.725277 1.469136
1031 -0.383953 0.297499 0.468598 0.164435 0.070446 -0.039023 -0.669469 -0.653420 0.567508 -0.018311 -0.152917 -0.281124 -0.167546 0.079920 0.159903 0.328309 -0.975879 -0.492768 0.363128 -0.109815 -0.313186 -0.083988 0.599217 0.843121 0.052624 -0.606095 0.661356 0.470086 0.574225 0.397609 -0.167621 1.352951
306 0.250220 -0.498659 -0.285486 -0.476909 0.191147 0.661980 -0.067327 -0.773762 0.808412 -0.120184 -0.042939 -0.766644 0.325424 0.002360 -0.123700 0.478028 -0.206172 -0.341116 0.200712 0.972697 0.167051 -0.772738 -0.286618 0.052793 -0.207789 -0.699422 0.171160 1.132205 0.066181 -0.131667 -0.395948 0.831688
300 0.266905 -0.637903 -0.059636 -0.104902 0.505307 0.065319 -0.578672 -0.739685 0.134402 -0.332913 0.089756 -0.659045 0.353745 0.178445 -0.508520 0.380615 -0.194195 -0.546129 0.291318 1.057968 0.544422 -0.706893 -0.352448 0.014589 -0.157742 -0.627709 0.192711 0.717345 0.051030 -0.089377 -0.281145 1.027688
1264 0.176005 0.163363 -0.317775 0.076667 0.597169 -0.157765 -0.343154 -0.366069 0.378058 -0.021480 -0.746358 0.054092 -0.720254 0.537874 -0.126085 0.673706 -0.846666 -0.440159 0.369351 0.195095 -0.246069 0.004752 0.324883 0.294569 0.034234 -0.270797 0.514269 0.606309 0.270888 0.227966 -0.418721 1.823136
131 0.493190 -0.617486 0.090273 -0.623314 0.545052 0.486868 -0.609309 -0.453474 0.343684 -0.372935 -0.328832 -0.586108 0.640056 -0.062870 -0.558113 0.571021 -0.192289 -0.404131 0.319861 0.587804 0.320726 -0.622018 -0.259736 -0.258650 -0.093354 -0.472499 0.336765 0.889982 -0.239415 -0.029685 -0.815520 0.926837
2774 -0.146529 0.035537 0.271119 0.135512 0.675899 -0.522360 -0.451580 -0.636348 0.327491 -0.296839 -0.578868 -0.241897 -0.328195 -0.106477 0.389263 0.361195 -0.894796 -0.421522 0.186255 -0.119352 -0.278577 -0.424098 0.549730 0.165166 -0.065431 -0.492779 0.275241 0.822861 0.414858 0.359652 -0.698414 1.557001
545 0.424022 -0.841702 -0.061602 -0.427190 0.233404 0.272335 -0.196308 -0.564396 0.470993 -0.193994 0.141996 -0.554696 0.452351 -0.025215 -0.290972 0.546688 -0.265289 -0.074158 0.612161 1.061820 0.137806 -0.818544 -0.276350 0.231896 -0.297670 -0.743825 0.194112 1.259102 0.362086 0.045573 -0.756172 0.637322
123 0.161945 -0.012664 0.727299 0.363171 0.631439 -0.189603 0.119356 -1.009798 0.688774 -0.490511 -0.299350 -0.186646 -0.007667 -0.085540 -0.043854 0.039734 -1.205560 -0.671499 0.280144 -0.131247 -0.141970 -0.091410 0.731498 -0.147287 -0.052434 -0.076475 0.466950 0.796452 0.526183 0.143524 -0.918292 1.266071
31 -0.243296 0.435215 0.331567 0.550948 0.393683 -0.026210 -0.476171 -0.708842 0.354019 -0.280185 -0.733505 -0.407078 -0.147950 0.068515 -0.137574 0.671255 -0.463842 -0.684448 0.286481 -0.439465 -0.378742 -0.357785 0.001374 0.324850 -0.122756 -0.289425 0.598517 0.586326 0.211356 0.026309 -0.521851 1.677001
1430 -0.068699 0.363879 0.580889 0.537914 0.557180 -0.103080 -0.390758 -0.531044 0.597606 -0.071755 -0.823952 -0.541053 -0.331791 0.092549 0.150924 0.743551 -0.364914 -0.636172 0.169513 -0.306011 -0.406373 -0.638211 -0.062178 0.068928 -0.073754 -0.243271 0.441412 0.401435 0.446086 0.086214 -0.414888 1.603618
15 -0.190166 0.078937 0.600167 0.263908 0.590708 0.173743 -0.411213 -1.099775 0.587312 -0.477571 -0.731956 -0.107147 0.138453 -0.049984 0.125236 0.179414 -0.744533 0.115741 0.558221 0.326198 -0.227875 -0.389634 0.698242 0.622604 -0.313088 -0.083489 0.744486 0.311514 0.175590 0.103583 -0.615908 1.047290
2721 -0.228336 0.047361 0.259150 0.124372 0.663565 -0.468187 -0.497729 -0.680713 0.368070 -0.368461 -0.796728 -0.230252 -0.245490 -0.053312 0.289670 0.550789 -0.867335 -0.430409 0.205644 -0.123534 -0.212818 -0.505284 0.624095 0.122708 0.013326 -0.462496 0.335972 0.604211 0.463287 0.360329 -0.536822 1.669977
127 -0.210667 -0.881807 0.382992 0.272328 0.355827 0.466897 -0.027497 -0.645885 0.742547 0.489215 0.258599 -0.618778 0.454039 -0.137062 0.176597 0.510903 -0.280710 -0.786784 0.454735 -0.552525 -0.055583 0.232735 0.797750 0.544010 0.102833 -0.041565 0.446913 0.181531 1.338035 0.040270 -0.319775 0.952105
1746 0.071874 0.203791 0.714554 0.388028 0.583917 -0.026787 -0.237964 -0.639966 0.263984 -0.087807 -0.410187 -0.029022 -0.257841 0.061520 -0.105502 0.680183 -0.817976 -0.539930 0.272729 -0.143663 -0.014712 -0.357164 0.471786 0.088420 0.012551 -0.600829 0.525147 0.517345 0.244849 0.603134 -0.525550 1.461807
873 -0.139300 0.312036 0.697041 0.401349 0.788855 -0.158033 -0.248097 -0.763027 0.167783 -0.411325 -0.440543 -0.571600 0.048536 0.070262 0.248923 0.488674 -0.661012 -0.778868 0.228642 -0.392750 -0.365055 -0.399017 0.195657 0.364103 -0.257225 -0.306760 0.713675 0.732767 0.148759 0.126047 -0.399056 1.569056
3291 -0.159959 0.048241 0.628675 0.244200 0.741777 -0.452560 -0.121682 -0.243994 0.647899 -0.665794 -0.125661 -0.168608 0.484672 0.331481 0.589904 0.324270 -0.963890 -0.430708 0.910811 -0.317068 -0.219850 -0.454035 0.464609 0.082706 -0.347821 -0.299963 0.467700 0.391268 0.286531 0.702533 -0.385077 1.573300
874 -0.160204 0.383094 0.557885 0.395130 0.749378 -0.238359 -0.363765 -0.753251 0.312959 -0.304752 -0.575329 -0.431261 0.090639 0.101139 0.140354 0.575746 -0.679102 -0.837937 0.002201 -0.295198 -0.370906 -0.351526 0.177464 0.232247 -0.183368 -0.267985 0.580549 0.649726 0.150654 0.187034 -0.440689 1.542543
791 -0.178814 0.602612 0.392223 0.399582 0.680692 -0.058283 -0.434353 -0.656302 0.186354 -0.264824 -0.764784 -0.562009 -0.274929 0.131139 0.140445 0.661244 -0.572796 -0.597218 0.155683 -0.263431 -0.276163 -0.349684 0.018618 0.292606 -0.114504 -0.409700 0.576703 0.670406 0.149036 0.215859 -0.434489 1.658246
4851 -0.326025 0.237719 0.648794 0.266545 0.389114 -0.128284 -0.269693 -0.595136 0.374768 -0.127333 -0.565896 -0.297902 -0.123020 0.304500 0.351232 0.586344 -0.980215 -0.417864 0.669286 -0.109881 -0.098774 -0.416950 0.290303 0.200736 0.041862 -0.077875 0.657720 0.948489 0.296732 0.418648 -0.490934 1.320352
173 -0.373861 0.254086 0.088223 0.631125 0.277385 0.091448 -0.437651 -0.548751 0.673480 -0.102697 -0.531386 -0.337332 -0.306928 -0.148117 -0.059993 0.388171 -0.883562 0.016003 0.117899 -0.281922 0.145261 -0.566726 0.074503 0.295167 0.011911 -0.430542 0.445707 1.083663 0.623090 0.337999 -0.658279 1.529700
288 0.477042 -0.704845 -0.335935 -0.295907 0.289594 0.750508 -0.410875 -0.678940 0.563938 0.173176 -0.150155 -0.948727 0.163039 0.189815 -0.057131 0.619858 -0.351816 -0.229783 0.355947 1.213241 0.065399 -0.735051 -0.089471 0.217331 -0.122406 -0.593384 0.309703 0.513625 0.008086 -0.028134 -0.548182 0.798135
678 -0.253844 -0.177794 0.460122 0.396754 0.319287 -0.024983 -0.434510 -0.614914 0.225792 -0.191415 -0.228677 -0.115995 0.017111 -0.132740 0.330366 0.570446 -1.073623 -0.101006 0.320524 -0.176471 -0.154790 -0.711528 0.239988 0.065642 -0.159006 -0.315360 0.878878 0.837246 0.386720 0.309292 -0.467288 1.478133
910 0.660656 -0.539787 0.522131 -0.411578 0.303307 0.112154 -0.053566 -0.192710 0.842023 -0.163810 -0.638761 -0.957521 0.354719 0.110455 0.321164 0.221961 0.061878 -0.313321 0.039380 1.164273 0.082752 -0.472570 -0.538587 0.057525 -0.485759 -0.820134 0.378092 0.781949 0.360942 0.101233 -0.224555 0.761480
1586 0.217355 -0.444831 -0.467286 -0.117990 0.235121 0.100346 -0.269193 -0.555967 0.024746 0.472240 0.357873 -0.414219 0.060687 -0.393264 0.309520 0.826234 0.201609 -0.216092 0.772121 0.722041 0.107186 -0.436112 -0.114565 0.092642 -0.940893 -0.598558 0.097649 1.592629 0.239370 -0.562137 -0.538636 0.759093
132 -0.119990 0.136268 -1.490965 0.480868 1.164086 0.648974 -1.641381 -1.105793 -0.211121 -0.066105 -0.665640 -0.298881 1.025732 1.396321 0.287484 1.089980 -0.314836 -0.707461 0.738767 -0.567102 -0.211605 -0.034629 1.102607 -0.301797 -0.172847 -0.995199 -0.158754 0.824387 0.168778 -0.167459 0.785903 -0.419117
606 0.433872 -0.467279 -0.304370 0.499201 0.151649 0.539785 -0.691724 -0.916294 0.544320 0.456051 -0.058017 -1.421548 0.489200 -0.267322 0.410423 0.081877 -0.092241 0.065705 0.891788 0.199051 0.005131 -0.314271 0.456376 0.292578 -0.024068 -0.058866 0.784317 -0.180768 0.910695 -0.476523 -0.633242 0.683028
876 0.468875 -0.649022 -0.272784 -0.510324 0.395908 0.479583 -0.394037 -0.665166 0.590805 -0.202395 -0.116307 -0.793930 0.198690 0.026219 -0.239058 0.539860 -0.213968 -0.260341 0.185168 1.084061 0.203992 -0.722035 -0.259512 0.133104 -0.075800 -0.984024 0.187560 1.070435 0.166689 -0.159614 -0.524614 0.604306
604 0.369109 -0.798710 -0.416292 -0.228726 0.567948 0.163049 -0.290349 -0.567903 0.420380 -0.290318 0.150781 -0.784300 0.327605 0.105077 -0.544662 0.360815 -0.485005 -0.266195 0.298458 1.066385 0.383017 -0.967244 0.087222 0.163159 -0.482672 -0.754398 0.276057 0.856181 0.105607 -0.185844 -0.201369 0.749377
3025 -0.537468 -0.700474 -0.243976 -0.053126 0.196156 0.047372 -0.516784 -0.598576 -0.187339 0.541846 0.039484 -0.739790 -0.245295 -0.433171 0.590159 0.301466 -0.304110 0.067945 1.204325 -0.095518 0.156198 -0.849263 -0.040930 0.124501 -0.369233 -0.682735 0.632320 1.127419 0.147028 -0.089938 -0.632398 1.182535
301 0.465707 -0.730347 -0.085113 -0.346726 0.201612 0.508019 -0.382483 -0.703547 0.350649 -0.040010 -0.008851 -0.605841 0.378476 0.210462 -0.286233 0.567158 -0.394417 -0.482831 0.369420 0.938052 0.119563 -0.676357 -0.528540 0.146237 -0.092340 -0.725532 0.072457 0.827691 -0.020674 0.266530 -0.441273 1.015771
395 0.220616 0.298645 0.341243 0.186760 0.195623 -0.209986 -0.501160 -0.291508 0.547629 -0.081951 -1.093817 -0.268885 -0.406616 0.117730 0.442588 0.541814 -0.439944 -0.581239 0.258027 0.261535 0.235151 -0.196871 0.092931 0.546573 -0.267452 -0.351770 0.560627 0.893825 0.570819 0.448565 -0.279365 1.413602
3170 0.755373 0.187389 0.246977 0.244442 0.926317 -0.621787 0.056340 -0.988283 0.592239 -0.212194 -1.129911 -0.054516 0.639219 0.668337 0.573891 -0.155889 0.702617 -0.245909 0.826798 0.419864 -0.562050 -0.586729 -0.691998 -0.594223 -0.806141 -1.474269 0.889379 0.510062 0.554927 -0.291558 0.480268 0.217057
73 -0.127466 0.184676 0.338650 -0.212938 -0.021169 0.838019 -0.840589 -1.033461 0.475132 -0.259028 0.287052 -0.555014 0.094718 -0.183458 0.177003 -0.012838 -0.450760 0.201856 0.945966 -0.192376 0.173547 0.218914 0.725138 -0.055558 0.450270 -0.226054 0.965392 0.469810 0.867706 -0.766002 -0.109005 1.274819
143 -0.297210 0.278052 0.313722 0.570987 0.409924 0.083944 -0.401763 -0.539500 0.560826 -0.264557 -0.572708 -0.102364 -0.320067 0.047009 -0.069991 0.598333 -1.006714 -0.064972 0.196722 -0.089658 0.119524 -0.622858 0.045386 0.273150 -0.119247 -0.436187 0.508172 0.823475 0.679010 0.444500 -0.438226 1.510299
35 -0.319377 -0.834599 0.146669 0.198692 -0.274790 0.503326 -0.378884 -0.962018 0.629624 -0.254425 -0.589286 -0.233186 0.318346 -0.538981 -0.280066 0.419950 -0.451517 -0.152212 0.199692 -0.484415 -0.175084 -0.491915 0.425539 -0.390150 -0.044383 0.282218 0.971864 0.099299 0.548671 0.151751 -0.211223 1.431116
1369 -0.066312 -0.121216 0.441636 0.294727 0.701305 -0.275961 -0.194607 -0.473030 0.200304 0.216831 -0.135072 -0.536594 0.379765 0.071909 0.060047 0.685291 -1.046082 -0.644170 0.312726 -0.156250 -0.006974 -0.284266 0.559400 0.325594 0.382321 -0.015450 0.840700 0.647151 0.839927 0.458620 -0.487727 1.321584
820 1.051268 -0.091877 -0.336448 -0.222879 0.346543 0.329801 -0.082879 -0.977745 0.131331 0.717016 0.379959 -0.354955 0.497532 -0.157174 0.189341 0.941970 0.917052 -0.160579 0.467932 0.102863 -0.092926 -1.038914 -0.440142 0.101398 -0.757994 -0.615689 0.145610 1.412754 0.234834 0.065263 0.030524 0.457674
587 1.071213 -0.046564 0.201784 -0.215667 0.838764 0.776590 -0.568261 -0.779610 0.569013 0.074861 0.057787 0.135074 -0.398415 -0.472056 0.351714 1.079713 -0.014229 -0.562631 -0.027319 1.413763 0.500801 0.082647 0.181330 -0.591739 -0.012204 -0.843040 -0.081394 1.050684 1.311050 0.443321 -0.374935 -0.308333
3543 -0.093361 0.096425 0.811318 0.132180 0.417045 -0.182798 -0.137475 -0.693148 0.082988 -0.128055 -0.508292 -0.321479 -0.069846 0.345480 0.481199 0.489426 -1.046199 -0.566939 0.660936 -0.042957 -0.116381 -0.579763 0.392208 0.101241 -0.107810 -0.065870 0.935377 1.103134 0.161181 0.504502 -0.383775 1.083407
3355 -0.341637 0.585959 -0.687482 -0.682459 -0.057880 0.118100 -0.589624 -0.541234 0.105265 -0.032572 -0.253452 -0.694694 -0.236667 0.458807 0.408223 0.682450 1.308430 0.379974 0.571089 -1.000368 -0.022521 -0.542658 -0.027202 -0.074112 -0.721108 -1.253065 0.248304 0.698030 1.530086 1.135086 -0.415757 0.378745
5640 -0.012657 0.148942 0.830729 0.188168 0.756204 -0.222291 -0.244594 -0.648479 0.457179 -0.269841 0.021743 -0.455728 -0.300515 0.188500 0.320890 0.984395 -1.142210 -0.239091 0.049449 0.219270 -0.304751 -0.610117 0.530090 0.083763 -0.262896 -0.331268 0.957467 0.549354 0.052976 0.429495 -0.453557 1.348130
1611 0.579306 -0.710869 -0.176730 -0.373813 0.375005 0.581920 -0.353980 -0.678513 0.641492 -0.164996 -0.082322 -0.662204 0.400115 0.065329 -0.398375 0.516460 -0.124197 -0.330433 0.315874 1.117421 0.167302 -0.770205 -0.304009 0.286866 -0.231382 -0.843715 0.292775 1.008640 0.133997 -0.122535 -0.536013 0.742470
2231 -0.315288 0.083538 0.509771 0.300313 0.604411 -0.110369 -0.409237 -0.655638 0.498209 -0.363484 -0.339491 -0.125034 0.034480 0.054760 0.218278 0.524127 -1.161818 -0.149578 0.335933 -0.084177 0.056456 -0.598937 0.247990 0.246213 -0.130480 -0.268643 0.619837 0.842264 0.602106 0.359814 -0.427516 1.472500
600 0.569204 -0.899636 -0.203419 -0.472649 0.415257 0.587819 -0.364798 -0.520289 0.597280 -0.128095 -0.066439 -0.789932 0.330324 0.008916 -0.278508 0.574616 -0.296971 -0.394262 0.329338 0.984254 0.142414 -0.714653 -0.352382 0.017902 -0.054298 -0.954520 0.294550 0.979040 0.035650 -0.092138 -0.438844 0.873504
226 0.867853 -0.734544 -0.718931 0.693787 -0.157361 0.400017 -0.417551 -1.307140 0.195756 0.536363 -0.157918 -1.185449 0.629440 0.060445 0.659623 0.367622 0.354285 0.106366 0.701517 0.217215 -0.315479 -0.504758 -0.042426 0.265866 -0.059974 0.368644 0.567518 0.206158 0.549487 0.037098 -0.199137 0.866198
788 0.271261 -0.700539 -0.374972 -0.511690 0.162867 0.622506 -0.159315 -0.830995 0.611400 -0.153918 0.075159 -1.005345 0.097512 0.053900 -0.435637 0.440076 -0.084825 -0.604876 0.171639 0.744418 0.279035 -1.050901 -0.273712 0.046261 -0.215079 -0.726791 0.052312 1.112090 0.205581 -0.122575 -0.417279 0.931323
883 -0.039407 -0.574336 -0.437898 0.159215 0.580783 -0.352643 0.107026 -0.646219 0.420231 0.011715 0.367235 -1.147635 -0.360207 -0.645968 -0.049207 0.051624 -0.354480 -0.176168 0.843791 0.312065 0.093505 -0.566429 -0.108350 0.040592 -0.608492 -0.774031 -0.165205 1.509630 -0.045837 -0.240201 -0.417944 1.215367
4238 -0.482646 0.456796 0.497672 0.474316 0.410848 0.041800 -0.412437 -0.773746 0.239166 -0.123155 -0.622787 -0.077882 -0.606723 0.606091 0.210750 0.590097 -0.637066 -0.567995 0.474167 0.362775 0.060064 -0.499464 0.443171 0.145375 0.224992 -0.549837 0.382694 0.488809 0.465984 0.152920 -0.487162 1.729401
302 0.441851 -0.674260 -0.211065 -0.596145 0.255185 0.497625 -0.357663 -0.675842 0.605612 -0.238643 -0.172263 -0.697432 0.488101 0.077807 -0.076409 0.614054 -0.301715 -0.442667 0.301561 1.100344 -0.068654 -0.813118 -0.158048 0.127275 -0.216276 -0.883610 0.402628 0.869928 -0.115275 -0.185660 -0.380848 0.843918
6 0.388010 -0.498953 0.148503 -0.019804 -0.305256 -0.148372 -0.937045 -0.512425 0.425611 -0.719409 -0.519265 -0.560932 0.677178 0.696507 -0.392531 0.244057 0.100500 -0.235919 0.625060 0.577037 0.485876 -0.119599 -0.559257 0.011594 0.048509 -0.281091 0.050250 0.529236 0.158345 0.219170 -1.090847 1.136508
745 -0.190636 -0.959853 -0.135210 0.406893 0.511418 0.663055 0.194620 -0.724615 0.782009 0.504180 0.627731 -0.130101 0.917543 -0.315598 0.347737 0.490015 0.178257 -0.903893 0.436486 -0.240511 0.715209 -0.040688 0.858779 -0.217125 -0.298702 -1.272412 0.256684 0.852256 0.483113 0.357249 -0.294940 0.927027
949 0.521573 -0.680874 -0.147961 -0.349996 0.424617 0.444173 -0.360640 -0.517243 0.651929 -0.212419 -0.079693 -0.644090 0.320870 0.014858 -0.301439 0.634132 -0.292540 -0.370703 0.377377 1.155671 0.110299 -0.825098 -0.139508 0.204364 -0.219979 -0.877580 0.201365 0.947318 0.095398 -0.030982 -0.502328 0.617464
1361 0.528356 -0.883932 -0.338515 -0.766614 0.401890 0.303403 -0.115832 -0.622784 0.307092 0.259627 0.241293 -0.739217 -0.145049 0.297180 -0.494584 0.442515 -0.578007 -0.308326 0.277032 0.852359 0.142095 -0.309095 -0.375995 -0.211650 -0.376209 -1.150466 0.891471 0.823402 0.132920 -0.364145 -0.723722 0.801692
3998 -0.175174 0.672098 -0.533658 0.434525 1.158545 -0.376622 -0.425645 -0.416414 0.092140 -0.280795 0.146573 -0.573726 0.601487 0.213980 -0.332926 0.077460 -0.625561 -0.396050 0.629791 0.447664 -0.159722 -1.055188 0.365935 -0.129973 0.279348 0.005989 1.360003 0.241893 0.809418 0.750135 -0.041154 1.106509
2118 -0.401749 0.397389 -0.565461 -0.859936 0.185804 -0.027588 -0.887046 -0.713265 -0.395167 0.539176 -0.242834 -0.857237 0.143051 0.153649 0.739075 -0.085199 0.910253 0.570185 1.190176 -0.334472 -0.146524 -0.240477 0.269507 0.060668 -0.522710 -1.368260 0.613255 0.865513 0.990659 1.061588 -0.747539 0.122178
602 0.494037 -0.805208 -0.490315 -0.231763 0.236859 0.305438 -0.560845 -0.514926 0.259107 -0.230628 0.172962 -0.428783 0.434210 0.389217 -0.251442 0.931764 -0.371024 -0.570544 0.234037 0.831379 0.040856 -0.529732 -0.465472 0.415650 -0.030481 -0.667330 0.336990 0.591025 -0.008888 0.114340 -0.669573 1.093915
1168 0.426115 0.253294 -0.068014 -0.531167 0.356449 -0.111692 -0.271445 -0.398352 0.534920 0.136178 -0.961988 -0.322844 -0.275359 0.122050 0.741006 0.596288 0.049817 -0.612038 -0.182723 0.463892 0.475383 -0.265430 -0.279366 0.364015 -0.181585 -0.240562 0.549805 1.598563 0.607706 0.429105 0.083407 0.710121
4806 0.334953 0.719385 -0.668257 -0.897849 0.327310 0.210512 -0.737238 -0.451626 0.047341 0.412754 -0.407780 -0.737377 -0.200655 0.080416 0.667984 0.746613 1.144443 0.180805 0.184862 -0.425107 0.132018 -0.430398 0.324123 -0.067613 -0.564388 -1.125164 0.107160 1.305423 1.152259 1.597302 0.041754 0.292685
4334 0.013258 0.190632 0.380196 0.595458 0.282730 -0.158758 -0.398803 -0.716314 0.681911 -0.259862 -0.704928 -0.342124 -0.526994 0.071322 0.197952 0.805693 -0.530221 -0.216538 0.645814 -0.050762 -0.289522 -0.440159 0.002402 0.346998 0.292019 -0.327196 0.233271 0.413976 0.469483 0.591470 -0.658079 1.635504
3087 -0.296896 0.373322 0.280113 0.476245 0.476117 -0.083310 -0.329575 -0.304661 0.533939 -0.232197 -0.614117 -0.482777 -0.561612 0.134272 -0.054282 0.277563 -0.639648 -0.279502 0.337173 -0.285065 -0.031098 -0.284429 0.158887 0.309020 0.092352 -0.510580 0.331455 1.084175 0.349764 0.548163 -0.803950 1.605739
2390 -0.258636 -0.541387 -0.605894 0.588251 0.685909 0.154910 0.243986 -1.023348 0.761926 0.279855 -0.845901 -0.387897 -0.192207 0.434738 0.241751 0.191318 -0.625128 -0.221752 0.215438 0.590824 -0.446550 0.363118 -0.415951 0.160312 0.381732 -0.178732 0.743555 0.764050 -0.346641 0.427459 0.409576 1.369388
1014 0.870453 0.442828 0.165148 -0.510026 0.519515 0.529268 -0.526128 -0.628829 0.097317 0.405132 -0.423797 -0.231029 -0.661468 -0.056204 0.598373 0.838174 0.222382 -0.550942 0.157986 1.021683 0.614137 0.065691 -0.008910 -0.256636 -0.148643 -0.430953 0.082603 1.701997 1.147032 0.514242 -0.045944 -0.040136
4064 -0.158778 -0.536090 -0.264299 0.461790 0.726034 0.644330 0.108543 -0.885628 1.340054 0.468492 0.298734 -0.086096 1.056086 -0.327862 0.303357 0.567413 0.485039 -0.943015 0.458562 -0.349793 1.048788 0.205399 0.787621 -0.244564 -0.136251 -0.980926 0.401846 0.873828 0.553555 0.540629 -0.499383 0.414225
3405 -0.053300 -0.926947 -0.379948 -0.486503 0.778537 -0.002184 -0.190756 -0.215665 0.289939 0.519332 0.299705 -0.710527 0.185821 -0.006295 0.439497 -0.227802 -0.250230 -0.294288 1.193516 0.413628 -0.256786 -0.654394 0.053017 0.053749 -0.606515 -0.548236 0.104072 1.306857 0.257580 -0.503517 -0.794186 0.896875
908 1.056422 -0.594151 -0.306310 1.103699 -0.019281 0.410765 -0.733535 -0.783999 0.687009 0.193460 -0.184880 -1.185116 0.034426 0.147534 1.139642 0.166413 0.391445 0.019732 0.823433 0.413690 -0.225683 -0.501742 0.079112 -0.049826 0.277853 0.033404 0.634143 0.081299 0.767289 -0.024838 -0.220340 0.878284
729 0.383929 0.565160 -0.462093 0.890238 0.820123 -0.290927 -0.240241 -0.522110 0.078576 0.206851 0.130182 -0.864350 0.633544 0.172210 -0.291922 0.502018 -0.480387 -0.110042 0.699037 0.269278 0.052855 -1.069382 0.409040 0.072144 0.722433 0.195214 1.440287 0.375729 0.770164 0.749066 -0.168465 0.981261
3041 0.315097 0.008362 -0.488292 0.286228 0.517174 0.605745 0.165138 -0.842559 0.429561 0.415255 0.154753 -0.792901 0.534142 -0.381441 0.244337 0.549265 0.418070 0.224103 0.306599 1.020693 0.343048 -0.548559 -0.690045 0.150331 -0.298742 -0.507856 0.061227 1.642101 0.183068 0.323224 -0.417972 0.796498
601 0.548531 -0.823351 -0.241678 -0.462539 0.417593 0.624999 -0.322059 -0.670451 0.508433 -0.226000 -0.205128 -0.667673 0.425869 0.074795 -0.178906 0.526577 -0.095079 -0.451646 0.216197 0.931433 0.131733 -0.675355 -0.271564 0.075087 -0.037638 -0.938809 0.344436 1.028670 -0.145106 -0.160179 -0.505242 0.885177
897 -0.615537 -0.125303 -0.890403 -0.458847 1.005655 0.348732 -0.512839 -0.783276 0.632541 -0.099767 -0.739424 -0.505445 -0.000348 0.652936 -0.503596 0.011166 -0.449482 -0.802981 1.012527 0.429010 -0.505076 -0.503390 -0.554699 -0.861615 0.038625 0.016787 0.521639 -0.411976 0.261163 1.004382 0.725027 1.502395
1644 0.701549 -0.523441 -0.300880 -0.059372 0.269702 0.821764 -0.045428 -0.593377 0.404687 -0.121887 -0.072427 -0.801147 0.368197 -0.041622 -0.188254 0.449242 -0.089930 -0.110011 0.315835 1.157387 0.468273 -0.665867 -0.420301 0.062600 -0.108041 -1.044564 -0.119049 1.242633 0.214529 0.175151 -0.473828 0.782992
4815 -0.201328 0.291065 0.317562 0.512056 0.306596 -0.233606 -0.381469 -0.558085 0.582716 -0.121856 -0.666662 -0.274438 -0.490672 0.012069 0.011876 0.501683 -0.695432 -0.458113 0.473628 -0.061942 0.036685 -0.265481 0.275046 0.413994 -0.015039 -0.457861 0.504109 0.654657 0.435932 0.463731 -0.465326 1.527972
518 -0.191687 0.000563 0.448828 0.298192 0.255162 -0.202718 -0.551582 -0.658400 0.522145 -0.268970 -0.636428 -0.294805 -0.319872 0.235405 -0.052996 0.388206 -0.489235 -0.280949 0.451791 0.131809 0.061779 -0.138854 0.207115 0.488399 -0.033742 -0.421461 0.497556 0.460865 0.281815 0.310121 -0.785014 1.463858
462 0.104484 0.609905 -0.670797 -0.740569 0.207317 0.035869 -0.450605 -0.748757 -0.412331 -0.061954 -0.061183 -1.454870 -0.236919 0.621652 0.668733 0.808378 1.053651 0.676121 0.709646 -0.722011 -0.176915 -0.306101 0.361192 -0.092267 -0.605794 -1.401583 -0.126804 0.815968 1.427760 1.283962 -0.218150 0.219019
438 -0.514930 -0.107303 -0.176837 -0.435251 0.992185 0.647848 -0.242722 -0.357208 1.317460 0.160465 0.266006 -0.339671 1.237974 -0.394006 0.164714 0.946453 0.082885 -0.981786 0.404124 0.261543 0.430109 0.199695 0.210841 -0.380538 -0.180897 -0.941496 0.383188 0.904845 -0.125659 0.392107 -1.204964 0.378810
580 -0.242385 0.538098 0.253304 0.368427 0.628079 -0.366552 -0.313166 -0.556314 0.492070 -0.135833 -0.552882 -0.315696 -0.597892 0.161261 0.087897 0.547053 -0.574273 -0.103831 0.523909 0.065772 0.129183 -0.479245 0.195639 0.221337 0.102007 -0.382503 0.748682 0.587223 0.441603 0.443380 -0.643239 1.577078
2443 0.726361 -0.569482 0.035051 -0.222848 0.297297 0.592584 -0.456935 -0.302700 0.569170 -0.221747 0.128231 -0.921424 0.246683 0.056080 -0.186834 0.733849 -0.403560 -0.096695 -0.034998 1.050665 0.088747 -0.923040 -0.120625 -0.031542 -0.314865 -1.078717 0.368542 0.828390 -0.009637 -0.066465 -0.708651 0.817366
1150 0.590304 -0.776444 -0.324183 -0.411477 0.342698 0.655950 -0.356143 -0.522416 0.387092 -0.122281 -0.297391 -0.783126 0.333487 -0.058194 -0.270603 0.503832 -0.293269 -0.454969 0.340159 0.945791 0.087115 -0.833838 -0.370780 0.121928 -0.256576 -0.942705 0.220467 0.972778 0.197814 -0.115376 -0.476933 0.820447
337 -0.136954 -0.568826 -0.091118 -0.497354 0.467449 0.342985 -0.354774 -0.316466 0.240135 0.541157 0.467081 -0.712273 -0.234363 -0.411540 0.013620 0.557873 -0.237582 -0.153473 0.713776 0.788878 0.025528 0.123971 -0.117332 0.019353 -0.868161 -0.870708 0.603404 0.992414 0.492397 -0.967388 -0.515381 1.345279
2255 0.176689 -0.720989 0.351487 0.549590 0.834238 0.857772 0.044458 -0.638401 0.463885 0.381098 0.211612 0.012946 1.037053 -0.434334 0.533210 0.482598 -0.204614 -1.106629 0.486852 0.143082 0.633990 0.510626 0.715498 -0.200085 -0.022337 -1.019952 0.084127 0.710130 0.813855 0.380060 -0.675718 0.836656
151 0.830508 -0.876088 0.574398 0.163563 0.859871 1.174778 -0.507840 -1.068614 1.402036 0.653534 0.202813 -0.460064 0.289219 0.721438 -0.535291 0.910252 -0.896917 -1.273661 0.368876 -0.935054 -1.615431 0.767915 0.737093 0.632896 -1.194024 -0.492682 0.809001 0.955924 1.358448 0.064060 -0.318741 -0.271078
1339 0.929196 0.425958 0.186577 -0.213971 0.565291 -0.608374 -0.370274 -0.654833 0.405133 -0.521998 -1.464292 -0.611340 0.453473 0.594745 -0.118313 -0.349119 0.400341 0.224606 0.969908 0.401114 0.154246 -0.455587 -0.099142 -0.339205 -0.749939 -1.954369 1.068598 0.261782 0.239321 0.237852 -0.421141 0.090397
1151 0.106905 -0.712026 -0.491258 -0.517998 0.311560 0.525365 -0.285954 -0.398702 0.355695 -0.002477 0.006461 -0.714209 0.276848 -0.230124 -0.226963 0.614159 -0.143536 -0.411656 0.694172 0.839953 0.201785 -0.571743 -0.431722 -0.000279 -0.520728 -0.954918 0.300243 1.126784 0.191906 -0.548372 -0.562676 1.096596
2330 -0.059710 -0.633124 -0.607383 -0.419299 0.376343 0.322769 -0.333924 -0.308773 0.333382 0.186533 0.255074 -0.572514 0.015977 -0.337924 0.096705 0.689278 0.028712 -0.063846 1.155540 0.870038 0.189548 -0.453399 -0.246647 -0.021809 -0.656925 -0.889027 0.025604 1.235343 0.247305 -0.550456 -0.766051 1.160111
5025 0.708378 -0.412934 -0.298647 0.068680 0.328689 0.579770 -0.323288 -0.444318 0.846000 -0.061844 0.156721 -0.728005 0.052960 -0.193883 0.214997 0.690611 0.247263 -0.182136 0.662044 1.057910 0.193729 -0.738327 -0.524584 0.147951 0.058832 -0.830203 -0.254191 1.107872 0.319701 -0.130861 -0.847418 1.000752
3606 -0.290970 -0.463403 -0.651447 0.104908 0.582501 0.290862 -0.650253 -0.738918 -0.062514 0.711543 -0.156166 -1.247285 0.364004 -0.523968 0.430573 -0.362139 -0.226858 0.040362 0.733189 0.115912 -0.308513 -0.654337 0.029384 0.386803 -0.314281 -0.830889 0.507887 0.723690 0.470631 -0.396778 -0.917764 0.533543
305 0.038615 -0.179534 -0.793599 0.790754 1.210720 -0.649074 -0.490087 -0.975023 0.184847 -0.548686 0.032088 -0.565659 0.639072 -0.072921 -0.596753 0.224263 -0.456309 -0.186479 0.345761 1.093477 0.888301 -0.642943 0.372368 0.263390 -0.050000 -0.725141 0.942329 0.466732 0.434929 -0.247281 0.425935 0.422000
4833 -0.178130 0.020620 0.616769 0.280701 0.667026 -0.362501 -0.136562 -0.765400 0.321162 -0.179100 -0.409122 -0.176808 0.071200 0.014064 0.538368 0.559400 -1.059218 -0.509392 0.327403 0.226325 -0.320374 -0.278121 0.267734 0.158299 0.019573 -0.084793 0.722270 0.777528 0.559647 0.393092 -0.609327 1.353462
744 -0.165202 -0.801503 -0.024734 0.605718 0.471257 0.805121 0.059821 -0.812125 0.983294 0.442346 0.607491 -0.158086 0.955916 -0.294116 0.425371 0.250134 0.403143 -0.856701 0.396153 -0.368697 0.664404 0.101284 0.903446 -0.223919 -0.072359 -1.269902 0.207635 0.734367 0.877010 0.309371 -0.274636 0.862687
1548 0.203829 -0.412974 0.203439 -0.210576 0.347671 0.698375 -0.388653 -0.970319 0.452076 -0.206827 -0.656424 -0.565386 0.282786 -0.240028 -0.238370 0.357518 -0.445516 -0.236060 0.303602 1.113564 -0.159594 -1.066133 0.075381 0.669424 -0.476125 -0.716863 0.455754 0.719039 0.252643 -0.248822 -0.865252 0.554190
3398 0.150927 -0.481787 -0.335242 0.049091 0.123355 -0.053897 -0.532271 -0.172939 0.753665 0.776884 0.261109 -0.669807 -0.131967 -0.717924 -0.360378 0.472358 -0.337724 -0.366900 1.512124 0.282211 0.045721 -0.554549 0.202319 -0.460400 -0.711979 -0.643398 0.350310 1.303400 0.224720 -0.596720 -0.633795 1.006743
81 0.599037 0.053424 -0.327531 -0.504596 0.327809 0.045269 -0.374231 -0.771835 0.115596 0.743960 -0.089385 -0.276904 -0.023425 -0.072860 0.426225 0.812882 0.313866 -0.135396 0.119540 0.802678 0.629253 -0.351682 -0.078177 0.073789 -0.628248 -0.228626 0.170404 1.777668 0.505921 0.279072 -0.187881 0.475901
133 -0.188700 0.638258 -0.495238 0.564653 1.064233 -0.062857 -0.581652 0.110031 -0.068824 -0.301693 0.146565 -0.491340 0.324374 0.616733 -0.124738 0.223339 -0.829964 -0.233009 0.598137 0.341940 -0.154366 -0.762429 0.328012 -0.260878 0.154386 0.041203 1.885565 0.204580 0.651104 0.627043 -0.310930 1.116503
4910 0.003793 -0.390444 -0.426653 -0.383766 0.692756 0.287835 -0.165496 -0.863820 0.579204 0.333589 -0.570724 -0.193873 -0.127416 0.506386 -0.254926 0.513521 -0.456251 -0.386161 0.534289 0.742585 -0.324977 -0.368709 -0.466593 0.252781 0.017909 -0.507287 0.289402 0.125276 -0.318343 0.460305 -0.158614 1.706911
3228 0.602028 0.506353 -0.611343 -0.398136 0.340111 0.105642 -0.442341 -0.559771 0.313748 0.726523 -0.594089 -0.155276 -0.290097 0.279151 0.484200 1.013111 0.413021 0.109217 0.203913 0.640063 0.728630 -0.212495 -0.042863 -0.466330 -0.112904 -0.137634 0.091418 2.228550 0.632499 0.477341 -0.148867 0.626223
515 -0.442393 -0.969442 -0.173451 0.598813 0.577527 0.677073 0.036749 -0.433984 1.219320 0.385709 0.351169 -0.162750 0.560256 -0.486957 0.046006 0.451969 0.473926 -0.969072 0.327217 -0.110492 0.714839 0.035755 1.054377 -0.075670 -0.400406 -0.954563 0.901672 0.707659 0.565483 0.101454 -0.220914 0.832151
14 0.273177 0.427230 -1.057745 -1.113355 0.375678 0.494065 -0.629588 -0.437601 0.210075 0.557060 -0.709423 -0.694739 -0.123015 0.278478 0.563580 0.725762 1.078216 0.509131 0.394227 -0.510155 -0.389393 -0.296932 0.573891 -0.067302 -0.556097 -1.283730 0.263706 1.059770 1.097744 1.645211 -0.471263 0.165835
4970 -0.227777 0.142887 0.638142 0.208233 0.590940 -0.239021 -0.225548 -0.778811 0.530744 -0.262424 -0.348291 -0.327333 -0.063879 0.095809 0.306346 0.670661 -1.036765 -0.374566 0.350085 -0.054687 0.002670 -0.396457 0.470047 0.195008 0.034708 -0.243639 0.796120 0.711736 0.336045 0.487517 -0.511381 1.312613
209 0.189053 -0.641663 -0.413134 -0.637034 0.425245 0.631359 -0.515026 -0.578341 0.441383 -0.188274 0.058667 -0.569704 0.447423 -0.206608 -0.225731 0.663157 -0.191061 -0.540673 0.723865 0.871806 0.236359 -0.652565 -0.359515 -0.011357 -0.088801 -0.942807 0.249557 0.993292 -0.009592 -0.332886 -0.622137 0.969680
2813 -0.404184 -0.340434 0.367308 -0.063379 0.514669 0.392081 -0.331196 -0.935037 0.274149 0.264913 0.557761 -0.443285 0.413356 -0.227514 0.244006 1.144937 -0.533188 -0.135272 0.640051 -0.216901 0.109582 0.681537 0.891875 0.224887 0.491777 -0.255169 0.913423 0.522687 1.215863 -0.623008 -0.293852 1.104102
743 -0.110703 0.094647 0.662082 0.194824 0.673480 -0.297194 -0.151669 -0.659983 0.458934 -0.195135 -0.513527 -0.330233 -0.080439 0.199399 0.211349 0.474855 -0.953438 -0.373057 0.328400 -0.079826 -0.068531 -0.287489 0.403758 0.251476 -0.051405 -0.343708 0.866567 0.816520 0.343108 0.362636 -0.535756 1.385874
118 0.068964 -0.309458 0.555210 0.046505 0.373438 0.687886 -0.265729 -1.113224 0.859948 -0.073942 -0.247510 -0.412808 0.106872 -0.586229 0.119684 -0.099986 -0.375592 -0.299164 0.561995 -0.027947 0.012902 -0.007574 0.575720 -0.111647 0.020057 0.122123 0.646695 0.355135 0.654507 -0.327078 -0.976936 1.188956
299 0.470292 -0.666448 -0.300829 -0.278080 0.329278 0.244385 -0.412561 -0.819649 0.461403 -0.111581 -0.100098 -0.073426 0.593768 0.392134 -0.234978 0.738455 -0.297729 -0.545589 0.549034 0.880962 0.171239 -0.621614 -0.598292 0.361839 -0.255341 -0.283070 0.135209 0.744321 -0.111245 0.323305 -0.512967 1.277845
4189 -0.286543 0.186542 0.331342 0.428815 0.549698 0.022857 -0.236696 -0.653867 0.442064 -0.165553 -0.796172 -0.143869 -0.492622 0.337716 0.191827 0.516163 -0.786498 -0.474740 0.413147 0.051861 -0.012207 -0.534140 0.330409 0.206173 0.015639 -0.315830 0.363118 0.559766 0.422319 0.307102 -0.605627 1.439560
191 0.434730 -0.801832 -0.543191 -0.467337 0.575884 0.943448 -0.287051 -0.250547 0.223274 -0.430694 -0.270480 -0.788850 0.328541 0.007722 -0.489568 0.659083 -0.459920 -0.375585 0.331478 0.755132 0.139404 -0.775888 -0.521608 0.137151 -0.039219 -0.608370 0.245432 1.094097 0.380746 -0.265516 -0.450472 0.713504
129 -0.535501 0.116298 0.248162 -0.635178 0.214740 0.324459 -0.140060 -1.221547 0.879669 -0.775189 0.492644 -0.851310 -0.311249 0.285353 0.372968 -0.272185 0.550112 -0.564369 -0.420506 0.168245 0.818696 -0.575695 0.279284 -1.389979 -0.147679 -0.543494 0.575355 0.556210 0.902045 0.332234 -0.587697 1.344142
303 0.162409 -0.820329 -0.442059 -0.005635 0.512705 0.102922 -0.341780 -0.217890 0.278289 0.600362 -0.009856 -0.559585 0.279954 -0.428757 0.458828 -0.070273 -0.196416 -0.353224 0.847182 0.340558 0.113594 -0.342160 -0.120967 -0.054890 -0.286338 -1.222968 0.229225 1.285328 0.164518 -0.435471 -0.657480 0.949408
87 -0.063564 0.318638 0.317314 -0.148914 1.971749 1.636600 0.232010 -0.542047 0.426686 -0.728936 -0.205671 -0.755873 -0.123489 -0.526631 -0.124226 0.847294 0.059599 -0.164290 1.049028 0.140345 -0.340021 -0.252070 0.338428 -1.973366 -1.066016 -1.221096 0.521131 0.978358 -0.274191 0.104850 -1.052204 -0.017217
1709 -0.142087 0.157308 0.632317 0.126654 0.647646 -0.213758 -0.229417 -0.690805 0.375335 -0.257990 -0.242860 -0.251744 -0.012272 0.209012 0.377983 0.450957 -0.968017 -0.450311 0.467412 -0.077321 -0.126559 -0.362063 0.319047 0.260610 -0.043084 -0.266553 0.717517 0.831079 0.317429 0.315485 -0.572186 1.385201
2435 -0.243902 0.193657 0.507693 0.244827 0.618318 -0.247251 -0.302098 -0.539039 0.266335 -0.263166 -0.228209 -0.395338 -0.075692 0.253087 0.309998 0.336904 -0.962253 -0.363361 0.238922 -0.064269 -0.119428 -0.400965 0.402524 0.268222 -0.105453 -0.015294 0.963084 0.648329 0.502656 0.477110 -0.504683 1.301264
1476 -0.509311 -0.058243 -0.608733 -0.597163 -0.054531 0.155375 -1.017080 -0.800287 -0.376996 0.629241 0.201497 -1.371278 -0.004020 -0.087983 0.445375 -0.189239 0.797446 0.608904 1.419211 -0.316207 -0.237374 -0.517821 0.294692 0.053850 -0.315522 -1.343032 0.762094 1.095582 0.790493 0.725493 -0.851538 0.198264
1233 -0.076547 -0.364528 0.845554 0.018496 0.974647 0.694809 -0.812909 -0.026199 1.173087 -0.717694 0.384382 -0.782176 -0.748581 -0.259552 0.945570 0.270976 -0.189299 -0.257809 -0.240765 1.037127 0.243211 0.127001 -0.168301 -1.104715 -0.782404 -0.967001 0.393827 0.572306 0.798965 0.143913 0.325369 0.607926
5563 -0.131294 0.004074 0.538552 0.230205 0.608074 -0.352721 -0.368203 -0.765550 0.419503 -0.315536 -0.444208 -0.252473 -0.037149 0.148700 0.407296 0.549232 -1.088896 -0.382211 0.411455 -0.079109 -0.118633 -0.292772 0.332674 0.273618 -0.072608 -0.183189 0.708282 0.664370 0.387705 0.416908 -0.601195 1.252650
1068 0.619906 0.252306 -0.451834 -0.743390 0.436152 0.048379 -0.675761 -1.234126 0.541557 0.929126 -0.295967 -0.460189 -0.423263 0.015664 0.282359 0.507061 0.211602 -0.620214 -0.201669 0.308720 0.839742 0.369709 -0.170896 -0.201632 -0.559880 -0.277284 0.307055 1.702593 0.352522 0.559537 -0.213686 0.168736
3251 0.438185 -0.670447 -0.927232 -0.181900 0.853123 -0.127304 -0.042528 -0.767278 0.293564 0.774201 0.030465 -0.690714 -0.306016 -0.045285 0.236774 -0.414677 -0.570758 0.082504 0.366203 0.038797 -0.201306 -0.308226 0.053337 -0.080544 -0.346335 -1.074231 0.115117 1.035477 -0.058000 -0.086547 -0.874388 1.042805
583 0.511111 -0.723308 0.121247 1.207116 0.975553 0.536716 -1.367747 -0.952806 0.692862 -0.257099 -0.371944 -1.347989 -0.459840 0.818859 0.220957 -0.107344 0.132269 0.253311 0.329772 -0.326191 0.337980 -0.109996 0.599806 0.386315 -0.113994 0.631612 0.942669 0.767040 0.051445 0.314977 -0.191179 0.803723
76 0.738886 -0.108441 0.669680 0.165509 0.977390 -0.762590 -0.088449 -0.784017 0.667911 -0.148876 -0.712225 -0.047959 0.417148 0.740364 0.740723 0.087389 0.766519 -0.081887 0.221358 0.326765 -0.638044 -0.808717 -0.559998 -0.556614 -0.705439 -1.090449 0.526724 0.898155 0.375123 -0.494050 0.268238 0.607195
2656 -0.253532 0.771021 0.352965 0.732439 0.793771 0.156281 -0.557457 -0.391214 0.051513 -0.709120 -0.850387 -0.957065 -0.080333 -0.020833 0.098286 0.831831 -0.652832 -0.614938 -0.014359 -0.209598 -0.881516 -0.656906 -0.060847 0.503551 -0.362824 -0.446363 0.946616 0.370194 0.204090 -0.253194 -0.568756 1.072582
4235 0.490016 -0.696147 -0.188911 -0.545511 0.346733 0.523479 -0.178209 -0.669898 0.695439 -0.116191 -0.025046 -0.849097 0.358365 0.137896 -0.348644 0.483929 -0.467571 -0.193576 0.335509 1.130900 -0.065788 -0.850859 -0.161493 0.336016 -0.550055 -0.957134 0.425442 1.126919 0.285843 -0.383243 -0.776147 0.685944
136 0.021715 -0.522096 0.094597 0.292476 0.970555 0.850470 0.039186 -0.731440 0.229813 0.501847 0.234491 0.181678 0.419972 -0.667444 0.242070 0.767385 -0.204458 -1.332221 0.235416 0.281867 0.645428 -0.217023 1.076726 -0.260299 0.042284 -0.861363 0.289549 0.858126 0.471003 0.405611 -0.790411 0.934897
135 -0.460262 0.153239 0.199328 -0.624254 0.107079 0.560215 -0.622763 -1.279045 1.085436 -0.831887 0.826577 -0.847559 -0.486355 0.377636 0.418248 -0.124361 0.010670 -0.560995 0.116984 -0.081261 0.905614 -0.334617 0.516450 -1.134724 -0.162923 -0.816668 0.985271 0.418629 1.202474 -0.619140 -0.092006 1.056589
607 0.083010 -0.362834 0.299486 0.132599 0.092019 0.267300 -0.849614 -0.874321 0.547756 0.334711 0.224677 -0.557561 0.101308 -0.282967 0.308868 0.421412 -0.519166 -0.238214 0.779201 -0.014918 0.015605 0.346764 0.793330 0.142264 0.181199 -0.120284 0.886481 0.415091 0.967807 -0.890978 -0.499609 1.223272
1631 -0.206373 1.101086 0.263586 0.796326 1.107542 -0.198024 -0.436848 -0.914398 0.037458 -0.193597 -0.631145 -0.750619 0.165104 0.025028 0.020409 0.726443 -0.375628 -0.630587 -0.002899 -0.468955 -0.524064 -0.669728 0.103730 0.242668 -0.200978 -0.235915 0.869572 0.681554 0.211087 0.093816 -0.381505 1.822180
458 0.313477 -0.918445 0.261617 -0.492357 -0.084296 -0.247636 -0.345228 -0.817484 -0.042300 -0.561959 0.037268 -0.141670 0.596604 0.199907 -0.720625 0.502063 -0.193668 -0.030217 0.631260 0.768742 -0.000249 -0.709301 -0.224294 0.020324 0.644550 -0.411942 0.533247 1.170026 0.326779 0.438089 -0.735380 1.215637
165 -0.271334 0.182296 -1.136352 0.361713 1.377928 1.060079 -1.631057 -1.237229 -0.133141 0.110506 -0.885675 -0.429585 1.035532 1.264716 0.404733 1.441299 -0.439533 -0.884724 0.425827 -0.773853 -0.513530 -0.144299 1.057819 -0.470168 0.291688 -1.141669 -0.233963 1.095583 0.384407 -0.185252 0.670561 -0.343569
4591 0.470140 -0.765928 -0.361989 -0.475730 0.326156 0.400006 -0.336685 -0.654993 0.811499 -0.064561 -0.049451 -0.637785 0.430874 0.049466 -0.285830 0.560133 -0.509719 -0.190439 0.429912 1.091862 0.067811 -0.744960 -0.053775 0.240208 -0.457367 -1.009490 0.306495 1.115318 0.167010 -0.332006 -0.853382 0.440335
368 1.155736 -0.716496 0.473864 0.093796 1.100507 1.167018 -0.676325 -1.079425 1.227906 0.556468 0.027858 -0.384762 0.212496 0.965309 -0.352662 0.999669 -1.078518 -1.291845 0.384312 -0.689141 -2.041468 0.611569 0.540682 0.433563 -1.436122 -0.477865 0.630488 1.148606 1.369000 0.140233 -0.281210 -0.518837
3996 0.199560 -0.248399 -0.197073 0.082514 0.793922 0.132763 -0.210523 -0.559552 0.793978 0.152540 -0.518703 0.042582 -0.044772 0.759218 0.467723 -0.219431 -0.969907 -0.432317 0.428534 0.441375 -0.735231 -0.142523 -0.539941 0.093441 0.377911 -0.625485 0.647733 0.793134 -0.019988 0.255743 0.221836 1.580060
1521 0.275453 -0.508923 -0.202221 -0.573352 0.613694 0.429245 -0.261862 -0.933779 1.047957 -0.142185 0.039637 -1.218434 0.432594 0.361804 -0.366665 0.925953 -0.499357 0.164334 0.493693 1.080242 0.303153 -0.900936 0.215274 0.270115 -0.428127 -0.694074 0.077179 1.037239 -0.141515 -0.164081 -0.743386 0.219107
45 0.466361 0.571660 -0.836144 -0.668685 0.173881 0.369278 -0.236129 -0.365919 0.135536 0.407117 -0.502569 -0.715884 0.036168 0.334169 0.188131 0.873900 1.288335 0.140075 0.420404 -0.811202 -0.268019 -0.493655 0.061603 0.264590 -0.855597 -1.224365 0.271411 1.210918 1.124261 1.548958 -0.248124 0.294097
490 -0.124826 -0.232711 0.455420 0.501079 0.886515 -0.325049 -1.754666 -1.581413 -0.171180 -0.437550 -0.482226 0.239422 0.309401 0.195011 -0.620325 0.696373 -0.180155 0.615146 0.121775 0.988803 0.105308 0.562296 -0.253676 -0.580347 0.002435 -0.133184 0.396503 0.595931 1.578091 -0.209637 -0.439191 0.184134
3253 0.454354 -0.643118 -0.352029 -0.474518 0.424140 0.357577 -0.406237 -0.686948 0.926455 -0.124136 0.284682 -0.775854 0.151066 -0.056187 -0.265912 0.736281 -0.240745 -0.286472 0.396749 1.069760 -0.007515 -1.018265 -0.117644 0.304543 -0.553894 -0.813521 0.190514 0.957706 0.071166 -0.131847 -0.558258 0.660670
296 -0.141962 -0.219912 0.021286 -0.551063 0.472405 -0.231845 -0.789415 -0.608090 0.254252 -0.818828 0.089403 -0.463866 0.647365 0.555102 -0.591438 -0.147060 0.225276 -0.194813 0.370270 1.024304 0.301731 -0.714572 -0.004320 -0.606835 0.081631 0.051169 0.122620 0.929722 0.137881 0.266378 -1.045702 1.465874
1199 0.306868 -0.427691 -0.324776 0.306601 0.589823 -0.788273 0.015526 -1.045817 0.100275 -0.735893 0.632183 -1.320791 -0.601995 -0.014381 0.203882 0.135876 -0.691612 -0.336575 0.991161 0.401275 0.154816 -0.093421 0.158200 0.316903 -0.879622 -0.265035 -0.480020 0.910931 0.707993 0.208526 0.185825 1.256053
109 -0.055489 0.685284 -0.500655 0.096571 0.711933 0.546449 -0.568414 -0.692901 0.632713 -0.496124 -0.039470 -0.497246 0.170134 -0.076651 -0.305729 -0.597584 -0.817085 -1.055969 0.655575 0.373714 -0.261142 -1.023001 0.132398 -0.435807 0.686207 -0.069996 1.180881 0.074936 0.603773 0.804598 0.013212 1.073491
727 1.339645 0.292337 0.305830 0.222667 0.752963 -0.031943 -0.097062 -1.656810 0.401022 0.286362 0.203808 0.003515 0.456432 -0.028295 0.316819 0.684017 0.808604 0.240159 0.594291 0.115984 -0.459560 -0.839172 -0.404597 -0.565570 -0.843549 -0.828021 -0.001196 1.376631 0.290332 -0.389206 0.361518 -0.183316
481 -0.061688 1.020264 0.273131 0.615460 0.587988 -0.106550 -0.578222 -1.099602 0.217807 -0.612059 -0.584985 -0.694154 -0.085410 -0.027363 0.274075 0.522845 -0.333939 -1.035296 -0.112678 -0.529164 -0.530745 -0.548116 -0.158627 -0.015469 0.123638 -0.433713 0.859610 0.614320 0.086676 0.090590 -0.437241 1.794874
1254 -0.409293 0.041173 -0.418177 0.524166 0.455040 0.277699 -0.819978 -0.874409 0.305937 0.142871 -0.901943 -1.167190 0.381394 -0.442880 -0.000296 -0.171156 -0.640512 -0.433027 0.845776 0.681248 -0.607023 -0.995594 0.320711 0.663115 -0.369765 -0.453012 0.893164 -0.075344 0.517480 -0.260582 -0.491762 0.328471
405 1.496333 0.426632 0.501929 0.549795 1.345165 -0.203693 -0.284233 -1.607870 0.541708 0.005895 -0.037245 0.328278 0.401066 0.131379 0.149193 0.558764 1.129115 0.317922 0.183472 0.564974 -1.067054 -0.399774 -0.013838 -0.655493 -0.755778 -1.396251 0.066778 1.317996 0.261959 -0.238752 0.412509 0.041421
858 0.213344 -0.042188 0.191077 -0.537868 0.411515 -0.338898 -1.987784 -1.347961 -0.045533 -0.067339 -0.343438 -0.198189 0.241363 -0.155468 -0.264941 0.316091 -0.009615 0.255360 -0.005915 0.659618 0.274375 0.427502 -0.122432 -0.218137 0.185260 -0.298523 0.295422 1.467780 0.828336 -0.137778 0.170203 0.504131
787 0.219426 -0.822661 -0.398923 -0.580577 0.088271 0.663482 -0.345146 -0.893934 0.603149 -0.083961 -0.068864 -0.877386 0.231256 0.222342 -0.275206 0.465399 -0.166815 -0.644740 0.083388 0.709239 0.331371 -0.909860 -0.290882 0.154419 -0.207311 -0.797932 0.220812 1.233776 0.129636 -0.245099 -0.353595 0.905693
4183 -0.043848 0.469052 -0.762205 0.441974 0.926341 -0.398047 -0.431202 -0.461751 0.095193 -0.478319 0.121072 -0.567830 0.877749 0.159652 -0.436205 -0.043702 -0.604466 -0.333904 0.720802 0.288913 -0.186020 -1.257893 0.271373 -0.338738 0.360671 -0.025561 1.428514 0.216143 0.882478 0.753100 -0.012352 1.104698
63 0.114214 -0.170628 0.313500 -0.590892 0.044160 -0.128275 -2.011013 -1.193242 0.145977 -0.137122 -0.087803 -0.974315 0.391216 -0.242754 0.060476 -0.181170 -0.351295 0.206832 0.599178 0.726168 -0.001332 0.033863 -0.089950 -0.537683 0.852111 -0.749952 0.178834 1.025279 0.684915 -0.189765 -0.102505 0.905509
413 -0.044986 -0.752133 -0.092655 1.060143 -1.670258 0.817027 -0.972891 -1.200997 0.479787 -0.381014 -0.190322 -1.013895 0.856433 0.785829 -0.813139 0.830845 0.159491 -0.692204 -0.065810 0.261160 -0.167707 -0.102464 0.287726 -0.097631 -0.476015 0.232532 0.251987 1.076605 1.337806 0.219799 -1.206203 1.484092
1302 -0.247241 0.923540 0.411989 0.766557 0.805895 -0.216114 -0.380503 -0.774148 0.068951 -0.411411 -0.761293 -0.817342 0.212362 0.089719 0.024511 0.746805 -0.300536 -0.780520 0.089373 -0.421562 -0.579564 -0.473729 0.031351 0.137951 -0.008516 -0.093127 0.856655 0.761689 0.139690 -0.058159 -0.399974 1.710923
3960 0.636905 -0.643031 -0.005392 -0.435268 0.356763 0.582507 -0.183903 -0.659376 0.556020 -0.188488 0.091732 -0.858491 0.336455 0.107216 -0.309626 0.521198 -0.217586 -0.277243 0.389972 1.221528 0.012792 -0.831410 -0.491098 0.190234 -0.228782 -0.843816 0.355685 0.926777 0.250992 0.003679 -0.525992 0.782902
675 0.943707 -0.187766 -0.655962 0.424683 -0.692587 0.736350 0.125887 -1.122816 0.133848 -0.147670 -0.656143 -0.641434 1.324940 0.281970 -0.598126 -0.507273 0.314258 -0.050218 1.042343 1.259066 -0.829692 -0.019942 1.076107 -2.647406 -0.712218 -2.115544 1.715195 1.281487 1.188173 -0.236658 -1.070227 -0.128249
1005 0.620511 -0.357337 -0.390713 -0.011046 0.287973 0.624581 -0.099609 -0.768236 0.338967 0.675911 0.133280 -0.483203 0.755854 -0.278197 0.153307 0.522282 0.232817 -0.062308 0.273257 0.631146 0.668487 -0.673906 -0.212704 0.065123 -0.462271 -0.834807 -0.152080 1.549566 0.386394 0.180361 -0.499587 0.825037
3209 -0.354650 0.916712 0.407199 0.705765 0.791250 0.034212 -0.471348 -0.890422 0.108975 -0.353296 -0.703788 -0.649832 0.196196 0.001426 0.119943 0.819979 -0.414817 -0.914590 -0.024399 -0.558208 -0.491168 -0.284578 0.057208 0.302657 -0.281001 -0.108407 0.723327 1.000240 0.107006 -0.098979 -0.314863 1.765977
2253 -0.379581 -0.247338 -0.136796 0.052833 0.875732 0.048951 -0.233334 -0.727443 0.733957 0.742269 -0.725434 0.072546 -0.422678 0.973730 0.095236 0.036523 -0.810464 -0.231430 0.408493 0.237003 -0.796397 -0.362404 -0.128338 0.026119 0.175916 -0.422458 0.299578 0.667677 -0.006586 0.360496 -0.125233 1.601257
6152 -0.182967 -0.820759 -0.722069 -0.167806 0.386266 -0.004061 -0.600476 -0.699654 0.129658 0.711159 0.202301 -0.907399 0.434079 -0.199101 0.536913 -0.342346 -0.143149 0.288133 0.834769 0.129646 -0.122034 -0.635359 -0.037566 0.132767 -0.076405 -0.952063 0.492765 0.987349 0.287546 -0.029780 -0.930623 0.735287
835 -1.082458 -0.833185 -0.258859 0.025463 -0.082803 0.921696 -0.623078 -1.261961 0.783504 -0.654815 -0.708799 -0.685824 0.151382 -0.173776 -0.782784 0.619762 -0.908599 -0.855005 0.890551 -0.066725 -1.041470 0.073653 0.008600 -0.691116 -0.044049 0.236022 1.033533 -0.208224 0.404809 0.379630 0.592213 0.873227
251 -0.303181 0.544013 -0.699957 -1.015397 0.255464 0.549089 -0.423250 -0.864562 0.663279 -0.832043 0.516705 -1.153017 -0.303498 0.576003 0.702002 0.542724 1.237705 -0.092072 -0.064676 -0.742371 0.389159 -0.818873 0.216939 -0.362383 -0.627191 -1.174230 0.153294 0.504098 1.402075 1.611429 -0.129411 0.675409
274 0.562182 0.528959 -0.101768 -1.024747 0.344453 0.205984 -0.590843 -0.496897 0.052982 0.573105 -0.423963 -0.282539 -0.330243 0.043969 0.658634 0.814882 0.648767 -0.073320 0.072519 0.307979 0.469791 0.008348 -0.278161 0.013820 -0.278588 -0.544337 0.241792 1.611544 0.954179 1.015327 -0.131152 0.483972
1567 0.318209 -0.601178 -0.133356 -0.436261 0.420664 0.421900 -0.276514 -0.814231 0.988610 -0.102621 -0.137285 -1.105093 0.405466 0.232570 -0.612656 0.842260 -0.362553 -0.030936 0.629222 1.167372 0.119945 -0.854887 0.222295 0.486375 -0.376334 -0.783947 0.129797 1.082878 -0.220032 -0.110221 -0.749668 0.164171
410 0.463238 -0.656596 0.986930 -0.711927 0.484074 -0.159961 -0.164782 -0.705790 0.657547 0.004762 -0.532965 -0.910406 0.197977 0.884615 0.168388 -0.292113 0.667714 -0.583773 -0.450665 0.547106 -0.225102 -0.888334 -0.478955 -0.746471 -0.077957 -0.430002 0.358268 0.869811 0.789354 -0.316870 -0.475053 1.200983
5103 -0.208152 -0.670545 -0.735059 -0.108525 0.521736 0.143449 -0.342576 -0.446620 0.197352 0.662785 0.271601 -0.710951 0.018729 -0.433326 0.218714 0.060942 -0.209502 0.013388 0.844359 0.405348 0.016883 -0.417367 -0.077631 0.045062 -0.814547 -1.023930 0.158492 1.244025 0.208099 -0.512960 -0.899436 1.006566
700 -0.057195 -0.014987 0.348931 0.380327 1.032943 -0.367869 -1.570958 -1.998107 -0.073472 -0.612224 -0.240623 0.389609 0.615910 -0.118843 -0.587350 0.514301 -0.284373 0.461334 0.252409 0.715094 0.194805 0.156179 -0.152001 0.068526 0.094121 -0.389373 0.698895 1.159018 0.774652 -0.270172 0.040172 0.288063
2918 -0.051592 -0.179157 0.000134 0.059978 1.231629 0.739135 -0.126064 -0.906556 1.058365 0.402669 0.029442 0.012057 0.821451 -0.561043 0.330995 0.988930 -0.155430 -1.064468 0.168756 0.124165 0.832742 0.518987 0.829832 -0.275662 -0.035332 -0.503140 0.418352 0.835589 0.440180 0.561431 -1.099360 0.537932
186 1.136206 -0.732767 -0.371480 0.505031 -0.060613 0.151975 -0.829627 -0.836691 0.835723 -0.593245 0.142467 -0.964679 0.106065 0.483047 0.626442 0.246460 0.526359 -0.254187 1.232105 0.046827 -0.328826 -0.231989 0.029985 0.501293 0.461565 -0.003877 -0.372844 -0.148774 1.134143 0.296300 -0.894662 0.982539
842 0.906854 -0.532072 -0.414943 0.310150 0.614757 -0.524926 -0.147230 -0.983561 0.307574 -0.873158 0.640390 -1.652511 -0.215774 0.370335 0.652353 0.328263 -0.312173 0.083087 1.161446 -0.076551 -0.092564 -0.028243 0.228564 0.214949 -0.946171 -0.376464 -0.734482 0.339620 1.027780 0.482951 0.321116 1.176139
2450 -0.444327 -0.834598 0.197613 0.768614 0.281492 -0.324795 -2.041344 -1.134892 0.516560 -0.823646 -0.566624 0.036488 0.525881 0.738426 -0.930661 0.590581 0.182670 0.127839 -0.148210 0.810225 0.202107 0.396423 -0.472146 -0.591097 -1.026197 -0.510660 0.037254 0.500321 1.627421 -0.279254 -0.672141 0.459716
619 0.256438 -0.455412 0.370100 -0.751935 0.204519 -0.336007 -1.957283 -0.981026 0.015709 -0.453404 -0.681515 -0.511458 0.376543 -0.186347 0.125285 0.274207 -0.036906 0.252716 0.391127 0.734459 -0.155133 0.174634 0.449932 -0.728182 0.649773 -0.500322 0.002199 1.181910 0.541251 -0.271404 0.220440 1.049759
617 0.211916 -0.301092 0.350155 -0.671959 0.152546 -0.323569 -2.110705 -0.937347 0.055291 -0.145377 -0.285058 -0.736597 0.557158 0.079119 -0.252274 0.161514 -0.236286 0.024936 0.504200 0.972248 0.200906 0.379526 0.377391 -0.640479 0.584228 -0.267512 0.033820 1.264084 0.804932 -0.189455 0.007751 1.154159
3544 0.676178 -0.813414 -0.272937 -0.452997 0.402905 0.545618 -0.315034 -0.635727 0.671565 -0.205238 0.166948 -0.638321 0.416061 0.079720 -0.232956 0.489362 -0.348216 -0.212600 0.360940 1.053772 0.006931 -0.820624 -0.189400 0.138629 -0.409232 -0.873424 0.539718 0.952099 0.025032 -0.132920 -0.642351 0.698319
643 0.054685 -0.554601 0.034398 -0.196173 1.033255 1.132352 -0.104061 -0.617233 0.550055 0.046108 0.255349 -0.145541 0.832472 -0.187312 -0.057181 1.026360 -0.328762 -1.323019 0.589717 0.489608 0.311420 0.352820 0.286748 -0.239511 0.394285 -0.503356 0.263158 0.436303 0.001507 0.365351 -1.165926 0.693536
286 -0.445556 0.354503 -0.553596 -0.931113 0.360378 0.221212 -0.437724 -1.018767 -0.033732 0.627284 -0.335996 -1.234541 -0.332873 0.669829 0.328125 0.419984 0.774260 0.749161 1.194580 -1.145123 -0.585189 -0.337752 0.046134 -0.205216 -0.022620 -1.867504 0.068886 0.738386 1.470269 0.975891 -0.236401 0.181153
1427 0.166019 -1.060280 -0.025729 0.546510 0.693856 0.924300 0.086721 -0.626110 0.610498 0.223451 0.749832 -0.015323 0.675067 -0.515765 0.210939 0.166415 0.246689 -0.676749 0.328290 -0.182163 0.628169 0.151914 1.128346 0.176129 -0.419859 -1.228865 0.313640 0.965830 0.561152 0.295645 -0.373728 0.961264
3173 0.862639 0.033386 0.119758 0.096928 1.212438 -0.704663 -0.447777 -1.192668 0.549195 -0.780078 -1.100758 0.278127 0.660491 1.073286 0.960628 0.094975 0.974343 -0.249738 0.531402 0.181314 -0.674165 -1.040513 -0.758587 -0.981331 -1.179914 -1.520902 0.783242 0.169824 0.783886 -0.345474 0.212979 0.647141
1329 0.208011 -0.384712 -0.914916 -0.156903 0.877748 -0.099563 -0.073853 -0.625917 0.405498 0.664137 -0.631465 -0.294743 -0.604433 0.649122 -0.063300 -0.126836 -0.906894 -0.133960 0.210352 0.063621 -0.398121 0.110732 -0.232369 0.052216 -0.069530 -0.904568 0.690003 0.778379 -0.333307 0.255304 -0.498282 1.347327
1117 0.285629 -0.027881 0.941602 -0.188177 0.052902 -0.115381 -0.395065 -0.460400 0.342000 -0.303454 -0.901953 -0.257491 -0.277866 0.403245 0.556674 0.582941 -0.415229 -0.672624 0.685942 0.327466 0.319533 -0.470497 -0.076496 0.258993 -0.482174 -0.089638 0.887847 1.220302 0.136119 0.415945 -0.118837 1.093296
225 0.463358 0.726463 -0.280407 0.333102 0.329287 0.226871 -0.889919 -1.478801 0.779137 -0.655821 0.194763 -0.963168 -0.572222 -0.254105 0.627106 -0.522468 -0.460401 -0.990565 0.358824 -0.282955 0.264975 -0.778755 -0.007797 -0.937450 0.704815 -0.094240 0.599850 0.180226 0.540450 0.325056 -0.045192 1.289976
2518 0.116648 -0.333840 0.380796 0.600973 1.074343 -0.543303 -0.053826 0.258088 0.770227 -0.842602 0.025927 -0.479524 0.866276 0.671425 0.902142 0.104174 -0.754567 -0.514684 1.303903 -0.589520 -0.403696 -0.338473 0.555011 0.016477 -0.817298 -0.371089 -0.013626 0.419766 0.597282 0.718423 0.086041 1.534851
1126 -0.704458 -0.031898 -0.159438 -0.126709 1.127640 0.704697 -0.365870 -0.802251 1.462416 0.247411 0.318562 -0.179225 1.281848 -0.346043 0.067711 1.034031 0.177005 -1.210439 0.414696 0.083867 0.752058 0.595195 0.408070 -0.471881 -0.303887 -0.783787 0.400304 1.073288 0.307626 0.568166 -1.224024 0.179110
1498 -0.651117 -0.164297 0.102865 0.312562 0.977915 0.112137 -0.700197 -0.514267 1.290157 1.335645 -1.476062 0.136606 -0.144476 1.057199 -0.030331 -0.140567 0.134187 -0.278567 0.532372 0.032410 -1.757453 -0.379712 0.420164 -0.515947 0.141064 -0.249661 0.136540 1.013557 0.773478 0.942106 0.852512 1.365113
1118 0.509827 -0.161672 0.552464 0.119603 0.119339 -0.089571 -0.423798 -0.467285 0.450383 -0.392007 -1.041425 -0.412275 -0.110392 0.375881 0.253487 0.392540 -0.544409 -0.659590 0.359454 0.297243 0.678616 -0.326927 -0.196037 0.329321 -0.373930 -0.205115 0.703149 1.056057 0.455527 0.383898 0.177463 1.165488
285 0.095403 0.398488 -0.729200 -1.010411 0.575121 0.593277 -0.391385 -0.419895 0.002624 0.258152 -0.519012 -0.962142 -0.259707 0.347597 0.243708 0.427967 0.889511 0.908908 0.949805 -0.929147 -0.220345 -0.208355 0.251180 -0.188949 -0.494935 -1.838800 0.418750 0.688162 1.054542 1.157219 -0.319851 0.141651
1866 -0.268338 0.224708 -1.113283 0.459406 1.439268 0.991646 -1.635763 -1.117155 -0.169232 0.070880 -0.915284 -0.367073 1.027749 1.249201 0.363204 1.297722 -0.513843 -0.890836 0.364362 -0.617446 -0.417300 -0.086472 1.068063 -0.549327 0.169735 -1.092343 -0.281439 1.057571 0.522703 -0.242952 0.574384 -0.373677
70 0.188543 -0.099491 0.491962 -0.184826 0.342382 -0.176049 -1.351952 -0.530712 0.723564 0.069990 -0.364061 -0.834193 0.092398 -0.326656 -0.875537 0.136378 -0.327844 0.086676 0.926737 0.336746 0.371914 0.260880 0.986184 -0.366180 0.147135 -0.136206 0.340076 0.715354 0.929714 -0.669872 -0.049352 1.662305
3100 -0.333746 -0.039358 -0.902835 0.741308 0.824874 -0.788021 -0.320016 -0.444786 0.054636 -0.171215 -0.039161 -0.745701 0.797231 -0.150756 -0.050346 -0.103425 0.027665 -0.080660 0.626065 0.558948 0.184581 -1.114274 0.399513 -0.002253 0.464387 -0.835879 1.668705 0.380773 0.653382 0.254690 0.347080 0.563550
524 -0.086586 0.503663 -1.222509 1.093041 0.746152 0.639986 -1.298267 -1.215030 -0.288330 0.104345 -0.684687 -0.140040 0.676664 0.987489 -0.681056 0.513555 0.048462 -0.318706 0.298673 0.109115 0.406705 -1.045862 1.364201 -0.371822 -0.240775 -1.533558 0.484124 0.664609 0.818675 -0.229760 1.260721 0.210804
1059 -0.320318 0.858006 0.407124 0.700657 0.637313 -0.257361 -0.564465 -0.867328 0.250209 -0.438124 -0.685500 -0.643074 0.008026 0.154195 0.145870 0.754347 -0.369422 -0.939607 0.064997 -0.554936 -0.634729 -0.455853 -0.023136 0.266300 -0.107332 -0.331949 0.778183 0.657485 0.084985 0.043643 -0.430611 1.656507
99 1.039550 -0.726857 0.519471 0.125718 1.096907 1.215304 -0.710413 -1.098174 1.254295 0.561879 0.059527 -0.475542 0.183733 1.045094 -0.339708 1.020172 -0.997255 -1.255042 0.267381 -0.724408 -1.899554 0.702634 0.502028 0.453940 -1.479926 -0.451884 0.727409 1.057305 1.370539 0.140386 -0.249705 -0.488640
407 -0.148405 0.181918 -1.320567 0.747522 1.385531 0.880054 -1.631485 -1.136878 -0.040616 -0.038582 -0.737528 -0.149766 0.935532 1.222744 0.070865 1.088485 -0.415099 -0.637327 0.260882 -0.301670 -0.106462 -0.250741 0.979284 -0.360557 0.094045 -1.385983 -0.202659 0.999453 0.550592 -0.281067 0.767482 -0.544728
365 0.359482 -0.355357 0.274220 0.234014 1.001122 0.884187 -0.078285 -1.018369 0.655830 -0.167312 -0.310393 0.230419 0.774873 -0.659804 0.626386 0.367170 -0.501093 -1.067928 0.257705 0.379926 0.270838 0.532133 1.025849 -0.315644 0.200236 -0.099778 0.567858 0.641971 0.624720 0.101647 -1.019361 0.965866
2599 0.240380 -0.444247 -0.309978 -0.101699 0.396469 0.443926 0.196002 -0.849004 0.736978 -0.131063 0.055189 -1.316439 0.188668 -0.319081 -0.194141 0.673423 0.057951 -0.009578 0.678895 1.027761 0.456030 -0.553186 -0.505089 0.148988 -0.327442 -0.907983 -0.057935 1.409063 -0.034303 0.051744 -0.677789 0.786071
213 0.246222 -0.371007 -0.461961 0.111371 0.705774 0.077339 0.051645 -1.041596 0.770051 0.518723 -0.679276 -0.206938 -0.237138 0.957482 -0.049563 0.088066 -0.889254 -0.049955 0.410953 0.375197 -0.841140 0.161398 -0.183042 0.458408 0.155815 -0.626739 0.321287 0.696706 -0.271836 0.615838 -0.152875 1.849793
1170 0.808400 0.456573 -0.757383 -0.816156 0.514684 0.501762 -0.323392 -0.690455 -0.172024 0.449917 -0.089259 -0.415354 -0.135230 0.201308 0.246698 1.413105 1.393224 0.472842 0.310082 -0.558866 -0.106253 -0.636279 -0.176254 0.205786 -0.932374 -1.458147 0.308711 1.443862 1.071314 1.098822 0.014598 0.552429
2282 0.368429 0.774081 -0.422740 -0.781143 0.335294 -0.246485 -1.147284 -0.559403 0.069695 0.264779 -0.209797 -1.910549 -0.513628 0.389367 0.116832 1.366089 0.691598 0.777211 0.166658 -0.646840 -0.501131 -0.907245 0.131575 0.078021 -0.812808 -1.090841 0.405421 1.031286 1.756467 1.533229 0.060398 -0.078321
1973 0.103032 -0.627196 0.032255 0.875163 0.898083 0.240981 -0.031946 -0.299996 0.984941 0.216188 0.504636 0.001983 1.496175 -0.607852 0.494270 0.264677 0.252337 -0.691936 0.765191 -0.228157 0.541145 0.216538 0.696454 -0.340781 -0.384551 -1.428072 0.137851 0.587591 0.608823 0.966860 -0.347426 1.172223
3501 0.579507 -0.830062 -0.375035 0.779388 0.787570 0.608314 0.098983 -0.686731 0.572596 0.642266 0.533424 -0.195300 0.901305 -0.585189 0.544769 0.210548 0.324248 -0.444268 0.549203 0.075806 0.404595 -0.173840 0.165406 -0.093933 0.058820 -1.449383 -0.301435 0.908347 0.629155 0.152001 -0.720035 0.730350
1272 1.061574 -0.658293 -0.566531 0.026885 0.194777 0.368501 -0.378215 -1.203442 0.124500 0.591184 0.320214 -0.812766 0.524375 -0.185772 0.494680 0.975014 0.408057 -0.198730 0.481660 0.466210 0.231803 -0.622119 -0.284649 0.216091 -0.795894 0.021150 -0.019346 1.227195 0.194387 0.148150 -0.160568 0.651029
640 -0.848472 -0.785907 -0.201941 0.927515 0.480179 0.464416 -0.288033 -0.391905 1.458760 0.337953 0.275714 -0.362098 0.884492 -0.023827 0.264636 0.175474 0.481164 -1.058520 0.608117 -0.289011 1.059708 0.009703 0.760074 -0.766063 0.104294 -0.683992 0.780413 1.021125 0.509511 0.299055 -0.187427 0.461656
812 0.201161 -0.531706 0.426561 -0.606227 0.196594 -0.169787 -1.447526 -0.746215 0.058828 -0.338122 -0.037407 -0.573343 0.593455 0.173321 -0.460422 0.106351 -0.298676 -0.014634 0.166558 0.684481 0.138407 -0.229174 -0.246756 -0.367946 0.667346 -0.448480 0.036372 1.313998 0.296722 0.045730 -0.368448 1.122403
1324 0.479895 0.465356 0.041800 -0.249556 1.063549 0.790163 -0.153888 -1.653767 -0.220932 0.619394 1.033876 -1.021951 0.652421 0.510621 -0.570014 1.078317 1.297529 -0.271991 0.447077 0.465188 -0.514127 -0.404365 -0.779750 -0.472506 -1.252057 -0.858663 0.375376 1.779498 0.399064 0.040717 0.966298 0.061925
2973 -0.288802 0.888465 0.256055 0.828373 1.008033 -0.247359 -0.647342 -0.499233 0.091004 -0.043295 -0.691683 -0.670191 0.034686 0.376410 0.111045 0.747623 -0.560219 -0.810693 -0.093923 -0.408897 -0.520499 -0.270364 -0.182355 -0.085997 -0.358037 -0.046236 1.045727 0.545004 0.177341 -0.035416 -0.572537 1.743281
1686 -0.509412 -0.119521 -0.045381 -0.364489 0.158249 0.383127 0.025954 -1.088664 1.332339 -0.595501 0.585815 -0.789173 -0.001634 -0.031068 0.467919 -0.063598 0.757296 -0.966849 -0.065633 -0.204318 1.176603 -0.374320 0.535024 -1.226002 -0.108803 -1.086268 0.654371 0.487897 1.079169 0.084675 -0.308224 1.110185
2603 -0.434835 0.371268 0.104944 0.618486 0.449746 0.169467 -0.668277 -0.533872 0.616651 -0.185517 -0.143660 -0.067158 0.382747 -0.213016 -0.325623 0.507493 -1.568239 0.309826 0.199333 0.269688 0.202988 -1.201463 -0.048035 -0.160635 0.007773 -0.328632 0.887103 0.866176 1.028296 0.578331 -0.384067 1.350092
176 -0.519940 0.473916 -0.522789 -0.829301 0.197358 -0.033023 -0.722453 -0.718963 -0.114036 0.350280 -0.127384 -1.201249 -0.003116 0.329364 0.307231 0.054144 0.972804 0.775422 1.434704 -0.778072 -0.157764 -0.248541 0.000225 -0.063948 -0.239888 -1.650579 0.596296 0.820782 1.149341 1.132652 -0.464118 0.076072
2907 0.195797 -0.693656 -0.446110 -0.220271 0.545204 0.107774 -0.416072 -0.354148 0.252556 0.490141 0.418131 -0.760605 -0.154424 -0.442706 0.169179 0.481030 -0.034708 -0.428153 1.038601 0.408512 0.009188 -0.842681 -0.042750 -0.151144 -0.404527 -0.804767 0.063214 1.289031 0.167348 -0.432386 -0.777786 1.237575
672 0.139549 1.179061 -0.302937 0.314575 1.589876 -0.037785 -1.806955 0.073757 0.360169 -1.141677 -0.726171 -0.812844 1.041468 0.858771 0.429912 0.944615 -0.191591 -2.049059 0.533038 0.683051 -1.123420 0.455170 0.866190 -1.257810 -0.669626 -0.430005 -0.562649 0.901050 1.714234 0.595407 -0.458205 -0.708385
641 -0.693977 -0.531296 -0.110948 0.234659 0.435691 0.391845 0.146837 -1.040766 1.547365 0.002179 0.657534 -0.325362 0.703599 -0.277185 0.372829 0.168590 0.728125 -1.150547 0.179533 -0.284172 1.041507 -0.156720 0.757353 -0.924393 -0.055598 -0.980275 0.668491 0.640210 0.929908 0.209500 -0.252029 0.755589
1757 -0.462503 -0.663347 -0.451967 0.619740 1.060005 -0.350788 0.321904 -0.251278 1.219126 0.329432 -0.647251 -0.677795 0.696867 0.057773 -0.045479 0.294622 0.601431 -0.539439 -0.130622 0.338211 0.107595 -0.060268 0.507336 0.159560 0.866207 -0.663618 1.072156 0.802393 0.905838 0.497650 0.601531 0.922514
1466 -0.082424 0.576234 -0.668239 0.386552 1.106934 -0.207276 -0.461582 -0.485910 0.097389 -0.530778 0.204577 -0.576776 0.552407 0.033252 -0.541134 0.025421 -0.657877 -0.528000 0.692390 0.449657 -0.221906 -1.112536 0.220692 -0.452216 0.333197 0.226178 1.415003 0.197343 0.940741 0.728594 -0.234256 0.928064
3518 0.390499 0.547170 -0.975079 -0.868513 0.315004 0.516224 -0.213796 -0.433146 0.261396 0.407807 -0.461846 -0.646012 0.037245 0.281114 0.222899 0.859277 1.321030 0.234380 0.292692 -0.852043 -0.359561 -0.504754 0.115650 0.141462 -0.799477 -1.336407 0.367201 1.229428 1.167634 1.452409 -0.092445 0.337736
850 -0.119403 -1.173808 0.746614 0.854927 0.901852 0.411203 -1.187230 0.336815 0.615802 -0.654612 -0.074356 -0.358917 0.302577 0.155835 0.725475 -0.252068 -0.150437 -0.096991 -0.204092 0.308843 0.263521 0.587039 -0.266408 -0.247956 -0.389300 -0.971476 0.354936 0.840012 0.398214 0.228390 0.153445 0.922797
4675 0.515847 -0.950378 -0.145335 -0.542686 0.540522 0.468031 -0.245290 -0.509699 0.486415 -0.030584 0.094604 -0.860747 0.373429 0.181789 -0.229630 0.511661 -0.341263 -0.070844 0.461551 1.050070 -0.020622 -0.820928 -0.243054 0.001316 -0.371802 -0.753656 0.283954 0.993791 0.166491 -0.110364 -0.658180 0.608882
3321 0.125760 -0.839637 -0.535774 0.296538 -0.071399 0.232694 -0.711089 -1.205918 -0.042304 0.791715 0.042113 -1.339875 0.244837 -0.364770 0.683514 0.032152 0.126216 0.493533 1.129405 0.043691 -0.160162 -0.626020 0.130255 0.027254 0.196390 -0.573995 0.866516 0.604453 0.414358 0.002784 -0.881921 0.783114
742 -0.233589 0.922430 0.285959 0.694032 0.863517 -0.191543 -0.553084 -0.828502 0.111881 -0.280273 -0.705526 -0.700801 0.038290 0.065348 0.071258 0.837119 -0.438388 -0.872044 0.049949 -0.614145 -0.586693 -0.218400 -0.079442 0.257886 -0.290867 -0.316422 0.736179 0.508036 0.247382 -0.059034 -0.501760 1.805467
2677 -0.377757 0.359417 -1.512625 -0.834812 1.412049 0.909908 -0.786532 -1.168135 0.637326 -0.156975 -0.451587 -0.001087 -0.075706 0.727480 -0.505020 0.095402 -0.170465 -0.600434 1.435195 0.844887 -0.673945 -0.048442 -0.282373 -0.747365 -0.035239 -0.033681 0.801569 -0.198450 0.403656 1.372465 0.729782 1.539890
1562 -1.192856 -0.392587 -0.581467 -0.009926 0.370871 0.539154 -0.805489 -1.414116 0.790364 -0.503051 -0.819340 -0.547759 0.103845 -0.175773 -0.673799 0.304756 -1.384491 -1.001545 1.172044 0.134413 -0.888742 -0.101320 -0.048889 -0.702169 -0.125383 -0.301256 1.140872 0.074001 0.244407 0.775969 0.900157 0.285515
2713 1.000037 -0.374543 -0.642040 0.840929 0.111085 0.316795 -0.536573 -0.963800 0.650393 -0.093569 0.012461 -1.497762 0.538183 0.522353 0.674657 0.175822 0.134179 0.559089 1.103977 0.096991 -0.061589 -0.366551 0.533871 0.460661 -0.235696 0.289049 0.082034 -0.027619 1.011482 -0.066002 -0.515843 0.795595
726 -0.247199 0.215521 0.456545 0.243401 0.144037 0.792829 -0.729117 -0.226695 0.442665 -0.414951 -0.153254 0.215087 0.049036 -0.040691 -0.174684 0.199401 -1.281137 -0.061252 0.149938 -0.218740 -0.212944 -0.715510 0.185025 0.353107 -0.173066 -0.559263 0.513706 1.103571 1.013085 0.442671 -0.065963 1.732853
991 -0.230412 -0.726201 0.008106 0.857536 0.719408 0.959385 -1.045031 -2.018705 1.079376 0.328467 0.696337 -1.055219 1.232933 1.080400 -0.576653 0.273367 0.704250 -0.080225 2.505555 0.262367 -0.386524 0.874236 0.308464 -1.256305 -0.166669 -0.487595 -0.677469 1.797154 1.925242 0.229381 -0.485638 -1.517836
330 0.161926 -0.595417 -1.383472 0.167114 1.087309 1.428242 -0.585693 -1.113131 0.377064 -1.787378 0.614064 -0.442877 -0.310215 1.019932 0.434296 0.444148 -0.505163 0.725995 0.903181 -0.166230 -1.152117 1.112490 -0.324534 -2.492662 0.634503 -1.755518 0.206799 1.839108 -0.421919 1.109401 0.231508 0.773744
943 -1.299345 -0.700009 -0.288024 -0.344918 0.675099 1.033376 -0.276525 -0.493441 -0.286134 -1.080269 0.464574 -1.739751 -1.294689 1.532882 0.339758 1.035880 1.480501 -0.630510 1.142196 1.620387 -1.156879 0.009527 0.996603 -0.675377 -0.563467 -1.870483 2.099600 0.593586 0.127988 0.280143 0.571800 0.845396
4644 -0.290650 0.904501 0.321481 0.783452 0.853018 -0.066493 -0.496161 -0.889607 0.197310 -0.393656 -0.782048 -0.524047 0.086294 0.168506 0.062201 0.608192 -0.468236 -0.870003 -0.065301 -0.450630 -0.490537 -0.407967 0.081241 0.243391 -0.321664 -0.325986 0.743873 0.653793 0.080538 0.010511 -0.466548 1.639981
3458 0.551771 -0.885471 -0.138121 -0.472197 0.381658 0.440627 -0.250512 -0.619257 0.538319 -0.052709 -0.247618 -0.781841 0.286499 0.195718 -0.252864 0.590587 -0.266944 -0.391193 0.316826 1.108023 0.115025 -0.656096 -0.190244 0.182130 -0.323279 -0.887351 0.335199 0.924713 0.035700 -0.124275 -0.658944 0.734832
345 1.694360 0.531930 -1.099198 1.157064 -0.111331 0.299346 -0.402416 -0.820890 1.059263 -0.445795 -0.341142 -1.151659 0.227784 1.320603 0.220833 0.467860 -0.370304 0.300771 1.457476 0.034727 -0.408673 0.146627 0.776598 -0.049190 -0.161303 -0.767331 -0.677843 0.402751 1.765010 -0.173185 -0.615817 0.426422
37 0.309744 -0.374198 0.389838 0.368925 0.177667 0.548526 -0.798262 -0.653825 0.662549 -0.143665 -0.730791 -0.636446 -0.123048 -0.604391 -0.221831 0.003623 -0.450127 -0.090008 0.770997 0.237161 0.453149 0.291847 0.839960 0.147993 -0.287468 -0.035747 0.816581 0.385526 0.985044 -0.427148 -0.140682 1.552312
947 -0.238056 -0.417752 0.341556 0.320862 0.946934 -0.274286 -1.620791 -1.546685 -0.105997 -0.581942 -0.240516 0.229728 0.276653 0.325405 -0.422764 0.398628 -0.493971 0.432988 0.205421 0.660960 0.555537 0.252708 -0.292588 -0.057701 0.245244 -0.233025 0.793216 1.211915 0.548052 -0.186333 0.198695 0.410120
346 1.732975 0.434828 -0.992844 1.148675 -0.208402 0.322416 -0.475725 -1.068858 1.009537 -0.560687 -0.307714 -1.196220 0.205450 1.347282 0.080428 0.408987 -0.339611 0.223980 1.306459 0.173352 -0.423067 0.337845 0.729057 0.053867 -0.269036 -0.636077 -0.720657 0.421960 1.761132 -0.222698 -0.685144 0.487948
951 -0.377697 0.805528 0.516812 0.818030 0.869269 -0.074884 -0.529033 -0.830401 0.024039 -0.473520 -0.748744 -0.764845 0.121154 0.119138 0.145841 0.663919 -0.377598 -0.790880 0.054669 -0.601536 -0.484163 -0.439745 0.028907 0.229314 -0.336821 -0.304114 0.611015 0.627267 0.147624 -0.073812 -0.512707 1.774132
5631 -0.231493 -0.541488 0.101310 0.910762 0.742156 0.629970 -0.331602 -0.637914 0.628514 0.220519 0.494173 -0.142621 1.334939 -0.548487 0.679062 0.037247 0.583268 -0.978661 0.496495 0.030996 0.618237 0.448705 0.500110 -0.502960 -0.420755 -1.581720 0.090099 0.628685 0.524081 0.516733 -0.551026 0.892274
966 0.814246 -0.689860 -0.415912 0.038926 0.104850 -0.448985 -0.141459 -1.060068 0.358290 -0.545647 1.204574 -1.026530 0.266642 0.358445 0.369825 0.314959 -0.552062 -0.540360 1.135648 0.340610 -0.314456 0.251602 -0.081318 0.466621 -1.039525 0.018236 -0.563245 0.706123 1.242400 0.514381 0.401759 1.160836
199 -0.440149 0.729758 -0.962955 0.753626 1.168489 0.189797 -0.437328 -0.840008 0.639705 0.415755 1.129096 -1.465572 -0.572022 1.967582 -0.426478 2.231924 -0.042769 -0.208911 1.406733 -0.947783 -0.046340 0.019512 0.147232 -1.401921 -1.405162 -1.591070 1.330038 1.040690 -0.606634 0.009717 0.899837 0.510743
2744 -0.508495 -1.382636 -0.125415 0.427041 0.452884 0.847540 1.232339 -1.263264 0.193198 -0.686012 0.799809 -1.968777 -0.065836 0.298582 0.170406 0.832179 1.382527 -0.492471 1.793383 1.339547 -1.304674 0.015094 -0.659760 -2.038816 -0.602356 -2.073079 0.554953 0.775212 2.061059 1.283518 0.347084 -0.325226
1776 0.080012 -0.969475 -0.277425 0.581461 0.721853 0.685412 0.134002 -0.701575 0.942603 0.399779 0.445055 0.151469 0.857116 -0.292060 0.403646 0.408294 0.233166 -1.016139 0.513228 -0.158038 0.661268 0.226683 0.997137 -0.101327 0.008415 -1.586516 0.199750 0.759690 0.764267 0.465310 -0.391240 0.803300
452 0.210286 -0.406817 -0.374672 0.565994 0.826860 -0.667985 -0.167178 -1.048052 0.218151 -0.711696 0.352988 -1.050998 -0.274267 -0.114528 -0.618242 0.272638 -0.843060 -0.449120 0.565054 0.778590 0.751324 -0.617727 0.362009 0.306209 -0.575250 -0.531730 0.172052 0.825272 0.222682 -0.181120 0.149507 1.050733
818 0.077674 -1.295328 0.000091 0.262573 0.809684 -0.483824 -0.274798 0.173162 0.810530 -0.234236 0.277968 -0.567708 0.569143 1.004941 0.979626 0.025619 -0.614965 -0.496009 1.696950 -0.311772 -0.670859 -0.217110 0.372584 0.265924 -1.179151 -0.305859 -0.238120 0.672781 0.856512 0.126461 0.218168 1.234259
3417 -0.253246 0.784224 0.573568 0.760053 0.823021 -0.213692 -0.399569 -0.914657 -0.016545 -0.158591 -0.844175 -0.770113 0.163128 0.114629 0.048901 0.779574 -0.475639 -0.876702 0.070592 -0.553583 -0.658530 -0.428854 0.039053 0.040397 -0.209048 -0.244598 0.646610 0.781604 0.064431 -0.020267 -0.489095 1.763230
170 0.035986 -0.603321 -0.343762 0.648277 0.438989 -0.630831 0.261586 -0.060877 1.139230 -0.024935 -0.613409 -0.465427 0.623288 0.022156 0.428231 0.458944 0.497749 -0.729888 0.025861 0.539219 0.191901 -0.163416 0.375775 -0.144229 0.657863 -0.706259 1.300264 0.938551 0.379046 0.218905 0.659062 0.880090
5604 -0.273657 0.826949 0.523438 0.700295 0.903480 -0.085728 -0.568951 -0.783143 0.128196 -0.394257 -0.725452 -0.722497 0.052617 0.137881 -0.023840 0.687312 -0.471998 -0.764435 0.180737 -0.648154 -0.418372 -0.328604 -0.136135 0.121585 -0.230818 -0.342531 0.601323 0.666000 0.176933 -0.181145 -0.469378 1.752645
2411 -0.344864 0.831907 0.455607 0.697714 0.747275 -0.064917 -0.514160 -0.830630 0.308695 -0.419361 -0.684309 -0.718093 0.006819 0.148461 0.044624 0.672824 -0.428175 -0.906862 -0.064744 -0.475425 -0.499943 -0.364100 -0.113499 0.222329 -0.179015 -0.191911 0.678663 0.667754 0.278747 -0.032694 -0.319456 1.713058
1026 -0.248351 0.852017 0.456655 0.653457 0.897774 -0.161189 -0.480891 -0.929309 0.144060 -0.440384 -0.732674 -0.806445 0.148012 0.115786 0.139286 0.806732 -0.415986 -0.773203 0.091104 -0.728621 -0.555405 -0.391351 -0.008685 0.266637 -0.212329 -0.322019 0.750411 0.679576 -0.016840 -0.053720 -0.480499 1.779752
1171 -1.227529 -0.578599 -0.722340 0.057798 0.344495 0.589974 -0.913109 -1.234101 0.592737 -0.373439 -0.659831 -0.699734 -0.121395 0.404156 -0.661973 0.360165 -0.825107 -0.843877 0.980529 0.134880 -0.537710 0.193002 -0.570775 -0.556807 0.125399 0.275741 0.971424 0.145514 0.348963 0.814964 0.830038 0.737415
2736 -0.475314 0.884938 0.412037 0.654578 0.838452 0.063208 -0.528054 -0.869724 0.171907 -0.345228 -0.659273 -0.779138 0.046053 0.111825 0.134807 0.541009 -0.445303 -0.881869 -0.024057 -0.569057 -0.574238 -0.314908 0.005200 0.196549 -0.154343 -0.269132 0.616777 0.815374 0.046355 -0.057100 -0.420957 1.784271
3686 0.656856 -0.592336 -0.212659 -0.321743 0.400009 0.781009 -0.278397 -0.696973 0.520835 -0.185739 -0.101690 -0.751656 0.080554 -0.069365 -0.256854 0.592354 -0.138443 -0.383395 0.286693 1.113021 0.053959 -0.885692 -0.340157 0.024031 0.053062 -0.835024 0.124151 0.884149 0.215489 -0.097850 -0.536600 0.748884
21 -0.083203 -0.694613 0.166346 -1.018871 0.236100 0.510105 -0.129235 -0.806695 1.206003 0.022551 0.013733 -0.898218 -0.035694 0.189531 0.098172 0.231733 0.298549 -0.735368 -0.414105 0.426552 0.041778 -1.111674 0.246365 0.383947 -0.104729 -0.327589 0.271033 1.161662 0.886594 -0.221241 -0.303557 0.940173
2113 0.569957 0.329601 -0.215092 -0.558357 0.406342 0.077656 -0.722216 -0.890933 0.153433 0.532530 -0.679923 -0.294162 -0.162833 -0.283269 0.457625 0.762702 0.346332 -0.483417 -0.133057 0.727691 0.696192 0.037205 -0.143129 -0.065850 -0.558682 -0.232041 0.452356 1.835872 0.644141 0.683652 -0.050374 0.177082
790 -0.291095 0.777075 0.481217 0.712300 0.848039 -0.124212 -0.508050 -0.877596 -0.007494 -0.374189 -0.902303 -0.571813 0.142859 0.093880 0.212256 0.671113 -0.271768 -0.791465 0.005120 -0.510936 -0.540814 -0.310158 0.139711 0.221197 -0.231259 -0.239224 0.807393 0.663104 0.185039 0.024437 -0.493546 1.841378
2595 -1.300819 -0.414949 -0.795375 -0.198566 0.426091 0.634923 -0.820724 -1.038789 0.687086 -0.564797 -0.926680 -0.567132 0.099688 -0.041151 -0.992271 0.648796 -0.997900 -0.981082 1.076937 -0.200315 -0.929581 -0.060014 -0.534677 -0.810073 0.043372 -0.402753 0.948029 0.050408 0.626401 0.623277 0.640821 0.424698
3406 -0.144626 0.844192 0.492031 0.765099 0.942629 0.070337 -0.405167 -0.756824 0.207559 -0.357087 -0.742230 -0.749799 0.200847 0.033215 0.002581 0.694170 -0.545475 -0.890730 -0.043443 -0.471302 -0.476080 -0.299991 0.059929 0.329971 -0.287550 -0.321895 0.713331 0.668690 0.160372 -0.011425 -0.340735 1.705097
3461 -0.068764 0.269148 -0.257874 0.768196 0.973339 -0.117971 -0.753359 -0.865492 0.063723 -0.009057 -0.979130 -1.444841 0.394782 -0.148243 0.031983 -0.312731 -0.356687 -0.321701 0.873246 0.403498 -0.659370 -0.796981 0.251980 0.612682 -0.824303 -0.711749 1.386432 -0.021648 0.856937 -0.504540 -0.850222 0.092590
1875 0.095311 -0.191202 -0.298202 0.507116 0.073701 0.216072 -0.768655 -0.224138 1.164102 1.116438 -0.259588 -0.472098 -0.018980 -0.827545 -0.795706 0.650489 -0.350049 -0.394124 2.042517 -0.077317 -0.059025 -0.243753 0.524601 -0.670677 -0.961318 -0.591838 0.436611 1.275466 0.500859 -0.704965 -0.509775 1.013879
4396 0.361219 -0.399268 0.046180 0.066514 0.359817 -0.489369 0.151910 -0.056695 1.130317 -0.115459 -0.785000 -0.209359 0.298712 0.212217 0.944313 0.506026 0.123578 -0.504136 0.191711 0.885438 -0.056529 -0.208981 -0.255674 -0.099129 0.258542 -0.492244 0.786559 1.409527 0.231647 -0.157434 0.255035 0.764028
1240 0.271258 -0.336212 0.627338 -0.778378 0.270350 -0.485044 -1.918620 -1.020850 0.144113 -0.449780 0.189589 -0.942257 0.579925 -0.160630 -0.050088 0.211316 -0.381310 0.349043 0.373098 0.800329 -0.241578 0.503950 -0.021066 -0.494137 0.248579 -0.419028 -0.110973 1.156564 0.787820 -0.111116 0.234392 1.106257
731 -0.610841 -0.549342 -0.396367 0.847942 0.836210 -0.070718 0.006340 -0.587884 1.584296 0.303077 -0.103083 -0.244036 1.063379 -0.396980 -0.005113 0.286891 0.628982 -0.910948 0.334940 -0.013118 0.878778 0.013917 0.624210 -0.548041 0.123573 -0.827884 0.808257 0.652199 0.630202 0.123413 0.024471 0.569918
3269 0.036306 1.128935 -0.471711 0.306791 1.708686 0.176699 -1.929320 -0.061782 0.232766 -0.835594 -1.000824 -0.552933 1.106539 1.063973 0.494750 1.099587 -0.378307 -1.946178 0.471664 0.279512 -1.078113 0.368645 0.953753 -1.095864 -0.449400 -0.480133 -0.618757 0.874247 1.429578 0.407446 -0.290676 -0.711473
1178 -0.752497 -0.063724 -0.099220 -0.073847 1.190808 0.584869 -0.480451 -0.860861 1.535202 0.165058 0.532279 -0.098510 1.354341 -0.477563 -0.021234 1.131997 0.113901 -1.330179 0.323372 0.304777 0.319850 0.665658 0.408280 -0.499506 -0.350973 -0.763957 0.284272 0.810460 0.272292 0.458358 -1.228456 0.365503
875 -0.151653 0.804607 0.386281 0.609215 0.915385 -0.059333 -0.504416 -0.800721 0.114217 -0.310936 -0.774759 -0.660090 0.096590 0.264825 0.070373 0.580654 -0.350504 -0.923173 -0.105141 -0.479940 -0.571061 -0.532888 0.031137 0.229700 -0.328369 -0.312662 0.786498 0.593990 0.139689 -0.133260 -0.502988 1.779186
385 -0.080428 0.351370 -0.544646 0.736715 0.627775 -0.003099 -0.736187 -0.185667 0.337159 -0.084163 0.162370 -0.354095 0.635164 -0.211426 -0.599943 0.174820 -1.002746 -0.118286 0.164397 0.311713 -0.184881 -1.350179 0.227491 -0.369763 0.014856 -0.118377 1.754766 0.632309 0.672728 0.897695 -0.462443 1.062824
836 -1.016837 -0.366294 -0.715559 0.091797 0.270039 0.751621 -0.812276 -1.083400 0.521349 -0.712868 -0.671643 -0.856355 -0.101872 -0.203170 -0.762435 0.458036 -1.119284 -1.062413 0.883741 0.020050 -1.204767 -0.236519 -0.437715 -0.338122 0.194661 -0.071128 1.162930 0.075246 0.408807 0.360712 0.476811 0.449670
760 -0.415036 -0.850294 -0.466979 0.731905 1.423881 0.073648 0.365246 -0.585258 1.263581 0.356759 -0.793826 -0.750809 0.490996 -0.047161 0.208049 0.125590 0.801140 -0.468399 -0.001854 0.355633 -0.172153 0.365501 0.219641 0.229814 0.528700 -0.133046 1.026288 0.926723 0.715902 0.213914 0.685741 0.923951
5975 -0.112786 -0.681291 0.138244 0.065561 0.336658 0.556440 -0.032674 -0.918092 0.412986 0.524533 0.296362 -0.968199 0.509960 0.377959 0.203970 1.003289 -0.606587 -0.193058 0.269036 -0.377329 0.019393 0.960739 1.785880 0.537947 0.092663 -0.496510 1.033239 0.655177 1.365211 -0.003332 0.111681 0.859957
74 0.280798 -0.135193 0.074437 -0.133591 0.348936 1.262748 -0.617788 -0.361598 0.487297 -0.822347 -0.029733 -0.089925 0.119953 0.062647 -0.434806 -0.374268 -0.638826 -0.200455 0.605813 -0.280480 -0.292254 -0.631971 0.414061 0.023945 0.270837 0.015269 1.304269 0.529743 0.926349 0.226776 0.143224 1.780786
996 -0.167317 0.287577 -1.243577 0.506332 1.562769 0.882441 -1.839993 -0.963804 -0.094945 -0.046939 -0.770480 -0.389825 1.055056 1.220546 0.309994 1.332175 -0.570429 -0.891428 0.435964 -0.395430 -0.406650 -0.107655 1.081593 -0.396709 0.128940 -1.128785 -0.271885 0.984056 0.553266 -0.164443 0.488473 -0.527969
1103 -1.495791 -0.635065 -0.575697 0.209582 0.486252 0.664653 -0.997979 -1.057639 0.555406 -0.431221 -0.582221 -0.578931 -0.001488 0.215769 -0.546920 0.430953 -0.974565 -0.616075 0.941497 0.212339 -0.553353 0.292212 -0.741328 -0.762162 0.115977 -0.042399 1.092413 0.217045 0.229105 0.762039 0.619231 0.671729
262 -0.435586 0.124945 -0.505722 0.551901 0.857981 0.462976 0.351376 -1.150528 0.263809 0.318998 0.259870 -1.590525 0.101871 -0.846741 0.225066 0.365126 0.575976 0.423950 0.944768 0.909580 0.146333 -0.525117 -0.521374 0.253682 0.122649 -0.850053 0.486665 1.841108 -0.043731 0.777166 -0.514872 0.750566
82 0.127005 -0.218966 -0.481306 -0.843403 -0.087290 0.795273 -0.358372 -1.212909 0.910372 -0.108476 0.268335 -0.788923 -0.101876 -0.015106 -0.008935 0.006882 0.248133 -0.942166 -0.259953 0.548452 0.342321 -1.086160 0.230788 -0.465315 -0.264238 -0.170422 0.228602 1.406637 0.292923 -0.333754 -0.638343 0.828869
3915 -0.113545 -0.116591 0.231885 1.591462 1.277479 0.662482 -0.025305 -1.242847 0.366599 -1.810990 -1.847419 0.589180 0.530745 2.395528 -0.408865 1.225995 -0.057612 -0.016042 1.055296 -0.368004 -0.988137 1.272630 0.189791 -1.450916 -1.197475 -1.197364 2.021995 0.076775 1.125734 1.137886 0.434905 0.150591
2884 -0.387203 -0.357847 -0.617996 -0.189021 0.141312 0.043153 -0.748630 -0.659823 -0.316170 0.663830 -0.012996 -1.338021 0.112155 -0.380227 0.495788 -0.247597 0.341377 0.459508 1.134801 -0.067055 -0.075385 -0.680145 0.160578 0.243657 -0.062082 -1.122447 0.796935 0.915975 0.564853 0.311991 -0.770175 0.587642
281 0.696756 0.583860 -0.232310 0.511128 1.069988 -0.870082 -0.250956 -0.860198 0.511711 -0.107773 -1.083776 -0.706727 0.726228 0.377914 -0.216790 -0.321995 0.353424 -0.145522 1.054345 0.720464 -0.048131 -0.574818 -0.207624 -0.013924 -0.812962 -1.704740 1.509628 0.092718 0.619924 -0.042059 0.308455 -0.087897
380 1.297981 -0.790153 -0.378895 0.972611 0.135734 0.465803 -0.822273 -1.001985 0.659572 0.271272 -0.432650 -1.317524 -0.236568 0.005003 1.302550 0.045396 0.607754 -0.438711 0.784705 0.168725 -0.527731 -0.609459 -0.276943 -0.735265 0.138144 0.371641 0.597838 0.268350 0.544832 0.464310 -0.219256 0.774294
3297 -0.640536 -0.264193 -0.252884 0.261704 0.857183 0.607073 -0.167899 -0.610183 1.536828 0.411622 0.293638 -0.207184 0.992538 -0.521264 0.175753 0.700218 0.497356 -1.182878 0.319488 -0.009645 0.920819 0.178452 0.432334 -0.640039 -0.131888 -0.603572 0.653463 0.976666 0.374890 0.463019 -0.557042 0.357565
1406 -0.207905 -0.069564 -0.183499 -0.703050 0.086513 0.655279 -0.180935 -1.308578 1.280249 -0.625210 0.513446 -0.916342 -0.407792 0.304185 0.350955 0.033087 0.473138 -0.785407 -0.337989 0.068996 0.820399 -1.070945 0.249141 -0.696702 -0.208007 -0.687163 0.512489 0.758273 0.753037 -0.172020 -0.220019 1.062306
2038 -0.278558 -1.069523 -0.953269 0.694756 1.543139 0.776581 -2.331561 -0.467210 0.358575 -1.134001 0.161495 -1.818377 1.902731 0.922433 0.483960 0.773804 0.537320 0.543193 1.107392 0.526072 -0.039573 0.336234 1.312099 -1.946826 -0.819037 -0.097351 0.432124 0.249174 0.755903 2.070309 -0.528298 -0.603698
25 -1.092515 -0.491652 -0.823545 -0.261448 0.347497 0.444812 -1.032126 -1.290045 0.838593 -0.577025 -0.739890 -0.424437 -0.097477 0.407243 -0.897082 0.514598 -0.916786 -1.078056 1.225821 -0.028957 -0.852030 -0.016467 -0.367026 -0.731790 0.153410 -0.033871 1.115047 -0.344027 0.510369 0.731086 0.573430 0.841755
2280 -0.114591 -0.308489 -0.072106 -0.200641 0.910891 0.072473 -0.422231 -0.198827 0.532523 0.440900 -0.685650 0.005275 -0.174038 0.948557 0.446902 0.066852 -0.556559 -0.450545 0.709524 0.643445 -0.701438 -0.444479 -0.533187 -0.326625 -0.011102 -0.412309 0.731302 0.299784 -0.130730 0.314877 0.702623 1.394934
1236 0.595644 -0.613800 0.069316 1.240485 0.835575 0.424701 -1.350983 -1.041298 0.538261 -0.186192 -0.254869 -1.807275 -0.490133 1.040172 0.446571 0.123479 0.331885 0.428304 0.642147 -0.177222 0.178081 -0.122332 0.523420 0.378101 -0.146873 0.740523 0.938503 0.857485 0.080843 0.261129 -0.332644 0.705568
829 0.042301 0.289318 -0.239829 0.548740 0.878921 -0.208915 -0.278998 -0.262501 0.254084 -0.138931 0.079375 -0.390878 0.624257 0.015845 -0.708408 0.527940 -1.155749 -0.083986 0.407317 0.394333 -0.054109 -1.025953 0.465081 -0.142439 0.576604 -0.077419 1.499306 0.599133 1.074044 0.869091 -0.517906 0.989455
217 0.285715 0.682576 -0.919400 -0.672322 0.283279 0.249782 -0.640936 -0.203596 0.514134 0.439817 -0.729343 -1.135040 -0.065110 0.465159 0.066817 0.953904 1.072992 0.467205 0.148764 -0.950149 -0.538023 -0.805775 0.254555 0.187915 -0.615924 -1.302576 0.491295 1.094293 1.346304 1.667722 -0.245917 0.195319
5096 0.763321 -0.488523 -1.000228 0.593670 1.567430 0.282760 0.166670 -0.147638 0.847217 -1.055467 -1.094454 -1.494446 0.216545 0.517315 -0.179787 2.087564 0.539073 -0.085101 1.485499 0.285234 0.413825 0.647994 0.729053 -1.234705 -2.243467 -0.461565 0.989333 1.018479 -0.198455 1.128509 1.736686 0.553031
272 0.381833 0.651073 -0.871853 -0.706532 0.197720 0.127667 -0.445017 -0.303768 0.537480 0.491794 -0.737647 -0.969057 -0.088494 0.366345 0.305855 1.035655 1.191256 0.257232 0.256365 -0.756493 -0.406196 -0.680724 0.239381 0.152931 -0.633084 -1.252304 0.345328 1.196700 1.382142 1.687723 -0.219526 0.085106
739 1.076617 0.236952 0.652271 0.482839 0.894877 -0.345583 -0.297446 -1.735101 0.375902 -0.138559 0.404805 -0.176072 0.877421 0.797253 0.943834 0.599536 0.761452 0.760451 -0.228417 0.064814 -1.368619 -1.014264 0.408989 -0.511733 -0.830866 -1.142358 0.539444 1.576234 0.636096 -0.204340 0.429377 -0.036710
1992 0.664534 -0.621433 -0.657113 0.918168 -0.150598 0.291920 -0.580683 -0.829720 0.364293 0.636270 0.158511 -1.497457 0.357066 0.124085 0.419927 0.268548 0.196347 0.377973 0.940591 0.261657 -0.172189 -0.675032 0.308379 0.115447 0.409476 -0.014281 0.961823 0.252077 0.874115 -0.010420 -0.720943 0.769671
1022 0.029587 0.464136 -0.878567 1.197504 0.413478 1.220082 -1.151055 -1.304964 -0.123819 0.397413 -0.848149 0.181958 0.449476 1.443173 -0.936512 0.197322 0.103952 -0.258033 -0.009998 0.134268 0.503113 -0.845769 1.174103 -0.974897 -0.732776 -1.711253 0.501775 1.054426 1.297050 -0.173736 1.250937 0.241299
474 -0.233363 0.110341 0.171025 0.224908 1.534449 -0.276552 -0.654381 -1.474530 -0.376603 -0.206883 -0.639586 -0.332346 1.067550 1.073169 -1.170271 -0.312052 1.005216 0.315846 0.316706 0.497118 0.018204 0.079160 -0.438580 -1.559540 -0.277818 0.350065 0.678956 0.565569 2.092181 0.455009 -0.927057 1.308640
214 -0.280093 -0.405781 -0.727605 1.007554 0.897278 -0.516659 0.148245 -0.337297 1.043629 0.163139 -0.336156 -0.650515 1.031653 -0.062610 0.091714 0.296039 0.361418 -0.634596 0.199762 0.574841 0.652552 -0.237312 0.562340 -0.128821 0.486704 -0.744168 1.085418 0.420029 0.521390 0.338468 0.605998 0.811962
1107 0.089486 -0.268273 0.398963 0.190546 1.072560 1.035657 0.104070 -0.765206 0.203121 0.201314 0.158994 -0.206900 0.613679 -0.427595 0.130250 1.150041 -0.682076 -1.066412 0.481323 -0.035651 0.561327 0.496064 0.765463 0.068502 0.339457 -0.358073 0.321331 0.435168 1.016732 0.288971 -0.773997 0.932703
861 -0.392062 -0.731499 -0.207014 0.679614 0.540340 0.357364 -0.126678 -0.605139 1.583137 0.363256 0.332615 -0.235801 1.046658 -0.430769 0.161917 0.414985 0.651560 -1.117310 0.538796 -0.301170 0.868957 -0.013140 0.653269 -0.701330 -0.060588 -0.914710 0.680819 0.736556 0.613611 0.096853 -0.097732 0.635187
47 -0.648985 -0.958727 -0.108792 0.194254 1.189837 0.119818 0.005734 -0.460400 1.231515 0.045284 -0.499966 -0.682723 0.003174 -0.095032 -0.258865 0.118621 0.641573 -0.575438 -0.139378 0.061158 -0.432931 -0.103214 0.731617 0.809151 0.462238 -0.089036 0.780559 0.801307 1.398616 -0.111676 0.407006 0.703957
1020 0.145047 -0.707531 -0.089825 -0.157045 0.212475 0.376074 -0.753890 -0.749913 0.307550 -0.079260 -0.160579 -0.058802 0.569417 0.492955 -0.422672 0.605399 -0.544246 -0.469293 0.409447 0.820138 0.283486 -0.434366 -0.732733 0.258698 0.058001 -0.395242 0.224653 0.664136 0.065909 0.644499 -0.761554 1.341592
507 -0.124305 0.667697 -0.813158 -0.694947 0.294689 0.268421 -0.443966 -0.782127 0.071881 -0.443744 0.090144 -1.138985 -0.178877 0.920823 1.089558 0.767092 1.277645 0.502221 0.233101 -0.932958 0.214753 -0.782099 0.369203 -0.182311 -0.641917 -1.185088 0.140563 1.149543 1.411301 1.543873 -0.067735 0.485212
878 0.485126 -0.775601 -0.170409 -0.718425 0.304473 0.433453 -0.455310 -0.632626 0.737627 -0.133185 -0.079830 -0.710106 0.576173 -0.120035 -0.035550 0.653079 -0.293715 -0.313858 0.274313 0.937945 -0.023253 -0.725581 -0.030800 -0.013390 0.059437 -0.834856 0.263151 1.169310 -0.256377 0.031966 -0.157558 1.011546
2895 0.450152 -0.303324 -0.454291 -0.103012 0.435927 0.469711 -0.254137 -0.965959 0.357169 0.807121 0.228526 -0.465080 0.571637 -0.428905 0.482690 0.944315 0.479865 -0.190507 0.410740 0.639622 0.463070 -0.631917 -0.323791 -0.194004 -0.945038 -0.345806 0.178717 1.714723 -0.041134 0.186474 -0.560374 0.554351
693 0.649657 -0.480818 0.066274 0.016508 0.511186 -0.844631 -0.753787 -1.065168 0.280597 -0.940962 0.898900 -1.680772 -0.219316 0.092380 0.545341 0.079080 -0.748740 -0.132238 1.085568 0.573838 -0.292781 0.397282 0.262172 -0.237046 -1.022358 -0.488384 -0.720133 0.687998 0.946638 0.348084 0.625053 1.262931
391 -0.305674 -0.502272 -0.238466 -0.175377 0.254735 -0.042194 -1.140445 -1.350555 -0.272989 0.383678 0.039260 -1.010393 0.587948 -0.684180 0.379341 -0.371664 -0.057200 0.755880 1.163020 0.029312 -0.251727 -0.436020 0.150632 0.149839 0.411830 -1.041970 0.796054 1.033901 0.402896 -0.213296 -0.568602 0.738734
96 -0.948134 -0.148743 -0.370811 -1.104445 0.431174 0.341132 -0.855336 -1.264631 -0.642359 -0.774817 -1.215537 -1.129676 0.355644 -0.683581 0.416565 0.292134 0.659384 -1.027305 1.351064 0.995244 -1.286686 0.274669 1.363098 -1.575694 -1.803417 0.683726 0.817466 1.692460 0.752580 1.661707 -0.221371 0.391851
4262 0.576514 0.302913 -0.144136 -0.845635 0.325624 -0.132642 -1.086928 -1.107127 -0.018325 0.413091 -0.387652 -0.179436 -0.068722 -0.240960 0.225075 0.709664 0.312558 -0.056006 -0.067138 0.613757 0.673120 0.372488 -0.232794 -0.044160 -0.104281 -0.136472 0.385676 1.887539 0.884538 0.359738 0.273392 0.550818
1135 -0.954578 -0.895195 0.483661 1.203884 0.715472 0.135970 -0.984007 0.415955 0.874047 -0.403748 -0.099413 -0.421822 0.022027 0.961908 0.478397 -0.055994 -0.141406 -0.349393 0.563033 0.068541 0.706078 0.296316 -0.077075 -0.771761 -0.235834 -0.442886 0.309374 1.372450 0.450393 0.212888 0.311053 0.487441
1351 -0.236824 -0.628411 -0.264793 1.043973 0.778219 -0.172579 -0.020122 -0.244368 1.371391 0.263809 0.070915 -0.103338 1.275106 -0.426606 0.181394 0.289012 0.311673 -0.782543 0.600670 -0.064370 0.771789 0.124265 0.669209 -0.700251 -0.130002 -1.101410 0.783539 0.568657 0.486211 0.284662 0.109423 0.925434
2143 -0.414701 -0.077975 0.393162 0.605924 -0.054120 -0.120789 -0.759926 -0.299325 1.247464 0.810364 -0.226681 -0.098346 0.260052 -0.758582 -0.425650 0.398087 -0.054904 -0.519555 1.350288 0.263900 0.030569 -0.227077 0.659668 -0.611722 -0.535075 -0.517658 0.530944 0.710292 0.443576 -0.716562 -0.457590 1.518800
1003 -0.142608 -0.707706 -0.228851 -0.191501 0.563021 0.117918 -0.316857 -0.469883 0.084010 0.551991 0.342193 -0.853014 -0.034587 -0.367179 -0.107914 0.280453 -0.077576 -0.377731 0.973934 0.495329 0.160657 -0.753931 -0.294909 -0.035039 -0.712200 -0.788341 0.196220 1.186499 0.181947 -0.411254 -0.540618 1.139531
2743 0.431222 -0.263601 -0.426095 -0.189045 0.428294 0.271251 -0.188080 -0.994416 0.235334 0.743866 0.248691 -0.576512 0.559660 -0.299053 0.445960 0.915993 0.347477 -0.258182 0.276287 0.512319 0.511773 -0.647318 -0.391759 -0.043335 -0.938444 -0.239216 0.310634 1.735788 0.179148 0.157077 -0.399534 0.460531
3997 -0.037131 -0.261377 -0.368941 0.091721 0.934143 0.206028 -0.416378 -0.600452 0.397578 0.390969 -0.522345 0.107333 -0.310909 0.838407 0.064460 -0.083690 -0.797706 -0.139052 0.309744 0.175494 -0.522601 0.031730 -0.426282 0.030987 0.297583 -0.713101 0.898682 0.613444 -0.198828 0.422834 -0.001108 1.773120
55 -0.389547 0.132871 -0.783997 -0.959691 0.585663 0.705909 -0.446050 -0.887971 0.373806 0.847194 -0.430123 -1.238010 -0.483083 0.822865 0.026875 0.310602 0.651617 0.907683 1.495788 -1.159299 -0.451425 -0.109003 0.117250 -0.382267 -0.174899 -2.284085 0.137701 0.711108 1.305572 1.234319 0.265178 0.170465
758 0.969808 0.004109 -0.225472 -0.263422 1.971082 0.087641 0.351535 -0.969250 0.912335 0.041407 -1.345222 -0.311189 -0.029480 -0.062702 0.135166 0.247871 0.381240 1.113173 0.438916 -0.435106 -1.110444 -0.284651 0.446733 -1.202326 -0.532654 -1.866315 0.535780 1.103349 -0.599050 -0.281050 -0.110527 0.283851
921 -0.115640 0.250679 -1.308136 0.695381 1.508055 1.008031 -1.873626 -1.094221 0.028401 0.019192 -0.735579 -0.238056 0.955146 1.249174 0.220479 1.308575 -0.543820 -0.682586 0.273231 -0.339764 -0.284332 -0.204410 0.982943 -0.338936 0.053447 -1.393838 -0.222848 1.056260 0.543627 -0.203814 0.537657 -0.528438
1317 0.508222 -0.225594 0.220876 0.086913 0.451817 0.767760 -0.320080 -0.895323 0.984977 -0.376495 -0.484219 -0.431038 0.060857 -0.611945 0.410201 0.041626 -0.716955 -0.269203 0.417926 -0.161419 0.211260 0.262330 1.228437 -0.431937 0.026694 0.314476 0.633149 0.620390 0.552026 -0.630932 -0.516295 1.103556
2823 -0.422421 0.143897 -1.395722 -0.721434 1.292406 0.525772 -0.722377 -1.066829 0.524985 -0.163067 -0.504116 -0.200377 0.245933 0.762545 -0.675250 -0.108936 -0.294338 -0.405066 1.258600 0.917961 -0.450040 -0.317960 -0.215990 -0.848929 0.081225 0.140081 1.087332 -0.149616 0.450851 1.307755 0.628772 1.553288
3864 0.013972 -0.759799 -0.475283 -0.000287 0.554284 0.174042 -0.131111 -0.446490 0.310146 0.474706 -0.042510 -0.969091 0.241291 -0.134838 0.126556 -0.363660 -0.464560 -0.131056 0.637537 -0.093265 -0.102610 -0.665824 -0.165383 0.211049 -0.415949 -1.062548 -0.110360 1.501371 0.236295 -0.276019 -1.202985 0.829528
571 -0.123680 0.280627 -0.289276 0.192733 0.710266 0.469483 -0.445879 -0.484356 0.779339 0.000712 -0.018114 -0.484535 0.346633 0.113661 -0.194105 -0.192312 -1.206239 -1.435015 0.619863 0.891553 -0.477773 -0.738372 -0.300332 0.084399 0.659208 -0.584976 0.851191 0.500274 -0.226828 0.870079 -0.381141 0.838035
1671 -0.410953 -0.379096 0.093641 0.415244 0.474181 0.448671 0.643454 -0.736482 0.859418 0.715926 0.121322 -0.785559 0.757601 0.378503 0.043276 1.115809 -0.256259 -0.051410 0.384429 -0.105996 -0.311251 0.924109 0.791892 0.167718 0.644019 -0.199364 1.002501 0.531942 1.325941 -0.516638 0.134822 1.350399
56 -0.355395 0.198391 -0.785095 -1.055784 0.619555 0.700306 -0.336728 -0.918006 0.395167 0.934882 -0.452605 -1.198423 -0.412596 0.915244 0.114932 0.470060 0.548129 0.929179 1.627909 -1.196082 -0.522530 -0.000971 0.090549 -0.416533 -0.063531 -2.324767 0.050643 0.783215 1.435019 1.299039 0.283137 0.155617
