3670 64
66 -0.527120 -0.102569 0.052754 -0.528109 0.156855 0.338328 -0.015709 -0.172498 0.050334 0.611051 0.186086 -0.301877 -0.071366 -0.218292 0.246553 0.310036 -0.113878 0.295728 0.033656 0.776702 -0.200688 0.352536 0.028607 0.665432 -0.032279 0.345571 -0.184082 0.114465 -0.326091 -0.337917 0.141155 0.573142 0.009764 0.132447 -0.346518 0.635371 -0.114551 -0.180666 -0.087437 0.369099 -0.052127 -0.054375 0.518079 0.360670 0.082384 -0.185574 0.714718 0.441406 -0.090082 0.373399 0.300085 0.360348 0.555645 -0.273529 -0.627021 -0.292359 -0.231627 0.273051 -1.092116 0.202471 0.275612 -0.295775 -0.607475 -0.095164
18 -0.138997 -0.074681 0.458429 -0.652850 0.506909 0.556451 -0.627165 -0.030906 0.068347 0.268510 -0.384491 -0.153293 -0.167347 -0.425969 -0.018501 0.489182 -0.224022 -0.039164 0.273224 0.157780 0.233343 -0.257307 0.259570 0.769356 -0.007773 0.213092 -0.084594 0.419939 -0.023885 -0.313406 0.307650 0.625660 -0.224936 0.589547 -0.142582 0.622190 -0.212600 -0.398343 0.017265 -0.205951 -0.100484 0.651718 0.093311 -0.088293 -0.087707 -0.640330 0.926325 -0.181599 0.550918 0.323039 0.049577 0.067881 0.076443 -0.053647 0.210922 0.214327 -0.073964 0.392291 -0.409309 -0.033197 0.768625 -0.554317 -0.716587 0.313883
189 -0.322087 0.309124 -0.207767 -0.684017 0.217583 1.067729 -0.291562 -0.377470 -0.190123 0.764503 0.243092 -0.124203 -0.123496 -0.970201 0.361134 0.141893 0.043831 0.066592 -0.406354 0.152452 -0.179992 0.646509 0.168822 0.792423 -0.117125 -0.032468 -0.098209 0.373840 -0.315197 -0.040501 0.056750 0.487355 -0.099286 0.532593 -0.018806 0.194368 -0.002199 -0.145785 -0.033641 0.268607 0.399962 0.193388 0.088694 0.566257 -0.180643 -0.135185 0.049048 0.432058 -0.242856 0.143144 1.062143 0.034479 0.083668 -0.342575 0.253590 -0.428572 -0.406608 0.187104 -0.066909 0.385317 0.305469 -0.537639 -0.740153 0.146521
19 0.100776 0.425916 0.758681 0.019223 0.448698 0.246991 -0.617633 -0.672014 0.032801 0.053083 -0.211694 -0.308425 -0.733168 -0.276653 0.467500 0.365480 0.139364 0.220867 0.143264 0.601985 0.384902 -0.131496 -0.145971 0.961679 -0.020209 0.158499 -0.263185 0.379510 -0.139591 -0.143815 0.207215 0.173208 0.613044 0.453419 0.094022 0.349447 -0.033612 -0.234783 0.144511 0.006059 -0.018486 0.713199 -0.344945 -0.101766 0.212898 -0.742611 0.150156 -0.041491 0.123306 0.187342 0.121559 -0.049900 0.416928 -0.173359 0.445993 -0.185673 -0.545627 0.369083 -0.541025 -0.187418 0.168777 -0.284200 -0.807225 0.062097
57 0.317303 -0.001267 0.566062 -0.548719 0.045669 0.446053 -0.783590 -0.117846 0.030795 0.069872 0.244487 -0.434766 -0.141615 -0.781902 0.395080 0.268515 -0.699579 0.040175 -0.267772 0.058699 -0.069909 0.150195 0.313442 1.199326 -0.039549 0.514055 -0.043971 0.669112 0.127622 -0.479403 -0.182021 0.779422 0.044563 0.294313 0.074241 0.947969 -0.016119 0.179718 0.111848 0.354230 0.105844 -0.079972 -0.505472 -0.080890 -0.373414 -0.556103 0.495597 -0.375218 0.097031 -0.039376 -0.426760 -0.291460 0.236475 -0.147617 -0.050304 0.211637 -0.149902 0.129603 -0.211298 -0.222321 -0.193027 -0.231056 -0.215229 0.112518
327 -0.545198 0.091071 0.273139 -0.795265 -0.026875 0.836833 -0.237933 -0.252590 -0.552985 0.709097 0.106436 0.142037 -0.126702 -0.595800 0.229342 0.417035 0.030789 0.193233 -0.310903 0.609754 -0.272494 0.295106 -0.172261 0.760536 0.231531 0.100223 -0.288923 0.166206 -0.056899 -0.241184 0.268600 0.138728 -0.042338 0.392660 -0.074235 0.470386 -0.609550 -0.042737 -0.156574 0.028162 0.036394 -0.192166 0.120418 0.513195 -0.019358 0.056141 0.300753 0.300845 -0.155593 0.431123 0.858043 0.276549 0.286881 -0.302424 -0.122575 -0.258778 -0.478139 0.007384 -0.465306 0.514206 0.078576 -0.493294 -0.415619 0.412124
1 0.379120 -0.443592 0.500794 -0.304863 0.242129 -0.288147 0.052401 -0.345136 0.059971 0.542625 -0.261557 0.058534 0.001915 -0.292620 0.578587 -0.127393 0.334551 0.128783 0.302192 0.647736 -0.029753 -0.397776 -0.097566 0.535705 0.112563 -0.067459 -0.080399 0.122704 -0.050005 -0.115330 0.667936 0.881036 -0.520755 0.582853 0.382467 0.831763 -0.316210 -0.013945 -0.344501 -0.019780 0.437626 0.369894 0.138896 -0.392774 -0.323273 -0.679456 0.147003 -0.128475 -0.092347 0.718068 0.019209 0.456784 -0.080449 0.394136 0.013909 -0.191300 -0.563125 -0.064854 -0.937357 0.249620 -0.212052 -0.156281 -0.220613 0.027726
41 -0.185643 0.206622 0.729837 0.275489 0.402416 0.113876 0.220930 -0.063039 -0.000043 0.553854 0.043613 0.354170 -0.329075 0.050503 0.445904 0.342597 -0.263560 -0.217558 -0.004621 0.454215 -0.118915 -0.346611 -0.185674 0.724984 0.177452 0.085835 0.023570 0.463215 0.093909 -0.027305 0.441448 0.951850 0.249100 0.462413 0.370726 0.658575 -0.166510 -0.115596 -0.501179 -0.368407 -0.099318 0.252824 -0.176880 -0.023037 -0.224820 -0.502786 0.427088 0.192584 0.045763 0.281634 -0.284811 -0.136453 -0.164194 0.305455 0.376782 -0.185754 -0.403187 -0.017535 -0.439796 -0.527601 0.306760 -0.544735 -0.630020 0.451330
388 0.457689 0.038996 0.118261 0.276381 0.480090 -0.059993 -0.425848 0.199491 -0.136093 0.137275 -0.089045 -0.100692 0.099051 -0.136095 0.157597 -0.125598 -0.309021 0.349968 -0.417644 0.168958 0.204982 -0.075113 -0.240551 1.362884 0.086485 0.081500 0.040833 0.003139 0.056067 -0.397691 0.908018 0.325700 -0.076195 0.736874 -0.350089 0.639189 -0.005616 0.010156 0.460995 0.154064 0.263659 0.792070 -0.555067 0.188356 0.273904 -0.161903 0.844489 -0.296123 -0.259828 0.381653 0.006626 -0.504098 0.324915 -0.042510 0.194914 0.062006 -0.739538 0.176753 -0.597509 0.106482 -0.003004 -0.409405 -0.564619 0.404856
613 -0.200532 0.211835 0.190263 0.219152 0.385331 0.329992 -0.132166 0.315713 0.049934 0.005609 -0.012516 0.269818 -0.388604 -0.213738 -0.144807 0.325803 -0.439806 0.104143 -0.473608 0.258155 0.499323 -0.181913 -0.058177 1.100572 0.336539 -0.098380 0.246847 0.420592 0.103180 0.019704 0.424116 0.563535 0.197060 0.827927 -0.295751 0.888712 -0.005326 -0.179707 -0.077704 0.368941 -0.326315 0.447684 -0.370621 0.218064 0.208171 -0.074830 0.823320 0.251997 0.226208 0.134139 0.287874 0.421088 0.647679 -0.157224 0.118155 -0.040461 -0.521080 0.270914 -0.421698 -0.113698 -0.129911 -0.641756 -0.497006 0.257664
148 0.051938 0.661300 0.783102 -0.457254 0.282829 0.390911 -0.257484 0.099338 0.118373 0.683696 -0.469801 0.568334 0.015885 -0.280860 0.253179 0.306411 -0.388691 0.047206 -0.083679 0.337451 -0.134534 -0.092298 0.056852 0.803965 -0.415080 0.091889 0.006059 0.048305 0.260407 -0.632014 -0.257451 0.386189 0.114501 -0.015692 0.290367 0.702897 0.072086 -0.531540 0.083227 0.387764 -0.410771 0.604177 -0.120842 -0.023170 -0.026264 -0.452662 0.694044 0.343654 -0.239592 0.213686 -0.078512 -0.017035 0.464590 -0.024749 0.058314 -0.175360 0.159766 0.124989 -0.606286 -0.619727 -0.000522 -0.607250 -0.670471 -0.016555
447 0.171717 0.263421 0.897655 -0.337444 0.121813 -0.154921 -0.198683 -0.273865 -0.342293 0.485719 -0.270363 0.060409 -0.136325 -0.186323 0.289287 0.082948 0.090733 -0.280191 0.000992 0.395738 -0.134979 -0.035286 -0.052583 1.051006 0.346967 -0.309344 0.087675 0.327441 -0.050647 0.089404 0.074985 0.564995 -0.283145 0.273224 0.378201 0.505868 -0.611246 -0.173968 0.408991 0.122750 -0.270247 0.266996 -0.021387 -0.256591 -0.175803 -0.603375 0.539073 0.470967 -0.075261 0.520939 0.203286 0.092692 0.163591 -0.061781 0.152018 -0.307620 -0.419503 0.237713 -0.348945 -0.102615 0.434613 -0.303324 -1.018151 0.151117
300 -0.562496 0.017063 0.119894 -0.274659 0.095968 0.002336 -0.186158 -0.223897 -0.277005 0.386446 0.339830 -0.226908 -0.066497 -0.675148 -0.105679 0.470190 -0.341939 0.125042 -0.392571 0.753323 -0.038258 0.179828 0.149958 0.900373 0.065126 0.133765 0.125090 0.403785 0.045936 -0.326939 0.476811 0.338409 -0.087917 0.080965 -0.036576 0.435809 -0.205064 -0.472967 -0.064918 0.454949 -0.107442 0.121036 0.041018 0.602560 0.123039 -0.252500 0.371729 0.242972 -0.083031 0.176030 0.434005 0.597253 0.359811 0.191082 0.160264 -0.167878 -0.164196 0.283629 -0.709704 0.351312 0.206726 -0.632177 -0.587524 0.721184
771 0.360610 0.472754 0.609772 0.007008 0.275070 0.384913 -0.029247 -0.170571 -0.371375 0.177215 -0.077125 0.333102 -0.249066 0.019436 0.275975 0.256852 -0.274630 -0.370094 0.014327 0.399092 -0.290373 0.068421 0.196992 0.850252 0.164350 -0.165021 0.093297 0.620072 -0.258851 -0.598287 0.209369 0.826578 0.029471 0.408079 0.684080 0.262015 -0.369054 -0.070962 0.141094 -0.441314 -0.529030 0.644119 0.058568 -0.118707 0.035395 -0.621678 0.378780 0.184982 -0.463579 0.181788 -0.433026 0.293934 0.068751 -0.176684 0.202196 -0.154670 0.084534 0.068036 -0.610516 -0.565349 0.131648 -0.480104 -0.912598 0.494255
16 0.039620 0.164030 0.535187 0.006954 0.264887 0.400814 0.340441 -0.338955 0.249146 0.535154 -0.005691 0.260816 -0.438516 -0.051797 0.491529 0.809166 -0.045314 -0.124081 -0.230475 0.096959 -0.066231 -0.004603 0.283364 0.929028 0.464074 -0.254430 -0.182875 0.478381 0.349856 -0.184091 0.197161 0.369844 -0.150312 0.330759 0.082900 0.823924 -0.108122 0.160986 0.515278 0.218107 -0.480860 0.470138 0.024880 -0.122923 -0.235118 -0.677264 0.448717 -0.047680 0.066634 0.053293 0.303427 0.423969 0.210607 -0.201603 0.408693 -0.029282 0.062444 0.152411 -0.356865 -0.760983 0.107792 -0.603251 -1.042862 -0.219969
131 -0.499609 0.192578 0.187272 -0.638841 0.044479 0.515655 0.043398 -0.215139 -0.235829 0.554628 0.395974 0.017301 -0.078159 -0.364664 -0.092952 0.587619 -0.222178 0.226098 -0.297002 0.741955 -0.301758 0.210513 -0.107047 0.916189 0.388866 0.197776 -0.007949 0.115172 -0.146340 -0.357511 0.077286 0.582374 -0.077029 0.173242 0.081966 0.320856 0.238685 0.118278 -0.148215 0.384161 0.167251 -0.061566 0.305903 0.642176 -0.175978 -0.137560 0.340707 0.006410 0.481207 0.155499 0.274407 0.457372 0.203782 0.073906 -0.469736 -0.417080 -0.402042 0.197376 -0.887396 0.369135 0.158414 -0.431760 -0.796900 0.603419
242 0.131786 0.284718 0.917433 -0.219928 0.149484 0.185659 -0.245406 -0.325730 -0.088311 0.170095 -0.460712 0.227466 -0.216992 -0.014176 0.339096 0.178624 -0.060433 -0.192411 -0.088383 0.337109 -0.103914 0.007712 -0.057171 1.058959 0.179460 -0.151842 0.038354 0.567792 0.076709 0.158942 0.098358 0.476960 -0.262963 0.288417 0.294238 0.330016 -0.249741 -0.199326 0.295869 0.093551 -0.374239 0.187975 0.094501 -0.117510 -0.284844 -1.007727 0.453487 0.289724 -0.155002 0.508189 0.218908 0.316697 0.345131 0.150558 0.372342 -0.275609 -0.330748 0.327008 -0.506483 -0.312995 0.280760 -0.389375 -0.982222 0.402039
243 0.222235 0.158203 0.520233 0.030623 0.361117 0.089185 -0.064453 -0.292957 -0.038597 0.204059 -0.495184 0.181129 -0.264183 -0.119412 0.400991 0.369707 -0.114344 -0.127884 -0.209393 -0.081740 0.206348 -0.053773 0.006767 0.981374 0.347630 -0.153287 -0.075500 0.604524 0.207840 -0.113509 0.018490 0.428417 0.042105 0.535624 0.344987 0.427038 -0.251066 -0.099912 0.049000 0.088174 -0.347039 0.749372 0.063377 -0.034206 -0.062874 -0.930723 0.768391 0.142184 0.135802 0.258319 0.162519 -0.120901 0.286439 0.184110 0.161906 -0.468178 -0.335278 0.332931 -0.702534 -0.368497 0.044373 -0.568744 -1.025434 0.494784
587 1.137657 0.263515 0.676448 -0.654737 0.162939 0.949657 0.517670 -0.278622 -0.758564 -0.525577 0.315778 -0.144455 -0.512681 -0.008307 0.633469 -0.098590 -0.430997 -0.221530 -0.228801 0.773248 -0.033389 0.033521 -0.131869 0.238778 0.504358 -0.074657 0.048651 0.334241 0.565373 -0.476328 0.466770 -0.063853 -0.398333 0.133491 0.168265 0.508456 0.255221 0.380083 -1.081021 -0.173994 1.321391 -0.230164 0.176624 0.853205 0.136995 -0.393790 0.804441 0.566422 -0.321299 1.379891 -0.413843 -0.566699 0.413689 -0.233285 0.123295 0.311066 0.462404 0.221734 -0.486934 0.527999 -0.375447 -0.099417 -0.482104 -0.754856
1264 0.048851 0.689015 0.486723 -0.176685 0.052085 0.395484 -0.169134 -0.135775 0.225925 0.614031 -0.260858 0.427619 -0.610593 0.210830 0.156852 0.250380 -0.392669 0.232004 -0.234501 0.487653 -0.276065 -0.001571 -0.069317 0.777361 0.081824 -0.362682 0.074361 0.689099 0.445726 0.459784 0.227309 0.850466 -0.064869 0.281535 0.317486 0.348742 -0.204955 0.080697 0.008846 0.064014 -0.253078 0.304523 -0.104630 -0.249383 0.180554 -1.011883 0.552533 0.217572 -0.609423 0.186686 -0.019460 -0.179222 0.004227 0.087876 0.324424 -0.010560 -0.055684 0.317370 -0.464013 -0.601678 0.377739 -0.497633 -0.814677 0.565660
31 -0.062510 0.742101 0.399561 -0.085516 0.425763 0.290876 -0.198948 -0.298373 -0.016109 0.289840 -0.024372 0.477939 -0.321114 0.113859 0.403561 0.287467 -0.247870 -0.252629 0.163564 0.223760 -0.194160 -0.046162 -0.145773 0.915838 0.386096 -0.230092 -0.052407 0.473389 0.002815 -0.344649 -0.140832 0.700380 0.097128 0.336102 0.410684 0.474752 -0.184079 0.007174 0.239549 -0.392947 -0.282737 0.644699 0.090045 -0.129211 0.007239 -0.631120 0.410011 -0.067097 -0.240604 0.260274 -0.073572 0.434064 0.264749 -0.296659 0.187012 -0.286893 -0.082670 0.253256 -0.528869 -0.606246 0.212638 -0.714481 -1.029007 0.233255
1546 -0.102273 0.553599 0.534532 0.121461 0.355686 0.621266 -0.171441 -0.205474 0.064917 0.192771 -0.332139 0.072988 -0.517928 -0.087263 0.512407 0.167416 0.066844 0.097142 -0.209824 0.408045 -0.012595 -0.181306 0.277446 0.830039 0.131197 0.027088 0.038367 0.387472 0.013227 -0.285783 -0.220018 0.631615 0.173631 0.239358 0.145504 0.565986 0.119476 0.186974 0.168906 0.053137 -0.055173 0.473268 -0.048275 -0.194128 -0.075833 -0.598428 0.814221 0.281426 -0.581921 0.161452 0.049687 0.224346 -0.129115 -0.054356 0.040747 -0.102845 -0.299912 0.418857 -0.785319 -0.562652 0.239384 -0.742220 -0.610094 0.116679
1479 0.112725 0.212874 0.709997 0.040316 0.013585 0.359935 -0.277129 -0.276883 0.285685 0.660582 -0.358584 0.589855 -0.292931 0.077462 0.275193 0.204922 -0.299258 -0.072340 -0.144531 0.569536 -0.414086 -0.370294 0.016198 0.957574 0.078771 -0.090505 -0.032442 0.497368 0.199393 0.564358 0.195434 0.569538 0.022265 0.441659 0.336034 0.414860 -0.515224 0.014917 0.123946 -0.134950 -0.084480 0.402494 -0.107726 -0.114975 0.133904 -0.804194 0.380692 0.016791 -0.410742 0.152709 0.336184 0.062977 0.040117 -0.068399 0.315428 0.235270 0.125186 0.467641 -0.577473 -0.841994 0.020584 -0.649616 -0.842363 0.512447
1430 0.064210 0.519963 0.638756 -0.064279 0.288212 0.321086 -0.104639 -0.342689 0.179245 0.150194 -0.089688 0.472508 -0.408131 0.021547 0.430565 0.250097 -0.460233 -0.145164 0.113467 0.374581 -0.168894 -0.356070 -0.113527 0.895651 0.197962 -0.274710 -0.041310 0.666264 -0.027100 -0.203050 0.150155 0.597067 -0.008562 0.247450 0.599383 0.459767 -0.147481 -0.099668 0.601482 -0.077380 -0.209819 0.596407 0.498518 -0.128813 -0.393914 -0.441581 0.361994 -0.057727 -0.326961 0.580577 -0.181705 0.243287 0.024631 -0.235275 0.260015 -0.240239 0.004593 0.108924 -0.521251 -0.480801 0.095672 -0.654322 -0.886970 0.258711
791 -0.017286 0.591469 0.663334 -0.120307 0.457235 0.257396 -0.173021 -0.401826 -0.169277 0.144676 0.006696 0.429256 -0.273419 0.156329 0.212582 0.134434 -0.409502 -0.201074 -0.046978 0.156237 -0.164741 -0.117362 -0.007180 0.943062 0.336951 -0.196680 -0.003790 0.498542 -0.029077 -0.334798 -0.060589 0.697775 -0.033831 0.315340 0.599845 0.489971 -0.236444 -0.032773 0.186915 -0.251391 -0.379495 0.607256 0.166350 -0.196981 -0.121438 -0.558900 0.412312 0.013741 -0.289056 0.365767 -0.160440 0.301575 0.123900 -0.227142 0.367619 -0.282292 -0.053636 0.125709 -0.664027 -0.370200 0.398923 -0.660181 -0.905348 0.206036
306 -0.160654 0.146795 0.188175 -0.796360 0.207906 0.735271 -0.013900 -0.436581 -0.367585 0.895801 0.261554 -0.060813 -0.037461 -0.550332 0.129015 0.344303 -0.188870 -0.077626 -0.245378 0.873756 0.010525 0.008141 -0.054854 1.076022 0.169365 -0.254798 -0.332008 0.207718 -0.063541 -0.299124 0.217376 0.395014 0.168011 0.252115 -0.237015 0.437520 -0.426793 0.147054 -0.346304 0.184102 0.027861 -0.098486 0.226038 0.595874 0.002839 0.127351 0.244634 0.107818 -0.021311 0.329592 0.632247 0.435681 0.290440 -0.093178 -0.033168 -0.311747 -0.564864 -0.070268 -0.551997 0.453680 0.279831 -0.350085 -0.387596 0.413572
545 -0.235952 0.168605 0.295523 -0.670433 0.192976 0.534754 0.056874 -0.365827 -0.444950 0.599277 0.453954 0.173908 0.087584 -0.538858 0.075137 0.408844 -0.136516 0.217846 -0.102491 0.840376 -0.314319 0.059176 0.011563 0.782557 0.049052 0.059235 -0.048764 0.161369 0.048257 -0.055662 -0.124079 0.335588 -0.080366 0.518240 -0.112311 0.329972 -0.349365 -0.191843 0.073724 0.585638 -0.018624 0.296661 0.084442 0.715079 0.244891 -0.172920 0.374486 0.225576 -0.022863 0.458822 0.813877 0.626787 0.290573 -0.087200 -0.442161 -0.556775 -0.487458 -0.123360 -0.523962 0.617608 0.077205 -0.551443 -0.427775 0.221465
1031 0.269663 0.430132 0.439848 -0.085624 -0.113153 0.210037 -0.114551 -0.400072 0.443137 0.316690 0.012074 0.278989 -0.194610 -0.202916 0.362388 0.352936 -0.194526 -0.141994 -0.307658 0.238536 -0.533818 -0.253190 0.571870 1.088356 0.240914 -0.562831 0.066651 0.617262 0.012150 -0.123504 0.292024 0.128190 -0.284282 0.296878 0.181243 0.767704 0.113541 -0.191854 0.360370 -0.251269 -0.525669 0.482774 0.031735 -0.090806 -0.127600 -0.574346 0.403718 0.611377 0.092215 0.032398 -0.050846 -0.260642 0.326908 -0.045260 0.371155 -0.143660 0.030123 -0.210978 -0.740460 -0.760352 0.448470 -0.702874 -0.667885 0.016050
127 0.718269 0.258793 0.222942 0.046804 -0.098589 0.466306 -0.018925 -0.344506 0.324077 0.452394 0.790320 -0.011445 -0.002014 -0.432898 0.623200 0.465606 0.162378 -0.196123 -0.249164 0.082722 -0.168132 0.378802 0.434810 0.940262 -0.073458 -0.024744 0.114860 0.012400 0.338927 -0.268028 0.004651 0.212655 -0.128077 0.345708 -0.269170 0.965942 0.064041 0.153345 0.311118 -0.094254 0.073112 -0.398168 0.494434 -0.685647 -0.128131 -0.317568 0.263084 -0.335471 -0.243655 0.437527 0.206431 -0.176399 0.403300 -0.100278 0.209042 -0.184770 0.117347 -0.022946 -0.265981 -0.646182 0.443099 -0.894304 -0.710015 -0.687361
3980 0.172788 0.766114 0.548144 0.147151 0.408333 0.124820 0.087139 -0.363181 -0.126390 0.352188 -0.247037 0.066800 0.253740 -0.277316 0.201465 0.413760 -0.216024 -0.105314 -0.297779 0.533133 -0.658306 0.079006 0.236266 1.174238 0.621211 -0.048641 0.100549 0.535516 0.036511 -0.068500 -0.138874 0.140735 0.084928 0.202796 0.152802 0.888855 0.164932 0.159168 0.099050 -0.336393 -0.342014 0.574207 -0.048525 0.076958 -0.543504 -0.720382 -0.031044 0.405188 -0.229215 0.218319 0.003597 -0.115473 0.103697 0.006058 0.611346 -0.171376 0.364347 0.091574 -0.890481 -0.523234 0.348884 -0.481676 -0.670764 0.400981
295 -0.029719 0.677022 0.421322 -0.422273 0.425555 0.158270 0.130550 -0.402972 -0.133122 0.170390 -0.269370 0.390884 -0.175360 0.098195 0.439405 0.108419 -0.053622 -0.306800 -0.062401 0.496355 -0.142420 -0.347460 0.212416 1.057297 0.304619 -0.298731 0.565767 0.673206 -0.238934 -0.267148 0.087833 0.531979 -0.003167 0.383406 0.355036 0.332808 0.021821 -0.363232 0.175825 0.130190 -0.481545 0.332089 -0.113712 -0.146479 -0.259899 -0.817034 0.435899 -0.129593 -0.322662 0.133756 -0.118339 0.091777 -0.055508 -0.457193 0.101676 0.228288 0.152242 0.145134 -0.575560 -0.294716 0.164041 -0.846972 -1.071300 0.375838
173 0.147782 0.622987 0.828634 -0.557019 0.341896 0.396441 0.018168 0.039058 0.065497 0.355908 -0.357323 0.174952 -0.349515 0.286758 0.342224 0.128192 -0.054730 -0.016096 -0.029283 0.309324 -0.009434 -0.085098 -0.059157 1.040960 0.295864 0.089496 -0.011057 0.567883 -0.100391 -0.291442 -0.153193 0.557367 0.288780 0.179735 -0.009753 0.676848 0.096361 -0.204365 0.162904 -0.063678 -0.280774 0.624450 -0.342444 -0.069576 0.095640 -0.529103 0.419325 0.467766 -0.064106 0.201241 0.179157 0.364537 0.446500 0.105829 0.295918 -0.442867 -0.030218 0.290259 -0.488562 -0.730211 -0.010952 -0.619939 -0.781683 0.020599
1586 -0.355878 0.110651 0.137526 -0.555139 -0.041421 0.701615 0.118989 -0.548601 -0.577344 0.486566 0.350246 0.376647 -0.118871 -0.910067 0.396253 0.545705 0.034649 0.293974 0.011459 0.494527 -0.144517 0.427387 0.319193 0.417058 -0.198853 -0.153784 0.041530 0.397884 -0.219504 -0.202731 0.030281 0.425306 0.087627 0.257220 -0.017076 0.314122 -0.104184 -0.683403 0.128383 0.183294 0.319825 0.262244 0.128144 0.299515 -0.082794 0.096377 0.683720 0.371001 -0.646263 0.500455 0.911556 0.400521 0.220751 -0.026552 -0.114261 -0.369453 -0.239893 0.475152 -0.600626 0.388201 -0.165391 -0.497422 -0.279322 -0.192884
604 -0.283918 0.239956 0.474701 -0.710879 0.140428 0.219437 0.053255 -0.310004 -0.163189 0.701068 0.531378 -0.279230 0.078373 -0.694144 0.067816 0.319083 -0.316519 0.155304 -0.382162 0.950976 -0.064801 0.124919 0.136257 0.972017 -0.076868 -0.184014 -0.219864 0.391028 0.058389 -0.313892 0.292045 0.105451 0.080773 0.155258 -0.109112 0.394716 -0.208199 -0.380484 -0.162368 0.441917 -0.183364 0.079996 0.080642 0.626904 0.123946 -0.240054 0.080844 0.119933 -0.265058 -0.005762 0.533066 0.603819 0.229951 -0.006373 0.058198 -0.101441 -0.351910 0.179883 -0.632509 0.657418 -0.054118 -0.683141 -0.374584 0.434810
910 -0.099279 -0.106682 0.529055 -0.608537 0.271624 0.287888 -0.155045 -0.422909 -0.053356 0.499468 -0.079275 -0.143267 0.032099 -0.181548 0.194600 -0.071829 -0.209042 -0.348597 0.065159 1.028562 -0.087583 -0.126292 -0.109820 0.776428 -0.119601 -0.472355 -0.054810 0.148522 0.169446 -0.113039 0.307892 0.495765 -0.250839 0.591555 0.159434 0.632305 -0.603718 -0.365954 -0.059220 0.174765 0.227980 -0.138717 0.342025 0.066650 -0.222957 -0.232270 0.171956 0.223367 0.120419 0.860423 0.198574 0.450360 0.359657 0.119788 -0.413898 -0.503662 -0.591344 0.011865 -0.559806 0.604637 0.010048 -0.149940 -0.587128 0.401515
35 0.157376 0.214853 0.232511 -0.471990 0.071249 0.520415 -0.420314 -0.024728 0.233205 0.153052 -0.112351 -0.039237 0.082849 -0.297619 0.377961 0.023262 -0.476472 0.193529 -0.208025 -0.110412 -0.002137 -0.026721 -0.041439 0.663158 0.164459 -0.377036 0.349102 0.237167 -0.095835 -0.569868 -0.341628 0.661371 0.061176 0.080201 -0.083070 1.440729 -0.279110 0.129531 0.743617 0.283805 0.420343 0.107351 -0.065432 -0.003114 -0.007049 -0.554041 0.496622 -0.149242 0.315194 -0.534648 0.009401 0.191560 0.157008 -0.251943 0.108080 -0.229052 -0.052491 0.482332 -0.406047 -0.525984 0.224498 -0.788595 -0.493665 -0.232680
73 0.319384 0.463096 0.927189 -0.191655 -0.324350 0.492322 -0.600141 0.115089 -0.020949 -0.127120 0.547040 0.517705 -0.269366 -0.667359 0.786385 0.645331 -0.451886 0.029657 -0.110348 0.208360 0.078285 0.093255 0.251746 0.821320 0.434002 0.084116 -0.005310 -0.085315 -0.126906 -0.566378 -0.008212 0.354100 0.193147 0.526724 0.099387 0.942756 0.177032 -0.730109 0.174080 0.514895 -0.213078 0.301073 0.023120 0.077441 0.233129 -0.598529 0.078615 -0.045360 0.310041 0.303087 -0.037644 -0.311953 0.426974 0.188444 0.070461 0.430196 -0.184131 -0.410288 -0.347685 -0.594381 0.515492 -0.520734 0.276634 -0.297667
143 0.006220 0.499537 0.744371 -0.446714 0.337576 0.172786 0.142487 -0.125909 -0.028451 0.356861 -0.316588 0.307762 -0.201705 0.258549 0.361680 0.203343 -0.217322 0.011239 -0.186751 0.191378 0.000290 -0.343693 0.079920 1.138135 0.303189 -0.055814 0.231602 0.556782 -0.055301 -0.201499 -0.014134 0.413638 0.118446 0.174518 -0.062743 0.704546 0.025268 -0.142612 0.180238 0.067522 -0.280639 0.668947 -0.109185 -0.089760 0.093294 -0.419173 0.305123 0.375326 -0.215773 0.181736 0.261082 0.104249 0.322460 -0.149571 0.332775 -0.286975 -0.011388 0.190542 -0.775736 -0.830042 0.172615 -0.590504 -0.893202 0.181471
395 0.273957 0.444497 0.622819 -0.227390 0.395389 -0.003822 -0.068588 -0.345456 0.038268 0.398838 -0.305740 0.236871 -0.260063 -0.048554 0.393875 0.302723 0.108333 -0.154269 -0.055381 0.481454 -0.134912 -0.137620 -0.124804 0.974251 0.383340 -0.333738 0.052872 0.395684 0.125471 -0.079499 0.120309 0.645730 -0.133107 0.217267 0.379648 0.415870 -0.275848 -0.150567 0.255124 0.057586 -0.155762 0.402530 -0.075770 -0.173518 -0.224498 -0.872041 0.393848 0.212977 -0.103101 0.406728 0.131984 0.097882 0.286610 0.045020 0.232187 -0.351878 -0.233197 0.008682 -0.769379 -0.350989 0.316393 -0.273007 -0.940872 0.283953
301 -0.321732 -0.011778 0.236269 -0.422539 0.063998 0.300970 0.024399 -0.270888 -0.330595 0.449448 0.157941 -0.006877 -0.051467 -0.523593 -0.093913 0.522952 -0.219048 -0.088549 -0.391315 0.650142 0.000959 0.088589 -0.212477 0.927308 0.097949 0.000126 0.279601 0.274761 0.110535 -0.134583 0.237875 0.625011 0.071453 0.544153 -0.002849 0.422111 -0.267922 0.024520 -0.245966 0.501306 0.093664 -0.028899 0.219716 0.611110 0.107342 0.021985 0.369523 0.370930 0.080147 0.423687 0.685088 0.400666 0.369373 0.202832 -0.138368 -0.288274 -0.418732 0.227421 -0.681683 0.493881 0.375153 -0.660402 -0.484652 0.543738
2774 0.162968 0.562173 0.642087 0.022119 0.032786 0.341543 0.057107 -0.359078 0.129896 0.487868 -0.455180 -0.014721 -0.593356 -0.083170 0.269050 0.236046 -0.079295 -0.199428 -0.106148 0.495130 -0.051060 -0.192154 0.313770 0.940395 0.325492 -0.070007 0.052417 0.591127 -0.039944 -0.194492 -0.122965 0.540959 0.020881 0.288018 0.468615 0.520516 -0.031832 0.206089 -0.014245 0.031498 -0.104026 0.527717 -0.030824 -0.100490 -0.246290 -0.594960 0.700829 0.402466 -0.466727 0.390269 0.095240 0.227334 -0.263291 -0.035762 0.316163 -0.056968 -0.343154 0.181372 -0.755581 -0.731074 0.422638 -0.853243 -0.498503 0.368663
132 0.124867 1.002255 0.277220 -0.487404 0.330689 0.764532 0.037967 -0.142373 -0.648291 -0.149764 0.696062 0.169865 0.249426 -0.020086 0.999776 0.430568 -0.540280 0.312576 -0.362261 -0.241710 -0.347469 0.405527 0.229544 0.714436 0.706372 -0.090887 -0.313614 0.295961 -0.568860 -0.118460 1.093019 -1.095585 -0.305169 -0.200761 0.026477 0.539494 -0.619911 -0.599804 -1.154150 0.594275 0.439735 0.810488 0.614400 0.380295 0.526192 -0.221722 0.387293 -0.304320 -0.162399 0.415641 -0.480789 0.224791 -0.402637 0.660153 0.477022 -0.418876 0.296386 0.204122 0.153493 0.014522 -0.018262 0.232279 -0.621479 0.324697
2721 0.068761 0.599492 0.719585 -0.067334 0.109894 0.423677 -0.032387 -0.226949 0.215087 0.240531 -0.526514 0.035877 -0.403516 -0.061684 0.502521 0.318687 -0.039711 -0.114484 -0.192946 0.530892 -0.139397 -0.301951 0.160619 0.979214 0.386091 0.024011 0.015693 0.563768 -0.126296 -0.211496 -0.022547 0.370797 -0.149262 0.101807 0.499916 0.603220 0.008642 0.142037 0.134475 0.069316 -0.117016 0.549669 -0.122790 -0.122624 -0.194687 -0.582960 0.669261 0.280799 -0.287041 0.253481 0.109450 0.262945 -0.186211 -0.101224 0.346532 0.035160 -0.230942 0.184464 -0.671351 -0.684592 0.302695 -0.796880 -0.735473 0.196576
288 -0.235482 0.131707 0.523618 -0.728606 0.064468 0.454645 -0.008054 -0.352421 -0.291733 0.690407 0.252790 -0.011248 0.188483 -0.393810 0.144752 0.303827 -0.355433 0.072530 -0.361983 0.748770 -0.082430 0.050255 -0.019302 0.831025 0.069501 -0.238723 -0.246507 0.264715 -0.009938 -0.304813 0.137642 0.296838 -0.197881 0.354299 -0.101365 0.413254 -0.352235 -0.039086 -0.294605 0.600351 -0.032891 -0.045601 0.089925 0.541596 0.045997 -0.299466 0.187535 0.198302 0.052334 0.252094 0.611588 0.549661 0.224254 -0.084582 -0.283487 -0.444414 -0.543937 0.062987 -0.753463 0.581262 0.296913 -0.745427 -0.415870 0.312279
1611 -0.249468 0.209619 0.426890 -0.686390 0.192176 0.434806 0.039573 -0.324864 -0.367998 0.483728 0.338316 0.082852 0.043727 -0.452547 0.048714 0.383328 -0.462428 0.041871 -0.353661 0.860912 -0.037920 0.107409 0.036596 0.771782 0.098675 -0.322797 -0.153940 0.296481 0.047323 -0.468483 0.062974 0.320618 0.048686 0.337261 -0.015372 0.368711 -0.352666 -0.046295 -0.151266 0.562326 0.106469 -0.060516 0.164924 0.571326 0.077649 -0.194962 0.110175 0.172489 -0.057328 0.466088 0.640724 0.542344 0.196097 -0.165808 -0.218098 -0.417457 -0.548665 0.045521 -0.721089 0.704135 0.247802 -0.541579 -0.324709 0.530240
3355 0.032790 0.833402 -0.387236 -1.304368 -0.221322 0.018156 -0.103553 -0.275624 -0.289396 0.072731 0.380988 0.060390 -0.549422 0.056602 0.929634 -0.205198 0.582464 0.433610 0.013510 -0.259439 -0.502037 0.287286 0.276297 0.066424 0.205549 -0.220772 0.141574 0.011194 -0.131586 0.427176 0.486461 0.104143 0.658708 0.813569 0.769887 0.119040 -1.051075 0.338030 -0.693073 0.547306 -0.173520 0.548886 0.010138 0.979292 -0.030716 0.327150 0.587276 -0.208321 -0.023275 0.811633 0.150869 -0.528117 0.830166 0.503119 0.679567 -0.143573 0.329171 0.569704 -0.286791 -0.237685 0.317528 -0.749647 0.133849 -0.069279
883 -0.364709 0.162531 0.431170 -0.390139 0.246245 0.386401 0.401167 -0.384634 0.028613 0.378331 0.195294 -0.430721 -0.723882 -0.603432 -0.108108 0.023734 0.212990 0.336492 -0.034194 0.580276 -0.036206 0.615644 0.371183 0.796258 0.099193 -0.231473 -0.463547 0.673996 -0.447358 -0.209073 0.214383 0.466280 0.088724 0.100234 0.325134 0.240625 -0.097738 -0.873676 -0.028981 0.132674 0.320891 0.362830 -0.164634 0.460183 0.119646 -0.442242 0.252391 0.448879 -0.438545 0.233795 0.785811 0.511653 0.099214 0.240330 0.302977 -0.310904 -0.302347 0.273153 -0.549156 0.124051 0.053608 -0.671267 -0.374924 -0.288108
606 1.272690 0.608845 0.534031 -0.042029 -0.523097 0.398506 -0.174722 -0.027636 -0.024460 0.312576 0.281574 -0.001898 -0.008445 -0.458341 0.921464 0.697898 -0.394395 0.111654 0.132044 -0.052456 0.003240 0.122875 0.117760 0.929483 0.277784 -0.119486 0.049412 -0.108232 -0.250735 -0.420328 0.078101 0.393813 -0.441013 0.189550 0.224134 1.134892 -0.325207 -0.426740 0.116442 0.001571 -0.075394 0.107517 -0.076563 -0.010034 0.178195 -0.572894 -0.101379 -0.454705 0.176220 0.210080 -0.028122 -0.280979 0.577841 0.060972 -0.019760 -0.023884 0.087732 0.576586 -0.470930 0.302203 0.436042 -0.736771 -0.043200 -0.428136
675 0.887978 0.991724 0.787205 -0.806668 -0.963149 1.314930 0.612196 -0.428257 -1.678624 0.497099 1.339554 0.565208 0.362638 -1.068165 0.233262 -0.150065 0.067323 -0.610264 0.112684 0.817958 -0.474475 -0.620989 0.769642 0.801354 0.766066 -0.813715 1.038974 1.325522 0.037970 -1.393986 -0.513234 -0.618360 -0.514838 -0.471752 1.057159 1.652130 -0.963158 0.178061 -0.718499 0.001712 0.950294 0.425186 -0.701079 1.170048 0.894809 -0.370491 0.207138 -0.184670 0.033261 0.965115 -0.113947 0.044160 0.845116 -0.237058 -0.084888 -0.234025 0.297477 0.935491 -0.542439 -0.280682 -0.812560 0.265457 -0.194028 0.611844
6 0.152320 -0.209278 0.329869 -0.417464 -0.161341 -0.228691 0.169626 0.060078 0.015124 -0.059164 -0.389260 0.132930 -0.161244 -0.154360 0.055697 0.862952 -0.458711 0.110980 0.243506 0.423273 -0.040867 0.292488 0.092711 1.311926 0.161321 -0.163134 0.427358 -0.121814 0.122488 -0.424225 0.330558 0.785150 0.137656 0.434371 -0.098293 0.351427 -0.020975 0.186896 -0.053485 0.306596 0.178574 0.065472 0.133634 0.636591 -0.183564 -0.157502 0.509068 -0.231905 0.333775 0.688353 0.357488 0.480355 0.259822 0.193501 0.197541 -0.394489 -0.627862 0.470583 -0.514057 0.150107 0.472914 -0.624330 -0.317185 0.767570
820 -0.318230 0.156871 0.195895 -0.806671 0.223357 0.479566 -0.008969 -0.403870 -1.036123 0.323518 0.295057 0.328180 -0.098792 -0.953578 0.363805 0.308147 0.117176 0.707332 -0.230890 0.041795 -0.007829 0.267918 -0.130815 0.128895 0.002454 -0.077922 -0.053029 0.253414 -0.040207 0.221898 0.212163 0.272180 0.172114 0.583254 0.305471 0.388919 -0.522335 -0.144206 -0.047172 0.160353 0.410911 -0.411612 0.438562 0.728125 -0.563234 0.183588 0.386093 0.640059 -0.210412 0.640027 0.894729 0.198399 0.425959 -0.077579 0.060309 -0.501589 -0.103038 0.583825 -0.349079 0.511869 -0.135188 -0.741271 0.038550 0.080497
788 -0.244498 0.216976 0.188298 -0.588858 0.050972 0.540387 -0.375968 -0.274751 -0.416553 0.928367 0.285913 -0.351303 -0.415254 -0.587448 -0.083258 0.091923 -0.132800 -0.006899 -0.356687 0.568709 -0.059979 0.238771 -0.173871 1.117488 0.009128 0.067074 -0.245243 0.366747 -0.047982 -0.366850 0.464558 0.406222 0.155278 0.255385 -0.179005 0.437264 -0.371633 -0.159713 -0.299136 0.425818 0.111721 -0.296954 0.241762 0.627207 0.131231 -0.050675 0.357357 0.247204 0.037130 0.376565 0.609468 0.737112 0.393829 -0.112849 0.004662 -0.604438 -0.413497 0.048148 -0.436275 0.438535 0.305760 -0.849442 -0.374717 0.292443
3462 0.228110 0.594162 0.599015 0.012280 0.342366 0.314017 -0.099127 -0.186035 0.192599 0.731881 -0.238932 0.197433 -0.408129 0.094865 0.298815 0.235136 -0.302357 0.079543 -0.260607 0.299002 -0.191209 -0.173092 -0.066435 0.848922 0.014804 -0.382057 0.131079 0.588048 0.052465 0.246754 -0.008243 0.595308 0.078832 0.509043 0.555676 0.535618 -0.093840 -0.074157 0.190249 0.033468 -0.200470 0.519261 -0.047944 -0.313705 0.164776 -0.800712 0.420435 0.229652 -0.236089 0.400437 0.143345 -0.161346 0.086602 0.044988 0.313309 -0.275943 0.200907 0.133370 -0.595063 -0.384705 0.391368 -0.504018 -0.852251 0.347132
876 -0.224616 0.223532 0.326023 -0.789419 0.037037 0.434670 0.019885 -0.267238 -0.461609 0.633766 0.375089 -0.083595 0.023678 -0.603065 0.198802 0.246735 -0.296548 -0.063802 -0.318411 0.910833 -0.031331 0.099081 0.023391 0.638394 0.107695 -0.152352 -0.180966 0.229692 0.179563 -0.332200 0.144882 0.613983 0.000651 0.384331 -0.111113 0.462386 -0.452881 -0.029257 -0.238203 0.400687 0.018173 -0.056334 0.273358 0.596466 0.108530 -0.172074 0.302559 0.136676 0.023639 0.491071 0.759080 0.416887 0.287927 -0.133757 -0.269587 -0.287281 -0.681872 -0.148960 -0.720418 0.608586 0.144470 -0.664900 -0.309721 0.482886
600 -0.237098 0.171040 0.529808 -0.815970 0.102740 0.445708 0.019693 -0.428801 -0.555286 0.703933 0.441463 -0.129456 0.028812 -0.467536 0.049416 0.349665 -0.356480 0.073155 -0.450451 0.802935 -0.128832 0.124603 -0.044624 0.720107 -0.002044 -0.235089 -0.126496 0.102743 -0.009167 -0.389877 0.211064 0.625558 -0.064493 0.252637 -0.134491 0.270872 -0.414008 -0.132642 0.052124 0.529832 0.148770 0.041631 0.165658 0.615708 -0.066871 -0.198186 0.379890 0.150975 0.010811 0.280397 0.658717 0.557687 0.316132 0.097957 0.011223 -0.387028 -0.648858 -0.080484 -0.631535 0.565943 0.227128 -0.488395 -0.387306 0.360069
1361 -0.342512 0.146050 0.188333 -0.768367 0.066776 0.475536 0.028188 -0.450125 -0.138258 0.754583 0.347884 -0.130388 -0.257071 -0.422002 0.037003 0.578422 -0.418609 -0.044608 -0.671865 0.520548 -0.052255 0.213995 -0.022799 0.700637 -0.288736 -0.618816 -0.194884 0.266869 -0.174810 -0.237040 0.234047 0.387996 -0.163234 0.600496 0.038632 0.124516 -0.211537 -0.244471 -0.072643 0.548978 0.259740 -0.063051 0.221401 0.448522 0.351642 -0.301162 0.444126 0.176956 0.060758 0.378576 0.943198 0.522728 0.133160 -0.235730 -0.235841 -0.231298 -0.332132 -0.128862 -0.805700 0.461264 0.409196 -0.262028 -0.297168 0.151868
4334 0.466422 0.397246 0.460896 -0.236525 0.463140 0.186220 0.247445 -0.746256 -0.141862 0.272799 -0.447627 0.081306 -0.347350 -0.179580 0.356484 0.668797 -0.620912 -0.215958 -0.084215 0.390685 -0.192346 -0.475029 0.207345 1.033416 0.482448 -0.235787 0.089600 0.573044 -0.093018 -0.043583 -0.111200 0.828322 -0.304072 0.237933 0.232499 0.569697 0.033605 -0.027205 0.140127 -0.107618 -0.182003 0.385054 0.034839 -0.184317 -0.044041 -0.499084 0.432817 0.128968 -0.407291 0.252639 -0.048407 -0.130013 0.081567 0.099347 0.384412 -0.231137 -0.104453 0.297442 -0.443073 -0.408754 0.292041 -0.658281 -0.487154 0.367999
908 1.129395 0.073949 0.574966 0.042529 -0.443962 0.400939 0.215580 -0.386060 -0.061560 0.251328 -0.058021 -0.248838 -0.073754 -0.309774 1.368410 0.427251 -0.276480 -0.114983 0.427248 0.454015 -0.112891 -0.320548 -0.107896 1.062080 0.420039 -0.011402 -0.091543 -0.002968 -0.163993 0.004658 0.310595 0.814699 -0.197408 0.350646 0.374602 0.957446 -0.329622 -0.189760 -0.242555 0.185040 0.241604 -0.071173 -0.013970 0.391227 0.031996 -0.425005 -0.068178 -0.293098 0.090415 0.051135 -0.159262 -0.196932 0.403977 0.271791 0.210632 0.026121 -0.064989 0.702294 -0.502000 0.696077 0.194868 -0.560104 -0.012189 -0.172650
949 -0.254218 0.201885 0.429527 -0.744694 0.040301 0.473409 0.041197 -0.332723 -0.323215 0.617013 0.117749 -0.102438 0.000976 -0.464533 0.185164 0.342958 -0.390078 -0.028901 -0.357666 0.952142 -0.135240 0.121996 -0.084019 0.758496 0.155483 -0.099550 -0.284130 0.244265 0.086655 -0.210817 0.059079 0.280092 -0.138605 0.460254 -0.071920 0.345356 -0.406314 -0.020402 -0.206808 0.448654 0.182817 0.006946 0.212214 0.662684 0.010946 -0.172115 0.263753 0.359926 -0.076830 0.490075 0.699497 0.510666 0.349548 -0.118052 -0.266612 -0.339831 -0.536627 0.037085 -0.540523 0.569271 0.262554 -0.759004 -0.528923 0.555389
438 -0.661607 0.614913 0.441431 -0.276058 0.129987 0.495974 0.158222 -0.241949 0.143847 0.185965 0.877261 0.474364 0.722925 -0.649517 0.370922 0.526319 -0.071845 -0.413833 -0.521810 0.457453 -0.343182 0.989210 -0.146185 1.041672 -0.268725 -0.071588 -0.292367 0.390499 -0.412919 0.197049 0.344139 0.276921 -0.071559 0.055427 -0.507825 0.338336 -0.477659 0.400893 -0.401668 0.111923 0.731693 -0.043166 0.230525 0.396678 -0.186861 0.493765 0.576866 0.059900 0.293158 0.479092 0.066406 0.246418 0.126677 -0.412180 -0.336252 -0.060404 0.025873 0.181491 -0.950534 0.132281 0.148791 -0.691709 -0.740492 -0.061152
4851 0.198236 0.354543 0.495731 0.018973 0.093335 0.335198 -0.036071 -0.486587 -0.015890 0.263716 -0.450024 0.332247 -0.277262 0.099181 0.356116 0.304409 -0.202607 -0.220375 -0.308749 0.138430 -0.057838 0.078652 0.166256 0.909235 0.364865 -0.154500 -0.067580 0.564920 -0.023852 -0.310667 -0.214799 0.454761 -0.046205 0.470255 0.234725 0.469694 -0.113776 -0.175470 0.075660 0.068464 -0.170004 0.623829 0.190973 -0.216736 -0.320376 -0.791510 0.573019 0.107324 0.123993 0.290855 0.151154 -0.138297 0.160619 0.224128 0.298285 -0.398078 -0.198275 0.361815 -0.827056 -0.580706 0.069036 -0.562173 -1.046692 0.397671
4238 0.038835 0.318361 0.564179 0.034462 0.509650 0.324086 0.013646 -0.226800 -0.056239 0.529882 -0.239828 0.499249 -0.313836 0.127134 0.599538 0.373762 -0.125653 -0.021841 -0.032990 0.572434 -0.176517 0.119132 0.115899 0.944927 -0.017533 -0.215872 -0.125778 0.650056 0.013418 -0.397471 -0.043582 0.550780 0.056866 0.174055 0.339070 0.512607 -0.319165 -0.111119 0.315037 -0.204433 -0.078834 0.523877 -0.215668 -0.103081 -0.188201 -0.732458 0.478121 0.344242 -0.142536 0.374882 -0.078182 -0.059460 0.137913 0.107702 0.520446 -0.134958 -0.033654 0.165985 -0.625057 -0.774626 0.467488 -0.530417 -0.777517 0.523856
1746 0.185907 0.628747 0.779551 -0.100158 0.340081 0.490954 0.045541 -0.378563 0.077033 0.341354 -0.241832 0.394161 -0.049927 -0.183226 0.303195 0.267674 -0.275612 -0.172403 -0.216326 0.229662 -0.250725 0.062379 0.194165 1.059460 0.481191 0.034891 -0.017576 0.485454 -0.330100 0.079132 -0.018238 0.618483 -0.144301 0.260247 0.083370 0.604554 0.001173 -0.093670 0.168820 -0.023168 -0.160242 0.489976 -0.136777 -0.185009 -0.421743 -0.582419 0.223642 0.478723 -0.247081 0.277634 0.094082 -0.093899 0.242647 -0.206252 0.376693 -0.233012 0.046206 -0.028729 -0.547747 -0.537476 0.307603 -0.470413 -0.824097 0.509200
601 -0.272306 0.109332 0.319157 -0.752856 0.046941 0.473366 0.035461 -0.369822 -0.417937 0.578174 0.256737 -0.188362 0.143535 -0.557166 0.131043 0.459238 -0.320988 0.020048 -0.439570 0.846616 0.037815 -0.017161 -0.031037 0.787646 0.115581 -0.187353 -0.314905 0.276759 0.018408 -0.375010 0.318061 0.552317 0.083202 0.318118 -0.000414 0.263904 -0.395969 -0.004659 -0.111607 0.622398 0.051146 -0.014785 0.137415 0.495106 -0.035518 -0.301429 0.345339 0.156252 -0.047164 0.389351 0.449568 0.506940 0.242435 0.114049 -0.114209 -0.412955 -0.660641 -0.202564 -0.601358 0.530234 0.351435 -0.548008 -0.407100 0.382976
602 -0.437775 0.022352 0.344949 -0.423729 -0.053465 0.225583 -0.000881 0.079743 -0.302750 0.404767 0.398571 0.213600 -0.316550 -0.410679 0.170217 0.630577 -0.135469 0.252658 -0.377684 0.889780 -0.038790 0.236676 -0.105568 0.867366 -0.056623 0.084200 0.163264 0.312953 0.331369 -0.213880 0.392130 0.646543 0.222355 0.347282 -0.227454 -0.059801 -0.309558 0.198579 -0.291539 0.708471 -0.062649 -0.143805 0.051380 0.514715 0.276612 -0.180559 0.410425 0.426266 0.145937 0.439508 0.278104 0.526911 0.362432 -0.052351 0.154049 -0.866872 -0.355925 0.192945 -0.454185 0.299334 0.456099 -0.599169 -0.501608 0.631370
2118 -0.037015 0.613965 0.096978 -0.975500 -0.022182 0.000623 -0.123568 -0.317807 -0.342942 -0.339327 0.411686 0.142388 -0.229735 -0.256506 1.036990 -0.677374 0.202569 0.357513 -0.098877 -0.321229 -0.513615 0.156979 0.291533 0.086912 0.242955 -0.108332 0.456429 0.128649 -0.185227 -0.075195 0.261036 0.182243 0.138525 0.812160 0.472364 -0.208541 -1.136875 0.543670 -0.725789 0.280969 -0.140379 0.575710 0.395512 1.086605 -0.289445 0.118234 0.855196 -0.503938 -0.473731 0.728792 0.281932 -0.420346 0.946290 0.562909 0.532680 0.011743 0.611866 0.979331 -0.673882 -0.412171 -0.260982 -0.732199 0.394127 0.001350
4806 0.070594 0.608020 -0.270762 -1.651850 -0.051412 0.034081 0.035158 -0.115900 -0.417543 -0.095691 0.392276 0.205185 -0.454475 -0.365278 0.779258 -0.260939 0.576232 0.532001 0.074524 -0.405700 -0.494037 0.120138 0.224650 0.186978 0.097695 -0.196229 -0.035660 0.134861 -0.260235 0.572452 0.439035 0.174656 0.313479 0.959000 0.801828 0.156538 -0.948223 0.204303 -0.309620 0.161679 0.135629 0.049762 0.031004 0.905714 -0.249127 0.281764 0.761451 -0.180828 -0.330203 0.712708 -0.017106 -0.232518 1.078508 0.201936 0.624560 -0.281550 0.333252 1.018964 -0.638614 -0.531424 -0.294679 -0.988225 0.445034 0.007543
518 0.072848 0.556921 0.581338 -0.098987 0.179919 0.165167 0.003055 -0.116911 0.292102 0.144952 -0.623206 0.329452 -0.220971 -0.028500 0.373338 0.398516 -0.433860 -0.025363 0.045203 0.477828 -0.246619 -0.320197 0.254861 1.163163 0.011855 -0.145565 0.090387 0.174318 -0.020088 -0.252114 -0.335711 0.744032 0.085351 0.446225 0.173607 0.541259 -0.300039 -0.021701 0.360366 0.185231 -0.045913 0.470075 -0.031684 0.157144 -0.069542 -0.483341 0.469254 0.013126 -0.208396 0.373760 0.163171 0.000041 0.124676 0.242568 0.404788 -0.156709 -0.165199 -0.081998 -0.383483 -0.616260 0.257858 -0.748398 -0.760134 0.345012
302 -0.256764 0.142551 0.371294 -0.711513 0.194086 0.390769 -0.041116 -0.446663 -0.447445 0.724627 0.323746 -0.062470 0.036306 -0.341746 -0.077172 0.390183 -0.273480 0.072976 -0.433193 0.742797 -0.149783 0.064937 0.126290 0.665229 -0.081020 -0.293466 -0.215195 0.296603 0.083477 -0.237549 0.280240 0.517620 -0.072545 0.427946 -0.174615 0.545297 -0.258781 0.067447 -0.183490 0.632611 0.141261 0.050700 0.232497 0.416086 0.129266 -0.363778 0.371428 0.012370 -0.001613 0.285356 0.697777 0.537160 0.270267 0.036368 -0.137936 -0.498421 -0.662372 -0.156392 -0.613330 0.609236 0.263990 -0.639101 -0.343902 0.301380
729 0.628670 0.814259 -0.003027 0.066876 0.088444 0.202353 0.237459 0.362919 -0.310426 0.242709 0.634282 -0.326684 0.167549 -0.342652 0.640466 0.872071 -0.453766 -0.097112 -0.362509 0.599402 -0.376903 -0.129551 -0.159267 0.985441 0.105544 0.086321 0.257595 0.075689 0.045234 -0.173345 -0.020571 -0.020007 0.340762 0.711310 0.368462 0.712611 -0.429508 0.141137 0.067877 -0.296726 -0.448991 0.362590 0.240280 -0.070015 -0.455106 -0.912043 -0.205877 0.014990 0.122920 0.025943 0.087046 0.386465 0.084578 -0.003169 0.695265 0.188210 0.478124 0.649509 -0.430345 -0.051074 0.379439 -0.825313 -0.464895 0.022675
1644 -0.264643 0.227562 0.203161 -0.684953 -0.095288 0.629019 0.441547 -0.435994 -0.529792 0.371355 0.262868 -0.153415 -0.014045 -0.429131 0.332497 0.187165 -0.357656 0.012440 -0.110789 0.692419 0.120769 0.392531 -0.243594 0.780638 0.171078 -0.231544 0.146456 0.286539 0.182757 -0.350047 0.259150 0.423066 -0.030182 0.342677 -0.146933 0.392151 -0.347874 -0.310101 -0.232003 0.195151 0.286588 0.033801 0.118736 0.785555 -0.233147 -0.070464 0.066874 0.627309 0.041112 0.456743 0.610944 0.374445 0.440497 0.029687 -0.087072 -0.284620 -0.623262 -0.268713 -0.604106 0.751506 0.038436 -0.953468 -0.505071 0.296306
3998 0.316530 0.866445 0.166461 -0.201683 0.327848 0.061572 0.139804 0.364993 -0.306962 0.020893 0.424070 -0.497930 0.271950 -0.501376 0.418705 0.434538 -0.607146 -0.122680 -0.245616 0.584325 -0.462747 -0.091847 -0.106754 0.813676 -0.027716 0.109763 0.268977 0.137449 0.059833 -0.013753 0.192400 0.062490 0.616137 0.673114 0.374640 0.612852 -0.216300 0.156518 0.039158 -0.202218 -0.234133 0.635341 0.510052 0.147192 -0.146954 -1.108486 -0.207409 0.385975 -0.164683 -0.045132 -0.174773 0.382991 0.105698 -0.095487 0.914273 0.275513 0.228734 0.411095 -0.450262 -0.157137 0.197845 -0.560904 -0.613750 0.317202
226 1.300402 0.385538 0.627302 0.152292 -0.566694 0.355841 -0.010941 -0.073586 -0.276563 0.434224 0.239186 -0.283423 -0.063664 -0.169901 0.990707 0.276668 -0.265371 -0.063206 0.203187 0.176247 -0.285143 -0.233717 -0.100703 1.024442 0.415277 0.082679 -0.064021 -0.151990 -0.506650 -0.389277 0.448762 0.540909 -0.287834 0.376101 0.306087 1.162490 -0.658572 -0.076896 -0.252358 -0.121003 0.010718 -0.291123 -0.104994 0.115295 0.292919 -0.497875 -0.078825 -0.451993 0.054281 -0.132797 0.044420 -0.016982 0.465684 -0.074866 -0.041272 -0.190268 0.166845 0.893985 -0.320624 0.321130 0.172410 -0.696297 -0.024778 -0.382145
3170 0.268400 0.581561 0.438746 -0.135124 0.670266 -0.026680 0.394881 -0.440141 -0.798680 0.100737 -0.049387 0.561960 0.051973 -0.477917 0.555737 -0.097596 0.342656 0.440442 0.248869 0.453429 -0.789898 -0.849586 -0.239205 0.093931 0.136650 -0.312177 -0.886170 0.388951 0.319902 0.237235 0.936226 0.773136 -0.387414 0.991001 0.693655 0.820056 -0.589416 -0.492917 -0.268429 0.739385 0.411695 -0.158696 0.584842 0.190743 -0.638708 -0.034034 0.390342 0.356057 -0.170930 0.543474 -0.185464 0.045491 0.059893 0.097075 -0.249090 -0.479683 -0.065954 0.655353 -0.892468 0.388136 -0.081651 0.158091 -0.815253 0.020731
4815 0.167922 0.505780 0.774562 -0.257622 0.261693 0.172809 -0.107501 -0.268880 0.059289 0.508048 -0.262639 0.187383 -0.347068 0.148948 0.267590 0.421541 -0.201934 -0.109418 -0.134598 0.445491 -0.423031 -0.253072 0.114042 1.075881 0.378153 -0.121734 0.063382 0.425917 0.068483 -0.165768 -0.136429 0.470395 -0.067851 0.167655 0.225441 0.479550 -0.064650 -0.005603 0.205195 -0.072687 -0.291888 0.499793 -0.080136 -0.182059 -0.234500 -0.486415 0.416393 0.112634 -0.044424 0.392425 0.097973 0.018000 0.297531 0.122104 0.352425 -0.285910 0.000759 0.103309 -0.600351 -0.626885 0.185224 -0.647854 -0.864769 0.335938
580 0.212496 0.464051 0.737149 0.136830 0.317856 0.042132 0.082566 -0.195950 0.098088 0.540228 -0.289161 0.010225 -0.296838 0.064503 0.273416 0.362585 -0.440305 -0.045311 0.012309 0.342237 -0.240036 -0.278175 0.173404 0.853302 0.379266 -0.010055 0.069455 0.486271 -0.031101 -0.330580 -0.116317 0.203751 0.100638 0.319875 0.400512 0.681368 -0.209748 -0.166777 0.212321 0.181099 -0.085347 0.716372 0.078257 0.021375 -0.368198 -0.989098 0.314311 0.316708 -0.055153 0.416034 0.170654 -0.050464 -0.100985 -0.140028 0.503035 -0.444606 0.149364 0.299669 -0.622449 -0.533162 0.303313 -0.540359 -1.014403 0.267447
337 -0.081656 0.069505 0.460083 -0.508928 -0.051792 0.783712 -0.242685 -0.045361 -0.138217 0.588666 0.525994 0.390332 -0.540697 -0.888488 0.039243 0.663100 -0.007890 -0.086019 -0.267644 0.468554 0.145222 0.097472 0.317073 0.639891 0.256017 -0.569585 0.057026 0.440085 -0.228766 -0.100509 0.083298 0.322072 0.029106 0.446524 0.044229 0.344967 0.319376 -0.805476 0.038872 0.392234 0.032397 0.000464 0.135663 0.095757 0.224374 -0.224199 0.597229 0.037761 -0.017392 0.893506 0.857228 0.272179 0.002229 -0.085012 0.162750 -0.148710 -0.382020 0.239780 -0.763789 0.261721 0.064854 -0.359983 -0.071020 -0.667624
3087 0.285081 0.506642 0.744670 -0.342205 0.352565 0.608506 0.143224 -0.048760 0.106585 0.235080 -0.296586 0.204266 -0.311937 0.063715 0.232058 0.156188 -0.087711 -0.023641 -0.166634 0.410953 -0.248621 -0.080542 -0.031103 0.997853 0.549363 0.167522 -0.120032 0.657260 -0.181388 -0.134335 -0.176806 0.619408 0.365331 0.279262 0.440804 0.607483 0.075398 -0.232717 0.248454 -0.071142 -0.142782 0.571597 -0.089953 -0.267972 0.117700 -0.597327 0.374785 0.319442 0.020823 0.382393 0.167533 0.068277 0.185317 0.257563 0.295570 -0.515037 -0.029755 0.112431 -0.415252 -0.739280 0.175313 -0.664928 -0.713523 0.224046
2443 -0.328562 0.023630 0.349847 -0.853958 0.173516 0.365356 0.091061 -0.271644 -0.489856 0.382604 0.216133 -0.462149 -0.214178 -0.304150 0.189713 0.233781 -0.479846 0.029647 -0.462212 0.834010 0.064608 -0.007080 -0.066861 0.864204 -0.145351 -0.183681 -0.242932 0.236190 -0.037516 -0.295696 0.241309 0.476594 -0.265386 0.243604 -0.154681 0.518933 -0.391184 0.012697 -0.227056 0.472427 -0.022544 0.143207 0.062936 0.716832 0.033285 0.104562 0.244168 0.214887 -0.008379 0.532289 0.762843 0.501837 0.330539 -0.091582 -0.376979 -0.211322 -0.352738 -0.012046 -0.763985 0.589586 0.246304 -0.839039 -0.515180 0.178995
118 0.294630 0.462027 0.999643 -0.493942 -0.106319 0.342591 -0.253987 -0.190469 0.346300 0.239033 0.080883 0.265408 -0.048732 -0.867423 0.551678 0.489758 -0.529089 -0.006237 -0.023445 0.245067 -0.102082 0.435126 0.350359 0.660354 -0.052762 0.502733 0.339962 0.219210 0.117244 -0.211293 -0.455217 0.205868 -0.020554 0.165046 0.173901 1.154114 -0.433461 -0.332128 0.347707 0.144242 0.169144 0.192887 0.111624 -0.195398 0.260843 -0.421084 0.115773 -0.242917 0.447838 0.068808 0.046938 -0.329065 0.381803 -0.314636 0.108407 0.031239 -0.175905 0.162216 -0.519029 -0.102330 0.447776 -0.485165 -0.167839 -0.118273
209 -0.519211 0.192976 0.180821 -0.351376 0.247377 0.520239 0.053872 -0.282991 -0.174485 0.800243 0.450766 0.216124 -0.037149 -0.707485 0.288735 0.486062 -0.277705 0.016447 -0.244353 0.888279 -0.022188 0.259429 0.003573 0.770467 0.273260 -0.124787 -0.135153 0.261992 -0.232517 -0.263914 0.191269 0.621279 -0.001021 0.268104 -0.158944 0.316837 -0.191820 -0.050291 -0.470427 0.656247 0.351175 0.011206 0.109501 0.600494 -0.188066 -0.251030 0.348929 -0.075982 -0.092826 0.334397 0.620593 0.512417 -0.010196 0.059481 -0.076876 -0.441995 -0.438508 -0.114236 -0.767514 0.413108 0.273412 -0.547151 -0.338758 0.143096
151 1.553555 -0.123464 0.456939 -0.689192 0.040502 1.103689 0.048376 -0.335162 0.242643 0.303622 1.521130 0.402389 -0.499056 -0.071212 0.880324 0.748654 0.019592 -0.088667 -0.120196 -0.066011 -1.028399 0.747487 0.304970 0.833089 -0.496626 -0.008950 -0.137612 0.538964 0.508229 -0.543547 -0.043904 -0.672408 -0.449156 0.828235 -0.180910 0.454231 -0.609662 0.394265 0.004306 -0.013571 0.380637 0.104397 -0.045105 0.341233 0.280593 0.196990 -0.247053 -0.338816 -0.126039 0.908563 -0.309900 0.659676 0.037096 0.095558 0.488805 -0.300319 -0.225728 0.517134 -0.047190 -1.034183 0.746807 -0.761656 -0.572109 -0.665816
14 0.109320 0.372916 -0.362565 -1.407478 0.015676 0.127275 0.286193 -0.223536 0.000369 -0.059084 0.250681 0.225256 -0.496290 -0.428497 0.809941 -0.351863 0.458251 0.654915 -0.223879 -0.603731 -0.568816 0.381524 0.086468 0.406564 0.077425 -0.131710 -0.210516 0.233258 -0.087341 0.511852 0.368804 0.047410 0.258044 0.907044 0.697502 0.000463 -1.048103 0.313829 -0.738758 0.360529 0.133993 0.235729 0.366768 1.117664 -0.204385 0.163899 0.564433 -0.448263 -0.433899 0.542143 -0.217997 -0.113381 0.817918 0.378329 0.557094 -0.192826 0.234703 1.086855 -0.571199 -0.344986 -0.115873 -0.932478 0.600198 -0.027834
583 0.956427 0.236074 0.856921 0.463636 -0.027849 0.202352 -0.458526 -0.034993 -0.299948 0.297370 0.258424 -0.215909 -0.408561 -0.114222 0.643311 0.237085 -0.114755 0.545722 -0.173729 -0.072606 0.000269 -0.108060 -0.056062 1.717909 0.288536 0.439055 -0.423517 0.136758 -0.237308 -0.433751 0.180052 0.217784 -0.183650 0.407590 -0.102009 0.601278 -0.313029 0.034679 0.285976 0.217274 0.182368 0.732446 -1.019007 -0.044440 0.122516 -0.406598 0.538139 -0.525006 -0.234989 0.135231 -0.217415 -0.131190 0.336878 0.210907 0.095913 0.129620 0.036657 0.795541 -1.068401 0.382477 -0.079835 -0.560857 -0.155562 0.298321
1150 -0.409337 0.314638 0.368050 -0.803733 0.045931 0.449100 0.075936 -0.234051 -0.563383 0.511513 0.279793 -0.152716 -0.048495 -0.616985 0.062859 0.231412 -0.286813 -0.014470 -0.327079 0.752261 -0.060059 0.077319 0.028427 0.703363 -0.017602 -0.310639 -0.108258 0.300705 0.096659 -0.289112 0.200917 0.412133 -0.045106 0.350278 -0.021931 0.353784 -0.275479 -0.061222 -0.276231 0.563269 0.049511 -0.144441 0.268980 0.722778 0.110651 -0.301288 0.250274 0.398943 0.026866 0.286115 0.624707 0.465049 0.335752 -0.024543 -0.160729 -0.378309 -0.517492 -0.240777 -0.767626 0.543604 0.278397 -0.666377 -0.665429 0.333969
3025 -0.246992 0.039319 0.245246 0.014829 0.262137 0.641809 0.011467 -0.630336 -0.121941 0.496658 0.443638 0.295451 -0.483913 -0.758211 0.339924 0.609399 0.072056 0.131806 0.027021 0.073724 0.030969 0.166751 0.366031 0.632017 -0.061866 -0.085946 -0.041110 0.510830 0.065171 -0.218446 0.164309 0.538416 0.271426 0.212385 -0.091987 0.340410 0.159317 -0.352695 0.065504 0.587988 -0.006726 0.629493 -0.064085 -0.023978 -0.123105 -0.361135 0.711914 0.340010 -0.295949 0.273080 0.883937 0.393462 -0.031400 -0.063468 0.180469 -0.343017 -0.386698 0.226646 -0.853662 -0.143587 -0.284216 -0.716542 -0.487031 -0.062359
1476 0.009094 0.783034 0.159882 -0.695687 -0.128206 -0.160555 -0.202081 -0.413348 -0.525917 -0.369727 0.334819 0.014738 -0.254120 -0.217509 1.221773 -0.763725 0.104327 0.372636 -0.194305 -0.240970 -0.566148 0.040948 0.309311 0.123867 0.411712 -0.194842 0.562362 0.314885 -0.188808 -0.414286 0.223831 0.280711 0.181523 0.893901 0.260559 -0.265295 -1.268398 0.638604 -0.549310 0.249221 -0.356985 0.858272 0.502884 1.104279 -0.138102 -0.119910 1.245550 -0.733357 -0.579624 0.885770 0.396322 -0.492507 0.942992 0.612934 0.611852 0.212684 0.815441 0.976979 -0.662058 -0.274763 -0.156125 -0.673515 0.155908 0.183058
462 0.134923 0.792871 -0.115099 -1.411078 -0.197311 -0.198985 0.188926 -0.385688 -0.366849 -0.389177 0.438124 -0.081811 -0.549390 0.151273 0.913438 -0.179541 0.281891 0.690649 -0.132498 -0.656772 -0.517047 0.256675 0.241199 0.265284 0.462309 -0.415923 -0.229938 -0.145649 -0.238308 0.279170 0.521668 0.156384 0.419498 0.833693 0.726217 0.098591 -0.856457 0.510887 -0.499493 0.151673 -0.253957 0.467699 -0.000047 0.767600 -0.055014 0.272323 0.745291 -0.497024 -0.298369 0.503186 0.229789 -0.103444 0.940532 0.441055 0.852819 -0.029389 0.311878 0.819659 -0.195029 -0.389458 0.186846 -0.927814 0.353092 -0.130059
1151 -0.364095 0.142591 0.019701 -0.432506 0.005980 0.534767 -0.138024 -0.188456 -0.381258 0.557241 0.476860 0.188876 -0.237083 -0.723994 0.313826 0.390469 -0.340076 0.035385 -0.145069 0.820477 -0.050500 0.177791 0.235247 0.660188 0.176120 -0.156428 -0.089493 0.345063 0.008071 -0.258675 0.239952 0.339987 0.100039 0.249020 -0.214558 0.227753 -0.088101 -0.408269 -0.344171 0.616469 0.036451 -0.053246 0.152556 0.535639 0.069114 -0.262024 0.477234 -0.001626 -0.102793 0.429246 0.671982 0.576416 0.250915 -0.123780 0.050213 -0.588293 -0.519127 0.083655 -0.681325 0.499881 0.293344 -0.617442 -0.484609 -0.021899
305 0.100181 0.632900 0.185616 -0.113828 0.228119 0.189008 0.320748 -0.062628 -0.251916 0.259851 0.514615 -0.553441 0.314564 -0.673365 0.335050 0.133138 -0.278281 0.409039 -0.900952 0.994875 0.107589 0.226440 0.038231 0.899964 0.014832 -0.393168 0.387420 -0.081645 0.109766 -0.690104 0.595182 -0.386399 0.430885 0.241258 0.129002 0.655934 -0.428323 -0.629885 -0.182480 -0.018815 -0.404487 0.303604 0.003426 0.377545 0.163333 -0.570968 -0.052506 -0.156913 -0.128684 -0.090241 0.125479 0.425822 -0.250283 -0.106202 0.316274 -0.098497 -0.107150 0.633219 -0.033732 0.132544 -0.272725 -0.587229 -0.449960 0.425310
76 0.229752 0.227346 0.321475 -0.142684 0.659105 0.005570 0.053080 -0.452803 -0.533558 0.100361 -0.291216 0.603541 0.088483 -0.368132 0.737327 -0.133935 0.339426 0.491563 0.226513 0.496344 -0.621122 -0.730322 -0.050032 0.259973 0.273119 -0.164485 -0.836537 0.377644 0.358223 0.030757 0.945757 0.558582 -0.439910 0.684786 0.843556 0.987521 -0.416012 -0.471165 -0.282790 0.597805 0.497541 -0.234609 0.629739 0.122895 -0.693375 -0.348556 0.298606 0.158523 0.148968 0.671008 -0.020517 0.243794 0.010365 0.096472 -0.160959 -0.450616 -0.063611 0.408634 -0.747651 0.365987 0.056627 0.117249 -0.581364 0.105244
4189 0.120153 0.508401 0.713677 0.151185 0.259849 0.294373 0.051148 -0.373394 0.149091 0.652399 -0.369074 0.357628 -0.369512 0.093434 0.484288 0.300707 -0.234911 -0.066178 -0.009007 0.374835 -0.211927 -0.222965 0.192554 0.868723 0.086980 -0.082940 0.017008 0.502371 0.059649 -0.154807 0.008016 0.385222 0.166300 0.297727 0.314269 0.549698 -0.285539 -0.125367 0.159737 -0.073516 -0.211884 0.498936 -0.125839 -0.089252 -0.219827 -0.645338 0.480412 0.220582 -0.091026 0.306561 0.202434 0.107655 0.137109 0.029726 0.441449 -0.199925 -0.078882 0.205511 -0.603911 -0.622486 0.273402 -0.683795 -0.917472 0.313788
1548 -0.243108 0.645034 0.696418 -0.610668 0.130475 0.393509 -0.108734 -0.031266 -0.387216 0.574192 -0.040691 0.048411 -0.131121 -0.608064 0.151751 0.236295 -0.681964 0.057244 -0.383976 0.745104 -0.216158 0.004070 0.333663 0.622553 -0.285480 -0.283524 -0.053500 0.037807 0.404546 -0.558366 -0.309786 0.217446 0.163786 0.523918 0.058245 0.400661 -0.701025 -0.233178 0.173500 0.247800 -0.128671 -0.262989 -0.015441 0.497156 -0.068039 -0.267836 0.477110 0.231420 0.181135 0.414165 0.415773 0.457213 0.513118 -0.209725 -0.195163 -0.459167 -0.657696 -0.344320 -0.613031 0.327503 -0.107721 -0.530904 -0.381029 0.229492
5025 -0.072789 0.127491 0.050448 -0.351742 0.099613 0.607940 0.371277 -0.496147 -0.460634 0.527449 0.171945 -0.156205 -0.180378 -0.458587 0.703367 0.620478 -0.591933 -0.105860 0.200093 0.859443 0.236426 0.122298 -0.058216 0.852451 0.142119 -0.136344 -0.021989 0.351411 -0.213459 -0.250252 0.248311 0.650640 -0.040406 0.003359 -0.008269 0.513651 -0.452638 -0.240890 -0.239938 0.264728 0.211258 0.092537 0.074282 0.552279 0.084685 -0.195302 0.241049 0.243193 -0.085890 0.504357 0.712763 0.300691 0.290544 0.073490 -0.215226 -0.368974 -0.546374 0.168152 -0.418319 0.821852 -0.062179 -0.921929 0.120193 0.172989
135 -0.221034 -0.141574 0.887445 -0.582415 -0.208338 0.393783 -0.342664 -0.402177 -0.030860 -0.190174 0.576743 0.079337 -0.741705 -0.523368 0.919349 -0.108738 0.002202 -0.689068 -0.159904 0.172124 0.198284 0.394844 0.292377 0.285907 0.250432 -0.315755 -0.057094 0.031217 -0.355713 -0.168329 0.044033 -0.221966 0.289500 0.427887 0.516618 1.597194 0.343800 -0.120474 -0.042766 0.767851 0.418600 0.632982 0.176778 0.328297 0.817848 -0.527473 0.154536 -0.144822 0.584413 0.810390 -0.114675 -0.498559 0.625133 -0.245888 0.294347 0.433207 0.317392 -0.149380 -0.397514 -0.318711 0.055912 -0.755264 -0.072934 0.283944
299 -0.293744 0.069202 0.396847 -0.477825 0.154268 0.245459 -0.208903 -0.511802 -0.182634 0.376890 0.117262 0.216143 -0.132248 -0.435909 -0.075032 0.680051 -0.223755 0.004219 -0.411057 0.757583 0.015511 0.082373 -0.113868 0.979904 0.120771 -0.175852 0.318984 0.094383 -0.069514 0.203855 0.331794 0.579702 0.154644 0.285244 -0.299153 0.246350 -0.539877 0.222018 -0.070855 0.752828 -0.067465 0.094304 0.000079 0.586272 -0.058487 -0.288507 0.565696 0.512977 0.131123 0.438889 0.388194 0.519486 0.157774 0.292935 -0.202005 -0.359321 -0.512895 0.355938 -0.433809 0.266922 0.338335 -0.746287 -0.641611 0.446371
129 -0.267888 -0.012112 0.457089 -0.831201 0.051985 0.035855 -0.436842 -0.544627 -0.223010 -0.201112 0.431411 -0.117925 -0.664956 -0.444609 0.647537 -0.334378 0.068017 -0.661174 0.351800 0.372877 -0.117744 0.548660 0.515150 0.364262 -0.188793 0.149572 -0.079682 -0.046166 -0.274488 -0.043276 0.205765 -0.001499 0.149353 0.490855 0.384803 1.384867 0.225721 0.163680 0.122963 0.538139 0.820140 0.543053 0.325176 0.297527 0.716422 -0.558788 0.218714 -0.125310 0.648874 0.563412 -0.132385 -0.266385 0.575427 -0.297630 0.559751 0.255211 0.167059 0.033545 -0.536442 -0.095453 0.215631 -0.776208 -0.350232 0.664399
1199 0.032558 0.517750 0.470230 -0.412978 0.248519 -0.181465 0.262717 -0.712390 -0.081386 -0.417078 0.684990 -0.620285 -0.756964 -0.519386 0.080968 0.074656 -0.048294 0.387460 -0.118144 0.557859 0.092784 0.266425 0.220260 0.928990 -0.115708 -0.160010 -0.390982 0.139836 -0.039754 0.083617 0.209469 0.374055 0.196939 0.287945 0.311775 0.489514 -0.114142 -1.139763 -0.063565 -0.085091 0.001161 0.257609 -0.230090 0.199061 0.522447 -0.560943 0.432517 -0.473734 -0.581367 0.208690 0.748468 -0.068872 0.350137 0.429860 0.719527 -0.430591 -0.496153 0.747104 -0.594076 0.023937 0.011530 -0.682687 -0.812710 -0.183880
191 -0.133670 0.265042 0.094349 -0.739342 0.034473 0.579380 -0.160748 -0.163123 -0.730607 0.240873 0.305250 0.046557 0.090560 -0.546583 0.111241 0.147954 -0.667753 -0.234698 -0.142655 0.707964 0.140095 0.093729 -0.195367 0.756996 0.004950 -0.235125 -0.392218 0.339938 0.223475 -0.278799 0.116859 0.299714 -0.088225 0.573413 -0.260993 0.389619 -0.419366 -0.129649 -0.220311 0.492752 -0.205354 -0.074972 0.087444 0.754770 -0.094216 -0.046019 0.242274 0.168695 -0.266347 0.291718 0.718986 0.668493 0.248918 -0.124692 0.019940 -0.340865 -0.878664 -0.250539 -0.891965 0.354172 0.521530 -0.641883 -0.430931 0.283324
607 0.627798 0.528508 0.683280 -0.171425 -0.320753 0.525905 -0.311987 -0.019910 0.182048 0.115257 0.440399 0.347138 -0.191812 -0.927060 0.704019 0.753541 -0.042662 0.002005 -0.233629 0.203714 -0.055823 0.156594 0.458804 0.922953 0.291841 -0.210005 0.163146 -0.094904 -0.103365 -0.216592 0.089505 0.258517 -0.176582 0.529175 0.041595 0.736849 0.130794 -0.440839 0.457121 -0.017207 -0.322037 0.257220 0.178736 -0.166664 0.180992 -0.627075 0.247891 -0.266751 0.126093 0.330748 0.273165 -0.242767 0.328854 0.049091 -0.112540 0.299793 -0.003169 0.130359 -0.436497 -0.272201 0.611734 -0.577975 -0.119644 -0.711806
745 -0.168269 0.362355 0.324931 -0.492815 0.054949 0.644156 0.449234 -0.194373 -0.100051 0.294616 0.733810 0.034151 0.314241 -0.702719 0.642404 0.178796 0.311874 0.035062 -0.328514 0.277712 0.395358 0.759145 0.406977 0.726069 0.128817 -0.242901 -0.282807 -0.212073 -0.287853 -0.029756 0.187269 0.195721 -0.069843 0.703123 -0.345951 0.734715 -0.093400 0.043663 -0.020405 0.193448 0.991666 -0.055196 0.036230 -0.382257 -0.427449 -0.265617 -0.018414 -0.107693 -0.224186 0.554942 0.230485 -0.317206 0.499970 -0.263228 0.264190 0.132066 0.133845 -0.202325 -0.201203 -0.018531 0.479512 -1.157097 -0.621239 -0.197843
2330 -0.241818 0.054449 0.296045 -0.692963 0.107484 0.678261 0.259830 -0.337623 -0.312536 0.628072 0.501865 0.266608 -0.474437 -0.754366 0.283173 0.507015 -0.176357 -0.017392 0.227518 0.751299 -0.032111 0.322922 0.434003 0.642271 0.094332 -0.355831 -0.107305 0.369356 -0.214399 -0.198150 0.152766 0.557069 0.000215 0.187780 -0.237649 0.238844 0.069374 -0.461337 -0.246011 0.606584 0.166217 0.255518 0.195520 0.291152 0.125207 -0.152233 0.555503 0.107728 -0.478302 0.571970 0.934783 0.388422 0.043485 0.154279 -0.078136 -0.354731 -0.503083 0.232437 -0.630255 0.316029 0.001172 -0.740417 -0.261632 -0.206722
410 -0.058389 0.017881 0.152482 -0.626191 0.224287 0.400908 -0.209451 -0.243931 0.029101 0.523683 -0.345363 -0.003068 -0.029000 -0.296487 0.684943 -0.033365 0.128459 -0.267868 0.420399 0.650325 -0.489459 -0.071982 0.057187 0.417709 0.168572 0.031549 -0.371130 0.357872 0.242870 -0.112392 0.262625 0.791155 -0.241576 0.429470 0.142806 1.043303 -0.344760 -0.470739 0.203817 0.478019 0.770511 0.096778 1.014919 0.004383 0.022041 -0.342205 0.284684 -0.164606 0.641933 0.668489 -0.055605 0.470407 0.235685 -0.247253 -0.081117 -0.076853 -0.324411 -0.021969 -0.545239 0.375097 0.368908 -0.327133 -0.187260 1.235920
515 -0.074152 0.379535 0.150295 -0.631081 -0.030961 0.930535 0.242637 -0.108347 -0.042503 0.223796 0.456881 -0.096983 0.398340 -1.037790 0.659806 0.254153 0.327052 -0.123674 -0.436189 0.281320 0.454595 0.788924 0.519741 0.640204 -0.286864 -0.317301 0.005000 0.027648 -0.323736 -0.257997 0.270420 0.173994 0.013551 0.768691 -0.160781 0.684100 -0.087143 -0.007174 -0.298969 0.251819 0.689422 -0.100608 -0.092785 -0.466489 -0.192277 -0.250194 0.001893 -0.335555 -0.284921 0.340494 -0.047161 -0.228687 0.464774 -0.432267 0.058440 -0.065022 0.181137 0.224673 -0.296352 -0.105697 0.374260 -1.078491 -0.848391 -0.183376
3398 -0.162943 0.363807 0.350358 -0.339356 -0.298386 0.826138 0.123861 -0.127226 0.093495 0.710749 0.338739 0.409007 -0.266343 -0.914220 -0.097386 0.510325 -0.062859 0.042477 0.335539 0.026164 -0.053254 0.448840 0.342987 0.550165 -0.308228 -0.161848 -0.190440 0.399573 -0.075072 -0.242084 0.258490 0.400432 -0.071305 -0.157638 -0.013726 0.600421 0.076992 -0.684021 -0.231581 0.656186 0.277063 0.283823 0.027263 0.267079 0.056670 -0.916670 0.393068 0.310825 -0.493938 0.658134 0.703553 0.424499 0.308451 -0.087813 0.059394 -0.128657 -0.546227 0.376020 -0.699609 0.235345 0.002745 -0.910544 -0.464190 -0.499464
296 -0.214162 -0.100831 -0.018385 -0.634979 -0.016741 0.016393 -0.020411 0.201047 -0.435844 0.014521 -0.195863 0.099337 -0.164524 -0.328056 -0.192006 0.608753 -0.225641 -0.050834 0.463639 0.813932 -0.308485 0.506497 0.407163 0.956782 -0.057432 0.486008 0.036194 0.168022 -0.115028 -0.317041 0.574286 0.571138 0.017322 0.459662 0.059946 0.511241 -0.033968 0.335136 0.209878 0.374942 0.553407 0.670389 0.518281 0.637261 0.343978 -0.484585 0.399204 -0.119882 0.295313 0.453619 0.025514 0.408298 0.230626 0.096116 0.085823 -0.060850 -0.426647 0.192826 -0.364324 0.072768 -0.060785 -0.497393 -0.541523 0.828849
165 0.036023 0.871396 0.492639 -0.533700 0.324062 0.952841 0.039789 -0.140677 -0.737546 0.112278 0.599056 0.388139 0.195059 -0.245317 0.965814 0.535142 -0.644843 0.374380 -0.462261 -0.408594 -0.222377 0.472608 0.267755 0.813066 1.049261 -0.023948 -0.480880 0.431019 -0.455916 -0.130416 0.994692 -1.165288 -0.299815 -0.317486 0.111413 0.537338 -0.788131 -0.659910 -1.095045 0.626966 0.533637 0.982995 0.616217 0.338297 0.674771 -0.064724 0.538120 -0.407180 -0.278958 0.548905 -0.433097 0.232117 -0.302525 0.623500 0.653987 -0.516461 0.316423 0.327231 -0.043461 -0.065169 -0.023183 0.049131 -0.738041 0.300560
897 0.103975 0.411813 0.351957 -0.440848 0.594472 0.435599 -0.226164 -0.266334 0.142234 0.421326 0.033544 0.277951 0.232084 0.286863 0.059130 -0.103024 -0.396709 -0.199981 0.296984 0.471614 -0.913260 -0.279489 -0.495702 0.685513 0.414499 0.126998 0.193444 0.135895 0.410533 0.645031 1.068517 0.076114 0.262563 0.695341 0.344320 0.929600 -0.393608 0.411635 0.243745 0.174151 0.455343 0.556887 0.227239 0.636924 0.262500 -1.268035 0.668500 0.268717 -0.414358 -0.522199 -0.533494 -0.144610 -0.241702 0.403463 0.476958 0.185773 -0.248695 0.404241 -0.297702 -0.479594 -0.177113 -0.589632 -0.491110 -0.086568
24 1.140682 1.015832 1.242339 0.081671 0.867076 0.945032 0.529892 0.372632 0.137655 0.741394 1.779003 0.362913 -0.001652 -0.901140 0.524149 -0.663470 -0.497977 -0.209044 0.039000 -0.039308 -0.423674 0.126831 -0.301542 1.236647 0.187935 -0.116522 -0.309802 -0.206425 -0.262503 -0.183118 -0.294451 -0.042845 -0.728974 -0.292825 0.978899 0.929934 -0.134207 0.079552 -0.638449 -0.265935 1.133280 1.260336 0.499563 1.299904 0.393896 -0.067531 0.993802 0.137742 -0.031735 0.653243 0.871530 1.239284 0.258093 0.634270 0.101763 0.727770 0.723752 0.798315 -0.264891 -1.021603 0.509442 -0.292946 0.173111 0.258872
1631 0.055592 0.833322 0.551434 -0.268261 0.406982 0.128908 -0.108530 -0.477143 -0.218654 -0.065170 0.286629 0.342391 -0.006106 0.333422 0.241858 0.375706 -0.530355 -0.292693 -0.073437 0.254999 -0.655891 -0.117072 -0.239366 1.377209 0.401984 -0.137593 0.130136 0.529221 -0.051050 -0.605957 -0.110185 0.569500 0.389064 0.214615 0.819880 0.428686 -0.234037 0.178654 0.376128 -0.597973 -0.328691 0.957836 0.566622 -0.153393 -0.467371 -0.641467 0.248629 -0.082171 -0.470496 0.538025 -0.326883 0.569765 0.192522 -0.179049 0.557313 -0.127715 0.141879 0.201182 -0.656157 -0.433972 0.123634 -0.655222 -0.932186 0.216521
186 1.296693 0.092001 0.401047 -0.208515 -0.357083 0.034140 0.445436 -0.322236 -0.040346 -0.521680 0.229986 0.163982 -0.014680 -0.191404 0.981714 0.955700 -0.416984 -0.004943 0.278104 0.213216 -0.168144 0.008761 0.113369 1.164491 0.218458 0.050175 -0.095510 -0.254599 -0.079238 -0.014052 -0.055130 1.148489 0.077890 0.394211 0.181337 0.459424 0.038385 -0.027849 -0.355035 0.076146 0.370373 -0.523886 -0.087922 0.456120 0.305145 -0.016212 0.472248 -0.484502 -0.046015 0.135983 0.423049 -0.203920 0.395135 0.404025 0.313987 -0.204949 -0.294908 0.703300 -0.310560 0.439478 0.245686 -0.874784 -0.340399 0.080958
2813 0.633117 0.283560 0.547568 0.011232 -0.408692 0.656305 -0.188207 0.090072 0.062272 0.352919 0.828222 0.212365 -0.092528 -0.311275 0.569286 0.950396 0.118168 0.043652 -0.489629 0.249101 0.110234 0.476191 0.373899 0.868733 0.562935 -0.309005 0.114988 0.214652 0.017103 -0.232115 0.038029 0.301614 -0.205032 0.859201 0.011808 1.060511 -0.121239 -0.216984 0.359388 0.317106 -0.497634 0.275061 0.570750 -0.198303 -0.022889 -0.449396 0.206964 -0.189010 0.084739 0.531958 0.192660 -0.296073 0.173117 0.030663 0.223261 0.354180 0.044533 -0.036480 -0.230688 -0.725240 0.249752 -0.752461 -0.402430 -0.829457
2656 0.314895 0.686674 0.465891 -0.069383 0.447375 0.221682 -0.118114 -0.553441 -0.378504 -0.272995 0.190879 0.480989 -0.117856 0.119949 0.091490 0.090523 -0.410427 -0.322367 0.103914 0.248728 -0.316059 -0.298945 -0.351051 0.804896 0.122868 -0.224750 -0.157441 0.560724 -0.093485 -0.675293 -0.014686 0.496363 0.054567 0.644936 0.819341 0.328921 -0.265554 0.077848 0.314320 -0.299477 -0.365863 0.946576 0.139286 0.009720 -0.203830 -0.649483 0.220259 0.025640 -0.624006 0.430531 -0.196208 0.438969 0.059631 -0.516557 0.452703 -0.282254 0.308507 -0.117831 -0.742899 -0.448476 0.458154 -0.871661 -1.221399 0.181937
3960 -0.224465 0.246323 0.286074 -0.893060 0.154798 0.506140 0.152449 -0.344493 -0.512796 0.511966 0.157685 -0.209047 -0.040590 -0.479157 0.172871 0.269714 -0.468115 -0.094768 -0.298872 0.794889 0.039941 0.093910 0.053106 0.845659 -0.046820 -0.319551 -0.139173 0.209445 0.119585 -0.204433 0.157068 0.456226 -0.054423 0.440728 0.007039 0.460397 -0.419802 -0.098923 -0.098550 0.247553 -0.031008 -0.011810 0.189785 0.557577 0.039626 -0.074605 0.317365 0.243955 0.074402 0.497389 0.638717 0.545034 0.378365 -0.124300 -0.304150 -0.387256 -0.626863 -0.131365 -0.681526 0.569005 0.009099 -0.541529 -0.385958 0.213341
4591 -0.317526 0.282861 0.454478 -0.861270 0.004875 0.583880 0.115936 -0.338645 -0.414337 0.694861 0.320617 -0.133022 -0.066652 -0.390596 0.100487 0.327135 -0.426410 -0.055448 -0.362576 0.877160 -0.416619 0.034341 0.282401 0.920068 -0.143299 -0.363018 -0.246395 0.130631 0.006925 -0.284982 -0.044480 0.139879 -0.002821 0.504527 -0.105176 0.350597 -0.459174 -0.010236 -0.181894 0.442408 -0.034296 0.298305 0.125003 0.545162 0.194416 -0.049646 0.386197 0.157768 -0.038332 0.422753 0.782599 0.402306 0.389513 -0.159368 -0.396764 -0.636515 -0.628878 -0.096359 -0.552371 0.599845 -0.086997 -0.624909 -0.181756 0.236418
1471 1.051171 -0.290950 0.224872 -0.364747 0.072690 1.425384 0.852838 -1.402816 -0.293641 -0.283508 1.779645 0.230091 -0.265098 0.634083 0.473341 -0.266524 0.130178 0.430698 0.325636 0.106455 -0.855372 -0.348253 -0.136243 0.554395 0.950052 -0.050700 0.165337 0.679644 0.147315 0.296074 0.932237 -0.418636 0.434531 0.700803 -0.303156 0.757068 -0.594860 -0.062282 0.150101 0.697207 1.056445 0.199405 -0.266250 0.912617 -0.155160 0.269333 0.435295 -0.444398 -0.243538 1.471993 -0.956931 0.316941 1.398220 0.263767 -0.669674 0.381200 -0.139694 0.926080 -0.862610 -0.748663 -0.556330 -0.718732 0.030569 0.958794
4235 -0.465978 0.356369 0.431255 -0.875761 0.090294 0.513059 0.022549 -0.282091 -0.231624 0.716406 0.237890 -0.001446 -0.047601 -0.374401 0.145863 0.305941 -0.309229 -0.066710 -0.190096 0.959703 -0.291586 -0.063801 0.261207 0.806001 -0.148067 -0.360269 -0.411932 0.134587 0.054561 -0.345512 0.016705 0.248625 -0.032407 0.456327 -0.216484 0.388661 -0.309465 0.028424 -0.166027 0.525608 0.003637 0.089885 0.090116 0.635374 0.163729 -0.088604 0.450711 0.072006 -0.022285 0.329322 0.739025 0.469606 0.317400 -0.021950 -0.296734 -0.367637 -0.643485 0.004780 -0.590001 0.573600 -0.075216 -0.568530 -0.332242 0.270548
1005 -0.396272 0.082260 0.131463 -0.692477 0.005838 0.591126 0.457065 -0.487135 -0.656144 0.644464 0.352470 0.166308 -0.125849 -0.664836 0.594390 0.282972 -0.202918 0.346877 -0.144490 0.498708 0.278042 0.596307 0.033890 0.444361 0.131683 -0.332446 0.194855 0.336438 -0.126411 -0.115066 0.402419 0.325215 0.104931 0.364616 -0.013245 0.556993 -0.478665 -0.369823 -0.074286 -0.010361 0.582799 -0.018924 0.005058 0.569277 -0.300781 0.118124 0.370382 0.654245 -0.273886 0.473920 0.653968 0.133625 0.604459 -0.043265 0.060544 -0.198583 -0.315593 -0.003084 -0.384987 0.828135 -0.196303 -0.962735 -0.526686 -0.091164
787 -0.183658 0.207802 0.187946 -0.629545 -0.154811 0.572852 -0.125225 -0.320037 -0.471156 0.879375 0.304825 -0.126880 -0.269826 -0.626666 0.270401 0.018936 -0.099505 0.008430 -0.341291 0.694400 0.066632 0.124370 0.135338 0.984685 -0.034999 -0.069092 -0.367121 0.282783 -0.070325 -0.331770 0.305083 0.345408 0.154833 0.391615 -0.189241 0.455749 -0.224652 0.002859 -0.271818 0.401105 0.267506 -0.265584 0.348530 0.507569 0.192409 -0.069065 0.356908 0.263075 0.118257 0.196260 0.645935 0.494048 0.145198 -0.162943 0.047851 -0.484599 -0.547621 -0.048727 -0.515780 0.496468 0.411230 -0.499395 -0.523607 0.483214
458 -0.232021 -0.069848 -0.193030 -0.453790 0.094523 0.102900 0.028080 0.161601 -0.506844 0.314395 0.122658 0.395160 -0.373766 -0.004598 -0.041306 0.864386 -0.079262 0.241887 0.014751 0.831763 0.019167 0.052273 0.097531 1.135693 0.111617 0.430791 0.840055 0.195435 0.300220 -0.207118 -0.021084 0.274342 -0.099264 0.493759 0.171848 0.601859 -0.301599 0.154761 0.100691 0.414219 0.020906 0.398312 0.381649 0.491450 -0.025056 -0.472175 0.200279 -0.144820 0.195423 0.384902 0.296675 0.669490 0.211524 0.237526 -0.363929 -0.284176 -0.352903 -0.098510 -0.636490 0.105804 0.335722 -0.726167 -0.555984 0.538770
1014 1.167822 0.722372 1.075383 -0.880028 0.133190 1.056403 0.702000 -0.275981 -0.880455 -0.384376 -0.077495 -0.189702 -0.589795 0.048228 0.800659 -0.222473 -0.384859 -0.422950 -0.314611 0.678923 0.050201 0.341675 0.295111 0.431659 0.785778 0.192885 -0.016063 0.339026 0.829584 -0.181559 0.525988 -0.434827 -0.506448 0.238050 0.095794 0.433547 0.193920 0.775760 -1.058876 -0.247112 1.231262 -0.224354 0.567229 0.996489 0.356463 -0.180632 0.752464 0.458323 -0.330880 1.093194 -0.719728 -0.229641 0.236880 -0.036526 0.323142 0.070557 0.459669 0.425449 -0.974327 0.400842 -0.615653 -0.273516 -0.820993 -0.594111
850 -0.112531 -0.642186 0.468882 -0.054842 0.124474 0.164153 0.310572 0.227677 -0.149880 0.276125 -0.029491 -0.117831 0.328261 -0.274726 0.547265 -0.454124 0.045547 0.148237 -0.330116 0.004095 0.229725 -0.132645 -0.078708 1.466708 0.185704 -0.298761 0.223105 -0.140547 0.578766 -0.211349 0.561576 0.527294 -0.277320 0.366753 -0.099285 0.935788 0.053231 0.047515 -0.149850 0.199594 0.521089 0.712709 -0.281335 0.360630 0.070034 -0.028325 0.311958 -0.283865 -0.265027 0.934321 -0.277731 -0.267692 0.575411 -0.152872 -0.103388 -0.083632 -0.373329 -0.219677 -0.569674 0.216984 -0.054982 -0.139416 -1.040017 -0.362216
1302 0.132587 0.804151 0.399441 -0.228990 0.328530 0.197360 -0.022888 -0.465586 -0.161540 -0.093379 0.089956 0.496976 -0.120249 0.266577 0.129478 0.362555 -0.393601 -0.281263 0.111010 0.131932 -0.508600 -0.148040 -0.320986 0.969205 0.232071 -0.078245 0.057719 0.661970 -0.116723 -0.667110 0.085883 0.741549 0.231397 0.350223 0.844900 0.327242 -0.163661 -0.138172 0.225693 -0.316218 -0.265133 0.818206 0.295002 -0.223758 -0.315632 -0.643945 0.363589 -0.001591 -0.348886 0.549731 -0.241800 0.497267 0.110748 -0.303670 0.329080 0.006695 0.138206 0.107149 -0.757204 -0.532104 0.213027 -0.861457 -1.197335 0.278742
15 0.319272 0.681899 0.919715 -0.424433 0.156662 0.086426 -0.062031 0.280967 0.152956 0.464105 -0.204688 0.053009 -0.105255 -0.862779 0.453144 0.234504 -0.727076 0.416820 -0.451628 0.562481 -0.096044 -0.170471 0.465740 0.511541 -0.174788 0.102446 -0.027063 -0.292741 0.455870 -1.003002 -0.557241 0.568188 0.254880 0.537579 0.109423 1.034711 -0.478398 0.020033 0.410966 0.293011 -0.262194 0.078499 -0.027158 0.627101 -0.141578 -0.554181 0.403140 0.074195 0.302021 0.109005 -0.186542 -0.126395 -0.023050 -0.127263 0.320181 -0.248686 0.161725 -0.208147 -0.491031 -0.277202 0.004159 -0.034249 -0.629194 -0.219328
123 0.226635 0.264411 1.035430 -0.496661 0.416682 0.255025 -0.189105 -0.676793 0.234888 -0.092669 0.366599 -0.004937 -0.575027 -0.704908 -0.011790 0.027505 -0.553127 0.261668 -0.213579 0.254049 0.041169 0.537181 0.462157 0.851652 -0.025556 1.038867 0.116704 0.361859 -0.230886 -0.396135 0.270696 0.331778 -0.479236 -0.062025 0.260126 1.029542 -0.551131 -0.102303 0.293021 0.087734 0.077970 0.126859 -0.162754 -0.073207 -0.168610 -0.477458 0.401348 -0.652442 0.240767 0.162067 0.189139 -0.467894 0.200369 -0.055876 0.290010 -0.179797 -0.246807 0.241767 -0.711545 -0.189982 0.764947 -0.349009 -0.574051 -0.105633
133 0.403695 1.051708 0.142051 -0.052585 0.286133 -0.068276 0.251182 0.642660 -0.058958 0.471693 0.611653 -0.117047 0.031383 -0.412767 0.663308 0.501249 -0.860278 0.150116 -0.489488 0.752720 -0.347308 -0.152992 -0.102073 0.648834 0.008081 0.044323 0.099501 0.120049 0.521112 -0.305388 -0.151350 0.337482 0.631219 0.910638 0.525821 0.746119 -0.473459 0.273631 0.105732 -0.065594 -0.326638 0.305305 0.462786 0.374179 0.072496 -0.985439 -0.109029 0.298210 -0.104284 0.012888 -0.164579 0.104916 -0.277203 -0.158223 0.712172 -0.200191 0.431580 0.337005 -0.492253 -0.154463 0.468664 -0.285229 -0.740041 0.074723
858 0.273450 0.427111 0.545415 -0.168500 -0.489064 -0.061208 -0.199523 0.492145 -0.061173 -0.131359 0.214709 0.341526 -0.187966 -0.806022 0.107939 0.186817 -0.030316 0.830612 -0.988467 0.693150 0.240730 -0.275337 0.227899 0.694970 0.528711 0.030983 0.214978 -0.078910 0.483009 -0.520355 0.656491 0.603151 -0.294197 0.461060 0.072141 0.421661 -0.112079 -0.501087 0.033882 0.068421 0.411358 0.899895 0.168135 0.999279 0.157849 -0.138429 0.748804 -0.414131 0.497190 0.690613 -0.086062 0.096062 -0.065575 -0.363191 -0.104102 0.341840 -0.523498 0.143481 -0.401182 -0.446963 0.007793 -0.314914 -0.362210 0.617403
70 0.224627 0.356758 0.833650 -0.475444 -0.583922 0.326756 -0.679448 0.248753 -0.125935 0.164833 -0.188461 0.159596 -0.142335 -0.708984 -0.037874 0.696158 -0.343935 0.057043 -0.355848 0.476628 0.116247 0.217109 0.168283 0.955356 0.183234 -0.028866 0.174481 0.007849 0.051998 -0.205996 0.555057 0.376584 -0.193021 0.025415 0.256567 0.706025 0.413386 -0.719703 0.083672 0.176135 -0.060159 0.481551 0.329052 0.333119 0.387909 -1.061604 0.262964 -0.624714 -0.105695 0.793472 0.373683 -0.163680 0.317477 -0.092838 -0.130382 0.266420 -0.326845 0.470182 -0.420459 -0.650097 0.555180 -0.118485 -0.215443 -0.116569
251 -0.026106 0.761144 -0.219026 -1.563026 -0.103143 -0.066085 -0.108318 -0.487542 -0.239330 -0.391821 0.450624 0.077095 -0.587136 0.090223 0.986929 -0.501332 0.520315 -0.060951 0.418252 -0.015953 -0.255969 0.312385 0.344595 -0.083093 0.049518 -0.318763 -0.259633 -0.182093 -0.448064 0.481651 0.369764 0.078410 0.699437 0.928497 0.937867 0.940831 -0.597648 0.054749 -0.307553 0.455954 0.260572 0.438591 -0.117536 0.594652 0.167771 0.188900 0.550692 -0.455369 0.228394 0.921305 -0.084188 -0.537929 1.171830 0.175927 0.818588 -0.143737 0.619643 0.643413 -0.302795 -0.304937 0.358591 -1.022549 -0.030282 0.332460
490 0.365169 0.457773 0.770799 -0.295188 -0.233898 -0.117893 0.169791 0.485700 0.106351 -0.514798 0.420347 0.258165 0.095436 -0.763200 0.080228 0.069709 -0.121655 0.828599 -0.862954 0.454307 0.080550 -0.159174 -0.039904 0.714280 0.505054 -0.050133 0.418209 -0.279188 0.586522 -0.785113 0.263588 0.428884 0.091746 0.981312 -0.016620 0.776741 -0.196326 -0.535829 0.324450 0.291921 0.328325 0.710265 0.374726 1.210637 0.345301 0.199673 0.976585 -0.423002 0.226344 0.722488 -0.195672 -0.224593 -0.262099 -0.402189 0.040625 -0.192783 -0.077734 0.447608 0.100714 -0.345209 -0.163064 -0.111166 -0.311053 0.611432
3209 0.092556 0.851622 0.568588 -0.188099 0.147447 0.219791 -0.147656 -0.681276 -0.046299 -0.041737 0.278153 0.449345 -0.359052 0.229607 0.182995 0.194383 -0.391694 -0.339151 -0.065378 0.075270 -0.465552 -0.277267 -0.313426 1.030967 0.106364 -0.190889 0.093059 0.532563 -0.138288 -0.604900 -0.030411 0.745557 0.364426 0.292630 0.850574 0.293297 -0.235562 0.041315 0.334575 -0.291630 -0.354001 0.871760 0.273879 -0.228947 -0.170796 -0.592048 0.347225 -0.134010 -0.359751 0.463315 -0.306399 0.315893 0.039104 -0.268020 0.252714 -0.112429 0.144038 0.185277 -0.498963 -0.464309 0.309259 -0.839586 -1.155398 0.275979
726 0.104718 0.483404 0.812815 -0.620250 0.389775 0.516843 -0.233760 0.044403 -0.186500 0.078863 -0.052705 0.378321 -0.290065 -0.178443 0.404213 0.137584 -0.249828 0.009076 -0.165967 0.003236 -0.057062 -0.281620 0.057849 1.058360 0.001479 -0.064001 0.110437 0.477771 0.173003 -0.158016 0.442487 0.502262 -0.066885 0.226313 -0.674572 0.900038 0.017002 -0.089400 0.105754 0.166173 -0.737520 0.521786 -0.152458 0.070117 -0.083545 -0.320608 0.086421 0.788853 -0.024923 0.059828 -0.068620 0.144357 0.401694 -0.180612 0.385012 0.154874 0.008892 0.045818 -0.978745 -0.965000 0.162705 -0.707163 -0.534918 0.338052
2713 1.387975 0.586085 0.542191 -0.001120 -0.475009 0.249566 0.041693 -0.441634 -0.167017 -0.169705 0.394599 -0.184826 -0.060474 0.006585 0.938007 0.559546 -0.150859 0.230293 0.247242 0.120133 -0.436532 0.140268 0.099219 1.149507 0.242339 -0.125751 -0.449800 -0.375158 -0.236442 -0.022270 0.229674 0.645764 -0.119754 0.278372 0.333128 1.074195 -0.245010 -0.184747 -0.274483 -0.095162 0.111864 -0.290214 -0.411361 0.273888 0.425918 -0.260181 0.115250 -0.804949 0.115433 -0.006622 0.192964 -0.169211 0.457609 0.432887 0.197706 -0.145817 0.079670 1.023666 -0.282146 0.406460 0.209270 -0.862765 -0.061096 -0.233235
3100 0.410084 0.884468 0.023495 -0.261245 0.417852 0.178454 0.393535 0.279585 -0.347311 0.324732 0.377702 -0.797309 0.553393 -0.369300 0.621749 0.200240 -0.410886 0.049468 -0.565470 0.748511 -0.349907 0.122877 -0.042647 0.894575 -0.086174 -0.426880 0.407686 -0.012034 0.067903 -0.630559 0.441736 -0.263077 0.420555 0.682363 0.267477 0.674329 -0.504372 -0.270924 -0.387597 0.072671 -0.409798 0.248345 0.165265 -0.076027 -0.193198 -1.082776 -0.331437 -0.173853 -0.049207 -0.038680 -0.100025 0.204877 -0.141737 -0.164037 0.361776 -0.039690 0.250400 0.623388 -0.320918 0.095678 0.047898 -0.529403 -0.473021 0.184919
2450 0.246007 -0.035804 0.499292 -0.130954 -0.074039 -0.005345 0.588481 0.460492 -0.025311 -0.699680 0.201387 0.311514 -0.031377 -0.779269 0.101002 0.081404 -0.142520 0.468535 -0.311665 -0.031458 -0.196602 -0.417177 -0.248754 1.387933 0.132834 -0.071791 0.439192 -0.513772 0.066494 -0.626425 0.409584 0.550805 0.291074 0.925022 -0.294739 0.475002 -0.247916 -0.387888 -0.191433 0.647847 0.331735 0.821581 0.346635 1.232821 0.397440 0.448719 0.964022 -0.559641 0.198997 1.340669 -0.390480 0.007276 0.249103 -0.358140 0.376320 -0.575275 0.001390 0.607090 -0.094465 -0.129211 -0.118121 -0.262417 -0.799124 0.720454
812 -0.195234 0.034829 0.155395 -0.345557 -0.271533 -0.024490 -0.222184 0.145469 -0.322113 0.258166 0.019719 0.288003 -0.143168 -0.395094 -0.262572 0.500993 -0.270570 0.460531 -0.304157 0.688184 -0.165543 0.022542 0.282450 0.881169 0.617475 0.290757 0.087741 0.037528 0.253389 -0.345935 0.496797 0.681763 -0.250249 0.212356 0.011497 0.574768 -0.067694 -0.194296 0.057927 0.035310 0.399569 0.827575 0.259535 0.582464 0.108988 -0.227450 0.611279 -0.227615 0.390279 0.377565 0.259724 0.552027 0.192520 -0.141052 -0.289606 0.182908 -0.656591 0.173000 -0.630399 -0.283503 0.152063 -0.570790 -0.263328 0.533898
1521 -0.378892 0.246351 0.561365 -1.184952 0.090833 0.426742 -0.041828 -0.064009 -0.224016 0.493058 0.340782 0.275207 -0.284032 -0.316913 0.242837 0.402062 -0.470384 0.308528 -0.396841 0.888531 -0.206520 -0.180074 0.256905 0.900689 -0.116663 -0.018603 -0.508289 0.033657 -0.163096 -0.386720 -0.057839 -0.378700 -0.089696 0.619343 -0.173734 0.191011 -0.661325 0.029662 -0.004123 0.328207 0.072765 -0.027360 0.149324 0.507911 -0.095461 -0.202352 0.396106 0.168559 0.335587 0.526986 0.863566 0.441631 0.043428 -0.438203 -0.243334 -0.393652 -0.486099 0.245034 -0.881688 0.717334 0.008554 -0.723945 -0.388773 0.307737
1126 -0.477099 0.666541 0.572129 -0.181094 -0.044834 0.519099 0.367738 -0.335701 0.198381 0.144839 1.047148 0.476682 0.811922 -0.882683 0.424001 0.647686 -0.104953 -0.327133 -0.631085 0.204038 -0.118631 1.211859 -0.151061 1.104689 -0.479210 -0.053837 -0.206015 0.265816 -0.433641 0.041811 0.325952 0.054711 -0.088372 0.280231 -0.562921 0.275569 -0.821142 0.224327 -0.402986 0.020393 1.027586 -0.085465 0.306389 0.473874 -0.130453 0.511602 0.719897 0.046494 0.054803 0.670914 -0.089945 0.102716 0.413366 -0.444635 -0.490061 0.013185 0.082467 0.103431 -0.848447 0.101169 0.233843 -0.760903 -0.618532 -0.192492
45 0.220592 0.613661 -0.448398 -1.498506 -0.249425 0.172269 0.226978 -0.132563 -0.278511 0.097439 0.216164 0.149559 -0.575717 -0.339295 0.775024 -0.186898 0.415217 0.605696 -0.291202 -0.430102 -0.521386 0.078620 0.241433 0.330023 0.171715 0.031966 -0.261328 0.289401 -0.015189 0.720159 0.400590 0.249700 0.369274 1.019045 0.590803 0.090760 -0.910982 0.391737 -0.512663 0.268628 -0.001376 0.293698 0.253762 0.926762 -0.149435 0.230827 0.721390 -0.127436 -0.284448 0.779835 0.011547 -0.427801 0.852101 0.292363 0.440984 -0.410612 0.281158 1.096426 -0.559404 -0.302170 0.013053 -1.194023 0.423384 -0.196447
481 0.149314 0.903560 0.292824 -0.158501 0.392440 0.158085 -0.174348 -0.401299 -0.296413 -0.102376 -0.009744 0.545518 -0.372225 0.141175 0.239282 0.229608 -0.416373 -0.278619 0.018431 0.172881 -0.399698 -0.225290 -0.203935 1.046161 0.350190 -0.251666 0.041386 0.616361 -0.277325 -0.745369 0.047180 0.796837 0.178354 0.255399 0.822697 0.277260 -0.208854 -0.026748 0.234597 -0.402563 -0.175975 0.850331 0.223836 -0.223515 -0.260549 -0.570275 0.531029 -0.088550 -0.333888 0.509755 -0.156362 0.501702 0.024500 -0.358900 0.259779 -0.097663 0.279817 0.237762 -0.703567 -0.401851 0.230465 -0.806207 -1.292966 0.224974
727 0.180481 0.363544 0.284119 -0.490264 0.459687 0.371985 0.512647 -0.536158 -1.193204 -0.192827 0.119241 0.390303 0.010088 -0.821159 0.739330 0.209080 0.227086 0.912372 -0.151673 0.105539 -0.147558 -0.064978 -0.175575 -0.323603 0.187471 0.068473 -0.364965 0.387199 0.368781 0.003931 0.551426 0.364697 -0.107245 0.430579 0.426089 0.854132 -0.376693 -0.320764 -0.088459 0.369401 0.597654 -0.546359 0.540410 0.769808 -0.827369 0.212917 0.635612 0.549147 -0.259530 0.776735 0.270126 0.126734 -0.061707 -0.163105 -0.252090 -0.521368 0.347881 0.733097 -0.379409 0.523336 -0.254145 -0.186485 -0.200899 0.026884
1170 -0.182810 0.617796 -0.289613 -1.545899 -0.233264 0.102015 0.236635 -0.207341 -1.174300 0.515380 0.744104 0.219147 -0.483248 -0.578720 0.613485 0.184904 0.636313 0.649732 -0.101890 -0.228439 -0.565131 0.086003 0.006861 0.217342 0.216640 -0.403214 -0.022980 0.010881 -0.301998 0.513560 0.435338 0.207393 0.493361 0.449470 0.414948 -0.163669 -1.008823 0.088683 -0.224207 0.142154 0.200541 0.097785 0.081113 0.906439 -0.400933 0.240655 0.849445 0.100011 -0.440336 0.574673 0.202958 -0.117786 0.931169 0.077174 0.415561 -0.595428 0.402424 0.781386 -0.537717 -0.051923 -0.152368 -0.972314 0.353985 -0.187389
3405 0.039945 0.117447 0.178400 -0.526943 0.153283 0.548097 0.331272 -0.188222 0.160722 0.600122 0.562589 -0.050064 -0.149419 -0.774904 0.378780 0.529832 0.054811 0.397554 -0.054562 0.082641 -0.129018 0.254546 0.404039 0.713390 -0.159063 -0.150358 -0.045151 0.653832 -0.042350 -0.158987 0.043308 0.544626 0.173050 0.138876 -0.036268 0.166499 0.275693 -0.597264 -0.322054 0.482699 0.317194 0.109903 0.410733 0.018734 0.066633 -0.298616 0.679197 0.155312 -0.606048 0.139133 1.160009 0.433260 -0.059554 0.055294 0.152703 -0.284101 -0.766657 0.148051 -0.813226 0.282465 0.043240 -0.586809 -0.406809 -0.124427
63 0.076451 0.604376 0.343220 -0.462715 -0.902474 0.359489 -0.479030 0.211109 -0.390693 0.309651 -0.014848 0.268634 -0.053928 -0.632920 0.001867 0.575014 -0.133938 0.656195 -0.765273 0.753749 0.134528 -0.175893 0.232184 0.798815 0.730207 -0.145471 0.026431 -0.255153 0.398272 -0.422850 0.371233 0.621724 -0.304046 0.099130 0.107413 0.667166 -0.112764 -0.186446 0.012288 0.291518 0.420497 0.916940 0.506455 1.056536 0.048833 -0.173414 0.669238 -0.582987 0.463785 0.638186 0.097321 0.415242 0.043696 0.123385 -0.409134 0.260405 -0.841168 -0.251671 -0.426509 -0.487493 0.267077 -0.610533 -0.084844 0.245005
1254 0.218729 1.138532 0.579129 -0.370829 0.271528 0.329840 -0.014333 0.055804 -0.054804 0.623818 -0.061828 -0.255747 0.150298 -0.729891 0.058362 0.215284 -0.988660 0.062839 -0.598492 0.667469 -0.795229 -0.148754 0.473883 0.572163 -0.298509 -0.639464 0.010563 -0.248445 0.507045 -0.779952 -0.045696 -0.602753 0.276668 0.397822 0.222688 0.622080 -0.540193 -0.281801 -0.125679 -0.150855 -0.258632 -0.051363 -0.040767 0.480834 -0.120427 -0.467506 0.749672 0.345808 0.244808 -0.279814 -0.162102 0.233676 0.246073 -0.062168 0.002525 -0.385347 -0.189067 -0.033593 -0.686387 -0.294288 -0.378674 -0.633192 -0.327515 0.095343
1059 0.087579 0.929131 0.370495 -0.306768 0.352691 0.250594 -0.033439 -0.516679 -0.122680 -0.153312 0.088981 0.576151 -0.373545 0.156044 0.269709 0.237463 -0.381065 -0.295066 -0.048477 0.141861 -0.421519 -0.231684 -0.373779 0.973640 0.418913 -0.069577 0.139869 0.642999 -0.190238 -0.630482 0.096671 0.825323 0.312503 0.349255 0.815847 0.273226 -0.332039 -0.111410 0.190638 -0.264225 -0.375107 0.836597 0.263251 -0.292825 -0.182465 -0.579670 0.495739 -0.098995 -0.412903 0.507343 -0.170169 0.352135 -0.003839 -0.406941 0.078657 -0.078325 -0.009782 0.036289 -0.729203 -0.434437 0.188043 -0.915253 -1.064030 0.262012
991 0.163222 0.603534 1.095849 0.170924 0.329294 0.079458 0.488446 -1.509271 -0.095562 0.116872 1.255703 0.393819 0.296323 -0.083861 0.424469 -0.685121 -0.638461 0.295647 0.534411 0.434192 0.077246 0.198548 -0.047727 0.770106 0.469437 0.160979 -0.441221 0.831493 0.414082 0.194463 -0.266678 -0.557014 -0.413254 0.636002 0.638092 0.346997 -0.702207 -0.489928 -0.321870 1.677319 1.280247 0.113240 0.052926 0.846469 0.211197 -0.644371 1.189739 0.111013 0.771826 0.547577 -0.503429 0.958901 1.139096 0.401103 0.672588 0.115137 0.246669 1.516634 0.053100 -0.447834 0.132581 -0.686488 -0.233450 -0.192072
368 1.559036 -0.106476 0.440761 -0.820477 0.154415 1.080374 0.026635 -0.275923 0.128592 0.322936 1.318377 0.594829 -0.653721 0.003495 0.873543 0.553855 -0.155870 -0.103208 -0.078458 0.035779 -1.191269 0.556606 0.192131 0.852655 -0.538190 -0.034999 -0.249383 0.635568 0.566418 -0.585240 0.070849 -0.865354 -0.395070 0.551354 -0.318969 0.382881 -0.740239 0.568414 -0.109458 0.108296 0.399651 0.091331 -0.280583 0.740041 0.416525 0.308093 -0.097048 -0.332897 0.100867 1.082579 -0.366410 1.038605 0.058359 0.183861 0.537531 -0.457018 -0.280497 0.759371 -0.146947 -1.106177 0.630803 -0.671099 -0.520453 -0.434069
285 -0.038608 0.667008 -0.112443 -1.254827 0.000499 -0.065909 0.533074 -0.417808 -0.292907 -0.050816 0.144185 0.050790 -0.592280 -0.156906 0.662803 -0.559818 0.460126 0.698286 0.050449 -0.559151 -0.690619 0.385531 -0.163270 0.374217 0.145012 -0.617721 -0.069419 0.127894 -0.074132 0.259335 0.452122 0.327323 0.278660 0.698860 0.729298 -0.096754 -1.034891 0.710051 -0.476992 0.480500 -0.088107 0.405155 0.293860 0.909817 -0.360759 0.111241 0.735716 -0.789433 -0.295857 0.272334 0.022971 -0.217450 0.687271 0.453552 0.168263 0.062759 0.682288 0.691110 -0.577270 -0.097980 0.234821 -0.344216 0.375907 -0.036527
672 0.607525 1.896243 0.670885 -0.678933 0.558271 0.591175 0.710638 0.074330 -0.658889 -0.920581 0.834866 0.124736 -0.014871 0.359010 0.989528 0.338012 -0.198523 -0.531067 -0.424795 0.819503 -0.865949 -0.218790 -0.112527 0.830249 -0.450803 0.225728 -0.894381 0.247139 0.039252 -0.101166 0.164711 -0.500839 0.408743 0.445707 0.351057 -0.000919 0.027997 -0.067938 -0.279269 1.199879 0.738187 0.692725 0.567569 0.485171 0.215202 0.063880 1.285083 -0.327638 -0.559915 0.850968 -0.452166 0.247862 0.099976 0.330035 -0.141355 0.681869 -0.094842 -0.020177 0.579284 0.449711 1.086575 -0.281070 -0.906514 0.727219
678 -0.136814 0.295848 0.481790 -0.203842 0.428498 0.515729 0.116260 -0.252078 -0.018438 0.344543 0.093507 0.293231 -0.531951 -0.205666 0.394659 0.435370 -0.089617 -0.008517 -0.089584 0.065428 0.149471 -0.288182 0.064823 0.793299 -0.062464 0.032427 0.159176 0.504559 -0.053501 -0.408077 -0.020926 0.617377 0.100498 0.093679 -0.333676 0.749919 0.014324 0.026392 0.393614 0.232020 -0.470100 0.699504 -0.161168 0.067797 -0.055914 -0.488645 0.540126 0.175891 -0.096273 0.006252 0.474165 0.285414 0.415377 -0.200644 0.224316 -0.360100 -0.096020 0.381253 -0.741775 -0.797956 -0.176721 -0.737694 -0.781319 0.034684
2973 -0.003539 0.910227 0.349760 -0.013692 0.293873 0.084888 -0.174302 -0.373970 -0.174813 0.072742 0.384115 0.415241 -0.499990 0.204379 0.318813 0.203979 -0.439652 -0.215507 -0.168019 0.057642 -0.493432 -0.232337 -0.299570 0.879234 0.064653 -0.227448 0.115507 0.561249 -0.002377 -0.649645 0.075636 0.983296 0.369831 0.351237 0.936540 0.440519 -0.379215 -0.065537 0.116272 -0.354552 -0.403995 1.099047 0.444241 -0.365408 -0.051632 -0.732350 0.223420 0.017128 -0.302440 0.567192 -0.218539 0.248979 -0.002302 -0.273795 0.295561 -0.190919 0.147920 0.334312 -0.607560 -0.428612 0.443393 -0.425855 -1.006761 0.238600
3041 -0.367313 0.082025 0.212466 -0.673647 -0.084465 0.738549 0.336703 -0.441641 -0.743884 0.544048 0.288263 0.174988 -0.076134 -0.678273 0.565662 0.436478 -0.069113 0.395713 -0.015810 0.457746 0.032939 0.566489 -0.081746 0.555924 0.096966 -0.194670 0.114169 0.282460 -0.086625 -0.109390 0.387515 0.348066 0.108113 0.395644 -0.012624 0.454465 -0.541248 -0.339504 0.013688 -0.108293 0.448532 0.005868 0.151934 0.631718 -0.278530 0.214850 0.390245 0.578426 -0.124204 0.318325 0.762870 0.290135 0.460449 -0.013851 -0.098212 -0.269302 -0.386848 0.175984 -0.348767 0.654959 -0.210076 -0.926363 -0.356271 0.218867
1686 -0.307480 0.140690 0.343995 -0.784465 -0.206021 0.329114 -0.035968 -0.652449 -0.119748 -0.034708 0.639975 0.013759 -0.382993 -0.759865 0.832987 -0.427651 0.277490 -0.672477 0.017207 0.232024 0.195823 0.743068 0.441719 0.286478 0.072665 -0.121883 0.021981 -0.108864 -0.451635 -0.027709 0.180994 -0.066893 0.392487 0.567135 0.482979 1.406545 0.124066 0.210696 -0.059597 0.465316 0.821627 0.576478 0.104795 0.272553 0.424871 -0.379244 0.061405 -0.167379 0.312466 0.645186 -0.251378 -0.602684 0.752571 -0.496464 0.523650 0.080856 0.520985 0.026328 -0.395206 -0.109151 0.187072 -1.316872 -0.663968 0.336517
1135 -0.144099 -0.139156 0.185372 -0.348885 0.357663 -0.058348 0.222940 0.234310 -0.112275 0.285340 0.031749 0.070179 0.471230 -0.198985 0.473042 -0.206938 0.168080 0.325916 -0.069190 -0.213073 0.400735 -0.009621 0.053322 1.048235 0.328804 -0.246411 -0.042536 0.276649 0.438732 -0.636552 1.031144 0.283895 -0.288783 0.658287 0.143221 0.986668 0.112283 0.291090 -0.415992 0.067112 0.771349 0.686455 -0.539300 0.121238 0.142120 0.146719 0.284746 -0.768409 -0.811890 0.555107 -0.360349 -0.644968 0.801720 -0.244319 0.049440 -0.128093 -0.651416 0.216855 -0.427866 -0.138447 0.225626 -0.616057 -0.682030 0.251127
619 0.034616 0.372075 0.578987 -0.155177 -0.659837 0.281880 -0.456683 0.510445 0.003937 0.024913 -0.073984 0.122000 -0.188024 -0.664050 0.320772 0.506925 0.149414 0.473431 -0.731210 0.770325 -0.145112 -0.342239 0.396315 0.719925 0.508373 0.030416 -0.057061 -0.023524 0.276745 -0.328908 0.700238 0.723197 -0.664517 0.042200 0.331198 0.676419 0.019643 -0.162138 0.040311 0.051281 0.507873 0.937298 0.424430 0.887693 -0.132205 -0.313864 0.659859 -0.445170 0.328337 0.641818 -0.111084 0.813615 -0.138382 -0.083209 -0.147914 0.136639 -0.943320 0.177868 -0.566072 -0.525631 0.266052 -0.310556 -0.140340 0.241083
3544 -0.292862 0.380658 0.290265 -0.902295 -0.042503 0.444139 0.060893 -0.373709 -0.405577 0.621753 0.218282 -0.235453 -0.141008 -0.436219 0.155190 0.230537 -0.221298 0.078013 -0.532993 0.841471 -0.022231 0.107270 0.078609 0.766177 -0.232311 -0.213150 -0.117232 0.243694 0.149040 -0.216019 0.060908 0.347682 0.018417 0.509695 0.026439 0.234181 -0.393032 -0.068822 -0.092269 0.662318 0.053074 -0.038106 0.094408 0.624586 0.080416 -0.304621 0.198488 0.158445 0.094755 0.407839 0.715356 0.493811 0.330300 -0.063463 -0.256303 -0.511471 -0.442156 -0.117308 -0.784316 0.578053 0.225031 -0.739068 -0.270886 0.291311
452 -0.365100 0.275565 0.479092 -0.400533 0.309436 -0.031240 0.092468 -0.510431 -0.050229 -0.030703 0.297804 -0.749190 -0.268510 -0.587743 -0.184939 0.174120 -0.082881 0.302232 -0.345188 0.907766 0.237220 -0.007474 0.188522 0.961702 -0.095764 -0.042642 -0.160287 0.268650 -0.237920 -0.380113 0.498643 -0.119828 0.308220 0.125760 0.007109 0.437250 -0.262586 -0.642084 -0.027018 -0.028415 -0.287723 0.353324 -0.246492 0.367534 0.384940 -0.650473 0.340067 -0.200047 -0.468270 -0.139758 0.447410 0.329612 0.150585 0.211902 0.667463 0.006580 -0.615701 0.656207 -0.170670 0.055014 0.248181 -0.819426 -0.551593 0.302989
303 -0.205113 0.114070 0.217220 -0.117827 -0.055838 0.414725 0.538904 -0.340690 0.166032 0.758847 0.191747 0.363042 -0.279560 -0.750776 0.485046 0.164722 0.008027 0.300523 -0.017342 0.484839 -0.035688 0.477714 0.368387 0.639906 0.215171 -0.479188 -0.212974 0.343408 -0.256089 -0.057835 0.346034 0.824034 0.080693 0.259412 -0.180202 0.410943 0.274291 -0.381812 -0.334509 0.485004 0.749485 0.248128 0.022876 0.314096 -0.238305 -0.490766 0.482606 0.341621 -0.354652 0.218353 0.629062 0.404267 0.019353 -0.206437 -0.017938 -0.294327 -0.346667 -0.007631 -0.807082 0.551232 0.020635 -0.596514 -0.475656 -0.253762
225 0.402980 0.127209 0.677581 -0.129852 0.111121 0.348333 -0.050192 -0.744932 -0.047783 0.289669 0.126122 -0.272518 -0.364768 -0.627523 0.846333 0.481183 -0.187533 -0.813445 0.169208 0.334028 0.132229 -0.286212 -0.604434 0.523527 0.055594 0.538915 -0.065247 0.172272 -0.245440 0.199940 0.025800 0.126880 0.698423 0.216124 0.545389 1.189901 -0.305037 0.163903 0.077160 0.090445 0.042289 0.421734 0.370463 0.494394 0.769594 -0.666774 -0.015217 0.184609 0.085623 -0.155886 -0.178872 -0.390078 0.326811 0.132638 0.983563 0.421205 -0.395669 0.211164 -0.730259 -0.096833 0.505948 -0.669729 -0.354974 0.252983
1866 0.034055 0.950121 0.454864 -0.556856 0.416250 0.923602 0.156539 -0.088499 -0.815526 0.009000 0.555279 0.373550 0.188461 -0.193806 1.040478 0.556442 -0.630039 0.287189 -0.486643 -0.237508 -0.227535 0.472733 0.245723 0.810551 1.060606 0.025743 -0.581785 0.435620 -0.343227 -0.110967 0.910133 -1.190520 -0.123005 -0.268699 0.107631 0.426086 -0.679624 -0.634633 -0.983715 0.724370 0.521570 1.035666 0.697033 0.284667 0.631194 0.043705 0.606084 -0.364789 -0.347217 0.590736 -0.417542 0.217504 -0.318602 0.609330 0.642603 -0.410349 0.327105 0.239910 0.107495 0.054699 0.146886 -0.061338 -0.820433 0.418770
1498 0.100882 0.390860 1.084109 -0.348834 0.298861 0.851348 -0.176533 0.074382 0.205916 1.181549 0.163280 0.530904 0.174920 0.487087 0.881150 -0.380245 -0.108847 0.181430 -0.000647 0.288671 -0.638338 -1.057235 -0.201185 0.785983 -0.401922 -0.050964 -0.049139 1.026467 -0.109873 0.635349 1.184154 0.101782 0.210392 0.345518 0.684505 0.578435 -0.314454 0.153583 0.041796 0.000379 0.402661 0.054773 0.561310 0.673435 -0.409881 -0.698514 0.828088 -0.693691 -0.192923 0.972012 -0.548163 -0.037179 -0.643843 0.225238 0.417574 -0.370960 0.088923 -0.214431 -0.139323 -0.365380 -0.537211 -0.521829 -0.390483 -0.145141
1117 0.151318 0.035766 0.842417 -0.247794 0.122178 0.133030 -0.068222 -0.387277 -0.341805 0.055599 -0.470042 0.208112 -0.027871 -0.213328 0.590304 0.048483 0.246733 -0.141451 -0.043130 0.353105 0.181056 0.152549 0.071387 1.020794 0.278670 -0.016039 0.218122 0.330165 -0.019524 0.101114 0.216379 0.492837 -0.343198 0.275291 0.440575 0.372762 -0.437199 -0.131574 0.039369 0.181574 -0.302069 0.332381 0.147240 -0.262124 -0.218040 -0.881058 0.603191 0.101299 0.143222 0.317365 0.322366 0.269107 0.434844 0.388662 0.284077 -0.532104 -0.465618 0.109407 -0.875399 -0.006478 0.163680 -0.283289 -0.994780 0.346264
413 0.749224 1.154040 0.410907 -0.569221 -0.230374 0.766651 -0.402590 0.034267 -0.574165 0.413965 0.644526 0.032491 -0.268345 -0.081336 0.652132 -0.251602 -0.006288 -0.075528 -0.317209 0.140855 0.100685 -0.486306 -0.548694 1.348906 0.270764 0.059978 -0.044399 0.354369 -0.256344 -1.049360 -0.397497 0.820947 0.078881 -0.038321 0.026880 1.613024 -0.579000 0.716673 -0.021419 -0.283744 0.788563 -0.716156 0.143365 0.318846 0.569989 -0.442692 0.333919 -0.671884 0.066422 0.320142 0.858295 0.597438 0.515767 -0.587737 0.425306 -0.559459 0.195567 0.308371 -0.119637 -0.429273 0.701179 -0.388147 -0.097494 -0.776644
