3670 16
66 -0.379338 -1.265332 -0.356516 -0.743101 0.534336 -0.373637 0.039647 0.724311 -0.077221 -0.019982 0.130130 -0.300674 0.885724 -0.484482 -0.928783 0.555349
18 -0.853699 -0.773852 0.240137 -0.387529 0.773391 -0.746204 -0.677610 0.369281 0.162593 -0.212527 -0.480881 -0.331020 0.587777 -0.399885 -1.369143 0.078063
189 -0.563240 -1.198800 -0.608952 -0.637159 0.605921 -0.188739 0.601656 0.342275 0.314217 0.207119 0.568700 -0.495151 0.830347 -0.867234 -1.191526 0.674702
19 -0.759853 -0.866088 -0.005856 -0.343790 1.030754 -0.332563 -0.685140 -0.347111 0.394265 -0.571333 -0.596116 -1.020627 0.086916 -0.633391 -1.334376 -0.180249
57 -0.533086 -0.842509 0.914196 -0.300119 0.807073 0.526531 -0.787664 0.790534 0.088556 -0.176493 -0.300776 -0.832592 0.739958 -0.588715 -1.157108 -0.569963
327 -0.439166 -1.278395 -0.649391 -1.031246 0.469466 -0.293446 -0.078068 0.224802 -0.360984 0.165524 0.619941 -0.509837 1.339993 -0.379278 -0.776618 0.844632
41 -0.459914 -1.123256 -0.252104 0.832027 1.064594 -0.965363 -0.619902 0.281073 -0.039974 0.046323 -1.030351 -0.121634 0.582138 -0.412672 -0.807054 0.140969
1 -0.037366 -1.310166 0.091351 -0.532966 1.266382 -1.192317 -0.229617 0.444124 0.062002 0.515679 -0.658612 -0.328283 0.620665 -0.381387 -0.385053 -0.503404
388 -1.373088 -1.437321 -0.238578 -0.031036 0.521542 -0.514949 -0.996739 0.072203 -0.764369 -0.192510 -0.266299 -0.623674 -0.091820 -0.287499 -0.824686 -1.117537
613 -1.260266 -1.342117 -0.481610 0.044180 0.376356 -0.485613 -0.587341 0.053116 -0.633327 -0.366107 -0.398103 -0.150312 0.450484 -0.328360 -1.396403 -0.062821
148 -0.808818 -0.634848 0.464020 0.177047 0.505547 -0.234450 -0.728301 0.177504 -0.276172 0.089859 -0.811050 -0.305492 0.821575 -0.908825 -1.690281 0.403947
447 -0.716118 -1.057067 0.104733 -0.155638 1.086865 -1.130015 -0.486500 -0.186379 0.144568 -0.120548 -0.861109 -0.674273 1.106710 -0.573383 -1.118930 0.173961
771 -1.117104 -0.437863 0.507578 0.397783 1.054907 -0.917945 -0.698208 0.288833 0.068648 -0.077598 -1.114509 -0.755225 0.444637 -1.086163 -0.995917 0.456253
16 -0.963693 -1.155815 0.391806 0.597946 0.380927 -0.512585 -0.043461 -0.043070 0.256302 0.051139 -0.930166 -0.652830 0.455880 -0.311463 -1.734774 0.212601
131 -0.690071 -0.855002 -0.310807 -0.822782 0.455556 -0.763432 -0.068768 0.874439 -0.512285 -0.308080 0.234744 -0.415921 1.087739 -0.286537 -1.095721 0.661327
300 -0.834141 -0.898786 -0.742723 -0.823812 0.348669 -0.579350 -0.160948 0.508062 -0.486208 -0.239987 0.149315 -0.827866 0.805404 -0.491965 -1.094873 0.210723
243 -1.002907 -1.297265 0.209301 0.148908 0.971288 -1.118427 -0.554933 -0.291064 -0.007557 -0.517843 -1.015507 -0.750349 0.633783 -0.355046 -1.186114 0.110982
242 -0.607935 -0.989566 0.221375 0.003522 1.128086 -1.313497 -0.555952 -0.218738 0.180791 -0.243457 -0.930692 -0.638639 0.828241 -0.398006 -1.302871 0.269330
1430 -1.179104 -0.415213 0.727408 0.301838 1.192325 -1.237086 -0.452513 0.056949 0.095693 0.137327 -0.965440 -0.495576 0.422784 -0.760426 -1.232525 0.193926
587 1.108622 -2.619527 0.848618 0.503416 1.496347 -0.428531 -0.822305 -0.422932 -0.987535 -0.194657 1.269755 -0.067346 -1.216075 -1.332486 -0.495276 0.316871
31 -1.201105 -0.371635 0.629874 0.345639 1.090756 -1.049573 -0.464894 -0.047134 -0.009387 -0.086433 -0.844271 -0.535410 0.498278 -0.929219 -1.366649 0.389627
1264 -0.523806 -0.649739 -0.152252 0.406022 1.153952 -1.026178 -0.571154 -0.268342 0.187729 0.075406 -0.979625 -0.427041 0.300717 -0.189636 -1.670542 0.579342
1479 -0.641777 -0.758264 -0.065712 0.559433 1.294405 -0.893249 -0.818036 -0.228585 0.133510 0.176986 -1.025253 -0.134095 0.688760 -0.482390 -1.477277 0.502363
1546 -0.765466 -0.832756 0.538967 -0.099231 0.766068 -0.581050 -0.244285 -0.209696 -0.047850 0.250655 -1.016053 -0.513358 0.501911 -0.689911 -1.622489 0.385400
791 -1.127032 -0.435499 0.608993 0.499738 1.098392 -1.074497 -0.507168 0.094173 0.102290 -0.195265 -0.877751 -0.570155 0.517060 -0.858373 -1.230310 0.313599
127 -0.589240 -1.360735 0.533810 0.869769 0.319338 0.277956 0.104834 0.040189 1.136454 0.206989 0.247702 -0.740792 0.785730 -0.352151 -1.275590 -0.349669
1031 -0.947965 -0.991720 0.485423 0.802025 0.530549 -0.425189 -0.379972 -0.591501 0.154876 -0.122504 -0.776238 -0.472290 0.721369 -0.554570 -1.632253 0.291909
545 -0.367110 -1.314817 -0.662247 -0.920246 0.334101 -0.470283 -0.027357 0.673759 -0.513531 -0.126955 0.248653 -0.710583 1.051245 -0.413955 -1.250763 0.848498
173 -0.681494 -0.921917 0.327881 0.231278 1.116873 -0.493568 -0.356494 -0.100449 -0.356576 -0.402991 -1.014516 -0.347091 0.336729 -0.858479 -1.660914 0.304897
1586 -0.152533 -1.496552 -0.461982 -0.664757 0.104596 -0.463852 0.255649 0.042162 -0.266084 0.300388 0.620498 -0.291073 0.532847 -1.453321 -1.323217 1.070996
295 -1.191974 -0.562202 0.503350 0.472516 0.770195 -1.090350 -0.116931 0.163952 0.114729 0.096537 -0.992783 -0.833017 0.589682 -0.955395 -1.280419 0.132239
3980 -0.666204 -0.507428 0.170202 0.698101 1.139091 -0.708544 -0.022132 0.169601 0.123838 -0.312568 -0.965803 -0.912405 0.969352 -0.677485 -1.667896 0.256212
306 -0.417565 -1.326691 -0.851608 -0.857414 0.676202 -0.291624 -0.112523 0.617178 -0.258642 0.040640 0.453912 -0.585703 1.385913 -0.225063 -1.103836 0.706947
604 -0.516345 -1.074718 -0.800865 -0.892418 0.436720 -0.357443 0.257548 0.321747 -0.575989 -0.227420 0.409182 -1.021663 0.995118 -0.327727 -1.413784 0.139589
910 -0.338483 -1.307151 -0.406713 -0.944909 1.210333 -0.975267 -0.048206 0.502002 -0.207619 -0.003858 -0.160368 -0.448607 1.205593 -0.429778 -0.432573 0.187094
73 -0.496073 -0.959818 0.659381 0.705413 0.210041 -0.120000 -1.552872 0.551588 0.597249 -0.134118 0.461347 -0.186019 0.714391 -0.340396 -1.893748 -0.298469
35 -0.291347 -0.700169 0.768999 0.179891 0.688784 0.159868 -0.463491 0.023410 0.050464 0.189134 -0.093158 -0.174697 1.047749 -0.772357 -1.595985 -0.489878
132 -0.760828 -0.972955 0.111898 0.783775 2.694408 1.166298 -1.012603 0.164073 -1.941251 0.731444 0.265706 -0.943125 1.084701 0.058450 0.598894 1.285613
395 -0.586297 -0.847285 0.248248 0.052924 1.200820 -1.185444 -0.417974 -0.185321 0.183294 -0.075526 -1.021952 -0.712078 0.913080 -0.602394 -1.219074 0.201358
143 -0.927220 -0.941020 0.492578 0.380773 1.011335 -0.609309 -0.373807 -0.038716 -0.365182 -0.273490 -1.079644 -0.335111 0.450718 -0.811126 -1.706198 0.324476
301 -0.769431 -1.396043 -0.800135 -0.691392 0.447973 -0.499024 -0.050030 0.734397 -0.427420 -0.181526 0.145637 -0.659849 1.173035 -0.342355 -0.977332 0.635130
883 -0.056302 -0.989747 -0.423038 -0.961130 0.750714 -0.584568 0.567031 0.027628 0.200151 -0.070990 0.022252 -1.131877 -0.059722 -1.390522 -1.592470 0.422731
2774 -0.591114 -0.807882 0.513612 -0.018658 0.895176 -0.922988 -0.175760 -0.346240 -0.056515 0.218484 -1.131464 -0.675822 0.525750 -0.610851 -1.529810 0.489762
600 -0.513138 -1.359770 -0.775118 -0.933058 0.507559 -0.592243 0.009187 0.609148 -0.439252 0.013030 0.233034 -0.699770 1.189476 -0.357636 -1.081274 0.581591
1611 -0.385918 -1.314578 -0.727520 -0.898774 0.580127 -0.520984 0.041902 0.590025 -0.513250 -0.140369 0.373210 -0.620036 1.269110 -0.181014 -1.077280 0.675435
288 -0.499073 -1.401888 -0.642758 -0.974324 0.520683 -0.374283 -0.009339 0.675030 -0.538954 -0.114133 0.281975 -0.782683 1.259054 -0.294603 -1.172728 0.660305
2721 -0.715339 -0.589274 0.625337 0.069801 0.940661 -0.825746 -0.450795 -0.295221 -0.105037 0.231788 -1.190444 -0.782409 0.603815 -0.614457 -1.489526 0.397330
675 1.292143 -2.123271 1.535446 1.239426 0.465365 -0.374590 0.058946 0.576778 -3.913990 2.079787 0.616674 -1.766858 2.575215 -2.112960 -1.617815 0.902453
3355 -0.600616 -0.614456 -0.449668 -0.841212 1.326162 -0.777000 -1.364789 -0.336993 -0.448322 1.286530 1.356420 -1.696821 -1.203360 -0.491126 0.496676 0.684718
820 -0.610227 -1.408826 -0.258546 -1.152794 0.209669 -0.477820 0.462694 -0.250003 -0.760594 1.008750 0.949171 -0.560405 0.836758 -1.159451 -0.119622 0.993369
788 -0.433925 -1.287469 -0.972185 -1.077590 0.675707 -0.221006 -0.111590 0.695764 -0.210886 0.113025 0.423821 -0.847888 1.149754 -0.467126 -1.115794 0.607825
438 -0.999122 -1.042151 0.168906 0.401727 0.730494 -0.475725 0.444043 1.187677 0.164384 -0.684029 1.067936 -0.145977 1.546532 -0.550216 -0.639182 1.574024
606 0.610395 -1.213210 0.605507 0.654106 -0.004279 -0.196033 -1.188981 0.646845 0.831475 0.413854 0.174832 -1.408762 0.544631 -0.870788 -1.278441 -0.557653
876 -0.548231 -1.259104 -0.676218 -0.950438 0.511542 -0.553931 0.079948 0.603857 -0.512866 -0.028722 0.249683 -0.760826 1.295597 -0.513814 -1.110805 0.620429
3462 -0.900188 -0.664724 -0.106673 0.400396 1.127252 -0.937039 -0.441595 -0.276661 0.225697 -0.046272 -0.985905 -0.590395 0.312844 -0.315187 -1.488914 0.500217
949 -0.559236 -1.407840 -0.692283 -1.016249 0.527027 -0.483765 0.055754 0.542926 -0.639099 -0.214643 0.322357 -0.738128 1.151025 -0.338862 -1.023415 0.650224
4851 -0.840082 -1.037404 0.365921 0.287684 0.850048 -1.009483 -0.537623 -0.138443 -0.113109 -0.369711 -1.148644 -0.753138 0.512902 -0.453856 -1.332498 0.310359
1361 -0.765644 -1.404751 -0.920431 -1.002159 0.462275 -0.696461 0.136107 0.297852 -0.159369 -0.190091 0.571803 -0.644421 0.642676 -0.063099 -1.483716 0.843813
6 -0.550503 -1.191609 -0.273274 -0.580267 -0.074681 -1.163395 -0.862289 0.866610 -0.047525 -0.423651 -0.349292 -1.256331 0.580986 0.117273 -0.793455 0.359940
302 -0.580643 -1.292715 -0.759787 -0.901355 0.630148 -0.579378 0.073777 0.580085 -0.528811 -0.039036 0.368279 -0.566416 1.198571 -0.309127 -1.076849 0.601141
602 -0.866331 -1.264242 -1.081132 -0.566360 0.233061 -0.547143 -0.312000 0.690965 -0.510619 -0.028971 -0.109809 -0.682525 0.850246 -0.223295 -0.859819 0.935929
4238 -0.773647 -0.814822 0.259772 0.574145 1.050525 -0.737433 -0.542569 0.074249 0.141590 -0.122544 -1.252127 -0.567026 0.547418 -0.503667 -1.205091 0.648972
4806 -0.642629 -0.384544 -0.547288 -1.157361 1.817605 -0.586035 -0.701326 0.111318 -0.663967 1.490438 1.741498 -1.831565 -0.542808 -0.848011 0.719158 0.610953
4334 -0.365954 -0.965321 0.394508 0.536139 0.755708 -0.986805 -0.649239 -0.032762 0.154761 -0.298443 -1.036506 -0.656462 0.592165 -1.037117 -1.199402 0.439121
518 -0.744970 -0.670503 0.385473 0.144183 0.540354 -0.721078 -0.784842 0.127232 -0.033228 -0.116441 -0.951090 -0.693306 0.768090 -0.447273 -1.345040 0.432738
3998 -0.619798 0.334401 -0.796092 1.227175 1.347992 -0.585507 -0.273439 0.892516 -0.053256 -0.094096 -0.125367 -1.460019 0.757656 -0.390341 -1.526088 -0.339762
3087 -0.614712 -0.740693 0.298016 0.287920 1.166193 -0.666100 -0.370231 -0.130116 -0.111223 -0.286106 -1.124302 -0.660636 0.442171 -1.036902 -1.600656 0.432282
601 -0.607033 -1.393654 -0.748338 -0.992398 0.583363 -0.578357 0.053065 0.659252 -0.578183 -0.025995 0.275137 -0.594174 1.162943 -0.306630 -1.120969 0.610176
908 1.001109 -1.821099 0.286477 0.577261 0.618548 -0.475266 -1.028520 0.744361 0.475622 0.134256 -0.263725 -1.528743 0.609342 -1.058873 -0.458928 -0.536093
729 -0.423997 -0.012344 -0.572047 1.310601 0.578736 -0.614883 -0.278888 0.980566 0.196816 0.235363 -0.384259 -1.833428 0.859010 -0.602485 -1.576332 -0.277187
1746 -0.745618 -0.862035 0.476407 0.511459 1.185870 -0.598628 -0.072811 0.007656 0.147085 -0.347416 -0.881313 -0.405255 0.785272 -0.793206 -1.414289 0.345713
1644 -0.515772 -1.578078 -0.771206 -0.877087 0.425662 -0.307146 0.167010 0.807618 -0.486959 0.002899 0.320262 -0.759346 1.044154 -0.707016 -0.798656 0.679037
2118 -1.060854 -1.183826 0.299444 -0.507097 1.216628 -0.800129 -0.775243 -0.219479 -0.799547 1.940173 1.704684 -2.117373 -0.727058 -0.148522 1.189283 -0.043009
226 0.977197 -1.410975 0.413976 0.674734 0.480721 -0.208662 -1.093002 0.520969 0.465888 0.683864 -0.063566 -1.613348 0.934858 -0.972196 -0.786796 -0.753163
337 -0.224150 -1.825901 -0.231130 -0.592482 -0.097372 -0.569889 -0.119393 0.385156 0.326215 0.101146 0.635531 -0.214508 0.308183 -0.962977 -2.134524 0.639661
4815 -0.753531 -0.705072 0.308807 0.320145 1.050399 -0.886671 -0.426160 -0.155292 0.166059 -0.117501 -1.057436 -0.765000 0.572840 -0.570253 -1.417652 0.321586
3170 -0.023058 -1.738094 0.268383 0.032244 1.707947 -2.714607 0.517073 0.126332 -0.901828 1.163141 0.098160 -0.236426 0.683166 -0.930901 0.379848 0.581999
118 -0.489784 -0.793419 0.902042 -0.171574 0.565571 0.172442 -0.956287 0.360591 0.864697 -0.083748 0.113284 -0.667634 1.148082 -0.633621 -1.394440 -0.039326
580 -0.652596 -0.542390 0.234629 0.449715 0.926210 -1.025250 -0.483127 0.055414 0.075752 -0.072980 -1.055911 -0.788968 0.584293 -0.542400 -1.686577 0.201933
305 -0.962087 -0.310760 -0.669775 -0.066873 0.348835 -0.166724 0.377183 0.305397 -0.862199 0.292333 0.333910 -1.561679 0.932967 -0.045376 -1.544551 -0.905866
3025 -0.499148 -1.552942 -0.270593 -0.330959 0.181333 -0.554696 0.118918 -0.096925 0.062740 -0.107520 -0.200249 -0.472691 0.261156 -1.326377 -1.800319 0.732977
2443 -0.305061 -1.630843 -0.668031 -1.024819 0.818445 -0.159040 0.090387 0.958976 -0.610480 -0.143467 0.124891 -0.566185 0.927072 -0.134228 -1.137086 0.533153
1150 -0.583192 -1.398804 -0.816837 -0.929420 0.631854 -0.490623 0.087436 0.714316 -0.463280 -0.083230 0.328012 -0.696922 1.201397 -0.359657 -1.127618 0.634755
209 -0.576519 -1.226018 -0.741118 -0.823263 0.537635 -0.578116 0.196917 0.841338 -0.421500 -0.080580 0.387375 -0.474483 1.011579 -0.583302 -1.320339 0.825030
191 -0.428533 -1.160093 -0.995571 -0.656795 0.683883 -0.414214 -0.016804 0.525338 -0.946020 -0.314631 0.503176 -0.304106 1.108722 -0.336134 -1.261093 0.469906
4189 -0.699232 -0.785685 0.304801 0.375363 0.999796 -0.818392 -0.578090 -0.096101 0.139837 -0.014353 -1.074285 -0.515480 0.570142 -0.578558 -1.330462 0.414818
1548 -0.392041 -0.762004 -0.312721 -0.835899 0.413327 -0.143683 -0.289097 0.240840 -0.687718 -0.009485 -0.017476 -0.857692 1.748615 -0.555110 -1.293481 0.716354
3398 -0.199168 -1.169475 -0.173866 -0.672386 0.345470 -0.550279 0.065156 0.766337 0.382259 0.856308 0.487215 -0.328496 0.113758 -1.670215 -2.133278 0.796088
1151 -0.357546 -1.547414 -0.852228 -0.848222 0.373945 -0.597248 0.073265 0.579462 -0.194807 0.003572 0.384487 -0.638573 0.900662 -0.740149 -1.423727 0.782714
14 -0.610181 -0.935933 -0.297500 -1.201882 2.045464 -0.463169 -0.822480 0.290035 -0.649300 1.811877 1.173946 -1.880287 -0.615411 -0.371140 1.026042 0.630651
462 -0.153073 -0.526506 -0.264198 -0.918499 1.436096 -1.194719 -0.908085 -0.401207 -1.004172 0.906575 1.281284 -2.358023 -0.784199 -0.197102 0.786425 0.512352
2330 -0.025095 -1.613045 -0.487503 -0.788539 0.209752 -0.689987 0.205998 0.485172 -0.008205 0.111131 0.447190 -0.551696 0.501119 -1.201964 -1.805052 0.844078
607 -0.359815 -1.285006 0.577386 0.414145 -0.173633 -0.223330 -0.819432 0.403186 0.905255 0.226620 0.353253 -0.567973 0.636006 -0.423111 -1.883059 -0.172836
583 -0.264639 -1.811020 0.494503 0.081758 0.702723 0.067714 -1.570941 0.180785 -0.157716 0.126592 -0.723315 -1.897218 -0.370183 -0.456491 -1.174318 -1.215497
1476 -1.347370 -1.656436 0.556535 -0.451275 0.763050 -0.939912 -1.074230 -0.370446 -0.923544 1.962159 1.815281 -2.719381 -0.626095 -0.161112 1.185102 -0.148026
76 -0.106107 -1.482560 0.599740 -0.240484 1.453268 -2.193975 0.406531 0.141979 -0.709718 0.924405 0.099393 0.085938 0.970433 -0.667889 0.125216 0.207134
5025 0.075794 -1.732936 -0.667124 -0.683786 0.154585 -0.313027 -0.042481 0.727086 -0.328005 -0.039902 0.016973 -0.905306 0.986258 -0.882775 -0.834559 0.725514
410 -0.534528 -1.035995 -0.216679 -0.962455 1.546501 -1.895944 -0.902392 0.870524 0.509292 0.184913 0.734870 0.132988 1.175347 -0.370569 -0.657186 0.151372
151 -0.657588 -2.777754 0.322731 0.986982 1.263630 1.559703 -0.610642 -0.907950 1.119504 0.827546 1.124296 -1.310701 0.459042 1.041183 -1.592117 0.938147
745 -1.101223 -1.465669 0.097876 0.566200 0.645338 0.157898 0.801935 0.737501 0.813523 0.031763 1.238409 -0.445838 0.914579 -1.179496 -0.825558 -0.031304
129 -1.293341 -0.620982 -0.005232 -0.373337 1.732877 -0.779126 -1.590706 0.414215 1.028288 -0.475131 1.408722 -0.266345 0.042490 -1.185550 -0.751145 -0.028183
1631 -1.488188 0.137359 0.643772 0.816994 1.351983 -1.315438 -0.398541 0.295997 0.116817 -0.096809 -0.872327 -1.287308 0.543309 -0.877777 -1.390749 0.251946
1199 -0.123385 -0.909406 0.175188 -0.723600 1.183799 -0.946629 0.312163 -0.649147 0.052995 -0.998383 0.434567 -1.800486 -0.077542 -1.091893 -1.577303 -0.365353
296 -1.029084 -0.473827 -0.572630 -0.807092 0.394676 -1.166644 -1.390514 1.486062 -0.333002 -0.234104 0.293890 -0.776264 0.446504 -0.472971 -1.018452 0.325392
299 -0.974590 -1.306824 -0.853880 -0.536858 0.373808 -0.661458 -0.356402 0.398687 -0.483555 -0.225360 -0.038778 -0.556359 1.195222 -0.267001 -0.915905 0.661281
3960 -0.436288 -1.201098 -0.764915 -0.925467 0.576680 -0.652457 0.075089 0.603232 -0.578784 0.003158 0.160449 -0.775022 1.308299 -0.503976 -1.034127 0.671842
135 -1.405688 -0.987637 0.298703 0.206450 1.277784 -0.438699 -1.965262 -0.027662 1.073022 -0.644600 1.691483 -0.140212 -0.185093 -1.089586 -1.302856 -0.129307
515 -1.459960 -1.221263 0.461261 0.248629 0.633939 0.276456 0.631596 0.797524 0.846330 0.390388 1.077950 -0.471257 0.746350 -1.284342 -0.913115 -0.230271
897 -0.494898 -0.170338 -1.125271 0.807164 1.993521 -0.752549 -1.625292 -0.690715 -0.375398 1.124938 -0.001426 -0.517895 0.579273 -0.581543 -1.211756 -0.657020
2813 -1.038113 -1.350017 0.471891 1.225901 -0.152559 -0.283792 -0.566749 0.251767 1.122843 0.416153 0.180721 -0.710513 0.802580 -0.051395 -1.935871 -0.149115
1126 -1.473730 -1.251620 0.604195 0.868142 0.590617 -0.279306 0.398116 1.261496 0.238519 -0.572385 1.795287 -0.341400 1.521576 -0.848761 -0.515444 1.762382
787 -0.614590 -1.334635 -1.053442 -1.056263 0.752246 -0.312792 -0.332584 0.660809 0.118459 0.223515 0.555888 -0.670235 1.232581 -0.279226 -1.182176 0.527213
165 -1.172283 -1.208043 0.124658 0.652979 2.983887 1.278050 -0.653901 0.199803 -1.863162 1.214472 -0.080340 -0.807376 1.333319 -0.533652 0.464392 1.598663
24 -0.146452 -0.251928 0.921764 0.559844 2.910244 0.507645 -0.524878 3.056058 1.389844 2.000890 2.358165 -2.506385 -0.133688 0.611478 -1.583742 0.216842
133 -0.529179 0.249127 -0.625984 1.428803 0.884339 -0.912067 -0.200700 0.929527 -0.159329 0.131752 -0.395283 -1.441226 0.833147 -0.157666 -1.962530 0.010599
2656 -1.583485 0.108083 0.678749 0.811055 1.466548 -1.596157 -0.405296 0.013014 -0.434170 -0.361547 -0.672823 -0.701993 0.618707 -1.103881 -1.275985 0.320749
186 0.584199 -1.801386 0.238851 0.277778 -0.002588 -0.605077 -0.932823 0.372566 0.630938 -0.747692 0.249343 -2.037321 0.765933 -0.430267 -0.295263 0.098156
4591 -0.364419 -1.350497 -0.754034 -1.061097 0.558046 -0.539153 -0.010181 0.529141 -0.598395 -0.057885 0.323914 -0.814248 1.284618 -0.152369 -1.378069 0.818708
4235 -0.158315 -1.324317 -0.652751 -1.105003 0.570033 -0.496517 0.081971 0.391345 -0.672710 -0.076787 0.447473 -0.785822 1.328571 -0.248061 -1.323765 0.903186
850 -1.066361 -2.182881 0.378719 -0.131760 0.952046 -0.504187 -0.226104 0.910651 -0.498351 -0.221015 0.271995 0.095613 -0.103669 -0.476256 -0.275431 -1.056868
1521 -0.161083 -1.210152 -0.410030 -1.194843 0.626961 -0.175268 -0.044886 0.164638 -0.938990 -0.236573 0.511479 -0.990664 1.593850 -0.066888 -1.400492 1.004937
858 -1.201963 -1.240984 0.525344 -0.199893 -0.584636 -1.347373 -1.140702 0.592951 -1.102726 0.631670 0.815522 -0.470915 0.759443 0.337540 -1.263094 -0.512891
458 -1.032980 -0.833537 -0.624016 -0.523916 0.088255 -0.784180 -0.696700 1.082834 -0.233422 -0.165450 -0.136739 -0.784418 0.917522 -0.060393 -1.233877 0.547362
1005 -0.496340 -1.731656 -0.459854 -0.838271 0.196646 -0.106923 0.392814 0.406639 -0.188794 0.271185 0.634458 -0.728743 0.995127 -1.254982 -0.461096 0.853682
1302 -1.563873 -0.065954 0.710830 0.649081 1.153757 -1.495918 -0.409419 0.319208 0.099267 0.010024 -0.900446 -1.066356 0.458059 -1.142569 -1.229352 0.365153
1471 -0.209938 -1.017298 -0.579677 1.743313 1.181846 0.031199 0.988963 -1.703352 -0.671111 1.374256 2.571301 -3.465473 -0.271070 0.851705 -3.000195 0.797858
3100 -0.950006 0.103396 -0.589222 0.832984 0.814748 -0.137714 0.510597 0.862308 -0.399706 0.577926 0.138614 -1.881980 1.086661 -0.640088 -1.129801 -0.723392
123 -0.796924 -0.894983 1.331621 -0.606812 1.191716 0.061197 -0.474077 0.318996 0.886171 -0.756255 0.075368 -1.098692 0.858905 -0.240884 -1.649814 -0.007455
3209 -1.787071 0.061440 0.816746 0.702267 1.450253 -1.423136 -0.509752 -0.025244 0.106338 -0.164801 -0.804982 -0.939367 0.241606 -1.135322 -1.225639 0.626556
15 -0.517193 -0.350740 0.974293 0.052488 0.076219 -0.204479 -0.662816 0.446384 -0.559949 -0.039785 -0.384845 -0.893658 1.581174 -0.117173 -1.565859 0.011263
251 -1.087156 -0.146269 -0.307693 -0.853388 2.005871 -0.789152 -1.274708 -0.427323 0.564202 0.469543 2.033150 -2.157228 -1.317580 -0.864445 0.028266 0.137568
490 -1.079953 -1.301634 0.475161 0.931141 -0.580048 -1.614006 -1.230892 0.594161 -1.062128 -0.112508 1.035198 -0.691247 0.772844 0.853590 -1.022231 -0.339230
70 -0.639973 -0.842555 0.768615 -0.400779 0.062848 -0.873994 -1.276493 0.712782 0.320893 0.491760 0.268931 -0.277764 0.105906 -0.227269 -2.391996 -0.272380
2282 -0.100710 0.190190 0.054730 -1.519561 1.487603 -1.495358 -1.405264 0.315326 -1.219154 1.965448 2.042104 -2.257592 -0.315405 -0.217676 0.096460 0.803710
1254 -0.992084 0.148204 -0.057874 0.090571 0.107994 0.143569 -0.489203 -0.284185 -1.108562 0.498294 -0.135617 -1.639044 1.837361 -0.724045 -1.568675 0.381872
225 -0.190649 -0.678460 -0.723509 0.807459 1.834832 0.173543 -1.680392 0.397679 1.220395 -0.591593 0.053933 -1.137451 0.185352 -0.925389 -0.989203 0.067855
619 -0.954987 -1.317329 0.957045 -1.133886 -0.079996 -1.201443 -1.508149 0.672158 -0.895754 0.985747 0.272502 -0.347097 0.740968 0.336358 -1.314788 -0.052884
303 -0.160587 -1.718775 -0.487539 -0.447109 0.342785 -0.858926 0.520051 0.616134 0.458297 0.172231 0.281807 -0.395001 0.386171 -1.220889 -1.290933 0.571977
481 -1.663007 -0.107539 0.776428 0.595732 1.204228 -1.402423 -0.384439 0.163002 0.058738 0.072139 -0.865170 -0.852692 0.249953 -1.150202 -1.219782 0.434195
3405 -0.045938 -1.648297 -0.467483 -0.480860 0.420081 -0.884781 0.816760 0.153665 0.469615 0.072646 0.508371 -0.680156 0.274464 -1.026263 -1.780446 0.333745
285 -0.570161 -1.102459 -0.145321 -0.994918 1.407125 -1.001802 -0.406944 0.220574 -0.383920 2.004837 0.786860 -2.231157 -1.248680 0.154193 0.682922 0.501286
1866 -1.075981 -1.130036 -0.009714 0.616688 2.901102 1.319779 -0.901562 0.531360 -1.801367 1.085319 -0.018982 -0.750021 1.050074 -0.546894 0.437209 1.664522
672 -0.437000 -0.179378 0.838803 0.745755 3.271657 -0.926758 -0.880027 3.068437 -1.107448 0.010428 0.401622 -1.217199 -0.038935 -0.697916 0.408418 2.133195
63 -1.267922 -1.407857 0.412097 -0.893210 -0.260170 -0.822453 -1.812863 0.707772 -0.673540 0.800064 0.797329 -0.159889 1.120465 0.336948 -1.604681 0.227932
2713 1.072706 -1.327878 0.406360 0.494680 0.084634 -0.338225 -1.158676 0.286740 0.425201 -0.027507 0.336743 -2.184716 0.616052 -0.553036 -0.868507 -0.451789
726 -0.874399 -1.076960 0.349369 0.740744 1.133259 -0.244046 -0.375508 0.033419 -0.681815 -0.590050 -0.719347 0.032046 0.665328 -0.728280 -2.207659 0.148958
991 -0.152711 -1.648550 2.094427 3.204024 1.826287 -1.027372 -1.311788 -0.249801 -0.191260 2.967095 2.758579 -0.955681 0.264924 -0.052316 -0.716435 -0.987689
1117 -0.725305 -1.297623 0.204793 -0.475547 1.166018 -1.346266 -0.751099 -0.117689 0.162630 -0.477384 -0.904829 -0.907317 0.975102 -0.379120 -1.020248 0.230002
727 -0.073090 -2.155364 0.586045 -0.573609 0.369157 -1.116136 0.913363 -0.584650 -1.046556 1.083437 1.185496 -0.188743 0.909381 -0.437070 0.000991 0.660706
1059 -1.693904 -0.152302 0.759338 0.594045 1.117279 -1.428150 -0.468800 0.306905 0.048790 -0.085331 -0.950650 -1.069132 0.279854 -1.103552 -1.269077 0.528495
2450 -1.409994 -2.349570 -0.095545 1.146442 -0.379569 -1.875562 -1.216818 1.395830 -1.053567 -0.717708 0.638789 -0.979766 -0.047963 0.468687 -0.480331 0.345454
835 -0.546324 -0.773387 0.198510 0.643541 0.869263 -0.183726 -1.506141 -1.318712 -0.876210 0.946688 0.558250 -0.409550 1.304856 -1.923574 -1.804819 -0.717176
3041 -0.758528 -1.782143 -0.499312 -0.930516 0.170334 -0.120711 0.350521 0.285084 -0.242187 0.344144 0.561943 -0.717213 0.812484 -1.202148 -0.458653 1.071563
678 -0.925635 -1.162344 0.416162 0.137384 0.643887 -0.282755 -0.320428 -0.089973 -0.246878 -0.306186 -0.697576 -0.229679 0.380301 -0.903983 -1.916919 0.294775
1135 -2.107160 -1.841257 -0.116492 0.196460 1.383053 -0.805531 -0.211808 1.025196 -0.252952 0.443672 0.465913 -0.375780 -0.556831 -0.087369 -0.436846 -1.371173
452 -0.594392 -0.612369 -0.478534 -0.955229 0.813376 -0.369149 0.305161 -0.213856 -0.309938 -0.417314 0.339968 -1.588834 0.270408 -0.625981 -1.975947 -0.611740
1014 1.411781 -2.710586 1.370284 0.508758 2.344564 -0.376775 -0.694801 -0.259761 -1.146183 0.241736 0.777485 -0.809810 -2.072008 -1.442263 -0.771683 0.162973
874 -1.694120 -0.176450 0.768426 0.631928 1.391552 -1.289245 -0.513656 0.181540 0.017142 -0.146149 -0.966919 -0.964188 0.454496 -1.176990 -1.242993 0.371564
812 -1.131288 -0.953418 0.052526 -0.864020 -0.033162 -1.232708 -1.170056 0.754375 -0.680134 0.236176 0.319115 -0.295208 0.655046 -0.119623 -1.265789 0.025117
3544 -0.430172 -1.395788 -0.760136 -1.029859 0.709648 -0.618797 0.219994 0.670654 -0.467368 0.006732 0.292208 -0.727724 1.225461 -0.148707 -1.279010 0.767097
3253 -0.440665 -1.297144 -0.796212 -1.111293 0.590365 -0.319839 0.158613 0.523996 -0.722792 0.153256 0.155666 -0.975547 1.291214 -0.338753 -1.267734 0.775846
45 -0.433747 -0.800651 -0.552598 -1.443176 1.675711 -0.313844 -1.403440 -0.190874 -0.941876 1.664296 0.931718 -2.131273 -0.587152 -1.076236 0.550362 0.736967
2973 -1.475582 0.125703 0.474760 0.793366 1.440869 -1.559011 -0.484368 0.364922 0.090525 0.134502 -1.047032 -1.124085 0.220868 -0.931757 -1.489846 0.456141
1567 -0.285371 -1.190210 -0.411021 -1.075011 0.663102 -0.220906 0.033427 0.280114 -0.879626 -0.353153 0.427088 -1.042466 1.598720 0.049049 -1.496901 1.084769
617 -1.178398 -1.345174 0.604069 -0.707812 -0.234825 -1.261868 -1.839038 0.772745 -0.785199 0.872458 0.540694 -0.194723 0.608691 0.223050 -1.502523 -0.085474
176 -0.771932 -1.321938 -0.005945 -0.552977 1.009211 -1.008026 -0.943637 -0.433859 -0.805920 1.853730 1.470189 -2.276962 -1.128499 0.285962 0.761830 -0.013408
1562 -1.012512 -0.653315 -0.226327 0.831503 0.836447 -0.312348 -1.750928 -1.724409 -1.360718 1.050182 0.577432 -1.119149 0.840071 -1.915162 -1.228815 -0.432431
1178 -1.429439 -1.089729 0.700313 0.784051 0.745842 -0.416998 0.341460 1.326354 0.171525 -0.587167 1.659976 -0.521544 2.024476 -0.959770 -0.703191 1.858365
345 2.272841 -1.957704 0.333737 1.211663 0.884776 -0.652521 -0.578523 0.142652 -0.324615 -0.611040 0.687533 -2.623430 0.913879 0.286485 -1.485343 1.017739
405 0.007548 -2.448312 0.879991 -0.174539 0.698159 -1.667536 0.394277 -0.775252 -0.928957 1.153393 1.083148 0.154910 0.569132 -0.358009 0.134705 0.813169
346 2.263742 -1.739350 0.227674 1.089912 0.940506 -0.876484 -0.553967 0.036602 -0.437444 -0.729362 0.780203 -2.721175 0.805424 0.172158 -1.466710 0.937177
1233 -0.727715 -2.369869 0.416904 -0.978058 2.125020 -0.318459 -0.689110 0.306430 -0.076416 -0.609701 0.645090 0.439072 -0.660094 -1.131177 -0.537102 -0.231844
407 -1.195568 -0.921037 -0.231495 0.599786 2.634078 1.435770 -0.814352 0.500627 -1.959628 1.048606 0.116571 -0.934346 1.038680 -0.213041 0.245957 1.283607
3461 -0.792261 0.608837 -0.054637 0.325849 0.875933 0.213432 -0.408599 -0.244696 -0.883705 0.551542 0.243172 -2.584904 2.234614 -1.017326 -1.250276 0.568767
2518 -0.221468 -1.300529 -0.219309 1.131727 2.017502 -1.904209 0.888215 0.699535 0.143796 -0.565379 0.955536 -1.469646 0.560215 -0.478307 -0.524768 -1.221078
413 0.975841 -1.950075 0.395907 0.546365 1.560610 0.571970 -0.366567 1.005895 0.001707 1.936093 0.881049 -0.301253 2.343402 0.025591 -2.298741 -0.293541
37 -0.343827 -1.065238 0.963666 -0.199805 0.420346 -0.273611 -1.095855 0.467307 0.572213 0.004050 0.109527 -0.586214 0.702268 -0.587281 -1.855029 -0.675172
199 -1.981036 -0.216562 0.521942 4.079628 2.396992 -0.970571 0.442259 0.620031 -1.473018 0.541638 2.377134 -1.987831 -1.208026 1.005269 -1.629786 -0.001919
760 -1.338893 -1.389777 0.071139 0.486002 1.038944 -0.211928 -0.246532 0.510881 0.390502 1.610608 -0.352741 -1.319623 1.179828 -1.229160 -0.114460 -1.150516
87 -1.215375 -0.819289 0.766389 -0.444081 3.098076 -0.578171 1.130832 0.241716 -0.718915 -0.696946 0.682719 -0.799308 0.701293 0.095009 -0.960844 2.919057
1171 -0.864868 -0.877702 -0.831741 0.771702 1.002694 -0.456086 -1.740779 -1.118775 -1.148862 1.110548 0.211463 -0.680277 0.611902 -1.600373 -1.161891 -0.795561
943 -1.142569 -3.021153 1.175095 2.683913 1.101643 -1.115277 0.007160 1.242257 -1.251132 1.756240 1.157608 -2.074349 -2.650311 1.851845 -0.727820 0.282286
1686 -1.605711 -0.572409 0.243129 0.006500 1.628520 -0.276724 -1.081976 0.575435 1.266497 -0.124671 1.986916 -0.586071 0.024167 -1.647953 -0.631195 -0.310449
2411 -1.918519 -0.104348 0.731212 0.588218 1.400834 -1.303871 -0.614551 0.067068 0.137294 -0.149342 -0.821954 -0.963835 0.450607 -0.993902 -1.345110 0.457505
368 -0.202572 -2.829919 0.458249 0.615198 1.717082 1.512510 -1.189179 -1.007131 0.849181 0.958962 1.160346 -1.267917 0.327937 1.325340 -1.394193 1.598329
3406 -1.743837 -0.122885 0.718802 0.631651 1.386724 -1.493643 -0.515791 0.128835 0.087397 -0.069089 -0.873605 -0.901680 0.387873 -1.024539 -1.208411 0.474302
700 -0.927410 -1.282010 0.615829 0.459340 -0.658944 -1.367101 -0.569260 0.002836 -1.268722 0.166814 0.901437 -0.972510 1.128503 0.537722 -1.164799 -0.808673
1339 0.010489 -0.812482 0.159476 -0.807078 1.538598 -1.981521 -0.254514 0.570162 0.216585 0.693549 -0.521323 -2.275604 1.201943 1.042481 -0.280393 0.839448
790 -1.799977 -0.065819 0.746376 0.609151 1.369981 -1.376209 -0.485299 0.133143 0.121500 -0.012612 -0.827003 -0.916819 0.420648 -1.159693 -1.320629 0.501886
842 0.827515 -1.194899 0.424429 -0.534679 1.015399 -1.225023 -0.130289 -0.464322 -0.153187 -1.003717 0.927141 -2.674176 -0.043395 -0.976781 -0.723760 -0.507424
1170 -0.399189 -0.795472 -0.774737 -1.457598 1.026172 -0.779961 -0.169380 -0.180033 -1.038631 1.898401 1.734059 -1.491977 -0.475409 -1.098723 0.228085 1.332224
640 -1.950173 -1.053218 0.312049 0.418132 0.683544 -0.233638 0.450341 1.196607 0.702292 0.549137 1.280849 -0.500995 0.244582 -1.206845 -0.769054 -0.595179
1026 -1.741481 -0.057397 0.772168 0.622096 1.450246 -1.354907 -0.422201 0.033682 0.135665 -0.179279 -0.858659 -1.021972 0.413776 -1.085872 -1.218351 0.510388
136 -1.294751 -1.363419 0.511481 0.230069 1.521219 0.185744 0.838960 0.788303 0.900340 -0.392325 0.536380 -0.412938 1.318332 -1.365544 -1.182146 0.456446
2744 -1.504349 -1.626992 2.604121 -0.269806 1.642587 -0.130249 1.340846 1.019988 -2.736664 0.140431 -0.274184 -3.015522 -0.146861 -1.978620 0.060599 0.820906
1757 -1.519452 -0.884362 0.167928 0.708338 1.053570 -0.088237 0.234941 0.829425 0.416322 1.722037 -0.117627 -1.178258 1.004157 -1.014490 -0.590473 -1.040188
742 -1.710438 -0.076555 0.751624 0.650046 1.472509 -1.461650 -0.493177 0.082997 -0.007915 -0.054228 -0.865330 -0.862622 0.423623 -1.075677 -1.165557 0.479702
3458 -0.542500 -1.229454 -0.729117 -0.981881 0.580950 -0.708373 0.058180 0.573662 -0.468330 0.017352 0.415901 -0.683247 1.299897 -0.366905 -1.142019 0.683933
2907 -0.218636 -1.586509 -0.466794 -0.625189 0.315936 -0.736857 0.392747 0.260527 0.210166 0.181174 0.295532 -0.510424 0.405138 -1.257926 -1.797888 0.682525
1236 0.103764 -1.984998 0.516167 0.219109 0.753660 -0.000103 -1.794270 0.135591 -0.104189 0.374747 -0.748322 -2.270724 -0.244454 -0.265611 -1.278794 -1.353711
864 -0.742423 -1.312160 0.095971 -0.463844 1.197665 -1.310872 -0.650577 -0.164747 0.260104 -0.253939 -0.859809 -0.808741 0.964933 -0.263747 -1.035437 0.140801
966 -0.102204 -1.670468 0.434622 -0.080209 1.132556 -0.869215 0.458663 -0.981702 0.467585 -1.315809 1.127476 -2.374097 0.249173 -0.899533 -0.965413 -0.516774
4644 -1.680972 -0.068336 0.781790 0.766666 1.351841 -1.501304 -0.423736 0.149722 0.162481 -0.097405 -0.819331 -0.916106 0.342701 -1.084936 -1.268617 0.512158
951 -1.923384 -0.032060 0.742545 0.849210 1.371987 -1.337814 -0.645193 0.144712 0.094322 0.036371 -0.880186 -0.888546 0.505435 -1.065424 -1.294446 0.516342
321 -1.331370 0.147435 -0.475885 0.190787 0.489860 0.251529 0.089842 0.034822 -0.979995 0.531799 0.099258 -2.339231 1.221876 -0.402803 -1.267586 -0.388195
1498 -1.238767 -1.609082 0.222456 0.708491 2.274527 -0.947994 -1.507750 0.164527 0.711546 2.864500 -0.683525 0.063994 0.497939 -0.205666 -0.548194 0.159932
873 -1.711675 -0.174628 0.826382 0.690040 1.392101 -1.406104 -0.370057 0.148988 0.178913 -0.075327 -0.826178 -0.851499 0.315157 -1.174423 -1.230236 0.467582
3417 -1.627470 -0.084002 0.802896 0.589148 1.378526 -1.400257 -0.413349 0.168597 0.101149 -0.185244 -0.892862 -1.037417 0.420847 -1.167249 -1.240692 0.379463
1351 -1.220768 -0.950655 0.083052 0.889803 0.764124 0.002482 0.705371 1.180740 0.176710 0.685055 1.177158 -0.603587 0.603214 -1.766155 -0.940862 -0.782857
1852 0.163043 -1.248191 0.277629 -0.119302 1.822875 -1.447171 0.528702 -0.269994 -0.025582 -1.346448 0.790277 -2.366637 0.073775 -0.972150 -0.813528 -0.816449
2143 -0.636796 -1.014450 0.471959 -0.069895 0.302628 -0.459796 -0.440322 0.863280 0.341159 1.169900 0.184775 0.183596 0.250775 -1.727982 -2.068677 0.182800
693 0.039287 -1.785827 0.653734 -0.954183 1.617386 -1.045590 0.288168 -0.415475 -0.299897 -1.480391 0.828300 -2.189541 -0.087698 -1.081896 -0.688213 -0.419372
875 -1.660652 -0.042158 0.752618 0.615231 1.355437 -1.375947 -0.530488 0.111187 0.024395 -0.120728 -0.871355 -0.966970 0.432076 -1.175563 -1.237130 0.476058
21 -0.886687 -1.284456 -0.680693 -0.990815 1.002310 -0.351163 -0.592724 0.476318 0.833902 0.512096 0.339921 -0.624730 1.567080 -0.250694 -0.961524 0.344948
1118 -0.712201 -1.191306 0.162961 -0.399772 1.114099 -1.277975 -0.743190 -0.069240 0.306024 -0.314550 -0.648377 -0.711834 1.175820 -0.542547 -0.966818 0.081858
758 -0.467517 -1.914322 0.949974 -0.746476 2.511227 -1.809028 1.251886 0.106324 0.332836 1.216445 -0.088801 -0.450611 -0.375804 0.376187 -0.237779 1.974530
1240 -1.189500 -1.410327 0.704811 -1.012292 -0.313046 -1.339904 -1.723996 0.708726 -0.795573 0.895905 0.752838 -0.285333 0.791174 0.142623 -1.753981 0.086756
2736 -1.674284 -0.112431 0.817952 0.653790 1.455550 -1.433670 -0.322865 0.179529 0.061303 -0.030867 -0.933441 -0.931586 0.397315 -1.083057 -1.193654 0.539766
567 0.904060 -2.469207 0.660294 1.668155 2.051808 0.070236 -0.771172 0.875621 -0.792898 -0.807971 1.568512 -1.528726 -2.712806 -1.454996 -0.908826 0.671901
818 -0.135950 -2.209323 -0.384076 0.822762 1.456011 -1.450858 0.948831 -0.040108 0.790935 -0.392008 0.882384 -1.451264 0.464480 0.020903 -0.861423 -1.079211
1173 0.222069 -1.235904 0.817548 -0.317351 1.501969 -1.211439 0.461456 -0.537453 -0.170527 -1.551225 0.899581 -2.566937 0.115962 -1.101662 -0.933464 -0.192418
3269 -0.546372 -0.237898 0.529465 0.700805 3.306583 -0.269315 -0.969633 2.574787 -1.427543 0.282511 0.244422 -0.909554 0.286975 -0.707835 0.602205 1.986324
1272 -0.913434 -1.758591 -0.630689 -0.914732 -0.025756 -0.046260 0.115801 0.008315 -0.348227 0.696789 0.596447 -0.595770 0.765530 -1.233706 -0.469645 1.284125
5604 -1.697071 -0.104207 0.787134 0.670307 1.447844 -1.397202 -0.535253 0.158553 0.206998 -0.083861 -0.905561 -0.973713 0.366340 -0.985068 -1.264892 0.587609
2599 -0.359879 -1.485193 -0.738186 -1.191843 0.650690 -0.107143 0.337261 0.724964 -0.118178 -0.082856 0.324485 -1.095277 0.619484 -1.120544 -0.804788 0.989493
4183 -0.540864 0.166588 -0.687668 1.396626 1.164279 -0.453961 0.096668 0.936526 -0.146404 -0.164488 0.119833 -1.724930 1.021615 -0.434208 -1.521735 -0.381781
1992 0.887278 -1.328266 0.362769 0.987447 0.249576 -0.356948 -1.193569 0.749473 0.465220 0.586993 0.084082 -1.883944 0.813022 -1.242705 -1.136161 -0.756679
214 -1.221492 -0.538032 -0.105878 0.627976 0.542020 -0.276700 0.454035 0.953294 0.129731 1.212541 0.349132 -1.363188 1.083986 -1.248552 -0.833948 -1.047369
47 -1.611663 -1.137058 0.363857 0.014661 1.046318 0.888315 -0.388583 0.226732 0.767832 1.311872 -0.313299 -1.494640 0.921910 -0.650670 -0.624950 -0.687010
74 -0.252301 -0.655834 -0.006730 0.725574 1.600118 0.017405 -0.974807 0.726253 -0.388898 -0.526006 -0.162027 -0.062098 0.936147 -0.469812 -2.142447 -0.591317
1317 -0.366782 -1.110610 1.085709 -0.248341 0.947996 0.151589 -0.840698 0.776059 1.273686 0.028322 0.046531 -0.548961 0.777104 -0.126659 -1.423419 -0.015008
213 -2.148766 -1.111956 -0.583738 1.960598 1.762782 -0.499035 -0.251662 0.821630 -0.047048 0.377691 0.735215 -2.301783 0.762806 2.206049 -0.761394 3.282032
56 -0.651482 -1.822457 -0.188441 -1.143314 1.748997 -0.930702 -0.750990 -0.344350 -0.973424 2.243616 1.137408 -2.118311 -1.597752 0.982566 0.021324 0.053038
2057 0.016964 -0.296825 0.039972 -0.670637 2.258053 -1.279130 0.034285 -0.048622 0.044126 1.048442 -0.035159 -2.660835 1.764244 1.305487 -0.673281 0.320251
836 -0.916342 -0.397387 -0.619646 1.064193 0.841201 -0.205837 -1.273670 -1.447285 -1.478834 0.646537 0.418117 -1.125451 1.016271 -1.939361 -1.268345 -0.265500
25 -0.890258 -0.638547 -0.266007 0.778255 0.956959 -0.578206 -1.807216 -1.577874 -1.501459 1.090602 0.636513 -1.030837 0.966761 -2.018707 -1.389790 -0.690512
1235 0.793139 -1.607575 0.271897 0.469750 0.223981 -0.071131 -1.416227 0.295550 0.169470 0.522832 -0.204614 -2.008062 0.315735 -0.673077 -1.311793 -1.094817
385 -0.239332 0.000264 -0.758356 1.029532 1.037277 -0.529939 0.233562 1.519355 0.047048 0.091817 -0.218316 -1.598416 0.931553 -0.405426 -2.007414 -0.037434
2595 -0.813750 -0.471958 -0.344002 0.946302 0.833488 -0.538895 -1.427068 -1.384254 -1.260182 1.227907 0.781253 -0.508535 0.861561 -1.857049 -1.537076 -0.439476
3518 -0.512053 -0.728088 -0.761249 -1.199407 1.645106 -0.398854 -0.844793 0.147212 -0.925448 1.882351 1.131209 -1.787389 -0.892721 -1.127251 0.499483 0.779672
1168 -0.672481 -1.423527 -0.079830 -0.556054 1.188407 -1.189320 -0.425492 -0.037011 0.397469 0.104229 -0.675267 -0.725582 1.416187 -0.575502 -0.504716 0.106178
4675 -0.464143 -1.430769 -0.748548 -1.105830 0.657263 -0.534800 0.185767 0.604126 -0.619238 -0.012597 0.417581 -0.634895 1.240179 -0.182211 -1.238672 0.666146
286 -0.507416 -1.445644 -0.155567 -0.900294 1.471979 -0.977128 -0.911375 -0.533450 -0.778183 1.878605 1.468701 -2.166615 -1.271973 0.595648 0.536669 0.115235
2038 -0.665007 0.158918 1.071398 2.622039 2.602240 0.311415 -1.061686 0.235741 -0.587107 0.410573 -0.003395 -3.535869 -0.488690 -1.345021 0.302728 3.003677
1198 1.035584 -1.357592 0.491993 0.121239 0.100436 -0.519771 -1.163571 0.231251 0.192912 -0.721789 0.758305 -2.754877 0.501995 -0.530533 -0.303571 -0.034591
1324 -1.246282 -1.630478 1.606278 -1.360566 0.495025 -0.400316 1.392066 -0.974732 -1.018305 1.393014 1.647446 -1.160529 0.688956 -0.539960 -0.920930 1.167657
1160 -1.472902 -1.078404 0.711083 0.781768 0.729108 -0.413351 0.252977 1.344678 -0.002903 -0.854351 1.524902 -0.461388 1.786655 -0.780027 -0.731430 1.938259
3686 -0.547135 -1.319042 -0.764609 -0.906922 0.528138 -0.467791 -0.077360 0.726778 -0.603575 -0.125138 0.349244 -0.660543 1.264995 -0.435541 -1.098366 0.674498
1295 -1.478027 -0.897559 0.228582 0.668953 0.688874 0.041801 0.545984 1.086244 0.501636 0.972154 0.950697 -0.711709 1.015130 -1.634972 -0.676251 -0.496329
3687 -0.709992 -1.536530 -0.777086 -0.876245 0.599491 -0.368310 0.034943 0.748418 -0.580082 -0.117102 0.340539 -0.592150 1.320491 -0.352442 -1.155351 0.575215
668 -1.519068 -1.179871 0.601350 0.534531 0.891775 -0.375696 0.264588 1.320760 0.245562 -0.780946 1.348615 -0.444035 1.918086 -0.703167 -0.864430 1.934324
878 -0.811612 -1.283040 -0.681208 -1.091893 0.659558 -0.598686 0.244287 0.827796 -0.455611 0.085387 0.487516 -0.661237 1.211910 -0.272647 -1.284288 0.317207
3501 -0.464234 -2.118131 0.208001 0.114197 0.176460 -0.134738 0.609395 0.873813 0.393264 -0.093340 1.076778 -0.449903 0.889438 -1.647535 -0.390217 0.123962
3251 -0.650937 -1.377580 -0.753318 -0.596103 0.793435 -1.023106 0.813325 -0.100658 0.726028 0.234576 0.153811 -0.768836 -0.176078 -0.489946 -1.566180 1.193491
1357 -1.006200 -1.282650 0.921388 -0.744889 -0.235468 -1.094667 -1.867810 0.813303 -0.335975 1.042599 0.407825 -0.251671 0.407887 0.131493 -1.772493 0.012728
2752 -0.732033 -1.972561 0.432017 0.022386 0.133383 -0.020983 -0.969191 2.515006 -1.140902 1.819676 2.426142 -2.034953 0.185900 1.924407 -0.539859 1.893385
739 -0.497193 -2.166622 1.568738 0.049954 1.394470 -1.921169 0.779055 -0.881530 -1.001618 0.518037 1.288209 -0.523198 1.540849 -0.331773 0.547085 1.042220
3688 -0.684695 -1.414707 -0.903469 -0.781992 0.515910 -0.454894 -0.028102 0.772546 -0.625531 -0.072463 0.336791 -0.625253 1.265301 -0.392437 -1.190129 0.592273
2280 -0.392761 -1.242011 -0.574980 0.409069 1.792492 -1.183417 -0.778748 -0.324808 -0.007087 0.894168 -0.700621 0.038216 0.670823 -0.192495 -0.673993 -0.445467
2811 -1.478251 -1.640031 0.665562 -0.304135 0.635582 -0.986197 -0.962216 -0.249756 -1.020913 2.151710 2.009175 -2.592049 -0.453805 -0.312172 1.202000 -0.236905
2390 -0.555723 -1.411334 -0.469326 0.847201 0.988884 -0.484220 -0.782891 0.329947 -0.529739 1.027957 -0.730965 -0.288272 1.493758 -1.281982 -0.299101 -0.717775
2777 -0.840895 -0.847240 -0.564173 -1.512674 1.171344 -0.628623 -0.420456 0.005296 -0.804377 1.820451 1.773181 -1.389019 -0.169178 -1.278265 0.503380 0.938174
947 -1.416079 -1.390010 0.158518 0.320963 -0.310231 -1.047216 -0.777135 0.002653 -1.249305 0.092680 0.366404 -0.727071 0.748727 0.585832 -1.285722 -0.957444
1499 0.160137 -1.176639 0.549726 -0.183559 1.497041 -1.172950 0.477089 -0.658930 -0.198155 -1.548959 0.983984 -2.474180 0.104127 -1.010234 -1.018590 -0.360836
921 -1.287299 -1.145735 -0.273272 0.684113 2.757159 1.487819 -1.106819 0.487431 -1.907553 1.124635 0.100206 -0.851149 1.017411 -0.385061 0.263834 1.485196
365 -0.886946 -1.167077 1.346715 -0.203258 1.235119 0.308707 -0.325281 1.045455 0.760629 -0.557728 0.182130 -0.659947 1.719635 -0.675471 -1.006481 0.285281
97 -0.896733 -1.281075 0.378830 -0.141240 1.057195 -0.068218 -0.095864 0.242087 -0.685176 -0.265407 -0.709365 0.156681 0.471889 -0.484085 -1.747381 0.233364
82 -0.556939 -1.147575 -1.073454 -1.100427 0.848912 -0.319557 -1.057099 0.728231 0.866670 0.189746 0.748365 -0.746686 1.099225 -0.480297 -0.914586 0.840757
2301 1.008483 -2.617593 0.394447 1.533236 1.830277 -0.293709 -0.944915 0.459282 -0.655419 -0.727540 1.706354 -1.071611 -2.459223 -1.620147 -0.926246 0.605810
1020 -1.443098 -1.364461 -0.982767 -0.281647 0.316117 -0.561766 -0.371480 0.763129 -0.337044 -0.415276 -0.156099 -0.633435 0.853006 -0.176514 -0.955345 0.724579
1560 -0.983136 -1.178463 -0.380526 -0.568596 0.514520 -1.217401 -0.622550 0.244842 -0.267662 -0.518813 -0.574400 -0.886185 1.022521 -0.290801 -1.099344 0.428674
273 -0.824525 -0.950770 0.034734 -1.154720 1.704253 -0.472337 -0.593970 0.145323 -0.881709 1.874874 2.266933 -1.458645 -0.176624 -0.853765 1.037906 0.181888
996 -1.118690 -0.917441 -0.102765 0.698101 2.880536 1.285129 -1.018598 0.698104 -1.864691 1.009130 0.036335 -0.805735 1.030328 -0.393379 0.422447 1.555494
478 -0.965530 -1.654319 -0.329420 -0.411313 -0.012668 -0.453076 0.104286 0.077948 0.742871 0.241399 1.710649 -0.749260 0.995722 -0.882730 -0.382001 2.199664
2895 -0.676275 -1.707083 -0.492595 -0.880923 0.105273 -0.236591 0.145008 -0.118932 0.002029 0.577238 0.944776 -0.608427 0.954400 -1.354815 -0.493870 1.360690
164 -1.113167 -1.068161 -0.173189 0.667239 2.864330 1.240383 -1.096357 0.541559 -1.848977 0.962099 0.040701 -0.804963 1.008922 -0.414545 0.450560 1.576598
55 -0.631254 -1.795366 -0.099262 -1.245207 1.693192 -0.896408 -0.780218 -0.357955 -0.969649 2.177043 1.163388 -2.218394 -1.645053 0.959713 0.016330 -0.006532
785 0.865851 -1.811578 0.349346 0.694567 0.225149 -0.338528 -1.075722 0.616211 0.428770 -0.022502 -0.085185 -1.581715 0.723271 -1.226859 -0.684771 -0.353377
692 0.236466 -1.257559 0.571164 -0.439164 1.464573 -1.183069 0.388686 -0.471492 -0.182038 -1.536133 0.980309 -2.575279 0.197686 -1.170330 -0.960621 -0.309611
1496 -0.993519 -0.933854 0.615655 0.528680 0.575317 -0.173939 0.113636 0.933735 0.712241 0.935524 0.895157 -0.117894 0.829268 -1.673833 -1.521245 -0.644257
1557 0.885261 -2.059101 0.180363 0.599188 0.708621 -0.138609 -1.212096 0.830676 0.603675 -0.368044 -0.201786 -1.428511 0.751808 -1.172147 -0.180631 0.147242
1022 -0.901658 -0.921862 0.071039 1.124233 2.231266 2.100386 0.098055 0.488274 -2.716085 1.278340 0.361919 -1.312982 0.678043 0.279356 -1.647346 0.366223
1049 -0.318816 -1.015799 0.080336 -1.002646 1.668137 -1.880137 -0.045376 0.595150 0.309468 0.771018 -0.580271 -2.224415 0.824182 1.109628 -0.138557 1.057433
2343 -1.316893 -1.111193 -0.228688 0.637893 2.842707 1.432413 -1.191805 0.522497 -1.809349 1.086784 0.085846 -0.773785 0.994386 -0.449240 0.360151 1.607679
249 0.640613 -1.933763 -0.151432 0.596327 0.208217 -0.360399 -1.158611 0.423626 0.207659 -0.585954 -0.525504 -1.242938 0.991523 -1.390360 -0.438543 0.597202
972 0.208566 -1.370644 0.528398 -0.399186 1.468571 -1.125989 0.367808 -0.701671 -0.013866 -1.381270 0.802105 -2.468694 0.032008 -1.163534 -0.955052 -0.249353
380 0.875097 -2.071461 0.028534 0.502737 1.194352 -0.105938 -1.460891 1.068437 0.607387 0.325249 -0.403631 -1.674247 0.594311 -0.722958 -0.016051 -0.248576
4764 -0.691399 -2.146835 0.573897 -0.016268 2.237757 -0.382874 -0.853343 0.756031 -0.480720 0.459327 0.822931 -1.911299 0.661474 -0.267173 -1.689793 0.736645
353 2.122103 -1.911478 0.311792 1.145801 0.881231 -0.673125 -0.487175 0.058274 -0.303846 -0.757187 0.659970 -2.700872 0.746944 0.408389 -1.506275 0.916058
643 -1.388911 -1.105695 0.307971 0.064928 1.157369 -0.010246 0.289355 1.327399 0.314291 -0.959322 0.389224 -0.540284 1.715153 -0.411321 -0.813676 1.149521
121 -0.599571 -0.931678 1.365228 -0.808340 1.098498 -0.617414 -0.390206 0.254225 -0.251454 1.039966 -0.746447 -0.158124 0.772009 0.090146 -1.527571 -0.049754
712 -0.772096 -2.019368 1.234342 -0.224216 0.729101 -2.353268 0.920952 -0.132238 -0.735940 1.591101 1.100648 0.128348 0.497738 -0.569683 -0.155871 0.888673
162 -0.996981 -1.999482 0.518141 0.552095 1.984280 -0.920430 -0.852548 0.562717 -0.691267 0.818901 1.006905 -1.939155 0.519152 -0.724824 -1.634342 0.869990
3594 -0.771309 -1.268972 0.488845 0.681594 1.622534 -0.600452 -1.198706 0.838291 -0.127394 0.680366 1.079543 -1.999054 0.657933 -0.533798 -0.816396 1.108385
767 -0.850749 0.139983 0.752767 1.344269 2.087306 -0.356509 0.613583 0.353680 1.642197 0.861593 2.431080 -2.215949 -1.387344 -0.822492 -2.822579 2.638186
1510 1.000678 -1.559923 2.593899 2.176362 1.285622 -2.069041 -1.345540 2.359297 -2.124566 -0.953282 0.300155 -2.348357 -0.380093 0.424445 -0.503086 1.570522
549 -0.163864 -2.079713 0.723602 -0.362006 1.229641 -1.926369 0.892623 -0.156908 -0.543228 1.274406 0.286510 0.097272 0.320182 -0.307699 0.149434 0.913165
829 -0.720263 -0.269287 -0.769433 1.391724 0.601062 -0.372543 0.026236 1.288959 0.334041 0.106826 -0.132343 -1.704605 1.008851 -0.120163 -1.816034 -0.064861
272 -0.771921 -0.533156 -0.697105 -1.350765 1.776780 -0.638741 -1.436500 0.382186 -0.717791 2.033735 1.156503 -2.202916 -0.480060 -0.765122 0.631807 0.837624
2355 -0.272878 -0.839081 0.916792 0.339351 0.294048 -0.649244 -1.717122 -0.621518 -1.465654 2.407392 0.424101 -1.311988 0.429291 1.000369 -3.130104 3.569810
1103 -1.185268 -0.991942 -0.526058 0.763784 0.895816 -0.305631 -1.571035 -1.154042 -1.156673 0.961963 0.270892 -0.511645 0.813670 -1.642685 -1.171860 -0.762541
69 -0.929806 -0.447080 -0.617119 -1.008822 0.951685 -1.143022 -1.773974 1.375785 0.428147 -0.384864 0.967020 -0.766748 0.465076 -1.012752 -0.882318 0.482392
469 0.227466 -1.352008 0.435510 -0.370902 1.474047 -1.251273 0.383966 -0.670474 -0.164025 -1.292117 0.808536 -2.537975 0.162926 -1.151665 -0.891404 -0.393055
217 -0.698701 -0.260419 -0.512470 -1.415362 1.539499 -0.812108 -1.578626 0.476786 -0.745816 2.204971 1.172971 -2.332663 -0.455532 -0.348656 0.381978 0.725680
396 0.902839 -2.021027 -0.146148 0.838614 1.223328 -0.231258 -1.529068 1.211390 0.893103 0.393665 -0.360341 -1.747308 0.359769 -0.953775 -0.157858 -0.001486
3291 -0.272363 -0.629630 -0.407130 1.700114 2.115157 -1.570785 0.692734 1.191902 0.040414 -0.703431 1.362949 -1.485815 0.822037 -0.878239 -0.864585 -1.085812
2294 -1.509078 -1.615809 0.604947 -0.435338 0.647218 -0.915448 -1.080320 -0.260422 -1.029283 1.974477 2.006985 -2.538265 -0.591130 -0.344516 1.110458 -0.278406
109 -0.410975 -0.019915 -1.339054 0.989500 1.917598 0.090791 -1.198231 0.880383 0.319798 -0.116344 0.083937 -0.767679 0.716208 -0.524609 -1.456984 -0.335786
731 -1.488880 -0.765125 0.247273 0.578885 0.732519 -0.044896 0.423998 1.129362 0.531043 1.101517 1.015109 -0.635100 0.832084 -1.561475 -0.961197 -0.689735
708 -0.249185 -1.393510 -1.160537 -1.091597 0.865435 -0.195622 -0.477061 0.827029 0.610902 0.543363 0.862359 -0.914489 1.425246 -0.271425 -1.340873 0.676889
1506 0.211994 -1.384912 0.433981 -0.332160 1.447462 -1.242564 0.412096 -0.599423 -0.097709 -1.378889 0.829295 -2.710661 0.042855 -1.110162 -0.798568 -0.424764
5103 0.007175 -1.489599 -0.375320 -0.621045 0.232263 -0.785051 0.287041 0.435564 0.146093 0.012570 0.519492 -0.388552 0.375253 -1.379281 -1.761781 0.758382
2321 -1.558036 -1.293206 0.534886 0.845223 0.702174 -0.410302 0.332868 1.337376 0.125131 -0.509887 1.636882 -0.203455 1.896872 -0.906665 -0.721097 1.875208
1417 1.199904 -2.753431 0.980326 0.422686 1.976098 -0.385176 -0.946952 -0.118890 -0.904084 -0.066397 1.214592 -0.484424 -1.856997 -1.320490 -0.815504 0.204664
330 -0.999425 -2.033612 0.360841 0.560815 1.995703 -0.865664 -0.903184 0.514459 -0.696280 0.696279 1.003824 -1.836548 0.580362 -0.613494 -1.585794 0.792785
20 -0.150892 -0.745226 0.691533 -0.431066 0.937506 -0.716975 -1.011732 0.233309 0.415579 -0.101322 0.014648 -0.508722 0.162521 -0.305993 -2.523535 -0.585360
1003 -0.314748 -1.400613 -0.512480 -0.636659 0.322263 -0.639128 0.240847 0.287987 0.144967 0.021833 0.488763 -0.334264 0.412738 -1.376625 -1.822447 0.744888
262 -0.135184 -1.306258 -0.550931 -1.594290 1.933942 0.431332 0.844610 1.227486 0.702012 0.090982 0.809691 -2.509747 -0.013966 -1.792161 -1.300080 1.601686
963 0.191798 -2.615932 0.902194 0.575570 -0.550579 -1.819992 -0.685580 -0.514035 -1.403366 0.227282 1.572525 -0.164507 0.965642 -0.037354 -0.704692 -0.088573
140 -1.042471 -0.921757 0.169731 -0.335833 0.027566 0.439308 -1.918479 0.600777 -0.235944 -0.270911 -0.300451 -1.296397 1.370090 0.308677 -2.222812 1.218445
1333 0.012954 -1.308109 0.602205 -0.368998 1.439890 -1.263925 0.380299 -0.597347 -0.168052 -1.450212 0.855465 -2.602461 0.055658 -1.126335 -0.938203 -0.397838
755 -1.325732 -1.111011 0.703853 0.638039 0.958274 -0.239950 0.441359 1.405092 0.123897 -1.014282 1.180434 -0.526525 1.909958 -0.689297 -0.801534 1.687360
166 -1.045078 -1.230278 0.165973 0.684952 2.936069 1.090080 -0.645657 0.084622 -1.730795 1.079545 -0.092748 -0.853600 1.407028 -0.581116 0.621773 1.608411
1325 -0.694221 -0.265650 0.574296 -1.358223 1.950973 -0.931511 -0.979089 0.199315 -1.454341 1.493726 2.332046 -1.636830 -0.270897 -1.278027 0.898544 0.456401
2759 0.328006 -1.496133 -0.786902 -1.136034 0.581719 -0.493044 -0.012433 0.339581 -0.138259 0.026330 0.532516 -0.746599 0.711290 -0.797785 -1.817731 0.924815
2255 -1.076415 -1.928827 0.213795 0.987099 0.519987 0.162911 0.764504 0.880920 0.558734 -0.154587 0.941574 -0.304266 0.574421 -1.089886 -0.706852 -0.172746
3228 -0.637374 -1.895062 0.348896 0.119838 0.099241 -0.000869 -0.978481 2.510923 -1.120197 1.872327 2.410199 -1.941149 0.178890 1.912934 -0.573295 1.882868
2182 -1.920891 -0.738504 0.509393 -0.006409 0.620618 1.428715 -0.337411 -0.167701 0.043775 0.730775 -0.092524 -2.853765 0.831000 -0.725450 -0.679184 -0.396609
3173 0.328225 -1.760596 0.155362 0.180779 1.985155 -2.964558 0.365075 -0.019435 -1.134144 1.088955 0.254235 -0.450066 0.739522 -1.434337 0.430006 0.730686
3695 -0.669702 -1.727691 -0.325066 -0.973714 -0.006130 -0.178582 0.249442 -0.105409 -0.016211 0.518723 0.867704 -0.698540 0.930759 -1.091123 -0.568455 1.367230
1958 -1.553222 -1.740702 0.630241 -0.332601 0.684822 -1.009968 -0.975434 -0.379199 -0.948806 2.019619 1.871041 -2.582868 -0.531089 -0.228717 1.223568 -0.280211
813 0.036720 -1.179516 0.597170 -0.348016 1.459239 -1.232539 0.330145 -0.566525 -0.112603 -1.380760 0.908630 -2.431884 0.119891 -1.057707 -0.934118 -0.452089
4064 -1.250410 -1.589339 0.464024 0.636493 0.350682 0.033255 0.604921 1.127176 0.651669 -0.156168 1.352679 -0.359211 1.156609 -1.163435 -0.424244 0.598770
574 -0.715929 -0.672025 0.596192 -0.127955 0.314402 0.329457 -1.158032 0.230749 0.078734 -0.182377 -0.322395 -0.753709 1.356543 -0.368087 -1.629916 0.463995
2 -0.221826 -1.105759 -0.127166 -0.888021 1.127413 -1.543427 -0.362293 0.609967 0.087698 0.270819 -0.773595 -1.577168 1.063331 0.701557 -0.223654 0.328848
3830 0.680055 0.284743 2.104353 1.406955 2.382777 -0.812167 0.330956 0.367208 -1.787707 2.219975 -0.115284 -1.049948 0.030137 -0.920136 -2.246394 3.174099
1024 -1.398141 0.284584 -0.263067 0.388322 0.741802 0.351983 -0.088857 -0.003047 -0.847644 0.316627 0.340746 -2.801352 1.787960 -0.682373 -1.107597 -0.176165
476 -1.772474 -0.181555 1.015846 0.563046 2.115505 -1.272353 -0.107338 0.670545 0.019076 1.342989 0.693381 -3.823703 -1.703221 1.595677 -1.917153 -0.770779
298 -0.567285 -0.623591 0.163033 2.040021 0.811713 -0.365510 1.867013 -0.190799 -2.271722 -0.256653 2.223534 -2.639767 0.260759 -2.435431 -1.480505 2.465842
3031 -0.394529 -0.219483 0.811405 0.718946 3.101680 -0.982556 -0.867577 3.036233 -1.059535 0.045801 0.384780 -1.208173 -0.044596 -0.684639 0.376411 2.065793
1029 -0.995055 0.619621 1.857128 0.508379 -0.311402 -1.741876 -1.554827 1.159749 0.026951 1.406389 1.557662 -3.462217 0.207065 -1.283752 -0.878164 1.489260
482 0.328325 -1.347761 0.488686 -0.419753 1.491491 -1.198456 0.416079 -0.626972 -0.088397 -1.452615 0.789584 -2.392949 0.123246 -1.168374 -0.995959 -0.290503
1914 1.298727 -1.436867 1.231719 2.880630 1.441012 -0.686128 -0.631320 2.537764 -2.039357 1.489765 2.296813 -1.309444 -0.588199 0.286621 -1.925221 -0.779126
110 1.157529 -1.262433 2.034591 0.352387 1.308842 -0.552365 -0.078230 -0.849163 0.736416 2.682325 0.371032 -2.663419 0.781615 -1.370479 -0.902441 2.455185
474 -0.749260 0.088786 -0.137300 0.541448 1.789192 -2.341046 -2.193064 1.485213 -0.615771 -0.524112 1.644923 -0.862937 0.674271 1.287927 -1.224661 0.174159
1988 -1.222806 -1.096351 -0.219607 0.657594 2.745841 1.283719 -0.993996 0.447251 -1.830346 1.087983 0.014689 -0.807705 1.135462 -0.397738 0.415260 1.543692
1794 -0.510595 -1.447116 0.067326 -0.145946 0.897911 -0.540191 -0.295437 0.492948 -0.043675 0.604374 -0.695978 -0.736476 1.733614 -1.029242 -0.050245 -0.350656
1627 -1.246579 -0.998565 0.687918 0.871277 0.715948 -0.412199 0.335168 1.379713 -0.011307 -0.807366 1.527383 -0.508781 1.845608 -0.717352 -0.876733 1.997308
2242 0.915477 -1.346048 0.354416 0.854968 0.138212 -0.204391 -1.050590 0.593859 0.342944 0.419351 0.025971 -1.964223 0.718168 -0.934298 -1.049108 -0.722891
146 -0.853196 -0.676333 0.532421 -0.585423 1.615386 -1.359834 -0.415726 0.356368 0.304678 1.314898 -0.504043 0.240608 0.523864 -0.728851 -0.928073 -0.089769
3307 -0.459824 -1.605541 -0.200402 -1.110824 0.177987 -0.197998 0.334093 -0.155283 -0.297271 0.686995 0.915272 -0.551790 1.009826 -1.289304 -0.494293 1.217962
3520 -0.457135 -1.532306 -0.732823 -1.024099 0.553635 -0.359329 0.075145 0.712661 -0.385086 0.014832 0.370548 -0.659325 0.994881 -0.856537 -0.517414 0.726786
1110 -0.171387 -2.198289 0.562170 0.017752 0.879671 0.031971 -2.041770 0.139651 -0.207813 0.452326 -0.854988 -2.460676 -0.636378 -0.330127 -1.157605 -1.151082
1406 -1.282257 -0.689042 0.095969 -0.099540 1.778840 -0.465822 -1.536299 0.102965 1.336263 -0.362969 1.463793 -0.589007 -0.082081 -1.285268 -0.714237 -0.120135
1671 -1.260985 -2.020550 0.546657 1.597149 0.079997 -0.079149 -0.325756 0.178057 0.970659 0.975452 0.097889 -0.786273 1.396434 -0.360918 -1.232265 -0.432828
1736 -0.538634 -1.501122 -0.998652 -1.035359 0.893815 -0.129499 -0.333031 0.729629 0.664407 0.544837 0.777645 -0.757059 1.577947 -0.311306 -1.260311 0.619807
1867 -1.033403 -1.391697 -0.399468 0.503211 2.734341 1.486607 -1.546040 0.186054 -1.832917 0.909859 0.281304 -0.660837 0.848476 -0.179890 0.292891 1.658426
1190 -1.813136 -2.035062 0.071750 0.196812 1.324073 -0.412444 -0.346377 0.444848 -0.347037 0.209912 0.007459 -0.672184 -0.057162 -0.087680 -0.107323 -1.414678
860 -1.474226 -0.888612 0.287856 0.502404 0.683588 0.030253 0.357734 0.819251 0.732144 0.552419 1.443721 -0.562885 0.844154 -1.586777 -0.857375 -0.480746
1609 -1.047937 -0.237655 -0.123737 -0.942786 0.988590 -0.917183 -1.956964 1.723940 -0.300382 -0.521966 0.476495 -1.148326 0.599320 -1.304287 -0.793542 0.285125
1292 -0.328305 -1.314458 -1.102771 0.378341 1.204790 -0.440313 -0.504162 0.231581 -1.695945 -1.192122 0.790749 -0.152622 1.124868 -0.690325 -2.074472 -0.403402
1801 -0.538614 0.370756 -0.433822 1.206159 0.938603 -0.455900 -0.123913 0.625974 -0.186315 -0.169812 -0.364372 -1.849182 1.290483 -0.641491 -1.584348 0.210920
1068 -0.863781 -1.675120 -0.340748 -0.146141 0.018180 -0.926189 -0.335329 -0.245636 1.457671 0.352511 1.836505 -0.924798 0.632913 -0.269961 -0.572991 2.325416
1822 -0.613286 0.099325 -0.837912 1.414148 1.067147 -0.279721 0.056676 1.088984 -0.105339 0.112303 -0.217918 -1.768278 1.017402 -0.501064 -1.571721 -0.215200
128 -1.951328 -1.623423 0.188737 0.735238 1.587054 0.386921 -0.144016 0.405459 0.231680 1.541303 -0.235079 -1.270709 0.606413 -0.693667 -0.169836 -1.328186
12 0.008727 -1.874321 -0.142518 0.073868 0.999569 -1.961518 0.171451 0.401154 -0.380532 0.847621 -0.483433 -0.331397 0.617165 -0.615120 0.083654 -0.116154
160 -0.659853 -0.153625 0.053138 -0.147095 2.303373 -2.181960 -1.887713 1.340633 -0.002162 -0.370129 1.826792 -0.334979 1.122023 1.104786 -1.328330 0.284274
2260 0.085102 -1.288435 0.485793 -0.381872 1.444036 -1.329629 0.345662 -0.721644 -0.177276 -1.500059 0.962411 -2.501678 0.189493 -1.104390 -0.908790 -0.381509
2743 -0.597825 -1.696849 -0.371409 -0.861620 0.030000 -0.275777 0.018510 0.019428 0.023390 0.490617 0.882812 -0.620693 1.038373 -1.353583 -0.391271 1.525119
814 2.202828 -1.924836 0.238846 1.172695 0.904471 -0.642483 -0.571044 0.168432 -0.329194 -0.662547 0.830095 -2.773081 0.837401 0.441168 -1.306685 1.074579
1180 -0.525393 -1.135639 -0.128421 1.550442 1.842085 -1.543066 1.111213 1.329271 0.351260 -0.378035 1.702848 -1.198049 0.955273 -1.263164 -0.523622 -0.936420
3592 -0.762950 -1.842137 0.370256 -0.021232 0.124420 -0.063670 -0.845947 2.522607 -1.097976 1.787706 2.424977 -1.906479 0.213544 1.849815 -0.536335 1.835688
1957 -1.690480 -1.631249 0.747611 -0.427340 0.701491 -1.144013 -0.952048 -0.313273 -0.921992 2.041228 1.869473 -2.718389 -0.557963 -0.262474 1.204111 -0.249038
178 -1.268548 -1.059976 -0.298612 0.594439 2.789930 1.429966 -1.164118 0.541778 -1.783142 1.108457 0.140127 -0.751890 0.996622 -0.411890 0.281128 1.484703
281 -0.647256 0.297904 -0.316765 -0.154409 1.941589 -0.599723 0.815520 0.086396 -0.445383 1.252060 0.400320 -2.973695 1.951025 0.587864 -0.897290 -0.158659
747 -1.483968 -0.997430 0.685052 0.827226 0.706397 -0.539150 0.226904 1.436548 0.030721 -0.814338 1.629934 -0.573758 1.883049 -0.910110 -0.735503 1.958875
889 -1.051566 -1.322325 0.615461 -0.636379 -0.250991 -1.164898 -1.742155 0.856475 -0.515378 0.736945 0.558821 -0.186806 0.630392 0.044837 -1.658527 -0.233966
752 0.611343 -1.628936 0.109471 0.049606 1.083111 0.453294 -0.389421 0.123592 0.353975 0.943570 0.490971 -0.343060 1.895398 -0.337519 -1.764624 -0.562058
2392 -1.493167 -1.486177 0.574880 -0.581294 0.936163 -1.204514 -0.953262 -0.543772 -1.053850 2.013704 1.762738 -2.555512 -0.665507 -0.092118 1.077371 -0.314881
870 2.214133 -1.914318 0.297879 1.347105 0.964996 -0.823810 -0.360530 0.096847 -0.359191 -0.662911 0.847203 -2.575618 0.917647 0.543282 -1.594504 1.250998
2241 0.964962 -1.442234 0.372136 0.657954 0.212898 -0.111327 -0.998743 0.543641 0.338764 0.358457 0.055041 -1.940618 0.710499 -1.027103 -1.116521 -0.776020
1381 -0.155361 -0.209901 -0.249111 -1.067996 1.861927 -0.921112 -0.992308 -0.273967 -0.235093 0.503348 1.902313 -2.220777 -0.801346 -0.741293 0.484691 0.362720
673 -0.864490 -1.221890 0.119729 -0.354577 1.298710 -1.196297 -0.776063 -0.416001 0.321695 -0.371575 -0.713517 -0.850971 1.079039 -0.612752 -0.983202 0.084178
3611 0.284446 -1.188776 0.531377 -0.409219 1.529607 -1.082251 0.405842 -0.516578 -0.161082 -1.474422 0.898011 -2.370353 0.178515 -1.029539 -1.001459 -0.310795
4807 -0.588140 0.393487 -0.763304 1.599151 1.231925 -1.076536 -0.129576 0.699733 -0.679983 -0.547017 0.187876 -1.468277 0.933486 -0.955916 -1.726042 -0.280796
3404 -0.350413 -0.919805 0.209515 -0.447973 0.599410 -0.356683 -0.518895 1.248657 0.679278 1.522824 0.378191 -0.245599 0.129650 -1.970699 -2.460726 1.128395
998 -0.992683 -1.840817 -0.173447 0.109793 1.367311 -1.205760 -0.257762 0.336858 -0.354338 0.014456 -0.067727 -0.246850 0.064910 -0.141537 -0.267170 -1.373100
2981 -0.451759 0.248491 -0.505383 1.455426 1.166750 -1.031060 -0.239416 0.663035 -0.142389 -0.248379 -0.359775 -1.680446 0.918552 -0.625028 -1.740928 -0.223305
182 -2.061648 -2.728249 -0.129519 -1.223434 0.296852 -2.392048 -0.098927 -1.004935 -0.902215 -0.666122 1.961571 -1.536157 -1.000418 -0.276325 -1.434153 1.573194
1389 -0.224054 -2.176512 1.303341 -0.069355 1.214936 -1.527995 0.919255 -0.890397 -1.111475 0.473665 1.221915 -0.512202 1.331397 -0.370654 0.388742 0.985768
3761 -1.038523 -1.763977 2.229050 1.446137 3.048575 1.334210 0.100599 1.489090 0.400088 1.247233 0.776939 -0.910820 -1.115087 0.693788 -0.767501 1.935414
641 -1.754988 -0.847127 0.337446 0.217574 1.072152 -0.078743 -0.150731 0.601491 1.214757 0.273004 1.865108 -0.600312 0.525167 -1.728329 -0.640841 -0.394742
2832 -0.118889 -1.022787 -0.428577 1.630373 1.165763 0.123483 1.078650 -1.530615 -0.691244 1.228381 2.420235 -3.291888 -0.324118 0.831531 -2.715577 0.760536
685 0.223162 -1.522345 -1.312544 -1.141702 0.942684 -0.102857 -0.715444 0.852704 0.815611 0.855659 1.276893 -1.091631 1.456925 -0.253998 -1.782329 0.741679
2303 0.204048 -1.294391 0.594988 -0.422819 1.486954 -1.341179 0.378337 -0.558625 -0.242516 -1.409565 0.834464 -2.438071 0.051159 -1.256310 -0.840837 -0.289453
1799 -0.844050 -0.482687 -0.507559 -1.179493 0.796638 -1.550506 -1.843940 1.447025 -0.398179 -0.426498 0.563463 -1.052704 0.331722 -1.208567 -1.068761 0.345109
651 -0.929980 -1.860933 -1.155217 0.192739 0.455443 -0.701883 -1.068315 -0.156122 1.521682 0.217057 1.867181 -1.121332 0.734956 -0.615177 -0.369809 2.228251
1316 0.204159 -1.432545 0.440535 -0.422182 1.461923 -1.123144 0.358506 -0.662963 -0.029384 -1.305892 0.863325 -2.608798 -0.021850 -1.059322 -0.950212 -0.396571
861 -1.481202 -1.004633 0.326985 0.528968 0.809134 -0.006659 0.512640 0.844110 0.735332 0.629103 1.440881 -0.367700 0.800389 -1.676686 -0.957510 -0.432183
3996 -0.233071 -1.383349 -0.480538 0.726866 1.534875 -1.056493 -0.656976 0.305935 -0.328609 0.340677 -0.720097 0.030555 1.162980 -0.422759 -0.602886 -0.576546
2730 -0.511208 -1.785553 -0.429397 -1.088742 0.194703 -0.028204 0.130687 -0.090464 -0.216453 0.520429 0.916394 -0.632875 0.888364 -1.346721 -0.670656 1.111871
310 1.235103 -2.789304 0.767410 0.994237 1.901228 -0.383741 -1.008681 -0.037821 -0.627496 -0.394339 1.408889 -0.736720 -2.110510 -1.539508 -0.911242 0.366934
1445 -1.670592 -1.918407 0.324378 0.227169 1.496872 -0.503659 -0.152472 0.524135 -1.009465 -0.188295 0.188409 -0.284680 -0.137998 -0.064688 -0.200476 -1.332741
81 -0.549340 -1.691401 -0.447692 -0.990987 0.134505 -0.086424 0.339235 -0.040965 -0.333536 0.540545 0.846268 -0.639808 0.973456 -1.392449 -0.602514 1.263029
694 -0.573228 -1.400158 -0.219883 -0.984222 1.031538 -0.769054 0.070718 0.841656 -0.413510 0.324882 -0.343392 -0.293684 1.244659 -0.288672 -0.855912 0.078436
2684 -0.699338 -1.853161 -0.502345 -1.020549 0.090600 -0.048837 0.083895 -0.087886 -0.151583 0.689186 0.642498 -0.655045 0.771576 -1.411311 -0.604141 1.170715
3335 2.246312 -1.795066 0.308082 1.278015 0.864574 -0.738676 -0.448559 0.161313 -0.432916 -0.567257 0.876639 -2.670712 0.902218 0.567258 -1.589089 1.243401
99 -0.591794 -2.633284 0.158846 1.025728 1.488078 1.544605 -1.090227 -1.026700 0.788761 0.820363 1.263293 -1.461773 0.376109 1.410159 -1.555606 1.197424
435 -1.072802 0.600181 1.880084 0.478321 -0.277513 -1.648334 -1.511819 1.131216 0.019999 1.450635 1.557833 -3.414965 0.203180 -1.348378 -0.849485 1.427106
3275 -1.059105 -1.729174 2.264495 1.470299 2.990074 1.256145 0.072600 1.420642 0.462654 1.254927 0.663948 -0.946591 -1.112638 0.559773 -0.798918 1.963282
920 -1.953905 -2.824943 -0.635932 -1.221308 0.369037 -2.441549 -0.043208 -1.066999 -0.926598 -0.557280 2.022335 -1.628937 -0.912100 -0.091468 -1.624688 1.426578
1283 -0.934720 -0.457311 -0.597347 -1.011156 0.974518 -1.218277 -2.250145 1.593783 -0.336129 -0.645566 0.792649 -1.064174 0.515452 -1.309488 -1.101114 0.463447
1377 -0.707217 -2.059052 0.448131 -1.004226 1.539917 0.014442 0.000048 0.924817 -0.782073 -0.143843 -0.448486 0.377485 0.263551 -0.152854 -1.591086 0.463699
2598 -0.469155 -0.074436 -1.213921 1.261367 1.244725 -0.244573 -0.411744 1.231427 0.038257 0.087922 -0.178276 -1.217279 1.189228 -0.454516 -1.428960 -0.036378
170 -1.442891 -0.758486 0.375022 0.806163 0.959747 -0.403907 0.601527 0.933762 0.196256 1.487126 -0.138824 -1.176595 1.189812 -1.287398 -0.883109 -1.022184
1466 -0.533520 0.155472 -0.948018 1.369205 1.111257 -0.800529 -0.112827 1.046205 -0.049360 -0.162135 -0.035204 -1.702856 0.945122 -0.556020 -1.805114 -0.240825
670 1.701978 -1.649645 0.427999 0.436069 0.437288 -0.560473 -0.760355 0.153190 0.085242 -0.597255 0.374258 -2.522568 0.661781 -0.108500 -0.977248 0.225002
2227 -0.245662 -0.760974 0.300845 -0.459777 0.594086 -0.227843 -0.730300 0.887986 0.707688 1.219958 0.567973 -0.176393 0.221149 -1.694938 -2.670309 0.822010
5208 -1.006004 -1.831206 2.201356 1.466605 2.998676 1.310057 0.125363 1.466119 0.425013 1.289401 0.727445 -0.919937 -1.136931 0.625306 -0.804437 1.992363
999 -1.151637 -0.845520 -0.378353 0.590175 2.750020 1.231830 -1.225832 0.810342 -1.830642 0.881395 0.112677 -0.868579 0.959216 -0.337447 0.419683 1.505174
1670 -0.976655 -1.296396 0.155298 0.801623 0.500668 -0.378789 -0.314964 0.795889 0.350065 1.169386 -0.511091 -1.092093 1.517131 -0.865106 -0.418368 -0.937606
5 -0.523627 -1.227242 0.020424 -0.917382 2.512413 -0.407174 -0.827383 0.311028 -0.575352 2.264778 2.157447 -1.501001 -0.072881 -0.576012 1.501210 0.259515
106 0.650049 -1.537573 1.038466 1.444267 0.508354 0.189924 -0.756701 0.867151 -2.466078 -0.749086 1.779462 -1.586702 -1.228450 -0.345078 -4.039746 0.436338
2231 -1.134541 -1.235596 0.378215 0.555368 0.648092 -0.306054 -0.127324 0.250719 -0.492344 -0.362410 -0.799608 -0.064727 0.441980 -0.605241 -2.118755 0.342134
3827 -2.244641 -1.242981 0.201268 1.042491 0.395280 0.380103 -0.406568 -1.835103 -0.738626 0.931072 -0.176997 -3.133133 -0.245927 -1.742781 -1.181406 0.304251
2714 -0.364916 -1.016037 0.242831 -0.353468 0.668806 -0.418232 -0.486509 1.110436 0.651928 1.442862 0.501562 -0.261149 0.038896 -1.997958 -2.655173 1.061846
3140 -1.037135 -0.688457 -0.557447 0.997251 0.711440 -0.521173 -1.565123 -1.568370 -1.335282 0.984377 0.368702 -1.055576 1.123076 -1.814871 -1.558942 -0.448821
3542 -1.047314 -1.719723 0.738433 0.081984 1.092215 -1.550764 -0.661738 -0.202877 -0.295517 -1.134311 -1.412252 -1.429964 0.624690 -0.123589 -1.288889 0.446448
483 -0.525426 -1.720126 1.288014 -0.081482 1.382611 -2.019046 0.699870 -0.744207 -0.767182 0.739581 1.016748 -0.317224 1.462056 -0.358246 0.464544 0.687360
597 -2.229310 -0.325002 0.526018 -0.178992 0.340537 -2.753506 -0.485850 0.883515 -0.830028 0.075378 -0.322062 -1.240157 -0.082300 -1.587061 -1.404897 1.106209
1936 -1.075730 -0.956324 -0.161566 0.653545 2.830712 1.245533 -1.014944 0.730711 -1.922908 0.993243 0.048063 -0.758807 0.928094 -0.471044 0.358421 1.461767
2368 -0.254273 -0.543903 -0.341276 -1.344016 1.063002 -1.148978 -1.002465 -0.459364 -1.173514 1.468741 1.878567 -1.700514 -0.658537 -0.575432 0.297318 1.126981
2123 -2.341485 -0.292516 0.368764 -0.730959 0.301924 -2.817521 -0.407764 1.120813 -1.023115 0.249323 0.020927 -1.197321 0.128946 -1.430204 -1.438223 1.273009
1415 -1.358315 -2.517082 0.803673 -0.622242 0.783463 -0.691101 -1.345988 1.449893 -1.327442 0.658661 1.455750 0.334939 0.391459 -0.133489 -0.792819 -1.184994
1922 -0.087985 -1.585724 1.955431 3.009059 1.671758 -0.921687 -1.216127 -0.242044 -0.225999 2.867536 2.590435 -0.866370 0.164144 -0.017875 -0.629985 -0.856598
1010 -0.946530 -0.526183 -0.131651 -1.079960 0.153482 -1.572716 -0.832436 1.115554 -0.404982 -0.217724 0.183523 -0.896485 0.573200 -0.785530 -0.922031 0.406961
2087 0.867999 -1.423420 0.254429 0.781057 0.155936 -0.194488 -1.037749 0.594045 0.391555 0.439336 0.134613 -1.826198 0.607623 -0.956217 -1.020136 -0.769206
324 -1.599856 -2.425223 -0.756904 1.707118 0.863329 0.242949 -1.560785 -1.399635 -2.324823 2.352665 0.516869 -0.144466 0.907775 -0.627971 -1.202313 -0.493825
92 -0.701051 -0.660853 -0.785195 -1.372392 1.772005 -0.542186 -1.545087 0.227980 -0.813842 1.818593 1.062983 -2.256250 -0.699988 -0.875248 0.515698 0.653931
1116 -0.703459 -0.782461 -0.058538 -0.080772 1.115360 0.175570 -1.528569 -0.143537 1.569854 -0.428836 0.350606 -0.964944 0.785569 -0.766039 -1.228354 0.578314
5723 -0.629571 -1.350762 -0.710823 -1.064780 0.625647 -0.484299 0.079975 0.593219 -0.438412 -0.114666 0.357392 -0.863171 1.287110 -0.323623 -1.234601 0.623138
659 -0.581831 -1.746322 0.989266 -1.257052 0.312110 -0.524407 1.111792 -0.767786 -0.864998 1.261855 1.457160 -0.730291 0.960604 -0.627987 -0.689448 0.941978
2446 -0.401222 -0.953719 0.195669 -0.288578 0.714539 -0.315468 -0.415127 1.382555 0.778220 1.487187 0.428918 -0.370097 0.084084 -2.038892 -2.533850 1.132251
3210 -0.550758 -0.892414 0.073658 -0.395933 0.647634 -0.372545 -0.400495 1.292065 0.524819 1.521542 0.476355 -0.176428 0.119862 -1.977396 -2.469551 1.080970
3323 -0.354952 -0.017879 -0.488437 1.703806 1.720518 -1.041580 0.250455 1.158830 -0.438278 -0.678192 0.637192 -1.408798 0.934893 -0.443121 -1.534827 -0.947357
192 -1.430283 -2.475892 -0.053298 1.996038 -0.252117 -2.277745 -1.013858 1.409257 -0.714073 -0.778852 0.838761 -1.553376 -0.621261 0.293152 -0.455248 0.580992
2911 -1.200551 -1.079100 -0.174177 0.622863 2.807004 1.280382 -1.056968 0.555680 -1.837957 1.075794 0.013922 -0.834763 1.126066 -0.450795 0.384334 1.525646
1427 -1.044892 -1.586186 0.361744 0.340328 0.520187 0.516570 0.633030 0.707757 0.778973 0.041015 0.884251 -0.507073 0.936466 -1.165620 -0.936699 0.074952
2382 -0.825910 -1.332524 0.217594 -1.274579 2.037038 -1.519118 0.874007 -0.019436 0.523556 0.964639 -0.123275 -1.137569 -0.616141 0.736614 -0.620188 1.749230
3203 0.159600 -1.645322 1.592030 1.888581 1.735908 0.019128 -2.323540 -0.122613 -1.796467 0.575131 1.999140 0.875518 1.233180 0.264079 -1.353006 2.446312
408 -1.029558 -0.887200 -0.312092 0.709967 2.556726 1.377757 -0.782441 0.446814 -1.976655 0.977076 0.140905 -1.015309 1.099081 -0.216189 0.234472 1.175838
1055 0.132902 -1.987032 0.325568 0.282136 0.464205 -2.512223 -0.330655 -0.542674 0.595283 1.067202 1.528154 -1.717521 -1.470351 1.220526 -2.353102 1.106686
2526 -0.312623 -1.603591 -0.303324 0.349705 1.510323 -1.374932 -0.149133 0.141375 -0.101923 0.246015 -0.534555 -0.136525 0.680959 -0.234332 -0.212704 -0.698360
1533 -0.575010 -0.799687 0.926251 -0.324459 1.109925 -0.846552 -0.435297 -0.431819 -0.449737 0.846602 -1.464399 -0.791628 0.771900 -0.549808 -1.873756 0.565246
255 -0.704658 0.582059 -0.696811 -0.288763 1.333919 -0.940148 -2.008169 1.806029 -0.624716 0.066880 0.420410 -1.113402 0.430370 -0.516570 -1.242700 -0.187190
704 -1.043306 -1.038012 -0.854474 -0.441385 0.795297 -0.325837 -0.139717 -0.037115 -0.708081 -0.269665 -0.099020 -1.039124 0.364576 -0.232409 -1.716187 -0.914620
571 -0.589505 -0.666566 -1.483123 0.885499 1.499108 -0.444953 -0.472320 1.018699 0.056080 -0.019767 -0.374982 -0.367900 1.481145 -0.649543 -0.941870 0.489799
5384 -2.286262 -0.220221 2.430670 3.013776 1.831003 1.078944 -1.186071 0.815730 -1.182122 2.042010 1.230986 -1.877145 0.688283 0.262777 -0.137476 0.979375
1356 -0.062505 -1.129848 0.105816 1.046791 1.646687 -0.424503 -0.868913 0.681137 -0.730799 -0.651256 -0.160467 0.276638 1.014959 -0.244984 -2.393327 -0.597135
1875 -0.341425 -0.959440 0.150950 -0.374752 0.552685 -0.409197 -0.338220 1.273555 0.537151 1.605089 0.501398 -0.206572 0.056080 -1.995708 -2.468432 1.128732
2464 0.258522 -1.237238 0.476938 -0.436856 1.339940 -1.300295 0.287899 -0.552604 -0.090344 -1.302795 0.877326 -2.646025 0.128972 -1.109081 -0.918922 -0.447224
201 -0.179664 -2.132589 0.203816 0.627264 0.704823 -0.646643 0.715733 -0.681350 1.234832 -0.494436 1.004481 -1.621528 0.623186 -0.360673 -1.106582 -0.692330
1243 -0.705129 -1.838078 0.395145 0.018178 0.055338 -0.029343 -0.874055 2.467710 -1.118093 1.809579 2.405219 -1.897835 0.177155 1.833732 -0.551699 1.798422
3403 -0.262341 -1.033773 0.211019 -0.511534 0.740164 -0.374668 -0.505278 1.378759 0.637772 1.401788 0.597242 -0.230971 0.144203 -2.085889 -2.520944 1.210074
987 0.034068 -1.169525 0.624043 -0.384683 1.464742 -1.300809 0.282350 -0.609875 0.012107 -1.465161 0.902317 -2.652226 0.090603 -1.243109 -0.834597 -0.243050
806 0.015393 -1.407403 -0.923509 -0.900815 0.948646 0.042149 -0.348137 0.568461 0.309776 0.678862 0.799249 -0.393694 1.616656 -0.238065 -1.311913 0.328640
703 -0.997599 -1.540246 -1.001661 0.057591 0.705098 -0.378801 -0.531996 0.088351 -1.407396 -0.871801 0.155585 -0.536924 0.382200 -0.446692 -1.621455 -0.713058
4358 -1.028368 -1.740815 2.198760 1.411560 2.979908 1.238142 0.091842 1.413095 0.370643 1.213821 0.694093 -0.920749 -1.139744 0.641498 -0.772831 1.928181
2447 -0.514450 -0.991688 0.141191 -0.308478 0.591815 -0.382240 -0.403017 1.310364 0.511675 1.610399 0.405912 -0.136841 0.146134 -1.961737 -2.476434 1.095642
1062 1.020916 -1.836992 0.069826 0.684163 1.009721 -0.112390 -1.454245 0.948501 0.858327 0.270981 -0.176172 -1.676272 0.547168 -1.088063 -0.485799 -0.266958
2823 -0.448580 0.216766 -1.284454 0.813418 2.265503 -0.906482 -1.850909 -0.537619 -0.833512 1.246057 0.201464 -0.860321 0.283961 -0.203615 -1.717493 -0.606013
507 -0.936709 -0.241645 -0.632317 -1.011943 2.128478 -0.872173 -0.939454 -0.255556 -0.259385 0.694753 1.989011 -2.092353 -1.011409 -0.776377 0.369773 0.449412
221 -0.493945 -0.674553 0.909846 0.059468 0.369882 0.291929 -1.184807 0.280012 0.139946 -0.129688 -0.054127 -0.640753 1.281668 -0.598012 -1.800775 -0.016934
2771 -0.134112 -1.519517 -0.323200 -0.673648 0.236639 -0.755158 0.450943 0.374261 0.223725 0.147865 0.375162 -0.452044 0.247091 -1.301339 -1.795017 0.684779
124 -0.359167 -1.639857 -0.228216 0.355313 1.663439 -1.590096 0.237313 0.198559 0.280714 -0.137780 0.063549 -0.896152 0.405637 -0.105394 -0.339050 -1.280163
2094 -0.214856 -1.589252 -0.034568 0.457839 1.866793 -1.991738 0.732365 -0.085626 0.155965 -0.774945 0.679996 -1.824542 0.273823 -0.579619 -0.344699 -1.265461
744 -1.323941 -1.435542 0.267290 0.592304 0.448260 0.162971 0.460615 0.616672 0.905801 0.160220 1.199360 -0.527619 0.793578 -1.304780 -0.611260 -0.116015
3769 -1.132597 -1.056165 -0.315917 0.710376 2.721264 1.365576 -1.127082 0.539826 -1.906398 1.070051 0.051551 -0.709299 0.851580 -0.367357 0.354409 1.509127
1937 0.410057 -2.420983 2.367899 1.276719 2.849408 -1.815656 1.110584 -0.988132 -1.718914 0.427757 1.292754 -1.138171 1.561870 0.483811 0.466229 0.460764
626 -0.071035 -2.136292 1.814417 0.245465 1.845679 -1.657128 1.029474 -0.972325 -1.268164 0.451807 1.133898 -0.674638 1.665540 -0.276234 0.450412 0.760212
1668 1.116492 -2.720835 1.138378 0.148034 2.175424 -0.494588 -0.916773 -0.276727 -0.870089 0.170838 0.969850 -0.434018 -1.832390 -1.361517 -0.676577 0.138414
60 -0.052995 -0.384533 1.990521 1.005867 2.479741 -1.992046 1.783287 1.012481 -0.479034 0.779300 0.849054 -1.724736 -1.962546 -1.141847 -1.906381 0.701137
1993 1.039446 -1.490329 0.365673 0.815958 0.270611 -0.265081 -1.201064 0.660999 0.505539 0.535144 0.021362 -1.800691 0.710377 -1.209465 -1.178801 -0.587872
1093 -1.156884 -0.762719 0.656067 -0.580338 2.838497 -0.646103 1.179398 0.442462 -0.521468 -0.595815 0.647342 -0.823606 0.985976 0.218117 -0.849651 2.785155
1113 -0.108086 -2.209373 0.494592 -0.169841 1.064248 0.162206 -2.190403 0.044645 -0.150308 0.544788 -0.870314 -2.233840 -0.686105 -0.539833 -1.309374 -1.052703
3213 -1.526012 -1.812332 0.752961 -0.432110 0.633047 -0.907074 -1.077590 -0.314922 -1.109753 1.998334 2.027111 -2.695560 -0.395695 -0.293052 1.174812 -0.418004
1369 -0.980589 -0.846343 -0.067040 1.273981 0.079514 -0.194291 0.012508 0.617697 0.830122 0.123271 -0.160516 -1.315811 0.787896 0.001391 -2.037645 -0.163800
4020 -0.672017 -1.596291 2.190928 2.034939 1.384863 0.271348 -0.985102 -0.453739 -3.357185 0.296707 2.895631 -1.006592 1.106180 -0.594291 -0.808922 -0.754363
1030 -1.299606 -1.079906 -0.221241 0.589248 2.783968 1.351580 -1.067916 0.473882 -1.829106 1.164480 0.003399 -0.813018 1.104071 -0.492314 0.295368 1.545225
4663 -1.180949 -2.575682 0.428724 0.832169 0.910850 -0.469888 1.472596 0.131022 -1.985488 2.207497 2.117135 -1.098369 1.456766 -0.111731 0.683133 0.654792
753 -0.835798 -0.769756 -0.329133 -0.797726 0.506912 -1.657142 -0.841975 1.141401 -0.106538 -0.033894 0.229274 -0.378411 0.962901 -0.421288 -1.025824 0.177048
1985 -0.410366 -2.524517 -0.645797 0.503977 0.880438 -3.097403 -0.007661 0.758526 -0.230468 1.857733 -0.464275 -0.822882 0.564942 -0.826971 -0.106028 0.122953
3328 -1.057629 0.055900 -0.643184 0.292000 0.783494 0.237184 0.525695 0.583755 -1.245703 0.623496 0.331390 -1.972956 1.033628 -0.027731 -1.106325 -0.737797
338 -0.124957 -1.673048 1.992810 2.769612 1.488954 -0.950956 -1.151437 -0.272368 -0.184882 2.816889 2.627808 -0.952325 -0.168825 -0.141473 -0.638785 -0.972802
4386 -0.810628 -1.286232 0.127030 1.195627 1.619791 -0.897859 -1.247399 0.384223 0.007295 0.275923 -1.590410 -0.045099 0.389703 -0.295858 -1.042344 1.264528
765 -1.343999 -1.051508 0.312156 0.548932 0.781335 -0.119319 0.566386 1.084660 0.592367 0.742933 1.262828 -0.475922 0.663680 -1.698926 -1.069678 -0.641741
52 -0.302306 -0.536176 0.622596 -0.928442 1.137488 -0.517839 -0.196773 -0.261727 0.303306 -0.755150 0.424675 -1.490884 0.093297 -0.559535 -2.405731 -0.555373
1860 -0.917151 -1.313893 0.201891 0.629266 2.924423 1.048928 -0.414907 -0.073656 -1.668806 1.188712 -0.209407 -0.863922 1.518221 -0.578053 0.603712 1.572553
432 -0.995158 0.584386 1.765894 0.518847 -0.361671 -1.561045 -1.459873 1.075019 0.042495 1.345183 1.565776 -3.352164 0.173704 -1.317757 -0.851764 1.429033
3399 -0.482086 -0.892627 0.130645 -0.355851 0.641492 -0.309793 -0.594268 1.301244 0.632603 1.478121 0.494838 -0.182891 0.144340 -2.059577 -2.579250 1.284272
766 1.519395 -2.398699 1.038005 0.481394 1.597096 -0.514157 -2.072508 -1.014362 -1.225684 0.110155 1.653121 -0.428692 -1.159141 -1.280014 -0.848630 0.644244
3401 -0.417213 -0.955967 0.134189 -0.283827 0.720423 -0.257846 -0.504328 1.328264 0.599172 1.567982 0.441967 -0.165579 -0.022364 -2.099186 -2.526941 1.195334
2108 -0.543203 -1.094655 -0.621248 -1.080870 0.557361 -0.428140 -0.163107 0.510997 -0.528278 -0.008252 0.217239 -0.889791 1.390696 -0.221505 -1.317257 0.851423
3402 -0.295089 -0.955825 -0.034951 -0.400492 0.689970 -0.377936 -0.398640 1.335783 0.643119 1.477203 0.537103 -0.278724 0.019158 -1.979771 -2.631762 1.226479
1655 -1.054495 -2.947340 -0.742656 1.786808 2.684785 0.766505 0.018583 0.992676 -0.273801 -0.473499 2.034494 -2.006083 -0.194829 0.228363 1.315001 0.927986
3554 -0.016984 -1.235621 0.542383 -0.291751 1.439839 -1.232600 0.289064 -0.698577 -0.092734 -1.577296 0.866558 -2.445738 0.083724 -1.181206 -0.932632 -0.199912
1115 -1.632980 -1.571832 2.546788 0.612727 0.800367 -3.150997 0.948150 -0.177701 -0.676254 1.094450 1.676781 -0.852220 0.522563 0.006520 0.052768 0.969003
3155 -0.981048 -2.988119 -0.737478 1.776660 2.681156 0.768102 0.018240 1.058265 -0.322340 -0.481649 2.006713 -2.052495 -0.211003 0.211531 1.296242 0.937440
2519 -0.175868 -2.047544 0.264900 -0.064549 1.584486 -2.306423 0.668894 0.235190 -0.566508 1.250860 -0.160406 -0.244410 0.562636 -0.746705 0.380787 0.510514
245 -0.248922 -1.446779 1.340190 -0.717744 1.283734 -0.716240 0.076957 0.679880 0.624071 0.674468 -0.614852 -0.377001 0.584972 0.414532 -1.054758 -0.113105
4066 -0.338089 -1.621799 -0.418990 -0.622192 0.263020 -0.661586 0.313202 0.416967 0.176219 0.141665 0.285922 -0.418611 0.252215 -1.457319 -1.799748 0.741012
2677 -0.486583 -0.082459 -1.459224 0.744836 2.513523 -0.822826 -1.871569 -0.833572 -0.822194 1.319135 0.169294 -0.921998 0.286621 -0.230424 -1.827399 -0.609281
1518 -0.950061 -0.577395 -0.440323 -0.964346 0.807910 -1.168472 -2.062108 1.565367 -0.213544 -0.548114 0.862954 -1.065602 0.452126 -1.238550 -0.944730 0.398223
1881 -0.691326 -0.915759 0.360337 0.247704 0.827114 -0.371499 -0.911940 1.245251 -0.384005 0.772554 -1.015651 -0.864313 1.118771 -1.581882 -0.216164 -0.605849
1807 -0.753637 -0.847548 0.982505 -0.429704 0.994265 -0.952224 -0.449475 -0.536219 -0.499280 0.843012 -1.323973 -0.665130 0.688996 -0.437486 -1.825223 0.518335
716 -1.427865 -2.267593 0.673005 -0.382129 0.932903 -0.022993 -0.659647 0.571786 -0.302114 -0.660847 -0.087639 -0.196706 -0.215468 -1.178651 -1.418495 -0.734320
2524 -0.072690 -1.897317 0.455443 0.008257 1.726480 -2.533430 0.745596 -0.124423 -0.819321 1.316552 0.126302 -0.250574 0.721450 -0.963499 0.234690 0.656511
2497 -0.558001 -1.132809 -0.021976 -0.650539 1.174146 -1.359334 -0.471888 0.040070 0.241070 0.089104 -0.957164 -1.058265 1.161918 -0.098579 -0.701321 0.219298
489 0.093849 -0.652483 1.669696 1.451361 2.306519 -0.272084 0.251798 -0.684987 -0.052488 1.483181 3.586204 -1.726555 1.099816 -1.928111 0.648779 1.357682
521 -1.729791 -1.391716 0.296570 0.591683 1.514351 0.276008 -0.086153 0.396804 0.686442 1.811033 -0.217013 -1.345919 0.894538 -0.910337 -0.348978 -1.080136
3835 -0.455592 -0.613482 -0.399124 1.644639 1.936086 -1.529568 0.612629 1.251465 0.025021 -0.665866 1.264703 -1.504677 0.927314 -0.701982 -1.011778 -1.173001
1870 -1.316552 -1.174242 -0.302731 0.636882 2.807308 1.388009 -1.197744 0.524028 -1.822464 1.127185 0.037542 -0.761570 1.091408 -0.435968 0.379824 1.566923
3237 0.094629 -2.283391 -0.698602 1.856771 2.936285 0.257280 0.051826 0.801693 -0.371148 2.833136 1.858924 0.095423 -1.787124 -0.490060 -1.489992 0.324966
3400 -0.315484 -1.035465 0.070442 -0.430526 0.739293 -0.484432 -0.414425 1.194515 0.637001 1.394973 0.553067 -0.240605 0.162316 -2.024652 -2.784842 1.259279
1582 -0.523556 -0.146294 0.686242 1.071687 1.865069 -0.493127 -0.396326 -0.159480 -0.149464 1.624420 3.025323 -0.243431 1.134628 1.382742 -3.301234 1.185607
1148 -0.528817 -2.695842 0.201475 0.874033 1.578862 1.464679 -1.125301 -1.046141 0.898310 0.667990 1.204124 -1.499833 0.303282 1.416439 -1.623512 1.229340
1477 -1.326422 -1.238459 0.349652 0.377939 0.601534 -0.204503 -0.325989 0.039798 -0.581630 -0.383418 -0.796732 -0.194824 0.473431 -0.565228 -2.110737 0.267957
257 -0.528152 -2.327047 -0.289579 1.423812 0.589687 -0.610404 1.102474 -0.831388 -2.991810 0.003879 -0.099052 -2.449927 -1.091117 0.260348 -1.812295 2.305339
2512 0.969894 -1.364731 0.560697 0.934916 0.531638 -0.313275 -1.297953 0.743714 1.001193 0.720606 0.209381 -1.678079 0.531904 -1.205218 -0.961884 -0.630985
1111 -0.055412 -2.090765 0.198533 -0.142528 0.906004 -0.027516 -1.699726 0.429373 -0.043604 0.576633 -1.120792 -1.906105 -0.005646 -0.673311 -0.643119 -0.888476
4499 -0.340373 -1.344658 0.646517 1.443665 1.123654 -0.458604 -0.115323 0.759845 -0.357882 0.689237 1.423452 -1.970634 0.052423 -0.188502 -0.755025 1.018883
326 -1.147660 -0.999123 0.885359 -0.698836 2.858422 -0.923323 1.229330 0.630744 0.014635 -0.092933 0.323213 -0.817004 0.792109 0.372522 -0.575233 2.650801
2516 -0.273396 -1.444657 0.790128 2.206913 1.937322 0.735608 -1.050068 0.299491 -0.195443 1.978833 1.578952 -3.950899 0.638325 1.187732 0.720875 -0.575899
2135 0.617737 -1.509264 0.990548 1.431558 0.507390 0.166945 -0.763203 0.877959 -2.342260 -0.792348 1.847816 -1.530802 -1.205957 -0.298555 -3.907867 0.439701
1657 -0.696360 -1.511949 0.356501 0.363024 -0.451327 -0.280835 -1.181917 0.374670 0.843127 0.131066 0.769534 -0.367646 0.501374 -0.329111 -2.254915 0.035616
2989 0.090345 -1.988491 0.484589 -0.076503 1.706603 -2.434368 0.591060 0.151883 -0.754362 1.300392 0.160334 -0.145521 0.830871 -0.679478 0.371429 0.547374
525 -1.445104 -2.323468 1.986692 1.968283 -0.339691 -0.571790 0.221472 0.627791 -2.335774 2.858602 1.063953 0.043897 0.122327 0.033807 -1.861625 1.514588
3646 -0.788340 -1.762514 0.457840 0.481691 1.705059 -0.747761 -0.774327 0.429229 -0.744687 0.720011 0.887799 -1.690213 0.430061 -0.552345 -1.390843 0.813933
4277 -0.552437 0.380657 -0.901584 1.579426 1.325000 -1.069574 -0.148838 0.933309 -0.165482 -0.269560 0.320747 -1.664915 0.898364 -0.596281 -1.695590 -0.531920
1086 -1.316666 -0.807122 2.980906 1.409778 2.188903 -1.752678 -1.562134 1.230888 0.064681 0.896839 0.171238 -2.463403 -1.520127 0.264527 0.478920 0.198368
1456 -0.868634 -2.071794 2.430634 1.952883 2.686773 -0.221718 -0.022751 -1.463829 0.485970 1.750467 1.870353 -2.116825 -1.313550 0.235133 0.808688 1.306519
2035 -1.061749 -0.753487 -0.468684 0.917752 0.872844 -0.343158 -1.556456 -1.402353 -1.430069 0.988468 0.505177 -0.919609 0.911911 -1.889352 -1.272240 -0.744096
4523 0.878236 -1.903231 3.270437 3.326325 2.517092 -1.017892 -0.005967 0.409390 -0.214793 0.063607 0.393801 -0.659174 0.004854 -0.795306 -1.052922 1.169348
1579 2.167272 -1.893041 0.430303 1.388354 0.877710 -0.634456 -0.546687 0.209538 -0.326647 -0.580315 0.888726 -2.598808 0.957385 0.589963 -1.552119 1.211397
1973 -0.962732 -1.486540 0.188202 0.984189 0.832968 -0.354086 0.949266 1.221111 0.528815 0.000523 1.342769 -0.464846 0.794501 -1.514472 -0.850019 -0.473340
683 -1.319043 -0.859035 0.230648 -0.290309 1.984207 -0.339923 -1.587125 0.091696 1.019762 -0.672106 1.571836 -0.400667 -0.003481 -1.338777 -0.875450 -0.197325
3915 0.907472 -2.322551 2.121094 2.562428 0.693629 0.001173 2.163263 1.078070 -1.188707 1.211571 1.297754 -2.630256 0.544347 -0.893446 -1.048633 0.652306
3454 -1.442357 -2.450167 -0.109324 1.898176 -0.433997 -2.235445 -1.065717 1.335615 -0.764737 -0.679804 0.912568 -1.534803 -0.524594 0.262784 -0.398406 0.592381
3062 -1.332614 -1.419965 0.302691 0.682793 2.360455 -1.077177 -1.385813 0.129174 0.729208 2.675828 -0.647265 0.046178 0.731314 -0.228434 -0.563848 0.237418
1984 -1.201326 -1.447213 -0.882082 0.830646 0.982144 -0.122996 -1.839896 -0.816687 -1.452965 1.339460 0.342363 -0.304292 0.456701 -1.200162 -0.899320 -0.999566
207 -2.123199 -2.343011 0.500623 1.285709 2.104632 0.367044 -0.164807 0.359351 -0.221438 1.455578 -0.183071 -1.345774 0.170503 -0.482049 0.208134 -1.758441
172 2.274837 -0.457319 -0.678107 0.720924 2.592373 -1.510911 -0.243694 1.201760 0.472665 1.748244 2.583184 -1.807136 -0.184537 -0.288568 -1.521312 1.252444
2381 -0.852717 -0.804777 -0.499977 0.790602 1.021089 -0.516706 -1.511246 -1.546666 -1.364862 1.050874 0.538510 -0.717294 0.855029 -1.777102 -1.513544 -0.624822
5395 -0.607937 -1.445615 0.470873 0.501508 1.592587 -0.708998 -0.718607 0.517412 -0.596893 0.624940 0.842260 -1.581249 0.243890 -0.493591 -1.031671 0.784447
2707 -0.981149 0.837607 0.066848 0.114501 1.521344 0.054752 -0.213539 -0.352590 -0.620645 0.501678 0.697467 -3.090516 2.264853 -1.032400 -0.912274 0.336114
434 -1.045696 0.582890 1.826327 0.476609 -0.332122 -1.551003 -1.515436 1.088069 0.045747 1.372147 1.528757 -3.338568 0.177017 -1.267935 -0.886342 1.410560
3657 -1.395333 -1.569582 -0.131429 2.418298 0.613087 0.653910 0.537055 1.554644 -1.146284 3.681724 0.882665 -2.330993 -0.925060 -1.026710 -0.419550 1.151073
3207 -1.170123 -1.068606 -0.211267 0.643817 2.794772 1.319782 -1.033692 0.616611 -1.901175 1.020649 0.110472 -0.745431 1.024026 -0.280284 0.287679 1.465500
2785 -0.444056 -0.825514 -0.282655 1.638904 1.998937 -1.684707 0.801236 1.292202 0.113339 -0.567190 1.552759 -1.599370 0.854389 -0.766185 -0.583223 -1.122571
65 -1.588972 -1.014375 0.043273 0.621289 1.569961 0.152463 -0.363499 0.295813 0.766596 2.275651 -0.262500 -1.262887 0.712462 -0.791051 -0.459769 -0.990262
1038 -1.368602 -0.892362 0.385902 0.598254 0.874290 -0.222005 0.497973 0.993022 0.638452 0.821207 1.308282 -0.415485 0.747411 -1.839235 -1.127420 -0.514328
4873 -0.367151 -1.117303 0.114484 -0.476500 0.768723 -0.424611 -0.325995 1.485213 0.716936 1.533524 0.404710 -0.337850 0.131333 -1.976336 -2.493676 1.235373
2036 -1.054611 -0.781684 -0.454711 0.758873 0.925500 -0.549067 -1.665051 -1.408783 -1.282893 0.941677 0.554097 -0.791862 1.013549 -1.962042 -1.466974 -0.596847
805 -1.237925 -0.399585 -0.215970 0.586791 2.282588 -0.217893 -1.100599 -0.436571 0.441535 2.818014 0.107339 -0.805115 0.559827 -0.758067 -1.054653 -0.744798
2253 -0.692999 -1.302894 -0.454351 0.858666 1.794350 -0.909049 -0.907044 -0.232786 0.363273 0.876449 -1.149136 -0.000696 0.550056 -0.209191 -0.910735 0.337838
4838 2.146470 -1.834348 0.434393 1.283148 0.930909 -0.662418 -0.381592 0.064613 -0.404412 -0.760534 0.888095 -2.689831 0.887094 0.597619 -1.633407 1.223520
320 -1.007547 -0.109154 -0.353685 1.023809 2.449080 -0.206359 -1.424428 -0.744786 0.078832 2.646442 0.255798 -0.845924 0.508960 -0.804515 -1.282713 -0.465269
2858 -1.442716 -2.571859 0.005675 1.866202 -0.413956 -2.215048 -1.029118 1.288866 -0.750725 -0.714326 0.885536 -1.553689 -0.492292 0.256690 -0.321171 0.599337
4113 -1.467184 -2.489690 0.009786 1.827771 -0.475204 -2.203827 -1.034583 1.283434 -0.838107 -0.661902 0.954071 -1.443720 -0.438686 0.206644 -0.390432 0.558590
1515 0.644731 -1.487950 0.951647 1.465374 0.488618 0.149351 -0.760303 0.931144 -2.315385 -0.731244 1.805964 -1.546435 -1.252618 -0.403974 -3.956008 0.420002
3772 -0.298151 -1.768744 0.339280 0.808584 1.377609 -0.590720 -0.826464 0.648572 -0.933957 1.003857 1.534261 -0.754653 -0.178838 -0.123488 -1.261341 0.633168
1221 0.191379 -1.277413 -1.026182 2.559868 1.708460 -1.343727 -1.810118 -0.260108 -2.275100 1.251726 2.633856 -2.211306 -0.507372 0.652489 -0.084699 -1.053585
3221 -0.946178 -1.646320 0.501369 0.809171 1.629252 -0.774598 -0.679409 0.440762 -0.488845 0.728832 0.745910 -1.792753 -0.156888 -0.663148 -1.104613 0.796680
17 0.752079 -2.199208 1.600847 0.935590 0.239679 1.137743 -0.070406 0.805716 0.008339 2.462074 2.602029 -2.111794 -0.969294 -2.124593 -0.789753 1.946952
3758 -0.717638 -1.507224 0.425152 0.768629 1.564999 -0.720892 -0.623962 0.463499 -0.671149 0.872136 0.896048 -1.520279 0.194627 -0.365113 -1.076281 0.651607
5046 -0.351064 -0.889333 -0.146365 1.523587 2.031303 -1.729221 0.842744 1.272373 0.250818 -0.619409 1.492751 -1.607093 0.799890 -0.811631 -0.558946 -1.020509
2889 -0.572182 -1.495767 0.704744 0.747919 1.461882 -0.440416 -0.547884 0.571046 -0.631722 0.769913 1.121250 -1.614347 0.255484 -0.406780 -0.910456 0.752530
3872 -0.776551 -1.666661 0.355299 0.621887 1.521476 -0.683969 -0.609810 0.493924 -0.559581 0.784852 0.902560 -1.745017 0.376768 -0.638424 -1.342912 0.697383
1212 -0.783556 -2.645901 0.797104 0.328073 0.585857 0.784271 -1.359365 1.494045 -3.363797 -0.323702 1.052980 -2.202079 -0.773804 -1.093922 0.708101 1.361442
3867 -2.115335 -1.271760 0.516807 2.210784 -0.296285 -0.731946 -1.065836 0.369960 -1.657369 1.153274 -0.198214 -1.672541 0.076383 -0.795510 -0.680423 3.916157
3489 -0.794420 -1.732995 0.558212 0.472540 1.659972 -0.783476 -0.711167 0.389250 -0.741301 0.621576 0.920379 -1.674706 0.351286 -0.547266 -1.249456 0.844830
4561 -0.582606 -0.843767 0.153351 2.285971 -0.088196 -0.176509 -1.865108 1.466498 0.187721 -0.633880 2.086329 -2.844831 -0.249879 -1.060082 -0.741946 3.302389
1934 1.177743 -0.628433 1.229925 1.723784 0.725907 -1.186891 0.171822 2.901853 -0.682841 1.813195 1.943792 -1.449347 1.258976 -0.863616 -0.787879 2.665988
4817 0.297404 -2.906905 0.371623 2.179604 1.147190 -0.692883 -0.392416 1.662184 -1.471152 1.684204 2.436066 -1.505949 -0.363795 -0.815517 1.929034 1.471766
5266 -0.765429 -1.535073 0.400779 0.577153 1.516064 -0.787595 -0.774821 0.450780 -0.732541 0.705747 0.908393 -1.626898 0.526660 -0.614997 -1.223811 0.798527
2571 -1.104606 -1.834021 0.483364 0.515578 1.838753 -0.848390 -0.892407 0.463809 -0.617826 0.389775 0.913305 -1.844929 0.409631 -0.674872 -1.321213 0.695070
1045 -0.734528 -0.216767 -0.726384 2.350958 1.111036 -2.466733 0.473970 0.067132 -2.167657 2.001212 1.884581 -1.767470 0.164046 -2.143749 0.208881 1.657375
2634 -1.622559 -0.885550 0.793539 0.433648 0.838093 -0.330965 -2.319835 0.128441 -1.265358 0.639785 0.899092 -1.705462 -3.383970 -0.546936 -2.284577 1.663980
4211 -1.033208 -0.792586 -0.416180 0.628192 0.773818 1.810297 -0.727265 -0.851551 -1.735218 2.019169 2.580347 -2.221451 0.504124 -0.379325 -1.077383 3.227856
2346 -1.516813 -1.638562 -0.137086 3.712878 2.026918 -1.148151 1.570798 0.793059 -0.272098 0.799772 0.143112 -1.579292 -0.479539 -0.270544 -0.312308 2.346754
230 0.457364 -2.547745 0.861216 -0.311388 -0.232533 0.849851 -0.879570 -0.231987 -3.132429 2.162629 1.236588 -2.435605 -0.702556 0.124604 -2.286291 0.053826
2121 0.047036 -1.077971 0.570045 0.186493 1.858929 -0.497455 -0.704252 1.469113 -1.151017 0.484300 1.669731 -1.205155 -0.409210 -0.904645 -1.336734 0.495272
4485 -0.870481 -1.792665 0.674953 0.831726 1.693002 -0.690528 -0.795020 0.566765 -0.947371 0.622292 1.168462 -1.768463 0.253954 -0.418640 -1.048958 0.982066
585 -0.881958 -1.323651 1.921740 1.758100 0.423518 -1.147734 -0.914378 1.408509 -0.332396 3.203799 0.782878 -2.110167 1.841292 1.148788 0.405561 1.330709
1632 0.420114 -2.882384 1.386974 1.195560 -0.201892 -0.122735 0.425192 2.362483 -1.233865 0.265770 0.012325 -2.091131 -0.772234 -0.640556 -1.530636 3.125857
2127 -0.902215 -1.752788 0.424466 0.577691 1.708120 -0.836677 -0.803933 0.433136 -0.730822 0.738327 0.991040 -1.697712 0.513773 -0.536465 -1.341325 0.782992
4855 -0.618569 -2.302658 1.748012 0.024203 1.464204 -0.341206 -1.643925 0.741514 -2.178560 -1.109985 1.022036 -1.149305 -1.067425 1.851859 -0.953909 2.636014
3172 -0.842012 -0.639572 2.424149 0.262284 0.515618 -1.727276 0.651380 0.931610 -1.586747 -0.165953 -0.010914 -3.066801 -0.416111 0.646306 -1.321683 3.126932
5635 -0.261014 -0.621869 0.381089 -0.025513 0.800757 -2.003471 -0.356210 1.142383 -0.987075 -0.654895 2.842106 -1.831696 -2.008081 -0.777815 -1.830470 3.275487
449 -1.094222 -1.338748 0.249066 -0.348155 1.315022 -1.206399 -0.872344 -0.284806 0.412310 -0.390097 -0.782542 -0.789538 0.767673 -0.528847 -1.196201 -0.005787
3504 -0.413934 -0.380778 -0.300756 -1.262595 1.194902 -1.155496 -0.951201 -0.320205 -1.032992 1.421515 1.816734 -1.743784 -0.643107 -0.679325 0.359377 1.001588
51 -0.021797 -0.891345 2.233658 2.087983 0.716997 -0.425187 0.258668 -0.319646 -2.164268 -0.507640 2.306746 -3.650480 -1.347374 -0.693724 -0.854414 0.417048
159 -0.009002 -0.662807 0.118739 -0.193229 0.667244 0.015819 0.335479 1.401782 -0.182976 -0.173238 -0.106662 -1.014849 1.137897 -0.670221 -1.802472 -0.103025
4338 -0.594879 0.226294 -0.681448 1.553363 1.066613 -0.711744 0.020995 0.935418 -0.261860 -0.127347 0.235685 -1.834823 0.943351 -0.502016 -1.480906 -0.640650
913 -1.111560 -0.164317 -0.548763 0.648328 2.475059 -0.132326 -1.491578 -0.539967 0.110152 2.442229 0.175250 -0.871428 0.531469 -0.683211 -1.374707 -0.656528
554 -0.820491 -1.729610 0.352920 0.496105 1.714845 -0.750131 -0.762754 0.493290 -0.601568 0.679142 0.928648 -1.613482 0.425780 -0.526871 -1.309867 0.723185
411 -0.372214 -0.884151 -0.147132 1.701206 1.993655 -1.740154 0.883848 1.288491 0.074913 -0.638655 1.585071 -1.531444 0.958154 -0.776682 -0.683565 -1.049515
3642 -1.218669 -1.014645 0.071181 -0.420388 1.777110 -1.413954 -0.007662 -0.488297 0.065472 2.411531 -0.249328 -2.679906 -0.833812 0.521792 0.428078 1.608981
2221 -1.750509 -0.928878 0.352637 0.556402 0.830002 -0.071191 0.564578 1.037501 0.529213 0.745539 1.315182 -0.520885 0.709649 -1.692795 -0.955800 -0.512647
2603 -1.334103 -1.164364 0.239031 0.295306 0.929946 -0.066564 -0.453521 0.121622 -0.673934 -0.329889 -0.858191 -0.016030 0.329938 -0.793571 -2.062511 0.347517
722 -0.309459 0.587714 -1.195173 0.484932 1.617908 -0.816228 -1.624216 1.077299 -0.337201 0.189171 0.133954 -1.236602 0.466854 -0.479133 -1.427989 -0.594998
1080 -0.487916 0.523208 -1.142862 0.927635 1.366976 -0.862696 -0.729279 0.838458 -0.060168 -0.183071 0.294228 -1.452680 0.675068 -0.636780 -1.726061 -0.395281
3833 -0.433315 -0.171651 0.714801 0.690987 3.114509 -0.759406 -0.881690 2.885324 -1.147815 0.053510 0.326981 -1.041113 -0.013913 -0.755809 0.402156 1.924940
2751 -1.520098 -2.545791 -0.017844 1.843671 -0.423538 -2.217048 -0.962851 1.401934 -0.791995 -0.645856 1.002374 -1.479787 -0.508711 0.279625 -0.377353 0.486299
1629 -1.244376 -0.972302 1.120038 0.688978 0.557147 -0.417147 0.343364 1.150338 -0.160209 -1.005644 1.765200 -0.708384 1.806597 -0.677303 -0.587334 1.985261
1011 -0.874070 -1.252476 0.662394 0.139218 -0.350122 -0.761524 -1.552403 1.143842 0.304127 0.579204 0.267044 -0.098994 0.452410 -0.326935 -2.055289 -0.040042
1846 -1.015644 -0.669682 -0.336794 0.728998 0.804417 -0.395332 -1.598360 -1.401890 -1.206374 1.073379 0.584446 -0.813363 0.984825 -1.861340 -1.541470 -0.548502
2945 -0.651166 -1.540100 2.177378 1.967724 1.421110 0.284593 -0.952912 -0.543936 -3.323715 0.286104 2.890126 -1.068509 1.101668 -0.567871 -0.777276 -0.718363
658 -1.289237 -2.044080 1.642139 -1.469394 0.914121 -0.159195 1.352713 -0.801215 -1.278694 1.283592 1.600903 -0.713662 0.615584 -0.949882 -0.971934 1.161338
3234 -0.517308 -1.863609 0.748001 1.410412 0.674691 -1.705549 -2.942886 0.134198 -1.641220 2.247813 0.451120 -0.038223 -0.116002 -1.702845 0.309704 2.118089
185 -0.706231 -1.427327 0.283323 -0.477956 0.598487 -0.882737 -0.747829 0.580407 0.162761 0.806362 -0.239739 0.533346 0.016758 -1.216707 -1.782502 0.215187
1600 0.455263 0.451311 1.050983 2.958632 3.702141 -1.549523 -0.306024 -0.491063 -0.640856 1.146238 1.320148 -1.941352 -0.264576 -1.168319 -0.170349 0.231827
1678 -0.902791 -0.187244 1.469454 4.087775 0.721603 0.129588 -0.643655 2.076824 -0.820741 0.668213 1.514642 -1.166261 0.546836 -0.596619 -2.261463 1.806493
1259 -1.195343 -0.812640 0.390890 -0.534796 2.524862 -0.728910 1.119179 0.763622 -0.409677 -0.733067 0.513892 -0.507950 1.250730 0.005333 -0.839774 2.345841
4396 -0.283179 -1.585149 -0.201410 -0.366773 1.131931 -1.249679 -0.160127 0.477176 -0.096361 0.451528 -0.599730 -0.267285 1.174897 -0.764077 -0.164221 -0.150348
467 -1.553467 -2.527575 -0.060832 2.005497 -0.410738 -2.263653 -0.966949 1.345713 -0.758231 -0.713910 1.026806 -1.564748 -0.519206 0.270585 -0.394901 0.540276
3673 -0.450365 -0.142077 0.674764 1.024627 1.865440 -0.523753 -0.397925 -0.150629 -0.187070 1.539017 2.984158 -0.269846 1.030458 1.353186 -3.257449 1.168892
4392 -0.306698 -1.014948 0.187893 -0.451032 0.849135 -0.268485 -0.439593 1.284349 0.627267 1.458812 0.492134 -0.219032 0.107733 -2.204198 -2.470925 1.287599
248 -1.026531 -0.767986 -0.327282 0.076772 1.552616 -0.165914 -1.574558 -0.252569 1.385199 -0.641438 0.617307 -0.829722 0.153834 -1.070281 -0.964343 -0.003407
1768 -0.799152 -0.008750 1.328720 1.912612 1.496334 -1.278420 -2.289752 -0.672365 0.553299 1.328432 0.851983 -2.066495 2.489961 0.490932 -0.288597 2.314715
3219 -0.789279 0.008574 1.259502 1.896817 1.512838 -1.243589 -2.243434 -0.680491 0.559702 1.308690 0.875701 -2.043470 2.520066 0.517740 -0.300718 2.326843
1279 -0.894278 -0.215646 1.486812 4.076102 0.722207 0.179136 -0.746699 2.020565 -0.854620 0.672111 1.546004 -1.162843 0.603058 -0.602650 -2.144356 1.802477
1378 -0.548494 -1.909533 0.756449 1.405599 0.633696 -1.754477 -2.950919 0.081742 -1.598980 2.158934 0.419944 -0.079973 -0.138594 -1.761892 0.292296 2.133975
5248 -0.425269 -1.523129 -0.563916 0.316207 1.442800 -1.128886 -0.464853 0.036302 -0.583734 0.804844 -0.948467 -0.203493 0.889982 -0.341197 -0.557023 -0.701378
1845 -1.473740 -2.560011 -0.030632 1.901098 -0.490537 -2.217748 -0.946277 1.340957 -0.858830 -0.707205 0.964354 -1.563531 -0.399483 0.246604 -0.447997 0.492460
