3670 32
66 -0.026558 0.143102 -0.520598 -0.705785 -0.223899 -0.270733 -0.852575 -0.086096 -0.029296 0.483926 -0.091996 0.141192 -0.130249 -0.545921 0.711878 -0.260699 0.374206 -0.195325 0.262073 0.865321 0.027603 0.326475 -0.558883 0.286762 -0.208413 0.434853 0.282736 0.411686 0.239988 -0.200026 -0.878081 0.932638
18 0.194243 0.353458 -0.458487 -0.044743 -0.173774 -0.559714 -0.979066 -0.463957 0.025030 -0.109733 -0.710049 0.469574 -0.275757 -0.548358 0.452872 -0.980773 0.181423 -0.266943 0.474845 0.345123 -0.019968 -0.223029 0.006606 0.532938 -0.022927 0.151064 0.441607 0.394213 0.297704 0.010066 -0.410446 1.106258
189 -0.315874 0.656467 -1.207215 -0.575764 -0.088608 -0.178293 -0.293601 -0.449710 -0.004139 0.856197 0.108661 -0.015352 0.069637 -0.737433 0.741925 -0.616809 0.572747 0.001224 0.260036 0.718318 0.427226 0.346971 -0.312443 0.170240 -0.033652 -0.035182 0.106976 0.215558 -0.223778 0.205557 -0.844613 1.091052
19 0.346640 0.043266 -0.244067 0.349527 0.084702 -0.986348 -0.642457 -0.496882 0.260657 0.017818 -0.124852 -0.082744 -0.649012 -0.925299 0.462126 -1.075899 -0.165727 0.158847 0.176543 0.382493 0.457984 -0.380926 -0.129324 0.415503 0.061609 -0.025276 0.827228 0.335997 0.275577 0.246583 -0.357021 0.939627
327 -0.224924 0.434216 -0.730675 -1.235886 -0.472160 -0.394137 -0.640346 -0.304114 0.203336 0.848452 -0.005962 0.088257 0.203346 -0.413646 0.902611 -0.184318 0.521276 -0.001803 -0.004299 0.989835 0.425897 -0.022415 -0.782026 0.339767 0.077177 0.449774 0.295532 0.020714 0.360914 0.045777 -0.486584 0.800882
57 -0.456944 0.111730 -0.140925 0.201254 0.159665 -0.181842 -0.945642 -0.114442 0.280582 0.006764 -0.493460 0.160115 0.008530 -0.645209 1.108832 -0.931174 -0.098627 0.281849 0.485989 -0.024627 0.172599 0.144554 0.504308 0.160072 -0.306292 0.256651 0.975617 -0.135998 0.528075 -0.697763 -0.568274 1.141943
1 0.758762 -0.102712 0.218904 -0.256696 0.122099 -0.966291 -0.167189 -0.121280 0.398183 0.512338 -0.889577 -0.316031 0.266842 -0.377136 0.847616 -0.788868 0.687345 -0.363912 0.215669 0.197058 -0.447356 0.209995 -0.730416 0.238355 0.066173 0.073028 0.360205 0.233202 0.411064 -0.034320 -0.020293 0.884096
41 0.280359 0.209922 -0.248570 0.653287 0.549507 -0.963800 -0.645735 -0.219831 0.102184 0.545466 -0.558462 0.368654 0.182522 -0.030288 0.446763 -0.464614 -0.050115 -0.442806 0.293877 0.545155 0.203119 -0.289471 -0.619567 0.099219 0.139386 0.416527 0.662344 0.495272 0.343185 0.457120 0.071708 1.485070
388 0.047821 -0.419690 -0.412736 0.608512 0.194475 -1.042845 -1.179372 -0.564090 -0.380125 -0.320184 -0.531205 -0.090273 0.208850 -0.876708 0.210235 -0.763624 0.107190 0.067997 -0.019910 0.040714 0.477131 0.418963 -0.793954 0.348926 0.128070 0.212394 0.570804 -0.033991 0.745763 -0.516737 0.269289 0.921571
613 0.021467 -0.138147 -0.586605 0.191213 0.008266 -0.475035 -1.083260 -0.360757 -0.377675 -0.107628 -0.550699 0.520028 -0.244838 -0.680581 0.266346 -0.361764 0.038037 -0.200479 -0.354259 0.528938 0.494548 0.108134 -1.028675 0.190255 -0.126034 -0.227335 0.590653 0.119126 0.572840 -0.034852 -0.173583 1.432191
148 -0.076230 0.652117 0.102833 0.437456 -0.320081 -0.548440 -1.155780 0.028014 0.046333 0.571188 -1.003589 0.326492 -0.181193 -0.572039 0.152455 -0.554436 -0.450744 0.060222 0.357770 0.762698 0.310527 -0.420511 -0.193910 0.167259 -0.337433 -0.216376 0.602133 0.250666 0.482225 -0.075388 -0.609535 0.950858
447 0.480229 0.303697 -0.121345 -0.017279 0.054588 -1.002523 -0.584827 -0.420362 0.185558 0.504439 -0.745172 0.340724 -0.157629 -0.185317 0.528139 -0.476218 0.048888 -0.393612 0.143364 0.602784 -0.307879 -0.409736 -0.357708 0.958043 0.002008 -0.129526 0.708209 0.179150 0.586573 0.293897 -0.552229 1.000768
300 -0.037783 0.203666 -0.869866 -0.673579 -0.420218 -0.608388 -0.697718 0.017394 -0.322432 -0.082683 -0.058893 0.331023 0.078750 -0.643086 0.660528 -0.524978 0.171035 0.080939 0.031865 0.972298 0.037815 0.210217 -0.869652 0.247128 0.237844 0.120859 0.513454 0.234811 -0.007898 0.193372 -0.444763 0.966701
771 -0.215140 0.443621 0.209773 0.258995 -0.001155 -1.347394 -0.568262 -0.102129 -0.394353 0.415297 -0.808070 0.192813 -0.192422 -0.343471 0.398994 -0.348709 -0.438030 -0.428393 0.121419 0.512825 0.190597 -0.496574 0.139457 1.026032 0.114403 0.031504 0.717528 0.743951 0.187346 0.028980 -0.519008 1.188462
16 0.099789 0.223754 -0.070945 0.487789 -0.056227 -0.733742 -0.569935 -0.162023 -0.005098 0.409662 -0.827618 0.280772 -0.481095 -0.379137 0.419515 -0.024341 0.392700 -0.489580 0.058002 0.452284 0.424170 -0.287428 0.090710 0.258312 -0.262470 -0.656098 0.721250 0.620063 0.668274 0.331348 -0.597141 1.551323
131 -0.123671 0.336548 -0.744656 -0.964099 -0.273875 -0.270576 -0.815291 -0.159965 -0.203901 -0.068867 -0.248855 0.145743 0.069539 -0.502007 0.597468 -0.106981 0.412473 -0.233027 0.276983 0.671549 -0.003730 0.154598 -0.659655 0.233032 0.251109 0.513995 0.340701 0.314877 0.286468 -0.063254 -0.752112 1.116421
243 0.481321 0.399151 -0.213457 0.427443 -0.023277 -0.859265 -0.678234 -0.773860 -0.092098 0.128511 -0.993224 0.098441 -0.078824 -0.564604 0.402371 -0.508997 0.010867 -0.174254 0.229717 0.428225 0.275892 -0.461773 -0.402337 0.762792 -0.081579 -0.129047 0.915590 0.439126 0.676963 0.335558 -0.420283 0.880300
242 0.638634 0.432705 -0.059631 0.050523 -0.073676 -0.952586 -0.707051 -0.406972 0.099260 0.253485 -0.793038 0.281779 -0.246027 -0.304082 0.323149 -0.649156 0.031138 -0.241344 0.388595 0.423908 -0.038165 -0.417064 -0.300271 0.834097 0.019802 -0.239292 1.016812 0.220031 0.527024 0.534145 -0.359049 1.042074
1430 -0.178114 0.551325 0.066210 0.338026 -0.055301 -1.121920 -0.497172 -0.138662 -0.043213 0.536890 -1.038577 0.200625 -0.446481 -0.419359 0.307955 -0.572242 -0.141799 -0.513330 -0.034457 0.071067 -0.046736 -0.937818 -0.385780 0.606974 0.097104 -0.158323 0.405669 0.574136 0.433586 0.424951 -0.446323 1.180131
31 -0.027161 0.667340 0.048133 0.367665 0.041486 -1.109036 -0.612185 -0.249041 -0.353287 0.362882 -0.671600 0.338464 -0.436110 -0.501266 0.180770 -0.566965 -0.354405 -0.428372 0.017212 0.066179 0.281708 -0.699976 -0.150199 0.700768 0.078962 -0.089450 0.592782 0.605641 0.253049 0.155652 -0.669700 1.268477
1264 0.152835 0.252638 -0.627559 0.096543 0.314496 -1.112894 -0.830774 -0.357172 0.083691 0.600910 -0.861255 0.391446 -0.592813 0.092300 0.108133 -0.458232 -0.657434 -0.123295 0.397583 0.201213 0.125926 -0.400177 -0.002435 0.592589 -0.006545 -0.157577 0.861463 0.418750 0.462619 0.688926 -0.391820 1.165124
1546 0.185814 0.619707 -0.196330 0.222617 0.099668 -0.778182 -0.844959 -0.837565 -0.140500 0.556643 -0.783797 -0.032134 -0.078096 -0.580926 0.513913 -0.578138 -0.181511 -0.228354 -0.249786 0.186372 0.232008 -0.378458 0.112130 0.316802 -0.312037 -0.185846 0.772880 0.280550 0.099349 0.380409 -0.435228 1.522210
1479 0.141622 -0.025137 -0.090546 0.079630 0.356741 -0.968415 -0.723023 -0.200003 -0.103644 0.693125 -0.888996 0.412614 -0.434730 -0.225910 0.180493 -0.547368 -0.542527 -0.315534 0.334319 0.280737 -0.079504 -0.332112 -0.198193 0.364244 -0.113596 0.100252 1.130420 0.415229 0.521650 0.900440 -0.433021 1.136830
587 0.789156 0.423297 0.691272 -0.512008 0.223076 -0.612165 0.469091 0.184106 -0.685731 0.796527 -0.614912 0.071427 -1.222100 0.119862 1.405021 -1.038944 -0.242496 -0.521872 -0.434860 0.986902 0.871050 1.584067 -0.498176 -0.823750 1.008215 0.236035 0.424863 -0.319678 1.422341 -0.510251 -0.705721 0.008188
306 -0.100770 0.466225 -0.808321 -0.885872 -0.672032 -0.258349 -0.639974 -0.120405 0.294638 0.410479 0.058474 0.245295 0.033643 -0.299725 0.906735 -0.288131 0.304073 -0.285496 0.029672 0.924920 0.014534 0.335700 -0.830251 0.398494 0.276861 0.090452 0.305753 0.096419 0.335427 -0.061656 -0.526931 1.103547
791 -0.166835 0.647918 0.118475 0.370170 0.116740 -1.265355 -0.493701 -0.330542 -0.207472 0.391921 -0.775847 0.241229 -0.369248 -0.444958 0.272734 -0.569887 -0.331448 -0.422533 -0.008171 0.185975 0.245146 -0.731782 -0.249387 0.810149 -0.073456 -0.228046 0.658765 0.533288 0.282006 0.255311 -0.659366 1.250246
545 -0.174964 0.271982 -0.998637 -1.047452 -0.590505 -0.463218 -0.578533 -0.086922 -0.074344 0.442542 -0.270656 0.062329 -0.045972 -0.561970 0.919139 -0.101853 0.336980 -0.027420 0.229578 1.005658 -0.060382 0.172408 -0.891529 0.223684 0.127682 -0.052576 0.087561 0.105667 0.523792 0.078412 -0.851179 0.946900
127 -0.509833 0.004338 -0.364443 0.690547 -0.145514 -0.524167 -0.490328 -0.002081 0.301227 0.577729 -0.238809 0.381836 0.129530 -0.524068 0.576883 -0.223770 0.695438 -0.614393 0.407620 0.081604 0.342007 0.386412 0.685938 0.250645 -0.239154 -0.869661 0.649386 -0.484081 0.538038 0.107591 -0.855470 1.189797
1031 -0.162479 0.487056 -0.011903 0.610375 -0.245940 -0.838052 -0.795141 -0.388210 0.261812 0.443747 -0.553357 0.610095 -0.218136 -0.538797 0.539684 -0.469599 -0.396343 -0.481353 -0.186023 0.143927 -0.014937 -0.301012 0.107204 0.430727 -0.350094 -0.895970 0.697038 0.092999 0.658267 0.510421 -0.170201 1.181956
173 0.372227 0.212261 -0.002104 0.205411 -0.252197 -0.733385 -0.540048 -0.144298 -0.230367 0.478371 -0.828598 0.381518 -0.620662 -0.594235 0.075773 -0.515254 -0.305229 -0.229005 -0.146198 0.536334 0.428095 -0.575944 -0.155503 0.311605 -0.292244 -0.059227 0.621130 0.308269 0.802381 0.351491 -0.588547 1.502464
3980 0.275387 0.647887 -0.221859 0.471131 -0.089326 -0.914209 -0.639686 0.292528 -0.070675 0.151110 -0.700882 0.030434 0.238713 -0.571031 0.413135 -0.604424 -0.339599 -0.409370 -0.000298 0.709498 0.415597 -0.622852 0.267808 0.452436 0.124809 -0.360632 0.807716 0.364860 0.446413 0.889842 -0.661853 1.112859
1586 -0.214174 0.462158 -0.833551 -0.647539 -0.341136 -0.477501 -0.336939 -0.654889 -0.076097 0.997615 -0.038200 0.326287 -0.142158 -1.095888 1.180745 -0.021701 0.437440 0.239612 0.289030 0.747508 0.139951 0.681062 -0.557815 0.030432 -0.562582 -0.272655 -0.174030 0.358211 0.173775 0.235952 -0.536105 0.779152
295 -0.004889 0.581001 -0.316786 0.460786 -0.193030 -1.044243 -0.076450 -0.391048 -0.331058 0.292884 -1.030940 0.532706 -0.257854 -0.352546 -0.005895 -0.760608 -0.000036 -0.396031 -0.022222 0.469898 0.298713 -0.369051 0.225905 0.791484 0.351312 -0.195628 0.954455 0.468472 0.181897 0.232070 -0.382282 1.234071
604 -0.135611 0.404519 -1.082944 -0.734931 -0.396836 -0.438159 -0.514339 0.063494 -0.088909 0.305379 0.019232 -0.150479 0.004380 -0.564139 0.763390 -0.557683 0.103648 0.389048 0.240726 1.300353 0.151830 0.181486 -0.890207 0.207568 0.265512 -0.065072 0.504523 -0.041042 0.385283 0.059790 -0.306980 1.101207
132 -0.761413 1.136722 -0.309879 0.257060 0.448973 -0.747966 -0.517164 -0.168024 -0.966695 0.749040 -0.929732 0.593150 -0.211618 -0.157614 1.298266 -0.546110 -0.698286 0.062559 -0.276420 0.015455 0.714796 1.473440 -0.257261 0.898275 1.439887 0.903412 0.201977 -0.521574 0.304704 0.803972 0.580051 -0.442184
301 0.033877 0.076340 -0.888090 -0.853012 -0.480015 -0.429137 -0.719832 -0.211587 -0.227744 0.361079 -0.073022 0.267877 0.033022 -0.290399 0.665330 -0.346284 0.353104 -0.164412 0.033108 0.773474 0.154187 0.095905 -1.114505 0.497983 0.064218 0.059632 0.501364 -0.038047 0.249173 0.077187 -0.724642 1.061726
910 0.124070 -0.169975 -0.222061 -0.835808 -0.420466 -0.699889 -0.159601 -0.401689 0.391689 0.518184 -0.637116 0.000404 0.316188 -0.028454 0.909741 -0.667046 0.243884 -0.366064 0.200131 0.893601 -0.373371 0.121893 -1.075413 0.472564 0.334671 -0.289506 0.251534 0.228444 0.430836 0.026932 -0.694037 0.750244
143 0.229201 0.352313 0.105534 0.256846 -0.229850 -0.697428 -0.727667 -0.179779 -0.182722 0.485973 -0.680296 0.330871 -0.401037 -0.438711 0.071961 -0.549832 -0.182147 -0.318310 -0.026558 0.621893 0.710930 -0.500475 -0.130533 0.415389 -0.323481 -0.204038 0.689638 0.321897 0.554583 0.428165 -0.378376 1.418703
35 -0.081833 0.306972 -0.112556 -0.085009 -0.330659 -0.397284 -0.796717 -0.237388 0.032071 0.439424 -0.709027 0.288362 -0.143308 -0.812033 0.102628 -0.644834 -0.122988 -0.535372 0.037328 -0.278917 0.506571 -0.296778 0.439071 -0.371893 0.000560 -0.340777 0.689264 -0.012964 0.533678 -0.676409 -1.095621 1.254825
395 0.470361 0.435406 -0.021182 0.229900 -0.076434 -1.041438 -0.696988 -0.450416 0.130409 0.471402 -0.773307 0.029593 -0.181096 -0.132414 0.370623 -0.667480 -0.019247 -0.431738 0.043143 0.563120 -0.023750 -0.476702 -0.183728 0.836173 -0.037472 -0.356690 0.672836 0.326191 0.515948 0.494926 -0.452777 1.123268
2774 0.231941 0.786531 -0.101961 0.056305 0.074994 -0.877991 -0.749568 -0.725961 -0.050181 0.524782 -0.831889 -0.191580 -0.346409 -0.488102 0.277823 -0.534631 -0.196030 -0.329201 -0.094291 0.471028 0.111323 -0.379039 0.130717 0.460830 0.017764 -0.117403 0.789768 0.309147 0.048721 0.593950 -0.370512 1.461078
73 -0.465317 0.606526 0.366785 0.267113 0.086035 -0.610458 -1.410143 0.090341 0.293387 0.027909 -0.017535 1.171608 -0.352480 -0.850893 0.864646 -0.586691 0.414629 0.014193 0.500163 0.045009 0.112040 -0.094678 0.028729 -0.521565 0.017254 -0.778022 0.811200 -0.312494 0.605235 -0.019874 -0.378220 0.857003
3355 -0.244649 1.153892 -0.040626 -0.979703 -0.613046 -1.113381 0.084378 0.034969 -0.604955 0.364269 -0.056022 -0.394492 -1.337196 -0.053055 1.110354 -0.775235 0.892982 0.398878 -0.328650 -1.121894 0.752815 -0.104624 0.133154 0.527458 0.564490 -0.625320 0.042370 -0.717034 0.656358 1.058083 -0.266079 -0.054027
2721 0.162862 0.552813 0.057203 0.198143 0.129192 -0.947024 -0.789508 -0.683541 -0.052098 0.398353 -0.989436 -0.055458 -0.131264 -0.459129 0.441297 -0.526078 -0.310255 -0.254583 -0.196227 0.327124 0.243442 -0.487379 0.099012 0.301547 0.108540 -0.304094 0.762746 0.296635 0.306736 0.644607 -0.331377 1.514068
288 -0.168285 0.499009 -0.987477 -0.971670 -0.396068 -0.365839 -0.625586 -0.112168 0.121290 0.467119 -0.018396 0.078376 0.158745 -0.396470 0.962682 -0.352919 0.142935 -0.003542 0.193431 1.098373 0.087496 0.137214 -1.051279 0.277264 0.182884 0.124868 0.258679 -0.058920 0.448307 -0.040533 -0.616186 1.139731
883 0.452284 0.236192 -0.704107 -0.361539 -0.188615 -0.897638 -0.025631 -0.339455 0.008391 0.760044 0.195157 -0.506653 -0.882330 -1.168340 0.558021 -0.538250 0.048126 0.339018 0.185954 0.817261 0.058926 0.428125 -0.356064 -0.032695 -0.067823 -0.049276 -0.001586 0.572246 -0.074819 0.357295 -0.755918 1.102108
1611 -0.099606 0.388605 -0.814155 -1.073268 -0.490920 -0.378901 -0.532925 -0.051840 0.076123 0.536198 -0.088191 0.052456 0.143709 -0.524789 0.856332 -0.424120 0.175613 -0.030658 0.070030 1.092061 0.068312 0.183458 -0.995987 0.330603 0.324731 0.173425 0.277958 -0.144300 0.413790 0.007697 -0.646600 1.155539
3462 0.102322 0.303496 -0.544191 0.397542 0.253259 -0.979508 -0.733161 -0.375368 0.115723 0.634902 -0.883745 0.037498 -0.694406 -0.009893 0.278177 -0.682147 -0.431390 -0.267777 0.136330 0.265164 0.235747 -0.457157 -0.119634 0.540633 -0.219853 -0.343454 0.797881 0.293053 0.297600 0.536137 -0.440250 1.243374
675 1.009686 0.800122 -0.503999 -0.006996 -1.564385 -1.440441 0.448565 -0.360945 -2.173852 1.442609 0.063824 0.043523 0.770876 -0.952965 0.747021 -1.154357 0.022819 -0.825444 -0.129879 -0.207827 1.133511 0.847624 -0.049648 -0.114831 1.185467 -0.153227 0.892468 0.952108 2.098213 0.697981 -2.951268 -0.370081
600 -0.076138 0.384087 -0.719453 -1.167461 -0.615193 -0.348363 -0.642750 -0.052623 0.122518 0.412555 -0.092136 0.184585 0.207261 -0.410134 0.784040 -0.455588 0.166450 -0.026565 0.123859 0.755323 0.020138 0.386369 -0.899088 0.363251 0.178673 0.062179 0.329558 0.114739 0.310644 -0.185907 -0.489653 1.286039
820 -0.273374 0.675945 -0.423872 -1.442441 -0.295619 -0.593528 -0.109258 -0.575513 -0.516049 1.224112 0.089891 0.351079 -0.165597 -0.716004 1.164975 -0.217081 1.061041 0.435097 -0.423596 0.429865 0.577421 0.088982 -0.819337 0.007787 -0.089745 0.022059 0.198374 0.199809 0.081103 0.271941 -0.574055 0.024206
788 0.106214 0.479037 -0.791377 -0.821552 -0.824586 -0.447946 -0.635472 -0.068333 0.171933 0.601753 0.395736 -0.059693 -0.119502 -0.443688 0.665040 -0.617449 0.604110 -0.260889 -0.175829 0.891873 0.117003 0.303261 -0.707500 0.418913 0.322374 0.218433 0.333959 0.245577 0.126260 -0.087922 -0.894088 1.208608
876 -0.031323 0.466920 -0.774013 -0.986818 -0.534335 -0.364848 -0.670609 -0.115909 0.228465 0.537768 -0.106259 0.097142 0.052006 -0.270338 0.885588 -0.314982 0.245062 0.066902 0.053201 1.103828 -0.012598 0.280127 -1.095644 0.185852 0.264593 0.041858 0.311535 0.022677 0.378633 0.050901 -0.597120 1.151147
1361 -0.167709 0.510246 -1.148441 -1.133684 -0.553552 -0.134758 -0.663827 -0.350658 0.078673 0.505969 0.231222 0.108295 -0.448363 -0.015549 0.780046 -0.384957 -0.056966 -0.305960 0.442159 0.740447 0.007272 0.600735 -1.005454 0.039850 0.149322 -0.558893 0.503688 0.228475 0.233771 0.086320 -0.712519 1.116335
606 0.148276 0.250080 0.423725 0.561509 -0.296865 -0.995395 -0.751117 0.250413 0.152450 0.773366 -0.306135 0.557056 -0.128406 -0.997065 0.995006 -0.190341 0.368883 0.294345 0.841357 -0.419630 0.348470 0.163654 -0.030443 -0.127742 0.553658 -0.653495 1.184428 -0.912172 0.317883 -0.504358 -0.910531 0.693822
602 0.011030 0.141565 -1.055424 -0.754389 -0.239691 -0.538469 -1.039985 0.025140 -0.098815 0.284055 0.010700 0.447780 0.039020 -0.128702 0.704115 -0.050258 0.355430 0.069661 -0.199750 0.835336 0.062113 0.120312 -0.963328 0.653013 0.211424 0.039437 0.287158 0.157913 0.291705 0.326795 -0.629089 1.024828
4851 0.337352 0.623780 -0.198762 0.509399 -0.130661 -0.865467 -0.596980 -0.620802 -0.097572 0.194563 -1.095288 0.240043 -0.275800 -0.460006 0.375005 -0.448542 -0.320646 -0.232978 0.203515 0.515140 0.356011 -0.481271 -0.166316 0.556720 -0.222326 -0.114325 0.891951 0.455137 0.566254 0.551725 -0.368556 0.930637
6 0.708654 -0.072162 -0.496552 -0.253904 -0.834150 -1.100952 -1.238106 -0.186921 -0.283742 -0.316431 -0.782895 0.360733 -0.154032 -0.081983 0.507981 0.344997 0.295073 0.006612 0.281603 0.444371 0.101238 0.227889 -1.001042 0.452703 0.203618 0.115980 0.197545 -0.266081 -0.097664 -0.055115 -0.674895 0.859383
4238 0.193886 0.317242 0.050378 0.602400 -0.118788 -1.001588 -0.704606 -0.429438 -0.232481 0.307112 -0.690618 0.343986 -0.127612 -0.217852 0.512673 -0.651486 -0.432331 -0.310957 0.353594 0.658176 0.029542 -0.432169 0.081131 0.421308 -0.034185 -0.003096 0.696600 0.594960 0.330023 0.764991 -0.595872 1.262202
2118 -0.487603 1.195757 0.150747 -1.549131 -0.995481 -1.139901 -0.109244 0.178245 -0.598755 0.222861 -0.176428 -0.709668 -0.746539 0.317801 0.890384 -1.259984 0.653716 0.745165 0.291257 -1.053459 0.299338 0.711632 0.429007 0.822238 0.598680 -0.268143 0.410740 -0.850898 0.385513 1.050045 -0.608167 0.051045
908 0.664979 -0.122524 0.389377 0.436129 -0.307518 -1.005955 -0.197639 0.102089 0.219134 0.760259 -0.482036 0.114661 0.020865 -0.507938 1.543381 -0.273688 0.394601 0.008345 0.584239 -0.218070 0.240712 0.081845 -0.536835 -0.279632 0.768371 0.089444 1.083261 -0.838080 0.282106 -0.420779 -0.499979 0.845224
302 -0.079485 0.556646 -0.855926 -1.052595 -0.477053 -0.452471 -0.553393 -0.003504 0.123463 0.453574 -0.035359 0.032610 0.121115 -0.245948 0.836819 -0.413116 0.275180 0.046684 0.072799 0.943048 -0.065901 0.223275 -0.973163 0.450074 0.213558 0.007682 0.483410 -0.080186 0.337666 -0.144683 -0.468983 1.362957
949 -0.032101 0.417173 -0.846845 -1.102322 -0.545685 -0.410781 -0.621248 -0.177831 0.039701 0.532209 -0.081561 -0.008672 0.204360 -0.293779 0.820583 -0.307127 0.034566 -0.022784 0.209936 0.929605 0.153321 0.165219 -0.991936 0.262510 0.284102 0.161597 0.416084 0.052199 0.242406 -0.093237 -0.873522 1.079036
3998 -0.433914 0.770545 -0.833754 0.363747 -0.123961 -1.373405 -0.485629 1.071632 -0.708653 -0.093574 -0.215489 -0.452928 0.153537 -0.544622 0.506777 -0.578448 -0.171978 -0.566988 0.340313 0.462458 0.150832 -0.560047 -0.061446 -0.064732 0.106856 -0.170771 1.395464 -0.025759 0.346709 0.606306 -0.240090 0.786330
729 -0.374454 0.589270 -0.581452 0.722834 -0.258769 -1.178064 -0.403992 0.923655 -0.821115 0.377116 -0.273207 -0.094593 0.229365 -0.460779 0.714788 0.021093 0.131301 -0.308539 0.243275 0.252977 0.306862 -0.539781 0.033086 -0.024741 0.481076 -0.658332 1.502263 -0.437985 0.384990 0.409094 -0.512455 0.812337
4334 0.454746 0.354524 -0.127003 0.428021 -0.305026 -0.911088 -0.290821 -0.434411 -0.068984 0.504788 -1.035354 0.513869 -0.368526 -0.395906 0.559436 -0.258654 -0.616920 -0.227696 0.263946 0.440785 0.345431 -0.569587 -0.223881 0.398473 0.269264 -0.090269 0.732372 0.009264 0.360670 0.401790 -0.358769 1.518254
1746 0.330844 0.416911 -0.011283 0.180735 0.164948 -0.960051 -0.642270 -0.180972 0.078020 0.278610 -0.938866 0.533563 -0.013783 -0.540013 0.409424 -0.594178 -0.281063 -0.462626 -0.067863 0.523122 0.702541 -0.475568 -0.036556 0.595821 -0.032957 -0.213643 0.636387 0.207047 0.260722 0.600337 -0.563349 1.198622
4806 -0.335148 1.035821 -0.145226 -1.555914 -0.688223 -1.355379 -0.184025 0.397025 -0.465454 0.587427 -0.103076 -0.049659 -1.176583 -0.437289 1.457657 -0.699007 0.851815 0.724553 -0.316963 -1.070024 0.589723 0.354458 -0.131451 0.661412 0.161256 -0.056483 0.158295 -0.716921 0.187661 1.216247 -0.215410 -0.295610
209 0.051437 0.733861 -0.896080 -0.923467 -0.172675 -0.350828 -0.651701 -0.035617 0.037901 0.340207 -0.108177 0.205452 -0.005728 -0.719670 0.775221 -0.096699 0.466839 -0.308859 0.252771 0.889793 -0.127150 0.429177 -1.006708 0.063181 0.181334 0.137685 0.226404 0.075908 0.191442 0.190659 -0.625562 1.277313
601 0.138275 0.501698 -0.791586 -0.944700 -0.400572 -0.324401 -0.767170 0.028974 0.100069 0.467647 0.034924 0.159020 0.307461 -0.332097 0.839769 -0.469829 0.355380 -0.026764 0.071668 0.917965 0.071675 0.341786 -0.997542 0.435100 0.133004 0.056605 0.301734 0.037459 0.354408 -0.025136 -0.601956 1.295213
337 -0.336937 0.398701 -0.584445 -0.262341 -0.087783 -0.025725 -0.887023 -0.379153 0.239537 0.973160 0.045563 0.111873 -0.784476 -1.152670 0.832017 -0.383851 0.417355 -0.007664 0.511692 0.723169 -0.125635 0.620846 -0.711661 -0.192852 -0.036913 -0.903928 -0.028589 0.143424 0.306153 0.191160 -0.678752 0.924467
1644 0.234584 0.130545 -0.646824 -1.028503 -0.734754 -0.418882 -0.404104 -0.075651 0.018897 0.584792 -0.245465 0.066266 0.497310 -0.683272 1.027748 -0.507208 0.172187 -0.010958 -0.093264 1.032133 0.410344 0.464916 -1.133602 -0.106780 0.265573 0.099670 0.118054 -0.126814 0.090680 0.164000 -0.789983 0.946830
438 -0.966997 0.498610 -0.121004 -0.706963 0.445335 -0.838134 -0.604080 0.269048 0.597616 0.233396 0.146310 0.225427 0.459642 -0.716639 0.696948 0.243391 0.353793 -1.005129 0.221866 0.950999 0.919332 1.187816 -0.628144 0.608500 -0.239843 0.674963 0.509417 -0.009106 0.134673 0.270425 -1.229532 0.688249
3087 0.166144 0.296289 -0.203958 0.334286 -0.105676 -0.921009 -0.335369 -0.284861 0.013705 0.551005 -0.812047 0.245702 -0.650006 -0.643503 0.094878 -0.558320 -0.272488 -0.302938 -0.133556 0.681483 0.277789 -0.524727 -0.000579 0.402677 0.095528 -0.105708 0.619508 0.401611 0.532097 0.723453 -0.622573 1.361377
518 0.060088 0.276472 -0.016306 0.348097 -0.231925 -1.040432 -1.062189 -0.393040 0.258900 0.160693 -1.103303 0.119077 -0.216771 -0.146331 0.254346 -0.283565 -0.174893 -0.068946 0.085053 0.602691 0.170593 -0.534284 -0.220792 0.399957 -0.063105 -0.052869 0.614719 0.048770 0.292057 0.231738 -0.839181 1.262386
226 0.370743 -0.080221 0.322402 0.546210 -0.576193 -1.446353 -0.152652 0.547224 -0.017364 1.093399 -0.004712 0.538785 0.185888 -0.666102 1.156108 -0.372225 0.301817 0.135847 0.239653 -0.461768 0.209167 0.172307 -0.034346 0.009653 0.824082 -0.086213 1.321927 -0.827554 0.529433 -0.799830 -0.818389 0.856415
3025 0.133283 0.507254 -0.876292 0.144037 -0.038607 -0.432427 -0.542815 -0.707793 -0.243987 0.836066 -0.296555 0.185166 -0.514461 -1.444749 0.753438 -0.184960 0.361304 -0.056230 0.213316 0.575005 0.228560 0.064750 -0.410921 0.076716 -0.610329 -0.142981 0.146970 0.491691 0.284586 0.302446 -0.616745 1.250458
462 0.071949 1.011060 -0.063106 -1.259301 -0.804488 -1.663567 0.069889 -0.115003 -0.510924 0.207836 -0.053031 -0.759551 -0.955798 0.286666 1.201527 -0.556242 0.477426 1.091624 -0.474536 -1.060360 0.696928 0.345625 0.118327 0.690160 0.638757 -0.311112 0.055298 -1.067832 0.309127 0.483391 -0.556017 0.174535
580 0.403023 0.493029 -0.330049 0.563944 -0.197099 -1.035111 -0.654459 0.024435 -0.127459 0.252523 -0.992838 -0.110446 -0.312270 -0.465864 0.315974 -0.669656 -0.113547 -0.337789 0.178646 0.518979 0.223783 -0.795397 0.041192 0.358092 0.217663 -0.354655 0.659766 0.298394 0.566856 0.620159 -0.610972 1.209979
2443 -0.040527 0.292524 -0.497788 -1.085033 -0.573803 -0.006510 -0.566702 0.139839 -0.155608 0.403754 -0.232579 -0.165604 -0.093322 -0.240563 0.998608 -0.505590 0.211645 0.073835 0.019274 1.074079 0.390753 0.253417 -1.151582 0.189900 0.070730 0.044620 0.277217 0.089256 0.359795 -0.064668 -0.719456 1.376068
305 -0.729826 0.189035 -0.860691 0.115756 -0.054035 -0.774630 -0.310848 0.768503 -0.948686 0.089500 -0.086598 0.025909 0.251053 -0.543957 0.325980 -0.916714 0.087335 0.983461 0.037334 1.392132 0.312111 0.337977 -0.478906 0.325454 0.624605 -0.451288 1.019894 -0.268345 0.151837 0.102682 -0.103482 0.550807
4815 0.293352 0.438416 -0.101192 0.379972 -0.199019 -1.032208 -0.783971 -0.351866 0.111948 0.401972 -0.875244 0.204331 -0.313605 -0.261113 0.213217 -0.739018 -0.278763 -0.344008 -0.079142 0.424327 0.278930 -0.457128 0.014495 0.611314 -0.050426 -0.284528 0.732255 0.313462 0.367227 0.491775 -0.427537 1.373054
1476 -0.536688 1.337845 0.352592 -1.368808 -1.188493 -1.105285 -0.188538 -0.051167 -0.800470 0.269245 -0.422022 -1.016469 -0.728755 0.404123 0.999442 -1.815898 0.850049 0.630092 0.611771 -0.729769 0.237958 0.622320 0.711340 0.771565 0.946943 -0.223774 0.506723 -0.936437 0.341404 1.184524 -0.521802 0.315656
1150 0.100922 0.666969 -0.947673 -1.043996 -0.522643 -0.246091 -0.611577 -0.064808 -0.001774 0.381592 -0.062445 -0.072850 0.197078 -0.343683 0.914860 -0.543264 0.198847 -0.125129 0.143515 0.908492 -0.049356 0.236476 -0.997405 0.262560 0.185407 -0.012380 0.315476 -0.136282 0.296629 0.028184 -0.709391 1.180453
5025 0.204219 0.186314 -0.541235 -0.617547 -0.528357 -0.256008 -0.268274 -0.234379 0.194398 0.740946 -0.206619 0.174314 0.120520 -0.712075 1.411849 -0.005191 0.163119 0.160825 0.282962 0.839388 0.216172 0.348605 -1.114920 -0.029053 0.347205 0.180514 0.236628 -0.138125 0.022046 0.121556 -0.523226 1.143562
118 -0.349478 0.492612 -0.114470 0.245892 -0.014240 -0.620898 -0.976901 -0.042837 0.926358 0.236099 -0.374527 0.676679 -0.357146 -0.900634 0.652487 -0.620308 0.085807 0.091706 0.255821 0.351870 0.156792 0.055475 0.290613 -0.245362 0.136490 -0.347190 0.913455 -0.150592 0.280961 -0.587741 -1.191031 0.783828
4189 0.200309 0.322714 -0.109760 0.496899 0.098126 -0.970503 -0.627940 -0.321635 0.011297 0.438321 -0.899119 0.249769 -0.251796 -0.373996 0.238706 -0.641533 -0.333501 -0.349085 0.175335 0.432059 0.223571 -0.385491 -0.151349 0.477210 -0.020415 -0.278299 0.557796 0.427152 0.330093 0.675969 -0.586159 1.245938
1151 0.052934 0.655898 -1.066818 -0.766140 -0.401472 -0.295839 -0.558765 -0.026332 -0.034570 0.569492 0.079907 0.185932 -0.032444 -0.727398 0.813028 -0.360938 0.417223 -0.113575 0.206149 0.872130 -0.210734 0.457824 -0.934656 0.164436 -0.004757 -0.178218 0.168802 0.266462 0.419493 0.098480 -0.700230 1.022836
3398 0.215846 0.849081 -0.641208 -0.534963 -0.477588 -0.531438 -0.658379 0.068102 -0.117919 1.421563 -0.296437 0.087783 -0.544605 -1.641976 0.377157 -0.343871 0.413587 0.055041 1.055595 0.506129 0.338641 0.435501 -0.589744 0.199423 -0.614896 0.040552 -0.058853 0.242239 0.134143 0.155670 -0.670697 0.796765
3170 -0.078087 0.819567 -0.077086 -0.224135 0.537039 -1.955271 0.288657 -0.623196 -0.273347 0.804885 -1.183453 0.118914 -0.330900 0.362281 1.098523 -0.416649 1.158236 -0.100266 0.393009 0.548344 -0.588631 -0.139782 -1.307635 -0.254903 0.305436 -0.013320 -0.341790 0.468408 1.365602 -0.326470 0.055797 0.288788
410 -0.032890 0.024130 -0.607707 -0.529516 -0.861467 -1.115501 -0.669009 -0.474711 0.258761 0.043950 -0.941804 0.252564 0.073940 0.279609 1.313361 -1.159167 0.689117 -0.819421 0.418476 0.248990 -0.446334 -0.222948 -0.598115 -0.120810 0.056003 0.082404 -0.197242 0.494106 0.159426 -0.055908 -0.734625 0.476180
1548 -0.456434 0.660877 -0.470166 -0.796605 -0.525133 -0.446763 -0.894775 -0.090086 0.260834 0.428217 -0.409657 -0.051186 0.331042 -0.480783 0.715110 -0.299805 -0.250259 0.142213 -0.192871 1.188997 -0.195973 -0.083101 -0.707359 0.016635 0.150544 -0.271387 0.428433 -0.057991 0.480535 -0.427360 -0.992125 0.992797
191 0.391755 0.603668 -0.981490 -1.021991 -0.523615 -0.388828 -0.874539 0.265549 -0.072936 0.365288 0.283295 0.281148 0.360287 -0.448603 0.833306 -0.550458 -0.042383 -0.119729 -0.156434 0.702991 0.164004 0.152868 -1.052450 0.111452 0.019405 -0.058736 0.110045 0.282201 0.684398 -0.096626 -0.677308 1.036649
151 -0.014657 -0.038327 -0.314458 0.787632 0.181333 -0.796343 -0.886894 -0.444886 0.058381 1.270515 -0.248692 0.712482 -0.940238 0.446852 0.994653 -0.264794 0.797027 -0.838597 0.415377 -0.179815 0.056536 1.778161 0.509858 0.355640 -0.947670 -0.376781 0.580468 -0.363048 1.616698 0.795240 -1.806008 0.110997
135 -0.573430 0.511343 0.072038 0.076224 0.097832 -1.151490 -1.193353 -0.163782 0.344274 -0.564357 -0.156669 0.710335 -1.297569 -0.817856 1.484437 -1.469787 0.559678 -0.882420 0.379297 0.394629 0.936453 0.305529 -0.166708 -0.389945 0.381704 -0.995288 0.490031 -0.014550 0.231652 -0.105645 -0.547395 -0.146539
299 0.069819 0.123396 -0.881591 -0.878755 -0.124918 -0.520378 -0.958187 -0.363027 -0.265157 0.290657 -0.152325 0.549078 -0.051828 -0.367035 0.610982 -0.205634 0.320312 -0.287416 -0.065342 0.894855 0.118089 -0.080227 -1.097698 0.741463 0.032797 0.277412 0.723840 -0.299718 0.286005 0.389904 -0.620814 0.865221
583 0.240279 -0.502309 0.111925 0.869736 -0.230815 -1.041100 -1.219760 -0.067733 -0.129878 0.774005 -0.276391 -0.545158 -0.187738 -0.898346 0.971376 -0.896921 0.113482 0.775800 0.112293 -0.532309 0.700597 0.143347 -0.172658 0.569545 0.120056 0.552213 0.922741 -0.216302 0.548651 -0.597947 -0.567273 0.757311
607 -0.274344 0.475333 0.158508 0.487597 -0.206363 -0.698206 -0.981568 -0.051530 0.226959 0.550287 -0.173248 0.707124 -0.382139 -1.149588 0.628075 -0.298157 0.451949 0.147185 0.485779 0.153081 -0.241448 0.359253 0.060269 -0.271273 -0.007662 -1.090995 0.899811 -0.346862 0.283453 -0.100351 -0.615554 0.913627
2330 0.169377 0.635239 -0.955739 -0.448270 -0.285376 -0.403808 -0.447215 -0.164287 0.013438 0.983585 -0.121817 0.173742 -0.319619 -1.198173 1.072606 -0.132299 0.326876 0.050326 0.462692 0.980306 -0.009561 0.446537 -0.595611 0.154061 -0.179209 -0.189564 -0.373811 0.147844 0.323045 0.359411 -0.590782 1.079844
14 -0.253685 0.654775 -0.234719 -1.532738 -0.822385 -1.201096 0.023145 0.601889 -0.515665 0.481486 -0.484204 -0.119993 -1.171544 -0.038621 1.468667 -0.784728 0.572009 0.898748 -0.185636 -1.421047 0.771877 0.590262 -0.072392 0.811131 0.424746 0.007075 0.260515 -0.466801 0.603425 0.660503 -0.270423 -0.428434
129 -0.571305 0.332196 -0.439556 -0.436517 -0.181270 -1.146946 -0.897322 -0.471178 0.283696 -0.538876 -0.426467 0.199506 -1.438860 -0.469178 1.452561 -1.312645 0.413085 -1.293335 0.398147 0.176400 0.754134 0.010643 0.130827 -0.057783 0.269672 -0.315349 0.283082 -0.081551 0.036755 -0.285726 -0.596185 0.010497
76 0.008092 0.689451 -0.043283 -0.394575 0.335064 -1.595576 0.021545 -0.916127 -0.031883 0.795140 -0.914576 0.073817 -0.018631 0.250178 1.173683 -0.840452 1.057058 0.038622 0.580329 0.431252 -0.729080 -0.396454 -1.059744 -0.298647 0.214430 0.243030 -0.072583 0.276574 0.859192 -0.250999 -0.133187 0.177060
1199 0.204072 -0.119219 -0.368774 -0.070241 0.145186 -1.564741 0.157410 -0.395983 -0.235260 0.002615 0.754643 -0.509017 -0.801872 -0.986266 0.787156 -0.522580 -0.130421 0.785536 0.363015 0.510991 0.256325 0.173793 -0.146493 0.367851 0.124772 -0.089275 0.292638 0.000735 0.528883 0.523514 -0.805638 1.417688
787 0.181474 0.627953 -1.132438 -0.746967 -0.711999 -0.305464 -0.839765 -0.050727 0.199028 0.446623 0.314508 0.229784 -0.063188 -0.224030 0.860103 -0.697980 0.420074 -0.189976 -0.146201 0.955237 0.214360 0.364717 -0.634719 0.520959 0.210587 -0.010063 0.314246 0.149986 0.274343 -0.198747 -0.659520 1.081231
165 -0.584188 1.310862 -0.399996 -0.156277 0.729190 -0.976235 -0.665439 -0.259746 -0.852900 1.113559 -1.311518 0.654928 -0.327725 -0.299935 1.462436 -0.494425 -0.797465 -0.087560 -0.314938 0.208979 0.723005 1.154214 -0.327709 1.089016 1.619998 0.814424 0.189918 -0.528404 0.156412 0.882800 0.206498 -0.459870
225 0.243739 0.326349 -0.306919 0.467931 0.054020 -1.208710 -0.584046 -0.107434 0.697919 -0.050360 0.402005 0.275334 -0.717129 -0.919071 1.151171 -1.103631 -0.120339 -0.927431 0.110449 0.135069 0.624098 -0.442329 -0.362420 -0.529969 0.617754 0.331490 1.643525 -0.210500 0.265294 0.407719 -0.011660 0.482089
296 0.059922 0.062909 -0.816926 -0.705102 -0.772535 -1.097860 -1.430597 -0.131690 -0.715984 -0.317905 -0.665052 -0.060498 -0.442156 -0.566453 0.678403 -0.281643 0.309305 -0.694890 0.587100 0.728912 0.032930 0.191424 -0.299842 0.228011 0.061127 0.652561 0.335636 0.094563 -0.025434 -0.210336 -0.245538 0.448881
745 -0.690398 0.183441 -0.624476 -0.198387 0.482703 -0.797031 -0.181730 -0.071501 0.274917 0.518770 -0.164071 0.031687 0.523220 -0.961851 0.520853 -0.854438 0.675230 -0.806057 0.207767 0.579379 1.065522 0.891915 0.179479 0.083397 0.075219 -0.623948 -0.017557 -0.694102 -0.033649 0.279767 -1.167346 0.814624
515 -0.888728 0.154528 -0.641180 -0.041624 0.078580 -0.453218 -0.082540 0.032533 0.210552 0.659694 -0.349752 0.337292 0.522959 -0.908590 0.721943 -0.881223 0.567335 -0.604712 0.554543 0.347196 1.283309 0.873737 0.372293 0.519285 0.207653 -0.666569 0.471775 -0.462570 -0.128696 0.061806 -1.017280 0.871327
897 0.025816 -0.055409 -0.799038 -0.267386 0.350384 -1.538546 -0.663723 0.079967 0.067174 0.715116 -0.957079 -0.030205 -0.127905 -0.521860 -0.297243 -0.855679 -0.505842 -1.123696 0.336392 0.166960 -0.160313 -0.089188 -0.304122 -0.443708 0.360988 0.563157 1.076828 -0.133695 1.338847 0.573263 0.535413 0.466429
1631 -0.585856 1.170417 0.182470 0.568511 -0.047042 -1.529029 -0.371259 0.291562 -0.641079 0.402086 -0.673932 -0.063922 -0.388335 -0.606542 0.439797 -0.385130 -0.324793 -0.632235 0.034560 0.112203 0.091549 -1.029119 -0.431472 0.975591 0.202793 0.058240 0.959195 0.692989 0.101047 0.307131 -0.550499 1.122524
24 -0.447838 1.372189 0.902642 0.189504 0.213793 -0.541777 -0.277144 1.310251 0.536657 1.990437 -0.134313 -0.543286 -0.241665 -0.595689 0.247847 -1.214572 -0.103841 -0.946670 0.645630 -1.032443 0.295772 1.507729 -2.030365 0.659677 0.703235 0.280045 0.268865 -1.305805 1.195240 1.528208 -1.744793 1.045019
3960 0.016191 0.404047 -0.814888 -1.005061 -0.662098 -0.322283 -0.468181 -0.136049 0.137196 0.495923 -0.266141 -0.066938 0.108549 -0.421490 0.965631 -0.296707 0.063216 -0.041086 0.116292 0.971675 0.115591 0.312635 -1.147698 0.116459 0.189244 0.103833 0.404949 0.063031 0.281789 -0.007499 -0.784200 1.031390
2813 -0.694359 0.313250 0.098598 0.574257 0.084477 -0.980062 -0.909622 0.146444 -0.016851 0.434184 -0.158747 0.774584 -0.250638 -0.635972 0.416592 -0.137502 1.008593 -0.275301 0.453532 0.373302 0.083872 0.246138 0.532471 -0.273267 -0.035241 -1.305453 0.987461 -0.089451 0.642259 0.336758 -0.645442 1.024022
1471 -0.888645 0.125364 -1.002848 -0.132229 -0.147637 -0.652145 -0.672331 -2.212605 0.469423 0.941640 -0.449183 0.609528 -0.344406 1.082723 0.408789 -1.145994 0.535241 0.749489 0.955204 -0.309062 1.084102 1.043548 -0.805276 -0.092881 1.922281 0.014758 1.426437 -0.577479 1.872392 1.990751 -0.760882 0.736703
186 0.658132 -0.336557 -0.114517 0.336680 -0.613433 -1.264698 0.019707 -0.242763 0.091037 -0.065749 -0.094260 0.647027 -0.286609 -0.089767 1.409762 0.606781 0.379457 0.020835 0.789002 -0.015434 0.455077 0.486527 -0.269220 0.119600 0.772014 0.244739 0.520906 -1.015059 0.279879 -0.132567 -0.775495 1.250097
70 -0.141678 0.506595 0.239975 -0.155217 -0.173744 -0.857197 -1.600315 0.301041 0.018257 -0.012771 -0.605626 0.674410 -0.514274 -1.152493 0.019077 -0.763029 0.184090 0.648260 1.149766 0.156120 -0.287269 0.334867 -0.134985 -0.055920 0.420292 -0.490217 0.321947 -0.172842 0.298367 0.223000 -0.235403 1.040264
3209 -0.387399 1.037263 0.328954 0.507498 0.165103 -1.549323 -0.490868 -0.240782 -0.654724 0.503006 -0.777942 0.174764 -0.380280 -0.409576 0.295948 -0.305101 -0.387993 -0.502124 -0.087395 -0.062958 0.290574 -0.779479 -0.558550 1.220178 0.235923 -0.094210 0.786841 0.731789 0.176828 0.064243 -0.744127 1.214592
133 -0.412021 0.885614 -1.098103 0.496563 0.521144 -1.364669 -0.859989 1.077091 -0.475748 0.264670 -0.397556 -0.483449 -0.025009 0.111321 0.500209 -0.213895 -0.037037 -0.011242 0.202199 0.412256 0.282384 -0.655350 0.081687 -0.377351 0.303299 -0.288962 1.264255 0.015141 0.408837 0.236977 -0.639051 1.054560
850 0.206474 -0.516401 0.301185 -0.048384 0.544840 -0.532967 -0.449241 -0.226288 -0.047694 -0.240134 -0.781407 -0.140129 0.188726 -0.524565 0.493420 -1.319912 0.850259 -0.457758 0.166112 0.307208 0.454347 1.144331 -0.861565 0.536197 -0.164577 -0.045619 -0.235647 -0.368272 0.935891 -0.309872 -0.105458 1.164642
2656 -0.206032 0.887758 0.059278 0.442354 0.262008 -1.585654 -0.331062 -0.004075 -0.853424 0.388837 -0.553700 0.185961 -0.386355 -0.513777 0.398637 -0.642417 -0.465620 -0.714976 -0.078256 0.003031 0.412462 -1.112921 -0.277553 0.980559 0.242122 -0.222431 0.308381 0.658644 0.657506 0.034855 -0.690700 1.078495
1005 0.013558 0.035727 -0.663300 -1.132070 -0.420324 -0.505140 -0.296171 -0.396001 -0.031090 1.064986 -0.272923 0.164975 0.276067 -0.868968 1.111764 -0.376561 0.671357 0.160259 -0.205884 0.803298 0.853298 0.580823 -0.828428 -0.403555 -0.278487 -0.071642 0.116412 -0.213897 -0.051131 0.178586 -0.772404 0.615287
4235 -0.415848 0.476482 -0.765490 -1.192522 -0.507790 -0.147030 -0.604962 -0.019482 0.180500 0.605297 -0.128096 -0.005077 -0.108231 -0.337306 0.976501 -0.391240 -0.019172 0.043951 0.161988 1.248500 0.014592 0.232852 -0.933503 0.256157 0.322651 0.092562 0.188326 -0.110560 0.636483 -0.024070 -0.650972 1.144679
1302 -0.325446 1.177293 0.058812 0.543655 0.058453 -1.542530 -0.435209 0.189530 -0.573421 0.370071 -0.811859 0.297932 -0.601000 -0.527045 0.174709 -0.577742 -0.239474 -0.638991 -0.076349 0.124577 0.121937 -0.802248 -0.232163 1.013660 0.371237 0.052386 0.706546 0.719166 0.135879 0.197558 -0.574804 1.279005
458 0.022843 -0.125988 -1.031716 -0.677344 -0.797785 -0.549499 -1.266060 -0.057658 -0.416514 -0.503257 -0.733989 0.182827 -0.047407 -0.492905 0.484406 0.067917 0.805512 -0.135700 0.199571 0.515812 0.184468 -0.206421 -0.526496 0.319167 0.543400 -0.093712 0.428366 0.366388 0.448143 0.274602 -0.957196 0.796715
4591 -0.362064 0.423601 -0.852507 -1.174676 -0.562443 -0.245966 -0.742349 0.128501 0.086579 0.679148 -0.109043 -0.076046 -0.180627 -0.362687 0.952970 -0.251920 0.214651 -0.007272 0.326212 1.141455 0.034631 0.100155 -0.897723 0.309000 0.196103 0.072561 0.201899 -0.206266 0.615020 -0.152599 -0.711550 1.244898
15 -0.602228 0.828812 -0.089404 0.204263 0.116737 -0.651541 -1.190635 0.151257 0.182624 0.248204 -0.794603 -0.156144 -0.022694 -0.136812 0.384738 -0.493828 -0.231672 0.477257 -0.054106 0.880184 0.018532 -0.394927 0.092952 -0.454374 0.099477 -0.123968 0.869146 -0.328410 0.435671 -0.896283 -1.120738 1.161112
1233 0.111786 -0.376113 0.620456 -0.818391 0.694190 -0.351741 -0.479684 -0.288375 0.237071 0.005825 -0.594042 -0.394514 -1.003853 -0.504133 1.414984 -1.641319 0.227424 -0.793370 0.214696 0.733368 0.730936 0.781977 -0.838161 0.269729 0.571689 -0.538176 -0.189620 0.016990 0.948547 -0.141001 -0.470320 0.522518
490 -1.027169 0.227335 0.151362 0.407333 -0.165239 -1.208986 -1.668257 -0.360515 -0.903544 -0.518297 -0.689596 0.190397 -0.361662 -0.231333 -0.353253 -0.730156 0.752467 0.406650 -0.356192 0.682768 -0.148414 0.634512 -0.888593 -0.883942 0.163705 0.404130 0.543422 -0.747072 0.679225 -0.123910 -0.608316 0.808732
3100 -0.781173 0.493976 -0.807286 0.324554 -0.158076 -1.292244 0.100359 1.176092 -0.746176 0.341117 -0.327187 -0.030362 0.589907 -0.342575 0.370834 -0.880291 0.129903 0.241521 -0.082137 0.756390 0.469263 -0.093468 -0.281198 0.058110 0.309879 -0.570776 1.579336 -0.122940 0.305985 0.248850 -0.188883 0.370699
991 -0.552463 0.328417 0.171998 0.455412 -0.221445 -1.586927 -0.959053 -0.652872 -0.046916 1.081235 0.308420 0.078646 0.851094 -0.051970 0.467406 -1.442092 -0.872662 -0.080349 1.792077 0.608624 2.207277 0.733987 -0.430288 -0.211163 1.407231 1.002266 -0.061501 0.986338 2.039410 0.798830 -1.485958 -0.123442
858 -0.263653 0.632632 0.235558 -0.269258 -0.015681 -0.881614 -1.882171 -0.495235 -1.217280 -0.434922 -0.560502 0.426653 0.048364 -0.520638 -0.022060 -0.810928 0.912785 0.569236 -0.440728 0.604339 -0.378758 0.770485 -0.497281 -0.409227 0.566087 0.103193 0.357899 -0.354103 0.473895 -0.050609 -0.315271 0.855895
3041 -0.011510 0.152981 -0.541743 -1.190614 -0.417301 -0.530848 -0.313939 -0.514406 0.025232 1.084952 -0.186320 0.261775 0.148681 -0.812060 1.178079 -0.269177 0.618259 0.253086 -0.216338 0.750991 0.671034 0.470751 -0.930422 -0.215576 -0.117416 0.172522 0.201406 -0.110199 -0.219061 0.445754 -0.696711 0.699870
123 0.060683 0.502609 -0.214594 0.059390 0.407738 -1.090149 -0.608673 -0.228963 0.705659 -0.495052 0.195331 0.605696 -0.442948 -0.840338 0.322832 -1.278081 -0.094838 0.497969 0.364715 0.356152 0.131322 0.254677 0.400126 0.363944 -0.044698 0.366694 0.821954 0.134050 0.548364 -0.317468 -1.385255 1.228147
251 -0.643593 1.210768 -0.276799 -0.960473 -0.243442 -1.710784 -0.205719 -0.058051 -0.085180 -0.364440 0.350925 -0.057072 -1.596254 -0.088423 1.670224 -0.918233 0.926489 -0.114086 0.045570 -0.882021 1.296237 -0.016210 -0.217669 0.257705 0.458757 -0.516025 0.092375 -1.298594 0.115104 0.802541 -0.448438 -0.341468
1135 -0.494411 -0.294314 0.090466 0.268524 0.256986 -1.176776 -0.576784 -0.333518 -0.368912 0.064538 -0.449359 -0.477980 0.357103 -0.507640 0.200605 -1.222644 0.988229 -0.554039 0.582229 -0.159411 1.232422 0.770484 -1.018270 0.532282 0.205586 0.010964 -0.043599 0.122578 0.667008 -0.508104 0.476432 1.246310
345 1.089180 0.921686 0.283737 1.151756 -0.992608 -1.957293 0.267489 -0.153373 -0.671995 -0.003582 0.349384 0.136422 -0.523216 -0.089834 1.406389 -0.049554 -0.043835 0.540088 0.919075 -0.322547 0.703700 1.307759 0.258075 -0.014948 0.655000 -0.182877 0.343637 -1.201992 1.886766 -0.244685 -0.669921 0.588468
3405 0.003117 0.520328 -0.986208 -0.328947 -0.117860 -0.627750 -0.302860 -0.307058 -0.009507 0.919935 0.164566 -0.389048 -0.279772 -0.960230 0.773843 -0.194127 0.345750 0.178571 0.850062 0.415980 0.148231 0.567595 -0.558686 0.091834 -0.780172 -0.303847 -0.196584 0.261672 0.087991 0.327546 -0.528621 1.507942
1254 -1.022717 1.042949 -0.253659 0.064210 -0.780336 -0.533996 -0.630818 0.217113 0.172824 0.663829 -0.830234 -0.385481 0.344885 -0.644511 0.439043 -0.651827 -0.963216 0.220802 -0.393622 1.237516 -0.175625 -0.050605 -0.511456 -0.100861 -0.004746 -0.583589 1.116641 0.128857 0.914335 -0.275220 -0.295015 0.473594
727 -0.207478 0.894860 -0.010183 -0.827173 0.312638 -1.041331 0.542781 -1.084106 -0.658674 1.160366 -0.048684 0.413702 -0.205954 0.110572 1.056368 -0.446281 0.928466 0.525747 -0.455393 0.744448 0.245259 0.434305 -0.942386 -0.947923 0.088489 0.273003 0.083739 0.196524 0.485691 -0.277780 -0.502589 -0.095074
1866 -0.651615 1.366574 -0.522672 0.027292 0.680468 -0.965773 -0.735295 -0.035547 -0.900064 0.926859 -1.293299 0.525867 -0.143714 -0.223967 1.508021 -0.467040 -0.801829 -0.020958 -0.303691 0.282154 0.641980 1.136287 -0.366316 1.078045 1.593724 0.762843 0.128210 -0.589990 0.218395 0.882762 0.178722 -0.516950
285 -0.072031 1.073608 -0.309136 -1.377350 -0.436649 -1.121377 0.185507 0.331519 -0.750855 0.424897 -0.535606 -0.636680 -1.162775 0.453741 0.855173 -0.734426 0.545258 0.786248 0.389042 -1.429140 0.517727 0.836434 -0.375741 0.987082 0.542873 -0.709514 0.274504 -0.455383 0.416599 0.678186 -0.429856 -0.023333
63 -0.291541 0.940759 0.171081 -0.715057 -0.526729 -0.648880 -2.342714 -0.458483 -0.281068 -0.254217 -0.304380 0.562216 0.269648 -0.754843 0.140873 -0.621292 0.965061 0.195727 0.047972 0.230904 -0.523343 0.700185 -0.390524 -0.341854 0.836716 0.064907 0.224372 -0.149104 0.496691 0.201768 -0.381497 1.191643
1521 -0.513897 0.469719 -0.905795 -1.609745 -0.341782 -0.495816 -1.098510 -0.187618 0.215354 0.792138 -0.334747 -0.409314 0.078807 -0.429453 0.749374 -0.231847 -0.245781 0.294442 0.108208 1.261268 0.356536 0.058051 -0.619448 0.446538 0.523338 0.249853 0.146655 -0.114800 0.775100 -0.192797 -0.872858 0.978580
346 1.034290 1.015362 0.266984 1.213033 -0.982088 -1.834672 0.206418 -0.103473 -0.630419 0.039429 0.350828 0.337250 -0.445390 -0.063208 1.439748 0.055512 0.001744 0.481521 1.006599 -0.371215 0.671260 1.371834 0.267761 -0.215205 0.678813 -0.140125 0.303598 -1.139183 1.883459 -0.270420 -0.718468 0.625445
481 -0.383635 1.041210 0.093291 0.570558 0.050251 -1.454661 -0.328657 -0.245048 -0.575045 0.296622 -0.784457 0.341701 -0.567040 -0.431289 0.260714 -0.628721 -0.333453 -0.528421 -0.035806 0.112163 0.163418 -0.777584 -0.366197 1.116953 0.372825 0.066965 0.692828 0.737421 0.174682 0.049295 -0.666676 1.203949
1059 -0.367331 1.068395 0.057525 0.449005 -0.025801 -1.511010 -0.236098 0.020118 -0.470478 0.427808 -0.777547 0.429345 -0.510553 -0.441984 0.139331 -0.602091 -0.195304 -0.693601 -0.252238 0.125295 0.295153 -0.685112 -0.197150 1.095705 0.347302 -0.085402 0.774186 0.783998 0.051935 0.135177 -0.539690 1.215238
2282 0.054264 1.760977 -0.045551 -1.263356 -0.665428 -1.732697 -1.131343 0.255263 -0.901949 0.755674 0.013744 -0.931252 -1.281151 -0.180708 1.423395 -0.598627 0.463791 0.973355 -0.633582 -0.894405 0.754254 -0.152936 0.061468 0.762125 0.106283 -0.141044 0.189935 -0.872049 0.334023 0.568410 0.000079 -0.276311
303 0.643638 0.424486 -0.917993 -0.514404 0.125686 -0.598383 -0.251236 -0.309139 -0.119347 1.027431 -0.155207 -0.145818 -0.255360 -0.948848 0.804256 -0.354099 0.559729 -0.376540 0.421165 0.781975 0.167070 0.826772 -0.610834 -0.062612 -0.404424 -0.275687 0.054475 0.177304 -0.049364 0.105926 -0.746633 1.056811
1126 -1.064840 0.590847 -0.355780 -0.523404 0.517307 -1.091615 -0.604872 0.220078 0.687166 0.308490 0.354172 0.314842 0.543010 -0.830079 0.744747 0.049782 0.304738 -0.891977 0.052021 0.885171 1.337570 1.744955 -0.649183 0.659881 -0.201225 0.544306 0.535000 -0.410885 0.126286 0.311910 -1.487572 0.353397
1117 0.833686 0.355134 -0.160343 -0.125862 -0.120152 -0.923717 -0.490704 -0.646135 0.131746 0.071011 -0.834699 0.039725 -0.118428 -0.514378 0.678493 -0.676340 0.370271 -0.250020 0.319445 0.614647 -0.073140 -0.310153 -0.478911 1.155910 -0.151774 -0.096071 0.914246 0.342790 0.801516 0.358285 -0.409895 0.716486
1339 0.734174 0.639880 0.001504 -0.870034 -0.588723 -1.440281 -0.686861 0.191658 0.519027 -0.043605 -1.411952 -0.496631 0.034705 0.684502 0.483634 -0.572675 0.380516 0.254681 0.566132 0.558734 -0.073305 1.254574 -1.431232 0.887306 0.058889 -0.677499 0.901698 0.012976 0.266265 0.609080 -0.914039 0.133374
672 0.123593 2.552882 -0.031766 0.538229 0.044947 -1.648601 -0.728994 0.920573 -0.633313 -0.589106 -0.916231 0.274689 0.082020 0.455851 1.753398 -0.019007 -0.220909 -0.739852 -0.299371 1.078382 0.709285 0.908742 -0.679495 -0.711114 0.421630 0.705293 -0.765575 -0.693678 0.645654 1.389040 -0.770771 0.114040
3253 -0.413590 0.499461 -0.650484 -1.311608 -0.537271 -0.605437 -0.641369 0.067618 0.153554 0.532701 0.083457 -0.266552 0.008703 -0.359709 0.591536 -0.496723 0.125438 0.075256 -0.159836 1.047783 -0.004452 0.020268 -0.978845 0.336520 0.189049 -0.030634 0.242687 0.063950 0.413082 -0.084067 -1.035996 1.201516
3461 -1.366340 1.177702 -0.460794 0.195050 -0.571293 -0.820221 -0.618358 0.652098 -0.111816 0.556019 -0.842557 -0.668477 0.359674 0.027863 0.573339 -0.608474 -0.742739 0.225164 -0.139974 1.071991 -0.030751 0.060078 -0.439613 0.226203 -0.192712 -0.850615 1.209637 0.205925 1.685827 -0.367751 -0.516454 0.127597
678 0.203372 0.345928 -0.113944 0.265795 -0.249252 -0.592165 -0.746780 -0.234766 -0.280105 0.432995 -0.543762 0.399926 -0.615646 -0.741652 0.359788 -0.373685 0.001239 -0.228718 -0.095649 0.346239 0.802615 -0.405607 -0.151969 0.262746 -0.770862 -0.196630 0.572118 0.589636 0.602180 -0.077023 -0.568030 1.478956
45 0.048219 0.964897 -0.433565 -1.302086 -0.870569 -1.121823 0.073935 0.320878 -0.417544 0.857640 -0.488902 -0.228294 -0.883322 -0.323881 1.520856 -0.591442 0.832444 0.725058 -0.615061 -1.255949 0.820119 -0.073798 -0.029861 0.691051 0.638055 -0.037658 0.211727 -0.747608 0.623962 0.908796 -0.517720 -0.168279
1118 0.610898 0.355719 -0.138269 -0.171077 -0.015132 -1.105732 -0.754855 -0.595255 0.334962 0.201489 -0.636738 0.257405 -0.072037 -0.318651 0.611813 -0.886019 0.364187 -0.139666 0.444502 0.641012 -0.292047 -0.323125 -0.435020 1.120835 0.138637 -0.177008 0.931706 0.160215 0.628137 0.228913 -0.474153 0.901423
452 -0.108968 0.006925 -0.643154 -0.244773 -0.147045 -1.117179 -0.330504 0.121009 -0.312651 -0.239488 0.580652 -0.430114 -0.435878 -1.145634 0.506692 -0.990220 -0.399456 0.872629 0.255685 1.117531 0.284671 0.169236 -0.558552 0.353513 0.262060 -0.189187 0.694244 0.327169 0.227227 0.349728 -0.322414 1.059007
2973 -0.410160 1.049901 -0.122852 0.717033 0.217242 -1.569781 -0.534390 0.018297 -0.534799 0.518623 -0.731913 0.108602 -0.668475 -0.195626 0.294210 -0.586684 -0.224140 -0.434436 -0.045273 -0.041680 0.210309 -0.892771 -0.459184 0.887443 0.151934 -0.183762 0.834381 0.779819 0.010497 0.107375 -0.738368 1.086937
619 0.119721 0.647368 0.649959 -0.620986 -0.163065 -0.892893 -2.132335 -0.515410 -0.708676 -0.111621 -0.826869 0.148165 0.126433 -0.433984 0.152257 -0.807882 0.894481 0.293728 -0.064935 0.147987 -0.650255 0.658946 -0.337032 -0.446073 0.637123 0.151013 0.160593 0.078442 0.200771 0.184813 -0.315429 1.282400
617 -0.190634 0.648687 0.397698 -0.537773 -0.367902 -0.888985 -2.315032 -0.394841 -0.855179 -0.119705 -0.534260 0.701226 0.081970 -0.677642 0.145906 -0.747366 0.625705 0.253282 0.232177 0.208981 -0.450972 0.865122 -0.474503 -0.236981 0.806863 -0.102269 0.236650 0.037105 0.155633 0.166423 -0.183361 0.947653
812 -0.038660 0.165877 -0.284452 -0.598876 -0.266473 -0.671604 -1.804859 -0.477964 -0.888207 -0.347246 -0.423326 0.451122 -0.000935 -0.736044 0.298661 -0.579379 0.624711 0.080973 0.036496 0.530195 -0.357648 0.427127 -0.380234 0.126996 0.525140 0.334187 0.197220 0.303139 0.227366 0.050135 -0.454552 0.943023
1170 0.015821 1.332019 -0.426525 -1.771780 -0.586094 -1.059525 -0.015469 0.078546 -0.870340 1.219797 0.217301 0.077128 -0.496763 -0.453818 1.306437 -0.487117 1.116590 0.625257 -0.620958 -0.658941 0.906816 0.422017 -0.527379 0.523258 0.053709 -0.244890 0.001560 -0.632587 0.197729 1.006539 -0.350686 -0.199062
1686 -0.629183 0.384743 -0.448303 -0.424336 0.077932 -1.270754 -0.442987 -0.249328 0.297918 -0.316442 -0.449647 0.314173 -0.996355 -0.758785 1.217615 -1.603848 0.687765 -1.293278 0.490732 0.278414 1.481767 0.378988 0.126599 -0.003129 0.390858 -0.698681 0.268048 -0.663652 -0.038889 0.120776 -0.633324 -0.221877
2713 0.419486 0.075410 0.131043 0.604079 -0.347981 -1.491125 -0.302329 0.172963 -0.496851 0.445323 0.112967 0.142427 -0.405053 -0.648279 1.216113 0.278492 0.205464 0.414189 0.687319 -0.445944 0.262535 0.206072 0.058121 0.058671 0.759147 -0.093558 0.846846 -0.989976 0.386713 -0.656465 -1.000059 0.779265
3544 -0.241800 0.329167 -0.871530 -1.136643 -0.597803 -0.350361 -0.652082 -0.100040 0.168354 0.569227 0.018342 0.052480 -0.033908 -0.320608 1.085573 -0.471868 0.119055 -0.032250 0.231760 0.955432 -0.027824 0.276870 -1.061332 0.315132 0.028462 -0.080222 0.441906 -0.174863 0.279501 -0.045980 -0.898624 1.169550
1014 0.662437 0.781745 0.633151 -0.936658 0.200398 -0.578954 0.678818 0.348331 -0.639237 0.455890 -1.106565 0.196719 -1.034533 0.450865 1.474437 -1.278500 -0.242742 -0.893803 -0.069952 1.151272 0.923345 1.554290 0.105633 -0.652119 1.561364 0.507912 0.886767 0.012369 2.003932 -0.157088 -0.988512 -0.001126
726 0.103274 0.386425 0.190095 -0.008295 -0.492938 -0.509022 -1.016692 0.103555 -0.263775 0.282040 -0.445649 0.647353 -0.274554 -0.573310 0.599613 -0.641014 -0.421264 -0.445499 -0.374141 0.255241 0.831778 -0.531485 -0.288522 0.326209 -0.888347 -0.535594 0.650692 0.142711 0.847529 0.389844 -0.143465 1.570431
176 -0.385417 1.189720 0.014949 -1.375541 -0.825013 -1.126402 0.002383 -0.059003 -0.879972 0.380095 -0.310705 -0.715770 -0.879791 0.378188 0.703562 -1.293840 0.633600 0.717698 0.354881 -1.034993 0.480750 0.465762 0.245597 0.986119 0.936389 -0.579230 0.253751 -0.862495 0.481415 1.046316 -0.534566 0.138497
2450 -0.834522 -0.141150 0.029773 0.367939 -0.476495 -1.370670 -1.027349 -0.404412 -0.496151 -0.675280 -0.976524 0.169545 -0.842782 -0.368743 -0.233579 -0.681916 0.812652 0.092693 -0.351957 0.450531 -0.182970 0.785544 -1.540522 0.273865 -0.128848 0.481077 0.169997 -1.622294 0.808041 0.190157 -0.802987 0.663441
2518 0.164504 0.397058 -0.660461 0.160930 0.543766 -2.299985 0.177773 0.607599 -0.303699 0.194882 0.267125 -0.988804 0.922652 -0.392516 1.102212 -0.845587 0.591122 -0.573996 0.786402 -0.172569 0.275825 0.385994 -0.197059 0.145703 -0.700818 -0.229450 -0.193410 -0.452718 0.899312 0.563243 -0.439392 1.301285
413 -0.138253 0.837576 0.234083 0.412262 -0.967017 -0.137214 -1.084656 0.544770 -0.477851 1.392437 0.377876 0.667461 -0.277959 0.202757 0.922503 -0.937814 0.479518 -0.979289 -0.306327 -0.784263 0.958601 0.580293 -0.323937 -0.012603 0.650343 0.117929 0.588775 -0.177900 0.182790 -0.796906 -1.842274 2.043655
835 -0.410113 0.404577 -0.242064 -0.561847 -0.139962 -1.254498 -0.747887 -0.569023 0.043863 0.514786 -0.807635 0.289421 0.064799 -1.182606 -0.427096 -0.146214 -1.092926 -0.769799 -0.074812 -0.398862 0.478137 0.604198 0.276433 -0.681822 0.410943 -0.153285 0.856301 -0.013552 1.836484 -0.578442 -0.055605 0.815999
87 -1.016181 1.608990 -0.233180 -1.475760 0.924003 -0.796090 -0.001738 0.275955 -0.422205 -0.386768 -0.854506 0.217427 -0.545075 -0.324622 1.363861 0.802425 1.148561 -0.955826 0.571688 -0.563820 0.545945 1.330151 -0.334286 -0.182104 0.253954 0.803814 0.785226 0.839055 0.287237 0.524280 -1.401118 1.309972
874 -0.427007 0.861852 0.027943 0.542363 0.092802 -1.586637 -0.291849 -0.140472 -0.603844 0.582935 -0.839333 0.294772 -0.595208 -0.425165 0.317571 -0.738464 -0.344350 -0.606744 0.019536 -0.031469 0.170361 -0.929505 -0.195041 1.176683 0.231300 -0.057752 0.609443 0.571032 0.196083 0.191087 -0.714823 1.274823
407 -0.706514 1.274110 -0.611147 0.284085 0.452173 -0.650568 -0.789583 0.209457 -1.033731 0.861004 -1.247224 0.499188 -0.144631 -0.240431 1.287657 -0.509878 -0.677778 0.258368 -0.271630 0.427388 0.775659 1.260628 -0.494846 1.062147 1.564179 0.599690 0.499530 -0.363709 0.237375 0.957044 0.256138 -0.554315
199 -1.690549 1.425131 -0.942795 0.799771 -0.124894 -2.269579 -0.243613 0.812423 0.282122 0.899466 -0.051025 0.948393 -2.078119 0.608242 0.927957 0.488203 -0.164988 -0.982659 0.004291 -0.506185 0.301410 2.045181 -1.290690 -0.005741 0.501187 0.192777 0.230154 -0.434100 0.058340 0.213985 0.184779 1.047796
842 0.529552 -0.249256 -0.130870 -0.016888 -0.037234 -1.972303 0.225003 -0.240227 -0.565464 0.018314 0.915409 -0.738475 -1.063339 -0.748980 1.413291 -0.115088 0.062533 0.739533 0.432487 -0.138291 0.267756 0.520210 0.037731 0.341003 0.524489 -0.102914 0.126405 -0.873408 0.853003 0.454734 -0.662421 1.215651
2736 -0.474369 0.878301 0.251955 0.424556 0.044759 -1.556411 -0.487132 -0.008702 -0.620075 0.463931 -0.662216 0.165298 -0.558992 -0.408085 0.389840 -0.554404 -0.441661 -0.701686 -0.012884 -0.013397 0.197779 -0.841126 -0.348018 1.131913 0.233861 -0.078770 0.704216 0.679989 0.105977 0.098324 -0.794209 1.235331
943 -1.708616 0.723589 0.339607 -0.090572 -0.310428 -1.415258 0.008983 -0.062289 -1.134460 -0.211384 -0.203742 -0.747166 -2.115554 1.404147 2.058362 0.315859 1.150939 0.360081 0.294457 1.532182 0.699880 1.387390 -0.398469 0.411531 1.601660 -0.549724 1.897028 -0.251471 0.913864 0.688758 -0.103969 1.113955
4644 -0.530156 0.997376 0.198482 0.483181 0.141581 -1.342691 -0.396338 -0.071794 -0.481856 0.607208 -0.822030 0.212837 -0.512208 -0.352554 0.371582 -0.652370 -0.417211 -0.634187 -0.002546 -0.007262 0.142544 -0.911706 -0.453799 1.085445 0.248704 -0.048910 0.770555 0.807771 0.273724 0.028044 -0.788465 1.288258
1562 -0.908191 0.349052 -0.327273 -0.244879 -0.509504 -1.844490 -0.695343 -0.616244 -0.324383 0.628374 -0.809487 0.132386 0.475038 -1.452129 -0.216524 -0.169544 -1.441517 -0.669333 -0.342423 -0.122419 0.207364 0.752146 -0.318447 -0.327144 0.239581 -0.123624 0.934115 -0.064535 1.828759 -0.089473 0.058109 0.467950
760 -0.983050 -0.345180 -0.519954 -0.021369 -0.362945 -1.445188 0.424539 0.321237 0.335623 0.873723 -1.193153 0.242384 0.636392 -0.569847 0.458624 -1.101458 0.967783 -0.233593 0.123597 0.206993 -0.078462 0.707533 0.435077 0.689307 0.205424 0.097005 1.308624 -0.153942 0.565967 -0.170424 -0.005162 0.778125
1567 -0.697999 0.395745 -0.993525 -1.539623 -0.213450 -0.498620 -0.986298 -0.111674 0.163860 0.835224 -0.251406 -0.478331 0.099006 -0.483952 0.892780 -0.152448 -0.119117 0.082930 0.160403 1.173196 0.168520 0.081845 -0.777039 0.406848 0.508203 0.235288 0.171669 -0.168979 0.732053 -0.336307 -0.800973 0.960424
405 0.028683 1.064230 0.297243 -0.389723 0.699538 -1.448768 0.340311 -1.056034 -0.534641 1.040596 -0.560561 0.351113 -0.207558 0.109122 1.244604 -0.600510 1.335020 0.551365 -0.236632 0.855515 0.104309 0.500770 -0.996515 -1.003662 0.306497 0.299158 0.272356 -0.006751 0.638172 -0.218058 -0.584499 -0.378392
742 -0.461741 0.897549 0.149780 0.551236 0.116246 -1.486079 -0.470298 -0.216700 -0.433412 0.520138 -0.704068 0.220855 -0.489213 -0.483494 0.259510 -0.616708 -0.206599 -0.765884 -0.055082 0.045534 0.247976 -0.806416 -0.493808 1.059056 0.107652 0.028388 0.508806 0.702306 0.082566 0.134622 -0.610806 1.220135
3406 -0.527418 1.068607 0.221767 0.376149 0.019487 -1.561848 -0.443290 0.007191 -0.512511 0.476832 -0.726173 0.238112 -0.619927 -0.529780 0.427003 -0.427607 -0.267531 -0.621858 -0.020160 0.124852 0.235156 -0.915706 -0.245672 1.025847 0.188967 -0.124919 0.697734 0.695931 0.104230 0.069377 -0.727276 1.243560
1324 -1.184347 1.468779 0.594417 -1.347284 0.343177 -0.939515 0.100188 -1.437420 -1.232551 1.445068 0.352202 -0.218019 -0.085595 -0.642678 1.055902 -0.275369 0.623125 0.236756 -0.064291 0.287571 0.298460 1.033514 -1.606218 -0.335592 -0.287734 0.065755 0.984981 0.172435 0.216151 0.078275 -0.350922 0.165062
966 -0.217190 -0.301926 -0.293283 0.175617 0.157998 -1.895602 0.456044 -0.456486 0.136393 -0.104940 1.144400 -0.535591 -0.767045 -0.583715 1.226277 -0.457367 0.303474 0.515288 0.686875 0.108690 0.218255 0.559617 0.165950 0.082135 0.273258 -0.159547 0.046301 -0.275141 0.826225 0.792159 -0.786136 1.731752
37 0.129282 0.387861 0.293623 -0.040024 0.164281 -0.482257 -1.002447 0.084423 0.349802 0.222534 -0.376047 0.386698 -0.147195 -0.958794 0.368056 -0.944660 -0.084969 0.196133 1.173648 0.211975 -0.027900 0.136341 0.163096 0.134908 0.492031 -0.552924 0.955085 -0.246901 0.842328 -0.437912 -0.584522 1.077921
368 0.249621 0.111803 -0.404611 0.697471 0.323796 -0.963279 -0.910195 -0.759959 0.091800 1.292594 -0.211699 0.770071 -1.129793 0.582704 1.276410 -0.281499 0.442010 -0.816481 0.278900 -0.128653 -0.111531 2.003738 0.139268 0.471444 -0.811941 0.076448 0.297775 -0.216929 1.795372 0.879035 -2.172560 -0.157583
1026 -0.541191 0.958152 0.151845 0.539158 0.404022 -1.559397 -0.536883 0.037659 -0.534189 0.427925 -0.839545 0.217798 -0.512891 -0.471412 0.313119 -0.712690 -0.411100 -0.595053 -0.057210 -0.064672 0.151876 -0.844887 -0.368100 1.143404 0.250905 -0.106648 0.552870 0.730825 0.290568 0.254047 -0.652364 1.238002
5604 -0.346487 1.008846 0.127968 0.443658 0.254194 -1.520970 -0.367511 -0.159277 -0.565655 0.469099 -0.833921 0.217787 -0.621641 -0.435285 0.325451 -0.519498 -0.367178 -0.638662 -0.115975 0.044773 0.183285 -0.836269 -0.510818 1.158612 0.108711 -0.094918 0.767795 0.718832 0.273508 0.059173 -0.800691 1.264206
875 -0.488580 1.016633 0.244656 0.451679 0.183123 -1.560443 -0.433419 -0.010488 -0.388908 0.410851 -0.799529 0.323036 -0.479298 -0.390677 0.302940 -0.698007 -0.180354 -0.567034 0.057127 -0.026418 0.237060 -0.943057 -0.438976 1.155331 0.191355 -0.015256 0.497328 0.683410 0.078144 0.171815 -0.771448 1.283814
4183 -0.626448 0.735275 -0.920505 0.440738 0.075989 -1.314200 -0.252094 1.201600 -0.879676 0.202205 -0.149034 -0.354694 0.472366 -0.427241 0.633047 -0.456118 -0.105266 -0.384905 0.213911 0.263809 0.377412 -0.674778 -0.072215 -0.183542 0.060533 -0.387370 1.523013 -0.078687 0.711300 0.630856 -0.435072 0.814911
951 -0.485083 0.969790 0.242488 0.472688 0.123512 -1.573008 -0.403579 -0.026882 -0.631087 0.571473 -0.685532 0.170650 -0.533312 -0.546253 0.417179 -0.538494 -0.309743 -0.626831 -0.081229 0.088851 0.122086 -0.942477 -0.323947 1.048870 0.145172 -0.086033 0.676795 0.727555 0.204677 0.228017 -0.575562 1.261341
3417 -0.496051 0.933035 0.160607 0.405850 0.071801 -1.538823 -0.509057 -0.082786 -0.641526 0.577578 -0.765901 0.297731 -0.436182 -0.340769 0.342860 -0.441444 -0.313695 -0.631115 -0.026436 0.060663 0.288664 -0.889114 -0.333530 1.056150 0.266686 -0.145387 0.632138 0.733478 0.122444 0.088960 -0.690546 1.197794
2411 -0.480818 0.989706 0.280471 0.473778 0.196939 -1.520655 -0.462639 -0.213573 -0.602148 0.439231 -0.866075 0.187048 -0.635406 -0.442142 0.361306 -0.607571 -0.367174 -0.496217 0.077265 0.060091 0.158628 -0.795661 -0.487345 1.088208 0.182931 -0.050661 0.640438 0.761795 0.116069 0.062688 -0.741837 1.286052
693 0.281091 -0.510576 0.100271 -0.283140 0.435330 -1.851681 0.258622 -0.600844 -0.415059 -0.258521 0.778185 -0.800828 -1.146844 -0.600666 1.201228 -0.500095 0.058979 0.366905 0.474140 0.396060 0.305781 0.673514 -0.374773 0.380545 0.372320 -0.120238 -0.158698 -0.411355 1.177484 0.563117 -0.775975 1.607900
136 -0.546852 0.624457 -0.524368 -0.303361 0.744839 -0.474487 -0.350334 0.125876 0.480200 0.320372 -0.531854 0.643254 0.678926 -1.089364 0.923007 -0.904081 0.347732 -0.339166 0.114310 0.614695 0.901646 0.630283 0.333792 0.503048 0.278305 -0.167741 0.304498 -0.244847 -0.330809 0.593784 -1.466193 1.132000
2744 -0.789122 1.407430 1.063288 -0.361006 -0.112272 -1.003255 0.954661 -0.034539 -1.865770 0.262535 -0.443970 -0.755936 -0.910204 -1.753416 1.868863 -0.245987 -0.072806 -1.116274 0.963831 -0.095137 1.294999 0.164909 -1.735509 -0.283535 1.424509 -0.113307 0.582211 0.172894 1.268129 1.614782 -0.383968 0.538245
2907 0.241269 0.591392 -0.785428 -0.393526 -0.220497 -0.552115 -0.470618 -0.454038 -0.165602 0.891464 -0.077419 0.025230 -0.329759 -1.275939 0.950774 -0.101290 0.317184 0.075291 0.499992 0.585963 0.188107 0.615183 -0.502886 0.100781 -0.423091 -0.280534 -0.148906 0.253670 -0.012128 0.153418 -0.573046 1.363943
790 -0.446705 1.017153 0.331643 0.481973 0.078819 -1.494259 -0.469780 -0.141347 -0.727611 0.445474 -0.740005 0.226131 -0.513424 -0.457804 0.431593 -0.626787 -0.291858 -0.604929 0.100589 0.071014 0.269926 -0.898174 -0.457508 1.045800 0.268391 0.023733 0.690675 0.608699 0.011127 0.157001 -0.586608 1.210062
758 -0.280325 1.545812 -0.536114 -0.931185 1.039873 -1.251213 0.169130 -0.451709 0.191799 0.731662 -1.419730 -0.628036 -0.765308 0.763211 0.943642 0.226650 1.032378 0.328996 0.441830 -0.324349 -0.029876 0.755695 -0.814247 -0.434225 0.093864 -0.142778 0.712370 1.011912 0.440073 -0.157957 -0.750874 0.139411
1272 -0.255858 0.435751 -0.807317 -1.201460 -0.367890 -0.951565 -0.617953 -0.708334 -0.158525 1.124575 0.047507 0.743977 0.131609 -0.995894 1.041088 -0.086508 0.688817 0.448534 -0.296768 0.821781 0.764001 0.248773 -0.711077 -0.036248 -0.181468 0.189139 0.099029 0.155556 -0.161023 0.592136 -0.536273 0.443776
3458 -0.199676 0.520211 -0.934369 -0.964550 -0.516774 -0.218936 -0.620156 -0.203952 0.041757 0.435190 -0.150138 0.041820 0.153539 -0.373953 0.892594 -0.550000 0.027601 -0.201901 0.110773 0.952579 -0.052117 0.246643 -1.009060 0.197266 0.001525 -0.214491 0.312925 -0.020161 0.353732 -0.005442 -0.742674 1.085170
1168 0.565739 0.012431 -0.083925 -0.374654 -0.141972 -1.000928 -0.448404 -0.477204 0.545003 0.714256 -0.592064 -0.046928 0.134345 -0.221323 0.602639 -0.742156 0.580804 -0.401170 0.105361 0.739600 -0.233070 -0.084569 -0.321834 1.199517 0.002800 -0.079710 0.643548 0.503927 0.808772 0.087871 -0.467369 0.803674
640 -1.060710 0.257874 -0.597847 -0.091397 0.090094 -1.044474 0.128956 -0.060017 -0.026161 0.610538 -0.380393 0.215794 0.377678 -0.988983 0.381650 -1.160487 0.952803 -0.945965 0.739727 0.114611 1.646062 0.842976 -0.189502 0.444009 0.318490 -0.709070 0.299724 -0.366504 -0.179593 -0.292190 -0.470547 0.663705
1852 0.264962 -0.083145 -0.377021 -0.031824 0.654870 -2.427989 0.268838 -0.269597 -0.375630 -0.145469 0.836914 -0.945500 -0.372012 -0.831156 1.213415 -0.524766 0.261009 0.387999 0.486786 -0.012844 0.164344 0.342601 -0.294994 0.375719 0.036866 0.191883 -0.245546 -0.669526 0.808112 0.742510 -0.693794 1.562580
1171 -0.440216 -0.056513 -0.570572 -0.063514 -0.032867 -1.510433 -0.942778 -0.421306 -0.054278 0.672731 -0.745704 0.201844 0.207007 -0.974193 -0.209757 -0.437899 -1.102943 -0.828760 -0.031968 0.003814 0.035946 0.802013 -0.485626 -0.404740 0.254595 0.228552 1.029157 -0.135504 1.847932 -0.217273 0.449636 0.384111
1240 -0.216153 0.552063 0.231104 -0.882067 -0.269892 -0.964430 -2.358649 -0.443818 -0.867823 -0.118566 -0.613620 0.442165 0.014364 -0.663641 0.132483 -0.692003 0.818497 0.313571 0.105508 0.240658 -0.563333 0.735138 -0.168850 -0.333122 0.631018 -0.139881 0.187846 -0.035455 0.346399 0.200962 -0.299771 1.042373
700 -0.675659 0.498518 0.373215 0.234517 0.033267 -0.999022 -1.265208 -0.291578 -1.244177 -0.421228 -0.605405 0.222968 -0.003277 -0.416373 -0.109083 -0.888832 0.665308 0.631927 -0.456547 1.043876 0.054396 0.522657 -0.736669 -0.835912 0.506109 -0.060380 0.867690 -0.508993 0.589234 -0.434288 -0.620269 0.708012
1498 -0.859913 0.219937 0.016295 0.008204 0.509451 -1.565339 -0.752029 0.236237 0.144540 1.723103 -1.687229 0.103993 0.447435 0.079842 0.148979 -1.776421 0.649753 -0.439121 0.217832 -0.606725 0.240070 -0.061782 -0.566268 0.057065 -0.222093 0.617764 0.196239 0.593364 0.559306 1.418995 0.208172 0.753891
1236 0.426568 -0.322015 0.269692 1.051868 -0.161323 -1.180281 -1.219493 -0.143012 -0.217332 0.961374 -0.185792 -0.446078 -0.130348 -0.992974 1.160366 -0.767910 0.462082 0.976215 0.028596 -0.715010 0.877352 0.235677 -0.050143 0.548657 0.258486 0.650028 1.149635 -0.329928 0.592069 -0.607135 -0.698968 0.677430
873 -0.344928 1.014593 0.263100 0.560563 -0.197086 -1.558051 -0.392416 -0.133545 -0.526126 0.566432 -0.881567 0.274233 -0.521899 -0.574646 0.367214 -0.595426 -0.272644 -0.548837 -0.008738 0.020926 0.268735 -0.995370 -0.473137 0.942313 0.260114 -0.004984 0.680691 0.706079 0.031002 -0.023018 -0.789477 1.212940
2057 0.213039 0.861846 -0.039328 -0.478163 -0.382172 -1.445398 -0.590903 0.315405 0.141691 -0.049261 -1.121777 -0.205611 0.730715 0.847731 0.405328 -0.368644 0.066205 0.244539 0.721949 0.722942 0.111736 1.366133 -1.561467 0.479767 0.430546 -1.228413 1.302339 0.039964 0.780098 0.530729 -0.631676 -0.326503
55 -0.544487 0.657559 -0.272916 -1.354653 -0.828388 -1.480146 -0.006542 0.137202 -0.837686 1.102981 -0.571430 -0.490220 -1.404008 0.520096 0.579416 -1.420880 0.041956 0.870249 0.411519 -1.256383 0.584441 0.736886 -0.457554 1.226390 1.157377 -0.857260 -0.235706 -0.558163 0.228642 0.584685 -0.223399 0.431332
2143 -0.160443 0.922646 -0.025707 0.106987 -0.385749 -0.695257 -0.845207 0.112055 0.079111 1.240246 -1.158999 0.408532 -0.261352 -1.518939 -0.135860 -0.781313 0.262380 -0.101173 1.321799 0.271677 0.605813 0.291366 -0.058217 0.011075 -0.332124 -0.461925 0.099134 -0.334330 0.083717 -0.100236 -0.648148 0.707660
864 0.704586 0.163425 -0.060438 -0.264510 -0.233657 -1.114031 -0.687229 -0.472163 0.279679 0.188893 -0.715859 0.070862 -0.220819 -0.447127 0.500764 -0.780250 0.462313 -0.270258 0.310566 0.651550 -0.085711 -0.469078 -0.477927 0.960232 0.147668 -0.217066 0.811891 0.314232 0.690573 0.335588 -0.439986 0.824673
2294 -0.529460 1.367518 0.260582 -1.399966 -1.082589 -1.028808 -0.169851 -0.116034 -0.770827 0.203328 -0.318996 -1.035909 -0.528596 0.374645 1.095107 -1.712224 1.020489 0.682674 0.800291 -0.702054 0.162680 0.802866 0.639314 0.661816 0.854819 -0.214773 0.666988 -0.942285 0.291090 1.151526 -0.570800 0.300254
3269 0.033731 2.448069 -0.165412 0.514417 0.340008 -1.523566 -0.886197 0.720149 -0.779811 -0.284990 -1.102642 0.373675 0.083530 0.391049 1.827857 -0.006680 -0.492482 -0.727435 -0.285830 0.956774 0.685167 0.940593 -0.556258 -0.260315 0.766975 0.849904 -0.731460 -0.761526 0.512063 1.358109 -0.475881 -0.172871
286 -0.564833 0.876014 -0.079265 -1.292981 -0.734146 -1.387690 -0.048750 -0.022346 -0.718882 0.720849 -0.197711 -0.562004 -1.252749 0.558698 0.724977 -1.149198 0.323449 0.868253 0.169942 -1.178835 0.534238 0.462979 -0.117549 0.995778 0.903405 -0.820913 -0.108791 -0.710853 0.319942 0.617609 -0.411928 0.185427
1178 -1.047807 0.717135 -0.208777 -0.387277 0.435946 -1.098545 -0.716963 0.388447 0.600766 0.315487 0.255293 0.462109 0.678462 -0.802952 0.707339 0.319011 0.089803 -0.847016 0.136606 0.931916 1.157085 1.663586 -0.565573 0.812316 -0.067956 0.628002 0.697369 -0.178117 0.244650 0.430134 -1.416684 0.504912
1173 -0.011829 -0.166829 -0.401569 0.061859 0.411887 -2.077258 0.357588 -0.670290 -0.430982 -0.123787 0.963550 -0.805483 -0.773342 -0.687859 1.142889 -0.260555 0.126580 0.555395 0.365324 0.364302 0.287060 0.605502 0.214009 0.270026 0.344032 -0.024304 0.105822 -0.398446 0.796380 0.743489 -0.749712 1.583068
818 -0.042685 0.077424 -0.523673 0.290084 0.221577 -1.826749 0.157227 0.106777 0.102641 0.538216 0.393935 -0.661632 0.425056 -0.450586 1.014242 -0.316359 0.803140 -0.385195 1.132993 -0.420911 -0.070387 0.595173 -0.351408 0.227240 -0.887440 -0.286029 -0.369593 -0.232479 1.052487 0.624558 -0.466416 1.772384
1317 0.011207 0.734235 0.212750 0.010677 0.244903 -0.617186 -0.971928 0.400069 1.180304 0.032551 -0.209402 0.487577 -0.403967 -0.867159 0.618017 -0.912208 0.232425 0.083194 0.356948 -0.048163 0.009468 0.569627 0.254669 -0.244216 0.173869 -0.318515 1.021076 0.355826 0.254321 -0.495448 -0.856373 1.143530
2811 -0.486206 1.352621 0.213929 -1.374776 -1.205639 -0.985758 -0.268037 -0.055713 -0.799717 0.165942 -0.327820 -1.011031 -0.421777 0.286750 1.204955 -1.785281 1.115259 0.593454 0.671030 -0.759971 0.238393 0.693676 0.755126 0.690750 0.853871 -0.206755 0.672645 -0.965525 0.362094 1.229459 -0.582344 0.310713
3518 0.088462 1.160163 -0.467872 -1.390921 -0.625586 -1.000209 0.222884 0.400343 -0.782387 0.772069 -0.330018 0.049890 -0.944773 -0.334974 1.306711 -0.593948 1.001629 0.513588 -0.353975 -1.227897 0.759827 0.102996 -0.372519 0.754320 0.434599 -0.217092 0.179239 -0.666091 0.646612 1.158213 -0.345217 -0.198824
47 -1.403199 -0.118306 -0.866320 0.415092 -0.595655 -0.621041 -0.098881 0.206001 0.654615 0.709647 -0.836734 0.300872 0.326672 -0.307553 0.369385 -1.194328 0.996931 0.112516 0.228692 0.027557 0.104473 0.504413 0.614276 0.501227 -0.371976 0.077653 0.856914 -0.245353 0.899459 -0.075209 -0.037035 0.903610
1757 -1.109312 0.058703 -0.740065 0.180425 -0.166119 -1.072002 0.344369 0.377787 -0.165199 0.728545 -1.138073 0.397569 0.577931 -0.476158 0.172282 -1.220764 0.952071 -0.180589 0.002901 0.199842 0.466599 0.321001 0.326200 0.730809 0.331913 -0.096815 1.140959 -0.110874 0.399782 -0.058391 -0.057166 0.634324
1992 0.282767 0.205238 0.277959 0.702891 -0.596692 -1.382794 -0.399892 0.751495 -0.230325 1.130199 -0.133753 0.343556 0.177016 -0.669331 1.327102 -0.220403 0.289451 0.274173 0.583443 -0.524254 0.395952 0.033191 -0.360684 -0.223859 0.758481 -0.296703 1.376744 -0.946956 0.301129 -0.604917 -0.908009 0.878289
56 -0.475961 0.655786 -0.352210 -1.395241 -0.717507 -1.523410 -0.004390 0.249198 -0.782079 1.018616 -0.670811 -0.506066 -1.433085 0.581730 0.766733 -1.437923 0.140211 0.906500 0.514692 -1.272799 0.598760 0.759477 -0.508065 1.277720 1.156570 -0.895506 -0.117296 -0.608639 0.171036 0.610141 -0.194446 0.417218
1351 -0.506124 0.343697 -0.642937 0.073202 -0.053446 -1.081548 0.411003 0.521453 -0.219162 0.495003 -0.717489 0.148211 0.712917 -0.964630 0.381907 -1.247952 0.639116 -0.575200 0.439026 0.427164 1.209608 1.069413 0.151928 0.257320 -0.308413 -0.781328 0.384772 -0.753644 0.123616 -0.111504 -0.644203 0.741429
213 -1.343642 1.173697 -0.604541 1.184916 -0.965297 -0.960933 0.441508 0.555290 0.259457 0.750729 -0.444542 0.003581 -0.130551 1.443727 1.488976 -0.063034 1.154251 -0.314889 0.551835 -0.259335 1.633526 2.641897 -0.724342 -0.485268 0.813689 1.155416 1.421964 -0.473485 1.346975 0.794189 -1.837174 -0.733837
82 0.188746 0.648136 -0.979068 -0.491473 -1.072873 -0.458426 -1.227131 -0.101739 0.665748 0.600741 0.409673 -0.068360 -0.330679 -0.452038 1.258893 -0.752541 0.711986 -0.640085 -0.035055 0.883549 0.512929 0.290196 -0.153329 0.488199 0.395716 0.294104 0.450391 0.535797 -0.093355 -0.202672 -0.296574 0.477638
21 -0.274331 0.260713 -0.960285 -0.422430 -0.972058 -0.200567 -0.722745 -0.376623 0.695913 0.562399 -0.142855 0.227348 0.149957 -0.123767 0.933305 -1.035378 0.925699 -0.433296 0.045361 0.661352 0.003282 0.117618 -0.034679 0.726192 -0.083907 0.257853 0.454982 0.305389 0.299812 0.054358 -0.506866 1.002973
214 -0.634961 0.267901 -0.741466 0.111714 -0.225442 -1.243122 0.454755 0.889154 -0.419898 0.699618 -0.747027 0.239238 0.697322 -0.522206 0.136489 -1.263611 0.647606 -0.200903 0.163025 0.805456 0.651604 0.618740 0.259553 0.461211 0.271777 -0.525612 1.290225 -0.364027 0.193798 -0.206463 -0.206777 0.538048
878 -0.116011 0.774016 -0.709193 -1.093128 -0.319710 -0.430391 -0.705552 -0.241709 0.261014 0.280383 -0.239841 0.114628 0.378596 -0.364374 0.710073 -0.272958 0.481655 0.119469 0.187450 0.992861 0.029104 0.409151 -0.854767 0.370104 0.215362 0.230814 0.342648 -0.030272 0.185576 -0.030677 -0.439964 1.529323
2752 -0.064688 1.524719 -1.755264 0.119832 -1.279713 -2.217537 -0.502919 1.043820 -0.613371 0.988090 -0.727521 0.958006 -0.171075 1.119046 0.254633 -0.520941 0.389817 0.845181 0.368736 -0.256202 0.193225 1.444172 0.399823 -0.540484 1.893477 0.207543 -0.201464 0.338000 0.414190 0.443276 -0.855578 0.653990
2599 0.106303 0.101454 -0.621906 -0.688708 -0.687012 -0.356751 -0.206680 -0.137802 0.242097 0.961044 -0.095547 -0.256708 -0.331566 -0.942764 0.740256 -0.389927 0.582194 0.192640 -0.210458 0.918612 0.112235 0.479424 -0.995575 -0.198909 0.396715 0.572710 0.157682 0.176420 -0.071470 0.527166 -0.867587 1.062675
1235 0.380573 -0.089216 0.263150 0.913032 -0.279648 -1.173172 -0.752602 0.189355 -0.235701 0.947577 -0.073684 -0.198755 -0.022960 -0.903319 1.123747 -0.358288 0.450956 0.731633 0.463334 -0.793221 0.700270 0.125281 -0.087625 0.230676 0.662607 0.133500 1.127410 -0.778664 0.352978 -0.498314 -0.826541 0.770959
25 -0.754983 0.367537 -0.687401 -0.088874 -0.371690 -1.944824 -0.763794 -0.591092 -0.111050 0.992692 -0.538701 0.074549 0.347172 -1.404236 -0.281737 -0.290991 -1.231658 -0.985310 -0.279996 -0.065006 0.036527 0.826940 -0.410979 -0.187013 0.539897 -0.297337 0.982378 -0.128815 1.830494 -0.407057 0.125379 0.403215
2301 0.369789 0.648870 0.438839 -0.427889 -0.378502 -0.792033 0.594767 0.911564 -0.616127 0.063666 -0.349315 0.873833 -1.660160 -0.086014 1.395297 -0.591468 -0.293945 -1.173210 -0.491299 1.309274 1.060504 2.216104 -0.807046 0.079623 1.360690 0.022542 0.955970 0.178462 1.732064 0.121419 -0.677308 -0.109677
2038 -1.992264 -0.184831 0.371994 -0.718760 -0.259564 -1.290839 -1.519439 1.048236 -0.697897 0.109538 -1.053921 -0.808830 0.377279 0.250557 1.309874 0.280661 0.568115 0.492967 -0.469000 0.181261 1.878324 0.244245 0.218871 0.512186 1.273266 1.870553 0.230762 -0.383102 1.184162 1.716996 -1.091740 1.006572
4675 -0.256415 0.446861 -0.794266 -1.177171 -0.577904 -0.288062 -0.481541 0.003197 -0.057625 0.511030 0.015022 0.044509 -0.035484 -0.251862 0.999218 -0.449591 0.004530 -0.046392 -0.074569 1.084870 -0.060342 0.203741 -1.106616 0.214758 0.319887 -0.053844 0.393980 -0.176439 0.380300 -0.087547 -0.695679 1.199264
1198 0.513953 -0.068187 0.125687 0.312871 -0.204492 -1.638189 -0.027943 -0.288443 -0.606656 0.003263 0.379076 0.407083 -0.781275 -0.429509 1.654952 0.743596 0.192554 0.189045 0.703756 -0.445281 0.461995 0.503145 -0.217413 0.073061 0.761689 0.100815 0.721654 -1.212367 0.427056 -0.312774 -0.924961 0.942089
249 0.722047 0.241392 0.114854 0.496694 -0.352926 -0.664096 -0.014014 -0.300641 0.305478 0.710532 -0.353376 0.667624 -0.007614 -0.411771 1.786863 0.118525 -0.297722 0.235925 0.597192 0.430392 0.577757 -0.177201 -0.520865 -0.452821 0.697534 0.389809 0.475734 -0.762646 0.178514 -0.022873 -0.321778 1.588533
3687 0.125493 0.531981 -0.727190 -1.051269 -0.577766 -0.305452 -0.711403 0.024052 -0.209740 0.492991 0.009074 0.206070 0.151058 -0.450053 0.859475 -0.521227 0.158545 -0.016155 0.029711 0.930573 0.146003 0.295379 -1.110728 0.295320 0.083258 0.241346 0.211619 0.187667 0.241080 -0.028774 -0.870748 1.199183
996 -0.590103 1.462874 -0.542729 0.169195 0.592944 -0.900784 -0.941293 0.098195 -0.969048 0.807341 -1.339833 0.580634 -0.216202 -0.136545 1.528044 -0.427862 -0.783570 -0.041595 -0.346337 0.364620 0.813657 1.158689 -0.452853 0.989167 1.527782 0.814199 0.173289 -0.444429 0.277716 1.056890 0.168404 -0.564820
785 0.559432 -0.038986 0.238756 0.686522 -0.315135 -1.066978 -0.068630 0.213808 0.081159 0.889206 -0.333288 0.612009 -0.153442 -0.627339 1.632349 -0.064556 0.280949 0.256064 0.681401 0.000417 0.495545 0.125213 -0.340372 -0.367149 0.880922 -0.019125 0.941931 -1.070837 0.433955 -0.354339 -0.723553 1.033965
947 -0.542573 0.058082 0.000005 0.454211 0.095633 -0.863293 -1.565084 -0.507567 -1.249848 -0.438214 -0.465695 0.211003 0.135645 -0.377000 -0.136626 -0.710306 0.645083 0.415627 -0.379973 0.852098 0.412781 0.604956 -0.902012 -0.465361 0.214651 -0.071604 0.889973 -0.164831 0.589139 -0.208420 -0.099189 0.960609
1049 0.750380 0.629252 -0.008410 -1.032414 -0.187920 -1.359008 -0.527627 0.131954 0.521495 0.193022 -1.646268 -0.606294 -0.338595 0.574548 0.472738 -0.295239 0.467787 0.444254 0.570497 0.262779 -0.086785 1.055240 -1.590555 0.880767 -0.031861 -0.570734 1.096798 0.106189 0.339420 0.651402 -0.848133 0.105888
380 0.502228 -0.210549 0.463046 0.509830 -0.610068 -1.390284 0.041962 -0.143432 0.205060 0.633532 -0.378450 -0.058847 0.081157 -0.608570 1.785731 -0.809578 0.366299 -0.315325 0.429123 -0.612400 0.436638 0.109319 -0.422472 -0.126199 1.089408 0.596582 1.562265 -0.746696 0.251382 -0.363500 -0.350543 0.527163
3501 0.258704 0.107328 -0.641471 -0.393103 0.314011 -0.629857 0.215968 -0.118742 0.026693 0.999322 -0.298155 0.099268 0.248685 -0.986369 1.148059 -0.253894 0.569687 -0.727674 0.099880 0.999024 1.124144 1.372853 -0.215094 -0.397601 -0.060865 -0.404526 0.231410 -0.762302 -0.163251 -0.103914 -1.005966 0.862008
567 0.297638 1.023382 0.509244 -0.636915 -0.579728 -0.551080 0.586878 1.174716 -0.741364 0.065803 -0.440164 0.780675 -1.591556 -0.011938 1.375612 -0.464610 -0.268238 -1.360140 -0.331867 1.044637 0.980044 2.102118 -0.399714 0.558342 1.346539 -0.163092 0.861428 0.255657 1.908216 0.342270 -0.860641 -0.033369
3686 0.182764 0.421743 -0.802890 -1.040990 -0.656378 -0.323753 -0.727772 0.113834 0.033768 0.336955 -0.078555 0.153112 0.229654 -0.319359 1.038401 -0.516586 0.291647 0.026665 -0.022406 0.984983 0.170547 0.385790 -1.067792 0.339186 0.258039 0.119196 0.305619 0.122109 0.285569 -0.030957 -0.821433 1.153848
3688 0.125299 0.547966 -0.680641 -1.040103 -0.587075 -0.355889 -0.649607 0.059368 -0.147720 0.392560 0.075577 0.299654 0.201656 -0.408830 0.928066 -0.573668 0.199980 -0.216166 0.176060 0.948011 0.120198 0.278764 -1.131653 0.365668 0.114195 0.204694 0.241941 0.132380 0.359205 -0.181038 -0.683042 1.147846
97 0.074366 0.242389 0.228192 -0.199963 -0.190916 -0.072284 -1.015226 0.060082 -0.239759 0.466100 -0.834099 0.335240 -0.736607 -0.499953 0.408435 -0.388177 -0.150688 -0.353451 -0.458085 0.652861 0.961870 -0.249336 -0.281209 0.312628 -0.419386 -0.184760 0.496009 0.305944 0.618798 -0.122694 -0.669061 1.501171
74 0.189580 0.232550 -0.230324 -0.362177 -0.108488 -0.577391 -1.324961 0.694455 -0.367785 0.033236 0.061781 0.662600 -0.036899 -0.509562 0.672831 -1.090093 -0.315359 -0.423667 0.479313 -0.310198 0.669948 -0.529146 0.119669 -0.416848 -0.536023 -0.037679 1.318009 -0.117412 1.046033 0.098545 -0.115452 1.131150
164 -0.616672 1.357523 -0.561882 0.211812 0.566154 -0.869156 -0.958442 0.102007 -0.991625 0.767497 -1.241539 0.506468 -0.159344 -0.120934 1.572255 -0.374061 -0.815566 -0.098440 -0.301114 0.271088 0.715415 1.274774 -0.413625 0.993099 1.571028 0.796448 0.160500 -0.495298 0.357663 0.995440 0.181840 -0.597981
121 0.249677 0.674635 0.397190 -0.671352 0.039568 -0.502107 -1.002042 -0.295376 0.235173 0.410124 -1.664551 -0.413572 0.074064 -0.568914 0.441958 -0.782128 0.350696 -0.222330 -0.386516 -0.342832 0.002925 -0.085217 0.199318 -0.592670 0.021209 -0.043216 0.347948 0.525359 0.379196 -0.224949 -0.523777 1.500933
2895 -0.241193 0.496532 -0.886658 -1.060757 -0.226753 -0.766618 -0.417706 -0.609392 0.089934 1.156402 0.056053 0.110932 0.272554 -0.831769 1.112590 -0.074373 0.632541 0.460376 -0.223141 0.709044 0.966029 0.493499 -0.629562 -0.191614 -0.317526 0.157588 0.275156 0.286958 -0.265390 0.466068 -0.634356 0.353270
353 1.073661 0.932352 0.206927 1.117627 -0.829881 -1.866092 0.190565 -0.198266 -0.568340 -0.051176 0.359893 0.125501 -0.514679 -0.102636 1.586785 -0.135357 0.044784 0.584875 0.927801 -0.408193 0.668125 1.342930 0.277656 -0.045001 0.600713 -0.058072 0.203827 -1.239354 1.866375 -0.175351 -0.563806 0.592319
1557 0.738027 0.049554 0.150436 0.490925 -0.787311 -1.040137 0.099648 -0.156898 0.431127 0.448658 -0.410125 0.323555 -0.131715 -0.721562 1.797957 -0.254409 0.232990 -0.149518 0.558034 0.032734 0.443839 0.287168 -0.235953 -0.498287 0.780473 0.588412 1.198924 -0.885743 0.136548 -0.249585 -0.465860 0.878102
321 -1.344066 0.720737 -0.577152 0.141708 -0.694755 -0.790457 -0.157183 0.833646 -0.406347 0.399257 -0.445968 -0.238147 0.517468 -0.624954 0.399301 -0.922001 -0.465478 0.737248 -0.139840 1.133969 0.004632 0.219001 -0.471301 0.206551 0.302690 -0.615510 1.280395 -0.108509 0.814111 -0.030199 -0.149290 0.324106
2182 -2.010416 0.371079 -0.383059 0.367434 -0.547338 -0.318917 -0.055595 0.452954 0.597833 0.013732 -0.539703 -0.118408 0.468902 -0.499862 0.920639 -1.389017 0.108834 0.489968 0.473838 0.288081 -0.180799 0.616603 0.339417 0.650943 -0.265982 0.086355 1.401960 -0.044978 1.166999 0.084131 -0.139997 0.700054
2 0.823075 0.129847 0.185236 -0.620296 -0.557167 -1.339767 -0.664832 -0.024849 0.375229 0.097026 -1.102599 -0.323865 0.153468 0.309729 0.504765 -0.219898 0.258512 0.032058 0.424729 0.550901 -0.252093 0.602854 -1.475060 0.739036 0.180594 -0.707527 0.640954 0.191588 0.129270 0.230621 -0.760311 0.617660
921 -0.626042 1.335289 -0.570298 0.262069 0.554726 -0.713446 -1.089758 0.028097 -0.967189 0.967627 -1.345146 0.585952 -0.247816 -0.183693 1.472486 -0.438178 -0.725648 0.059096 -0.306146 0.240474 0.823865 1.327394 -0.487537 1.224185 1.661299 0.847607 0.239018 -0.333185 0.351237 1.010744 0.186174 -0.523022
972 0.261669 -0.131903 -0.295033 -0.014358 0.487341 -2.140527 0.241998 -0.518178 -0.351605 -0.114119 0.921382 -0.795238 -0.961347 -0.711769 1.247879 -0.367155 -0.009581 0.620647 0.451801 0.285592 0.233911 0.567754 -0.077340 0.259902 0.222884 0.090597 -0.023312 -0.426816 0.830076 0.800798 -0.797315 1.536151
1295 -0.865447 0.299682 -0.736860 -0.174056 -0.022598 -1.109187 0.433047 0.432798 -0.083133 0.697935 -0.772784 0.417316 0.542323 -1.036979 0.378111 -1.120485 0.696349 -0.457847 0.476836 0.360603 1.160038 0.842130 0.336334 0.385675 -0.045216 -0.597496 0.726441 -0.488810 -0.033083 -0.164197 -0.690448 0.576104
2595 -0.773637 0.393283 -0.420261 -0.252866 -0.212587 -1.617074 -0.707496 -0.514325 -0.198249 0.640621 -0.764644 0.293774 0.361682 -1.394065 -0.405508 -0.410221 -1.150782 -0.867393 -0.479683 -0.453268 0.128968 0.656709 -0.483970 -0.275730 0.559480 -0.057099 0.546940 -0.150931 1.818487 -0.177396 0.082018 0.339800
1020 0.035672 -0.154232 -1.188322 -0.455224 -0.205747 -0.529886 -1.246208 -0.081760 -0.525520 -0.035232 -0.421691 0.350275 -0.100623 -0.364966 0.551704 0.129250 0.464748 -0.282012 -0.102604 0.591537 0.062372 0.286761 -1.165069 0.604936 0.094890 0.159916 0.832930 0.283648 0.240715 0.305672 -0.737035 0.994366
1190 -0.465223 -0.506943 -0.541246 0.325743 0.587244 -1.104071 -0.564841 -0.444450 -0.268461 -0.223511 -0.860748 -0.273523 0.415802 -0.584517 0.360163 -1.142426 1.092859 0.010651 0.220348 -0.373077 0.464698 0.693828 -0.719727 0.859692 0.091206 -0.097628 0.209115 0.004991 1.087857 -0.269834 0.361029 1.023474
597 0.254546 1.761225 -0.361341 0.259756 -0.774190 -1.745772 -0.765451 -0.114622 -0.768487 -0.199931 -1.027256 0.881587 -0.893985 -0.832724 0.197799 -0.363523 -0.374443 -0.741273 -0.341841 0.531935 -0.381434 0.108939 -0.302784 1.020463 0.994374 0.954333 0.031609 1.167189 0.288760 -0.156239 -0.647502 1.233472
1560 0.383699 0.132624 -0.496434 -0.550888 -0.299581 -0.895170 -0.941807 -0.516271 -0.190206 -0.049438 -0.486802 0.424462 0.109209 -0.358011 0.566950 -0.178951 0.517458 -0.114599 0.074146 0.694331 0.027277 -0.351927 -0.998943 1.024969 0.133396 0.009983 0.805416 0.120123 0.499747 0.224701 -0.634288 0.921320
1415 -0.134868 -0.049315 0.397035 -0.880092 0.242203 -0.660187 -1.780819 -0.484041 -0.882994 -0.435981 -0.337966 0.054532 0.332835 -0.795869 0.363086 -1.453615 1.500497 -0.492700 0.135420 0.019339 -0.031056 1.659127 -0.385750 0.302106 0.351801 -0.204380 -0.336379 -0.170718 1.585506 0.039777 0.013504 0.901956
692 0.175322 -0.078534 -0.291235 0.082193 0.492726 -2.163353 0.483486 -0.587902 -0.255517 -0.141353 0.819771 -0.752743 -1.000437 -0.808047 1.107245 -0.393269 0.016170 0.585798 0.455838 0.287815 0.323541 0.512786 0.135488 0.466975 0.271325 0.026888 -0.048972 -0.518611 0.870216 0.729177 -0.923103 1.486601
4764 0.566559 0.920759 0.740378 -0.309075 -1.795606 -1.465247 -0.994681 0.126735 -0.824454 -0.186356 -0.933676 0.113546 -1.729033 0.626563 0.439221 -0.058061 -1.390076 0.213952 -0.433536 -1.412883 -0.164952 0.503635 -0.604238 -0.151263 0.804894 1.734656 0.560952 0.249433 2.647130 1.367436 -1.025902 1.941817
365 -0.413338 0.094257 -0.057171 -0.143272 0.670302 -0.926880 -0.728742 0.412562 0.990068 -0.067315 -0.338466 0.915966 0.275200 -1.165824 0.980183 -0.801211 -0.001580 0.236578 -0.084458 0.429317 0.294421 0.688625 0.542339 0.347210 0.248608 0.090332 0.853382 0.188332 0.258992 -0.089386 -1.469225 0.952814
1958 -0.484969 1.376337 0.268059 -1.423515 -1.211733 -1.103932 -0.354631 -0.123715 -0.857469 0.219295 -0.382196 -1.019511 -0.519942 0.314984 1.250396 -1.881566 1.047842 0.659339 0.787583 -0.648149 0.187433 0.695679 0.798354 0.724904 0.854362 -0.227722 0.704027 -1.034123 0.242476 1.151640 -0.547266 0.300259
1357 -0.176122 0.631122 0.427508 -0.513325 -0.435477 -0.959366 -2.406768 -0.242684 -0.568996 0.054956 -0.569495 0.545929 -0.036026 -0.787453 0.045509 -0.627904 0.722878 0.345957 0.548129 0.124977 -0.520051 0.882876 -0.239169 -0.302323 0.530566 -0.030331 0.328539 -0.210480 0.147630 0.305137 -0.148946 1.085016
478 -0.438851 0.661394 -0.896690 -1.091208 -0.318047 -1.059097 -0.620652 -0.612849 0.851006 0.832568 0.555050 0.180833 0.184762 -0.393946 0.966265 0.303093 0.526888 0.043618 -0.167422 0.601977 1.538059 0.978637 -0.788787 -0.293404 -0.609280 0.375997 0.451880 0.122477 -0.073016 0.323599 -0.861142 0.065300
708 0.038762 0.626863 -1.216785 -0.510660 -1.127922 -0.332558 -0.754496 -0.287070 0.452910 1.052483 0.291325 0.209487 -0.048558 -0.521875 0.801985 -0.855475 0.873353 -0.579297 -0.341859 0.811001 0.276746 0.338173 -0.160563 0.616236 0.456596 0.465245 0.081087 0.199711 0.132593 -0.079074 -0.806950 1.116895
273 -0.790608 1.089499 -0.046433 -1.885920 -1.312231 -1.263772 -0.298936 0.467714 -0.501556 0.537398 0.186742 -0.193223 -0.563191 -0.291871 1.476766 -0.883521 0.938025 0.814297 -0.151010 -1.051209 0.313725 0.831524 0.162501 0.391942 0.049508 0.167810 0.155235 -0.678759 0.131784 0.926125 -0.390269 -0.224791
162 -0.829795 1.213250 0.607070 0.047483 -0.453397 -2.295296 0.801215 -0.049870 0.796611 0.510849 -0.739484 0.112427 -1.059010 -1.045325 -0.051923 -0.058740 0.273487 0.842086 0.322459 0.578898 1.272420 1.999961 -1.029139 0.238287 2.265379 -0.231738 -0.194206 1.288858 1.475375 -0.694734 -0.950187 0.703309
3594 -0.960240 2.190835 0.284410 -0.237353 -1.061957 -0.911951 -0.836846 0.446302 0.474002 0.342638 0.075132 -0.606378 -0.633180 -0.093374 1.868868 -0.413386 0.380636 0.147534 -0.787269 -0.628683 0.787082 2.460403 -1.514570 -1.231689 0.632527 0.531502 1.075336 -1.591513 1.803948 -0.642484 0.708581 -0.194253
767 -0.711387 0.879795 -0.239050 -0.266345 -0.108014 -2.008071 -0.679128 -0.435947 0.024870 0.956939 -0.416271 0.072322 -0.688976 -0.181623 1.156529 -0.387913 0.388656 -0.114894 0.151213 0.648785 0.647420 1.218541 -0.782860 0.359458 0.749307 0.206569 0.629310 -0.126542 1.333570 0.517697 -1.365007 0.998209
1510 -0.949581 0.004903 1.346351 -0.054392 -1.431376 -2.269312 -0.568177 0.757970 0.144228 -0.209750 -0.494412 -1.418086 -0.940061 0.167406 1.864930 0.299395 -0.671035 0.251805 -1.574454 0.647025 0.325263 1.579746 -0.510371 -0.155925 1.035537 1.278025 1.011173 0.686140 0.811376 0.221471 -1.145730 1.065745
739 0.038388 1.262071 0.334593 -0.224309 0.579315 -1.608642 0.060186 -1.653560 -0.457595 1.113884 -0.316079 0.482314 0.435443 0.068267 2.077423 -0.963092 0.897214 0.834620 -0.422726 0.535017 0.237137 -0.117620 -0.991538 -0.521469 0.444705 0.263768 0.564418 -0.247964 1.238541 0.307124 -0.250302 -0.522209
1794 0.274933 -0.392849 0.039196 -0.371718 0.003711 -1.378653 0.024761 0.076680 0.257694 0.966519 -0.730965 0.565386 0.560198 -0.408982 0.702612 -0.771716 0.447954 -0.186463 -0.278797 0.653067 -0.515205 0.341132 0.074372 0.940405 0.259972 0.062252 0.846132 0.368499 0.503458 -0.294455 -0.459588 0.812065
3228 -0.039384 1.531527 -1.765949 0.049678 -1.237004 -2.242481 -0.470225 0.972485 -0.603363 0.983753 -0.744012 0.939551 -0.120408 1.071950 0.247368 -0.550272 0.379514 0.878130 0.447092 -0.160976 0.220339 1.339351 0.376056 -0.557576 1.957063 0.188008 -0.234784 0.231980 0.451778 0.538870 -0.884424 0.607830
1499 0.214680 -0.166591 -0.396517 -0.087088 0.565069 -2.139943 0.345159 -0.590411 -0.367363 -0.087356 0.901495 -0.757527 -0.917181 -0.753688 1.164775 -0.311601 0.079143 0.544719 0.358939 0.412596 0.288272 0.683025 0.001622 0.253385 0.338284 -0.184839 0.104282 -0.423573 0.832654 0.771630 -0.857543 1.731741
2390 0.110200 -0.757014 -0.211673 -0.093136 0.035264 -1.825816 -0.195095 0.212733 0.004451 1.109100 -0.669838 0.580686 0.867630 -0.324447 0.593706 -0.462691 0.021881 -0.548847 -0.149592 0.463649 -0.057814 0.565796 0.056714 0.278093 0.122243 0.497267 1.056260 0.384276 0.707788 -0.545808 0.354192 1.009061
643 -0.637189 0.537228 -0.624823 -0.691769 0.821638 -0.546076 -0.697583 0.326402 0.474415 -0.101589 -0.238852 0.771414 0.491785 -0.756599 0.740702 -0.130794 0.130914 -0.439709 0.120990 0.637442 0.533020 0.719848 -0.357914 0.594504 0.200282 0.542881 0.702999 0.023602 -0.056180 0.327294 -1.556286 1.141945
2343 -0.578803 1.332349 -0.541851 0.216916 0.511034 -0.692129 -1.082390 0.095784 -0.928542 0.850810 -1.326417 0.567915 -0.299156 -0.162823 1.487933 -0.385352 -0.686232 0.036243 -0.260478 0.214119 0.878034 1.365981 -0.478458 1.139258 1.600902 0.868316 0.227139 -0.300543 0.298499 1.047970 0.180849 -0.517394
3251 0.270876 0.501371 -1.416356 -0.543678 0.104009 -0.799951 -0.282260 -0.528439 0.169409 0.848467 -0.326253 -0.617735 -0.762446 -0.404319 0.428133 -0.263684 -0.162031 -0.095054 0.240742 0.146022 0.277492 0.846681 -0.255150 -0.099990 -0.287875 -0.459368 0.372141 0.709502 -0.342172 0.248629 -0.767419 1.273227
1022 -0.580860 1.477024 -0.070573 0.236136 -0.210392 -0.685478 -0.048981 0.418894 -1.050329 0.839344 -1.166806 1.266986 -0.480878 -0.102092 0.651545 -1.280281 -0.306729 1.088574 -0.644988 0.884478 1.792928 1.160075 -0.961646 0.491879 0.832090 0.720568 1.121556 0.314489 -0.175378 1.457592 0.135935 -0.116171
482 0.342487 -0.170611 -0.377062 0.039020 0.403690 -2.020582 0.159302 -0.677344 -0.490793 -0.144635 0.996450 -0.654843 -0.851225 -0.854913 1.263400 -0.313139 0.185760 0.507015 0.382307 0.467855 0.301832 0.534028 -0.152091 0.278430 0.340402 -0.043004 0.031526 -0.452929 0.868932 0.590954 -0.714639 1.651672
1417 0.721840 0.499747 0.671093 -0.729129 0.265494 -0.687031 0.465601 0.186720 -0.560493 0.405109 -0.932736 0.160674 -1.186608 0.187122 1.423186 -1.198185 -0.343426 -0.834433 -0.149540 1.256194 0.956051 1.558712 -0.316712 -0.633895 1.400624 0.387892 0.742613 0.034682 1.901444 -0.126803 -0.823158 -0.032717
814 0.958153 0.984154 0.258758 1.198159 -0.910857 -1.918625 0.162360 -0.157427 -0.626957 0.025610 0.420903 0.206723 -0.441861 -0.082357 1.523090 0.076930 0.082761 0.489826 1.026336 -0.298541 0.640128 1.425164 0.425335 -0.099912 0.602855 -0.116674 0.244498 -1.178076 1.945000 -0.163988 -0.595143 0.731272
385 -0.819578 0.737867 -1.129440 0.402785 0.129443 -0.635387 -0.658214 1.069442 -0.949241 0.371721 -0.003068 -0.563924 0.265851 -0.799187 0.826944 -0.391089 0.044540 -0.346438 0.075679 0.132933 0.088616 -0.409399 0.177624 -0.348363 0.292642 -0.037754 1.475899 0.333493 0.414897 0.332358 -0.802383 1.088866
469 0.250757 -0.180019 -0.358042 -0.035051 0.413132 -2.182290 0.234573 -0.542425 -0.313537 -0.155688 0.975208 -0.708599 -0.835632 -0.700002 1.196129 -0.387363 -0.000642 0.673652 0.399628 0.260508 0.340311 0.505617 0.140586 0.278892 0.285881 -0.172132 0.157000 -0.685960 0.952673 0.832947 -0.822953 1.558345
1496 -0.767297 0.599487 -0.368645 -0.000690 -0.303096 -0.881639 -0.167406 0.037888 0.011849 0.700028 -0.928328 0.466996 0.320283 -1.394898 -0.143083 -0.999159 0.326073 -0.433726 0.762945 -0.061688 1.252201 0.357014 0.118547 -0.091430 -0.098888 -0.616108 0.355480 -0.618126 -0.061986 -0.442683 -0.864045 0.844685
20 0.081896 0.196169 0.149469 -0.238290 -0.207825 -0.890844 -1.039651 0.141079 0.119407 -0.235206 -0.239065 0.582070 -0.654964 -0.805481 0.234585 -1.147154 -0.270502 0.790565 1.320533 0.124835 -0.070691 -0.042462 0.232389 0.313322 0.018275 -0.147280 1.020286 0.201734 0.449519 0.273757 -0.258927 1.332476
109 -0.192747 0.136122 -0.786557 -0.331345 0.032567 -1.086298 -0.834721 1.030496 0.037148 -0.120733 0.058806 0.215667 -0.210658 -0.722966 0.820252 -0.791418 -0.311484 -1.010688 0.337803 0.211755 0.214838 -0.542023 -0.430229 -0.615286 0.168840 0.354027 1.745617 -0.241261 0.795760 0.518816 -0.029197 0.521810
549 -0.098227 1.015001 0.051248 -0.678382 0.671037 -1.669565 0.573147 -0.771487 -0.328764 0.907098 -0.895513 -0.044525 -0.269037 0.409905 1.054450 -0.246658 1.331095 0.258944 0.102763 0.386900 -0.308914 0.230852 -1.119535 -0.654368 0.120175 0.105525 0.295056 0.585225 0.591677 -0.274357 -0.309462 0.027724
2355 -1.346476 1.766002 -0.291267 -0.890105 -0.687028 -2.178677 -0.449699 -0.499979 -0.716183 0.967022 0.354161 -0.082233 -1.124452 0.071947 -0.162500 -0.346826 0.762774 -1.367145 -0.075227 -0.174274 0.482818 0.544294 0.805582 1.367603 -0.533385 1.205517 -0.202736 -0.303961 2.247217 -0.468567 0.163843 1.216816
712 -0.496680 1.165398 0.336230 -0.451395 0.377366 -1.672097 0.360635 -0.968139 -0.101072 1.016416 -0.454094 -0.197616 0.001515 0.227921 1.243221 -0.428870 1.471885 0.475587 0.238209 0.904312 0.117960 0.268640 -0.896520 -0.415550 0.273166 0.737154 0.001625 0.383645 0.688736 -0.389271 -0.815271 -0.693989
5103 0.115720 0.497881 -0.864461 -0.339072 -0.161676 -0.422276 -0.425316 -0.370229 -0.111769 1.050556 -0.042580 0.091501 -0.438836 -1.217750 0.833823 -0.228206 0.420702 0.079771 0.424277 0.776519 0.008218 0.623285 -0.435347 0.093086 -0.453963 -0.185651 -0.362497 0.327449 0.306305 0.282301 -0.696018 1.124915
330 -1.452143 1.096761 0.197692 0.398026 0.144809 -0.494276 -0.925418 0.200824 0.168346 0.046635 -0.493301 0.031883 -0.769421 1.515094 1.747037 -1.337226 -0.945881 -0.015424 1.172961 -1.226356 0.788366 2.063809 -0.510476 -0.383387 1.026035 0.201846 1.167048 -0.102183 -0.167321 1.533955 -0.253593 1.627644
2777 -0.454261 1.164598 -0.369110 -1.980991 -1.003155 -0.860863 -0.085240 0.227034 -0.436801 1.278924 -0.041693 0.003288 -0.531120 -0.683735 1.457626 -0.550454 1.242622 0.830444 -0.494592 -0.606160 0.514949 0.439777 -0.378088 0.387455 0.180043 -0.132903 0.107451 -0.520536 0.249535 0.847329 -0.569627 -0.329753
166 -0.556051 1.267955 -0.407604 -0.267031 0.807601 -1.141859 -0.668502 -0.458201 -0.920521 1.301521 -1.336860 0.712045 -0.329812 -0.325405 1.580528 -0.536647 -0.913950 -0.196614 -0.277709 0.226917 0.739465 1.135232 -0.366753 1.198248 1.687327 0.809714 0.267158 -0.571482 0.100993 0.743025 0.211567 -0.397998
813 0.190697 -0.190318 -0.232863 0.007377 0.544411 -2.144385 0.381802 -0.688239 -0.581815 -0.247950 0.872420 -0.550581 -0.963227 -0.784098 1.289981 -0.314837 0.016213 0.452715 0.293501 0.329690 0.327923 0.576737 -0.073150 0.268967 0.359072 0.044461 -0.042273 -0.526883 0.842883 0.734674 -0.777766 1.624917
2280 0.304070 -0.215508 -0.086334 0.006739 0.470166 -1.434018 -0.388361 -0.220088 0.273601 1.063932 -0.974295 0.066798 0.293696 0.032483 0.118546 -0.977487 -0.100090 -0.666677 0.369390 0.256081 -0.284853 -0.194137 -0.757528 -0.140628 -0.088132 0.609455 0.514850 0.205961 0.881871 0.423614 0.340970 1.192714
2255 -0.124950 0.229797 -0.245011 0.039727 0.390205 -0.573145 -0.353171 -0.013015 0.205313 0.503287 -0.188003 0.190188 0.864171 -0.870981 0.843531 -0.521291 0.901291 -0.882816 -0.055134 0.494315 1.037995 1.363820 0.194729 0.125735 -0.145922 -0.747084 0.099777 -0.869781 0.302679 0.190532 -0.830661 0.769143
870 1.089118 1.133722 0.264272 1.159518 -1.066590 -1.856073 0.140676 -0.020077 -0.662443 -0.097270 0.241325 0.271181 -0.430458 0.053641 1.500753 -0.107206 -0.058586 0.512929 0.950430 -0.397134 0.652393 1.498952 0.250531 -0.189985 0.613009 -0.157274 0.224008 -1.199157 2.089255 -0.320396 -0.578916 0.518647
2759 -0.165575 0.309200 -0.895958 -0.567719 -0.916246 -0.207006 -0.198927 -0.114857 0.473918 1.041952 -0.183091 0.198721 -0.774539 -0.814699 0.966117 -0.156370 0.353362 0.186106 0.086162 1.262780 -0.202367 0.492595 -0.534195 0.139015 0.234719 0.136916 -0.451066 -0.067061 0.597648 0.289025 -0.996374 1.147302
217 0.087785 1.360337 -0.552598 -1.238375 -0.675508 -1.244244 -0.565732 0.714722 -0.515633 0.759401 -0.712019 -0.562325 -1.479042 -0.191656 1.572134 -0.686715 0.708737 0.846102 -0.326475 -1.261158 0.678034 -0.142555 -0.260561 0.894100 0.522315 -0.136231 0.374652 -0.657630 0.529062 0.860836 -0.195235 -0.298952
3520 0.078716 0.084180 -0.587605 -1.034634 -0.666941 -0.423211 -0.414565 -0.121755 0.132851 0.725613 -0.382436 -0.067998 0.081696 -0.574844 1.002789 -0.392630 0.365792 -0.001943 -0.174056 1.005151 0.252315 0.356746 -1.083754 -0.003477 0.238293 0.270888 0.278741 0.046114 -0.014392 0.277622 -0.858998 0.766780
1506 0.127144 -0.064416 -0.241743 -0.122926 0.432080 -2.067496 0.471221 -0.477814 -0.463033 -0.053472 0.876455 -0.731029 -0.919962 -0.688770 1.141747 -0.326606 0.042370 0.552462 0.409128 0.360535 0.306401 0.442730 -0.001841 0.281945 0.204744 -0.171473 0.039698 -0.539920 0.820561 0.569205 -0.916730 1.615910
836 -0.705235 0.559263 -0.470704 -0.135470 -0.513988 -1.355272 -0.659048 -0.452191 -0.345176 0.639144 -0.470534 0.212447 0.534224 -1.208188 -0.116002 -0.400792 -1.482843 -0.759675 -0.333563 -0.098806 0.116911 0.415571 -0.444121 -0.129820 0.264748 -0.381420 0.803718 -0.009428 2.214753 -0.075878 0.191653 0.438939
69 -0.177007 0.357150 -0.803642 -0.643191 -0.985139 -1.119469 -1.349921 -0.343889 -0.088744 -0.497866 -0.386385 0.016342 -0.984624 -0.430158 1.403326 -0.780620 0.493399 -1.079377 0.418819 0.783442 0.523096 0.247924 0.176391 0.248088 0.287036 0.537083 0.137885 0.281999 -0.145713 -0.374929 -0.125301 0.227581
1003 0.200311 0.726040 -0.984529 -0.293668 -0.359919 -0.475047 -0.492794 -0.289228 -0.212543 0.737252 0.063865 0.006477 -0.312355 -1.238508 0.729345 -0.137584 0.536424 0.122895 0.537715 0.750283 0.052257 0.469758 -0.540496 -0.015392 -0.556954 -0.207694 0.027061 0.349759 0.205864 0.249759 -0.791263 1.075030
