4121 64
66 -0.217590 -0.284824 -0.561768 -0.154572 -0.005436 -0.014435 -0.428883 0.043665 -0.229293 0.293238 0.018256 -0.165711 0.391427 0.590962 -0.632455 -0.515004 0.073826 0.221578 0.320311 0.657476 0.070933 -0.140285 -0.082169 -0.049216 0.064968 0.339991 -0.537256 0.036178 -0.452304 -0.472084 -0.629629 0.599807 -0.007826 -0.059901 -0.089289 -0.279093 -0.370301 0.276016 0.227280 -0.354668 0.394308 -0.526178 0.219708 -0.091528 -0.078886 0.792460 0.075357 -0.465466 -0.053783 0.630828 0.017805 0.288400 0.002663 0.679912 -0.010410 -0.056002 -0.313491 -0.120994 -0.759952 0.680461 -0.015594 0.082076 -0.401666 -0.431003
18 0.098090 0.175599 0.044050 -0.398414 0.076410 0.009531 -0.410185 -0.475333 -0.066851 0.297684 -0.187011 0.210755 -0.081726 0.125812 -0.377744 -0.375223 0.148780 0.240387 -0.169101 0.699053 0.290470 0.159330 0.431599 -0.352188 0.416769 0.234861 0.000863 0.312259 0.270711 0.033542 -0.408096 0.821384 -0.027018 0.084065 -0.015851 -0.446088 0.265978 -0.112341 0.442125 -0.697899 0.079197 0.047421 0.417176 -0.281379 -0.196149 0.219652 -0.372211 -0.924582 -0.471030 0.734010 -0.349067 0.480207 -0.350803 0.488227 0.062600 -0.539122 -0.129612 -0.239465 -0.748513 -0.003402 -0.306245 -0.063647 -0.663599 0.499363
189 -0.413059 -0.064580 -0.697320 0.043868 0.091501 0.044147 -0.027636 -0.393506 -0.490606 1.002185 0.192906 -0.254628 0.269425 0.383302 -0.553850 -0.363665 0.188490 0.136010 -0.009137 0.516183 -0.018389 -0.047771 0.572753 0.180305 0.562141 -0.192607 -0.689614 0.082732 -0.314914 -0.174788 -0.278601 0.100518 0.285540 -0.048757 0.159800 -0.159720 -0.042661 -0.014305 0.558360 0.463093 0.820470 -0.697051 0.085806 0.024674 -0.034885 0.282602 0.170746 -0.283230 -0.245891 0.764048 0.471136 0.199648 0.200078 0.018254 0.394364 -0.299527 -0.415319 -0.411911 -0.712983 0.698895 -0.453361 -0.013365 -0.219807 0.151067
19 -0.284201 0.005712 0.299294 0.437082 -0.206506 -0.211833 -0.609228 -0.685034 -0.111270 0.439155 -0.337174 -0.265184 -0.598183 0.192222 0.065802 -0.251683 -0.159713 -0.078837 -0.482563 0.707459 0.082653 -0.065227 -0.268798 -0.332966 0.560529 0.575474 0.110174 0.390561 -0.367450 0.252591 -1.006405 0.406044 0.424861 -0.133612 -0.181945 -0.158279 -0.039566 -0.222808 0.592142 -0.376820 -0.162076 -0.075043 -0.039500 -0.449019 0.055285 0.264807 -0.046605 -0.645742 -0.443669 0.451024 0.062671 0.118813 -0.039900 0.444156 0.264339 -0.016278 -0.722909 0.106689 -0.492699 -0.064073 -0.639878 0.006498 -0.492368 -0.004519
41 -0.447446 -0.163294 -0.213412 0.587499 0.215193 -0.005812 -0.517210 -0.209651 0.128522 0.111253 -0.291395 0.331527 0.125831 0.643265 -0.166878 0.137268 -0.036463 0.315807 -0.324338 0.788161 -0.347572 -0.184788 -0.315368 -0.209236 0.937773 0.105396 -0.093848 0.458968 0.355148 0.432024 -0.401136 0.846759 0.191346 -0.168267 0.274582 -0.240941 0.062061 0.124009 -0.057048 -0.807573 0.095291 -0.217362 -0.057093 -0.524150 -0.280032 0.008342 -0.197082 -0.361295 -0.713464 0.238473 0.036867 -0.117408 0.153564 0.671510 0.144575 -0.441156 -0.083580 0.093544 -0.481892 -0.277184 0.347634 0.549651 -0.624450 0.262727
447 0.246281 0.084884 0.033226 0.368526 0.056984 -0.519056 -0.219833 -0.448308 0.053091 0.270045 -0.394861 0.345714 0.216334 0.415063 -0.342138 -0.416488 -0.250441 0.162919 -0.408563 0.393053 -0.511466 -0.163633 -0.185622 -0.142783 0.680208 0.361494 0.011956 0.526456 0.128205 0.389012 -0.549320 0.021826 -0.114835 0.099678 0.530171 -0.638028 0.012356 -0.146298 0.667952 -0.484856 -0.156191 -0.462864 0.264917 -0.066597 -0.304380 0.211421 -0.119617 -0.288505 -0.245147 0.662016 0.081892 0.186694 0.315317 0.426632 0.526428 -0.438982 -0.680601 -0.247738 -0.699617 0.088748 -0.078926 -0.210589 -0.743172 0.283290
1 0.060081 -0.921447 0.088556 -0.166912 0.008804 -0.226091 -0.189678 -0.268904 -0.144528 0.739617 -0.774050 -0.135739 0.114948 0.383968 0.312897 -0.525896 0.509149 -0.012443 -0.043725 0.324157 -0.377404 -0.125560 -0.344307 -0.221855 0.534870 0.038433 -0.221553 0.160141 0.410412 0.018542 -0.332011 0.775704 -0.838456 0.404714 0.238920 -0.310334 -0.223297 -0.041491 0.313880 -0.388060 0.454255 -0.230612 0.262385 0.047507 -0.378951 -0.128606 -0.327801 -0.377088 -0.073106 0.162594 0.025266 0.285484 0.074679 0.634068 0.415683 -0.206949 -0.347833 0.459322 -0.678417 0.367537 -0.388185 0.220066 -0.641043 0.429331
327 0.001131 -0.197149 -0.318757 -0.030711 -0.046603 -0.092266 -0.469344 -0.292249 -0.553359 0.491921 0.236213 -0.034798 0.149918 0.295628 -0.469894 -0.228612 0.225825 0.517881 -0.148185 1.059321 0.065698 -0.417963 0.133832 -0.101062 0.357874 0.116083 -0.829529 0.370568 -0.509698 -0.127626 -0.206126 -0.032117 -0.080660 0.057753 0.049015 -0.374540 -0.376087 0.302396 0.369768 -0.040605 0.539706 -0.858468 -0.181895 -0.173943 -0.099958 0.493302 -0.277470 -0.470552 0.031578 0.409114 0.490282 0.368464 0.076619 0.155452 0.444550 -0.191024 -0.688102 -0.393847 -0.374763 0.722629 -0.007405 0.047963 -0.252641 0.047236
57 -0.071143 -0.509000 -0.081881 0.201151 -0.100445 0.374267 -0.628702 -0.190830 0.498464 0.563593 0.060197 -0.169930 -0.049672 -0.314523 -0.533183 -0.349683 -0.222142 0.106312 -0.319085 0.272526 -0.007672 -0.012119 0.667979 0.091272 0.423543 0.397452 -0.305770 0.223133 0.908019 -0.197212 -0.546466 0.520910 -0.220775 -0.049147 0.166633 0.148011 -0.154434 -0.076107 0.744708 -0.428164 0.043606 -0.625397 -0.187865 -0.349891 -0.233240 0.410481 -0.636314 -0.475039 -0.452997 0.365289 -0.607483 -0.368309 -0.363716 0.531582 0.016873 -0.061011 -0.094516 -0.230134 -0.302820 -0.043124 -0.714228 0.478361 -0.467093 0.184759
771 -0.200013 -0.030947 0.019339 0.573611 -0.004898 -0.241698 -0.103719 -0.534971 0.189510 0.140788 -0.369733 0.125092 0.016308 0.460761 -0.555393 0.067950 -0.194197 0.117974 -0.577780 0.403565 -0.038994 -0.334078 -0.184025 0.009323 0.599794 0.270977 -0.066493 0.177146 -0.026696 0.308446 -0.489995 0.338553 0.200846 -0.014908 0.660593 -0.555970 -0.228248 -0.015151 0.860131 -0.769988 -0.003593 -0.327418 0.319078 -0.115862 -0.173935 -0.083798 -0.161140 -0.513068 -0.601593 0.747684 -0.264532 0.293181 -0.183464 0.538561 -0.192659 -0.210248 -0.138280 -0.167322 -0.581256 -0.529589 -0.253499 0.305478 -0.584209 -0.030693
243 -0.243714 0.074361 0.115643 0.498458 0.055431 -0.306379 -0.110530 -0.649480 -0.140882 0.189427 -0.186529 0.111764 -0.054149 0.461920 -0.057532 -0.201558 -0.195579 0.066151 -0.416158 0.299170 -0.154234 -0.072750 0.033710 -0.351137 0.387274 0.242936 0.118549 0.509579 0.267454 0.389141 -0.799994 0.194307 0.115802 -0.078756 0.226865 -0.594108 -0.086048 -0.251506 0.461733 -0.660454 -0.062626 -0.376959 0.283659 -0.335790 0.123554 -0.061925 0.008009 -0.737201 -0.457417 0.386699 -0.167968 0.090260 0.027451 0.342640 0.440670 -0.578656 -0.606644 -0.242000 -0.953321 -0.257877 -0.350571 0.109991 -0.712585 0.493198
16 -0.479847 0.119618 0.304951 0.468629 -0.043248 -0.063098 0.135743 -0.150961 0.287831 0.653277 -0.232729 0.216801 0.101491 0.510645 -0.409871 0.594104 -0.051616 0.136716 -0.225611 0.329713 -0.303027 0.282504 0.282726 -0.357440 0.605021 0.085476 0.158256 0.404716 0.067564 0.295915 -0.684437 0.526727 0.277139 -0.090452 0.180940 -0.382437 -0.148179 0.014226 0.634838 -0.485064 -0.348262 -0.350317 0.865398 -0.233451 -0.209854 0.411189 0.191995 -0.966970 -0.644556 0.452169 -0.307107 0.026523 0.126743 0.167160 0.366154 -0.111742 -0.198701 -0.423692 -0.507471 0.074920 -0.079862 0.198710 -0.684136 -0.063561
242 0.225181 0.348079 0.007878 0.358118 -0.027364 -0.144906 -0.166478 -0.529524 -0.164113 0.204438 -0.626887 0.265984 0.127899 0.505393 -0.328239 -0.205952 -0.099145 0.158777 -0.471333 0.483767 -0.441672 0.064630 0.074440 -0.164752 0.346045 0.368749 -0.070264 0.137232 0.103164 0.704365 -0.653643 0.122157 -0.069305 -0.104784 0.164035 -0.219968 0.048285 -0.159119 0.620533 -0.735997 -0.171138 -0.322343 0.200632 -0.105248 -0.166579 -0.053032 -0.252023 -0.420206 -0.402886 0.759503 -0.064569 0.016060 0.104436 0.269836 0.426133 -0.317607 -0.621579 -0.388267 -0.904848 -0.142744 -0.197898 0.092354 -0.690936 0.320215
148 -0.232657 0.302353 0.085185 0.422101 0.194075 -0.302187 -0.533373 -0.384869 0.161926 0.477735 -0.283906 0.243059 0.419217 -0.053831 -0.796132 0.078649 -0.162861 0.359516 -0.205984 0.424842 -0.301349 -0.000094 0.081260 -0.436763 0.552993 -0.067534 -0.065761 -0.008099 0.069264 -0.103652 -0.744540 0.447895 0.138067 -0.252297 -0.131116 -0.343287 -0.300243 0.200080 0.651636 -0.447890 -0.347153 -0.070215 0.454108 -0.355426 0.053776 -0.146820 -0.198124 -0.108470 -0.395495 0.743578 -0.186140 0.040206 -0.327981 0.424260 0.042739 -0.542591 -0.419338 -0.369024 -0.595703 0.208372 -0.713830 0.511699 -0.623602 -0.035792
3462 -0.084264 0.288750 -0.442804 0.356856 0.207767 -0.113192 -0.348329 -0.457687 0.138063 0.417079 -0.655821 0.260430 -0.193903 0.668138 -0.425208 -0.028047 -0.516726 0.412705 -0.460589 0.398698 -0.395021 0.055242 -0.033036 -0.210105 0.549859 0.170545 0.188155 0.223358 -0.104880 0.825084 -0.541642 0.833372 0.278255 0.001358 0.298318 -0.523513 -0.166061 0.224747 0.441718 -0.484836 0.187692 -0.275379 0.302338 -0.478739 -0.379623 0.105691 0.176675 -0.515490 -0.418897 0.465099 0.047081 -0.036085 -0.089719 0.300869 0.203073 -0.300225 -0.218707 -0.136523 -0.446203 -0.014455 -0.062877 0.201277 -0.455276 0.272161
613 -0.169653 0.098805 -0.321948 0.347827 -0.350500 -0.355838 -0.276950 -0.415901 -0.207853 0.190270 0.099436 -0.066090 0.242663 0.239914 -0.643885 0.073831 -0.595004 0.437516 -0.304040 1.061210 -0.093999 0.294060 0.074859 -0.487730 0.364773 0.024431 -0.096828 0.551171 0.113138 0.337256 -0.543644 0.813882 -0.014917 0.493887 -0.090865 -0.270559 -0.135269 -0.094370 0.351437 -0.409982 0.087470 0.188478 0.085999 0.189430 0.054987 0.620731 -0.069094 -0.517896 -0.041095 0.255630 -0.077791 0.200191 0.382849 0.241362 0.364722 -0.189600 -0.658871 -0.016067 -0.635049 -0.137652 -0.704259 0.070766 -0.349456 0.572729
3980 -0.130905 0.063905 0.076843 0.760050 -0.220185 -0.219691 0.356271 -0.326468 -0.311783 0.324225 -0.408493 0.125436 0.150125 0.147062 -0.804940 -0.197187 -0.248968 0.018662 -0.676804 0.566237 0.106136 0.136170 -0.046817 -0.271904 0.405040 0.298552 -0.162398 0.080056 0.312806 0.551783 -0.429882 0.351912 0.082420 -0.708665 0.566643 -0.773467 0.094543 0.146782 0.598963 -0.405493 -0.031495 -0.402056 0.475278 -0.357711 0.019057 0.067148 -0.127198 -0.532660 -0.413137 0.294642 -0.300768 -0.305922 -0.017548 0.880812 0.368202 -0.557658 0.263373 -0.059116 -0.569301 -0.198309 0.024717 0.373525 -0.673470 0.051293
295 -0.194770 0.158833 -0.034997 0.100497 0.302240 -0.272700 -0.223571 -0.570273 -0.101341 0.150044 -0.561749 0.179980 0.257709 0.139893 -0.803552 -0.180269 -0.072965 -0.222293 -0.912730 0.055983 -0.270189 -0.238217 0.040484 -0.480592 0.763779 0.029617 0.360907 0.510642 -0.300403 0.427784 -0.761416 0.534501 0.018617 -0.037734 0.073501 -0.643544 -0.240472 0.062523 0.460491 -0.538642 -0.177131 -0.403811 0.552679 -0.447009 -0.356494 -0.014811 -0.309595 -0.530930 -0.414415 -0.028846 -0.117126 -0.098090 0.308064 0.552726 0.075132 0.022872 -0.162604 -0.336288 -0.446654 -0.267256 -0.026855 0.106506 -0.740995 0.140593
1479 -0.201962 -0.008412 -0.127580 0.174499 0.498300 -0.121078 -0.225058 -0.422584 -0.051463 0.334690 -1.116763 0.197161 0.011193 0.352931 -0.440932 0.226657 -0.296625 0.604420 -0.216205 0.607331 -0.637975 0.082154 0.173855 -0.022253 0.683748 0.353313 0.133032 0.276376 0.136066 0.944040 -0.575792 0.598059 0.192413 -0.006601 0.206575 -0.467550 0.092558 0.399680 0.549566 -0.521330 0.089343 -0.248356 0.195675 -0.479233 0.064755 -0.096097 -0.246045 -0.386137 -0.460676 0.272127 0.139008 0.275528 0.177541 0.320006 0.065391 0.037767 -0.324085 -0.118203 -0.812218 0.014706 0.014735 0.053806 -0.558422 0.248496
388 0.193464 0.258130 -0.753714 0.651455 -0.272260 -0.753462 -0.777675 -0.181957 -0.041487 0.429236 -0.233103 -0.266574 0.106745 0.033763 -0.261335 -0.005616 -0.019879 -0.160030 -0.309671 0.676562 0.047134 0.243313 -0.346282 -0.238165 0.644812 0.711143 0.011223 -0.022099 0.397680 0.027200 -0.192908 1.035603 -0.069472 0.333114 -0.421312 -0.095062 -0.364826 0.393345 -0.015453 -0.274717 0.039818 0.599905 -0.109764 -0.133990 -0.020674 0.605385 0.089141 -0.856867 -0.446733 -0.128355 -0.263178 -0.144742 0.204945 0.361403 -0.018563 -0.352016 -0.797711 -0.223406 -0.306793 -0.111310 -0.511275 0.635634 -0.441120 0.499740
300 -0.452282 -0.581255 -0.551245 -0.226149 -0.177647 -0.509437 -0.390232 -0.016831 -0.222221 -0.097458 0.011084 0.298170 0.015831 0.222258 -0.721710 -0.176646 -0.099910 0.505081 -0.463850 0.955352 0.081989 -0.031578 0.103582 0.248393 0.442387 0.445858 -0.365658 0.365605 -0.062939 -0.121494 -0.267096 0.700310 -0.049078 -0.110603 -0.156176 -0.368972 -0.294995 0.509931 0.109635 0.053821 0.003948 -0.659456 0.275924 0.175145 -0.107879 0.117869 -0.007522 -0.751050 0.094543 0.257765 -0.003625 0.552677 0.376761 0.354525 0.417368 -0.166720 -0.367837 0.015166 -0.745482 0.541359 -0.017604 -0.033112 -0.085407 -0.144014
1546 -0.237081 0.212505 -0.116077 0.313398 0.030534 -0.190457 -0.014382 -0.558207 -0.365933 0.364886 -0.283234 0.131409 0.020827 0.281791 -0.227881 -0.204182 -0.414621 0.189842 -0.388450 0.285705 -0.424401 -0.075360 0.110175 -0.284413 0.528770 0.013366 -0.088488 0.225067 0.106827 0.336091 -0.781960 0.618362 0.148264 -0.172499 0.185381 -0.433471 0.228213 0.046412 0.976597 -0.476404 0.054343 -0.141193 0.431929 -0.438743 -0.461850 0.458607 0.207447 -0.707464 -0.712215 0.605586 -0.308859 -0.118869 -0.239925 0.775323 0.033512 -0.171994 -0.481349 -0.172754 -0.554650 -0.190608 -0.355357 0.062446 -0.453040 -0.011659
1031 -0.350703 0.211200 0.036183 0.226786 -0.003214 -0.227775 -0.343735 -0.368317 0.074316 0.496018 -0.154071 0.088265 -0.138045 0.396901 -0.734754 0.207402 -0.177588 -0.067593 -0.465332 0.291214 -0.278361 0.131666 0.231566 -0.225935 0.566864 -0.101923 -0.132035 0.099634 0.110178 0.485631 -0.586173 0.592805 0.211999 -0.254519 0.209650 -0.772005 -0.021802 -0.329199 0.669116 -0.604267 -0.342344 -0.490135 0.525440 -0.372997 -0.010050 0.136449 -0.219386 -0.179525 -0.131522 0.486707 -0.256465 -0.265810 0.471360 0.910730 0.301116 -0.251642 -0.216421 -0.397284 -0.579759 -0.289537 -0.095400 0.072013 -0.492449 0.294394
306 -0.205635 -0.229961 -0.475499 -0.167888 0.072924 -0.067091 -0.195247 -0.231423 -0.086871 0.404522 0.212597 -0.126254 0.085708 0.378687 -0.468018 -0.099644 0.176458 0.291674 -0.161667 0.963187 -0.015134 -0.308580 0.041270 0.090305 0.348071 0.285224 -0.782596 0.167689 -0.454785 -0.152643 -0.408913 0.351323 -0.067781 0.002969 0.059586 -0.368154 -0.498679 0.513927 0.051252 0.091560 0.412906 -0.594745 0.196686 0.092069 -0.292462 0.610453 -0.234009 -0.569247 0.060999 0.455902 0.433590 0.381511 -0.021471 0.325120 0.301325 -0.152981 -0.579203 -0.487058 -0.424080 0.968558 -0.049145 -0.029381 -0.432969 0.135421
1264 -0.054194 0.256150 -0.385144 0.426260 0.154710 -0.167234 -0.157703 -0.236798 -0.189210 0.382243 -0.889140 0.376220 -0.323019 0.472882 -0.202602 0.135224 -0.355298 0.519166 -0.330571 0.364793 -0.514504 0.011040 0.160947 -0.025823 0.667479 0.535984 -0.134955 0.295756 0.299194 0.948794 -0.710044 0.744511 0.255036 -0.315373 0.162179 -0.550972 -0.028427 0.402447 0.537890 -0.396808 -0.114869 -0.208071 0.338040 -0.563754 0.018089 0.048666 -0.341354 -0.348046 -0.277398 0.473063 0.089458 0.283425 -0.000684 0.244809 -0.033861 -0.140777 -0.287416 -0.095923 -0.582419 -0.037129 -0.167377 0.227412 -0.653108 0.106710
1430 -0.183431 0.251880 0.042126 0.331862 0.122003 -0.296957 -0.334113 -0.327293 0.111106 0.200477 -0.713886 0.490839 -0.034128 0.160938 -0.610823 0.163296 -0.004265 0.099035 -0.450701 0.297276 -0.415260 -0.290825 -0.203587 -0.215948 0.683349 0.019126 -0.560707 0.277712 0.043425 0.350411 -0.724747 0.754181 0.187875 -0.267839 0.729263 -0.510955 -0.077467 0.033316 0.455714 -0.683294 0.023677 -0.149815 0.575659 -0.212563 0.068850 0.023902 -0.310670 -0.615046 -0.753648 0.464165 -0.655072 0.188799 -0.109676 0.292562 0.100724 -0.492116 0.037663 -0.197149 -0.575947 -0.130008 -0.219330 -0.137467 -0.144542 0.212046
31 -0.295355 0.337768 -0.056705 0.371533 -0.177427 -0.279375 -0.196841 -0.465336 -0.022263 0.323235 -0.584556 0.185390 0.083554 0.378127 -0.711777 -0.053333 -0.270696 0.168367 -0.524475 0.218083 -0.466518 -0.183078 -0.198512 0.038268 0.771143 0.029524 -0.221487 0.059472 -0.101765 0.252269 -0.991649 0.629526 0.191060 -0.108714 0.647245 -0.535373 -0.009932 -0.097043 0.614528 -0.676287 -0.116837 -0.240444 0.443140 -0.317051 0.031436 0.030649 -0.226196 -0.520881 -0.493104 0.423402 -0.391777 0.437690 -0.035476 0.319409 0.026795 -0.208472 -0.227213 -0.249853 -0.459412 -0.373671 -0.022307 0.107116 -0.443484 0.069885
545 -0.132002 -0.194743 -0.484791 -0.196551 -0.184954 0.109571 -0.551646 -0.216838 -0.039661 0.051741 0.163990 -0.029455 0.213632 0.113337 -0.641176 -0.244751 -0.122586 0.210738 -0.240754 1.085937 -0.576012 -0.353780 0.158006 0.091816 -0.006276 0.108806 -0.539957 0.337528 -0.082892 -0.241433 -0.463236 0.213604 -0.144996 0.053035 -0.150807 -0.435553 -0.643669 0.258670 -0.222316 -0.081940 0.600603 -0.561691 0.252203 0.208632 -0.234371 0.388272 -0.075524 -0.782044 -0.325704 0.569610 0.415841 0.263303 0.172158 0.304366 0.147755 -0.224013 -0.546987 -0.386207 -0.811576 0.866808 -0.152807 0.100073 -0.354743 0.032652
123 -0.134706 -0.122802 0.026636 0.144195 0.270243 -0.270466 -0.335536 -0.307423 0.052844 0.203922 -0.274987 0.175356 0.034963 0.559255 -0.577752 -0.014482 -0.536859 -0.033635 -0.566539 0.332902 -0.026446 0.598723 0.396806 -0.489976 0.466717 0.580798 0.023964 0.077000 -0.148379 -0.059155 -0.993771 0.539585 0.268025 -0.458009 0.423464 -0.010555 -0.385610 -0.137423 0.544807 -0.495415 -0.258662 -0.372386 -0.175456 -0.533824 -0.464812 0.147415 0.231783 -0.580392 -0.479902 0.412971 -0.195465 -0.164765 -0.238997 0.906101 0.138778 -0.349000 -0.188972 -0.291879 -0.475598 -0.206925 -0.166101 0.095360 -0.637159 0.071570
2774 -0.278302 0.054661 -0.039536 0.222139 0.052027 -0.250212 -0.007179 -0.734386 -0.319646 0.487279 -0.374867 0.031491 -0.168262 0.349701 -0.217371 -0.161289 -0.419373 0.199488 -0.488698 0.294300 -0.537965 -0.143532 0.103743 -0.304117 0.648378 0.126186 -0.075980 0.142264 0.090704 0.471931 -0.786493 0.533610 -0.039625 -0.400314 0.336687 -0.505710 0.192044 0.120132 0.786148 -0.517103 -0.054854 -0.097075 0.394833 -0.345757 -0.448278 0.088185 0.064086 -0.582690 -0.667391 0.659103 -0.171046 -0.295049 -0.299008 0.706810 0.148523 -0.262174 -0.409881 -0.292632 -0.462363 -0.040050 -0.224131 0.173057 -0.559149 0.116478
131 -0.282918 -0.235458 -0.422700 -0.235937 -0.236265 -0.271478 -0.419892 -0.084285 -0.320930 -0.029737 0.101155 0.052823 0.318624 0.278564 -0.537415 -0.178875 0.022040 0.393421 0.038174 1.104450 -0.294744 -0.160080 0.064439 0.140170 0.383824 0.253320 -0.857262 0.415630 -0.163027 -0.180452 -0.422372 0.287075 -0.113076 0.037587 0.022753 -0.384633 -0.057192 0.257557 0.211083 0.055149 0.269719 -0.611477 -0.101935 0.267814 -0.361651 0.518673 -0.187789 -1.077375 0.325772 0.273829 0.261683 0.213613 -0.161881 0.302461 0.111997 -0.157970 -0.353311 -0.360854 -0.873996 0.274691 -0.005480 0.620382 -0.572147 0.007151
15 -0.180172 0.165723 0.310183 0.598488 0.284203 -0.338002 -0.620036 -0.480207 0.198571 0.319742 -0.380610 -0.123177 -0.063002 0.161624 -0.288631 -0.066875 -0.235720 0.526772 -0.645221 0.574667 -0.170476 0.238293 0.519470 -0.501597 0.380483 -0.212075 -0.175565 -0.263770 0.165852 0.030608 -0.834669 0.342997 0.301534 0.007599 0.020884 -0.229034 -0.335092 0.050663 0.722465 -0.644369 -0.238582 -0.090578 0.342863 -0.161797 -0.563249 0.013700 -0.144243 -0.251874 -0.143275 0.332759 -0.185539 0.147929 -0.306983 0.346668 0.351005 -0.440735 -0.344806 -0.422834 -0.292357 0.149537 -0.209071 0.847876 -0.679279 -0.017468
2721 -0.179029 0.185646 0.037361 0.354890 0.203388 -0.310192 -0.041881 -0.492665 -0.067333 0.345031 -0.308923 0.083615 -0.050410 0.278486 -0.272803 -0.107005 -0.392849 0.273477 -0.610988 0.411489 -0.529095 -0.125365 -0.054575 -0.440805 0.656340 0.035967 0.056256 0.192290 0.246412 0.497750 -0.712775 0.328981 -0.077517 -0.376053 0.421201 -0.658901 0.158785 -0.025452 0.849254 -0.367971 -0.055222 -0.054846 0.364244 -0.306277 -0.388542 0.237336 0.076691 -0.559749 -0.615527 0.516489 -0.108552 -0.017324 -0.201173 0.647667 0.346025 -0.256213 -0.585145 -0.367717 -0.469066 -0.259438 -0.161923 0.211322 -0.438933 0.135944
127 -0.456078 -0.569129 -0.099688 0.895267 -0.249648 0.131088 -0.143760 -0.294595 0.466306 0.721322 0.027789 0.096038 0.042388 0.578471 -0.534826 0.227876 0.397699 -0.249238 0.107327 0.277257 -0.657284 0.064285 0.856478 -0.273741 0.346435 0.214297 -0.385122 -0.502299 0.218894 0.143834 -0.422241 0.544167 -0.016606 0.507273 0.107793 -0.486442 0.135046 -0.269407 0.392073 -0.390893 -0.213918 -0.585193 0.084152 -0.500483 -0.126764 0.219605 -0.244588 -0.522073 -0.068733 0.180078 -0.140296 -0.326326 0.227068 0.444158 0.220648 -0.429182 -0.130740 -0.710833 -0.130324 -0.220334 -0.547791 -0.540314 -0.377955 -0.348859
1746 -0.174135 0.355395 0.517829 0.576035 -0.029589 -0.182516 -0.013147 -0.160591 -0.129753 0.616433 -0.295506 0.137522 0.058379 0.218086 -0.615194 -0.279119 -0.337912 0.239716 -0.600124 0.350515 -0.035881 0.111326 -0.024344 -0.156296 0.577806 0.165365 -0.209583 0.188166 -0.064294 0.661709 -0.551477 0.407413 0.293226 -0.319937 0.391988 -0.541739 0.006674 0.378983 0.316355 -0.455429 -0.086571 -0.271229 0.290428 -0.452230 -0.234083 0.308721 0.049422 -0.442209 -0.670307 0.530810 -0.502628 -0.170200 0.031846 0.552281 0.420724 -0.544513 -0.294416 -0.196228 -0.679933 -0.267499 0.042233 0.376630 -0.672977 0.229628
874 -0.229593 0.245610 -0.083017 0.431183 0.122211 -0.464523 -0.340358 -0.469885 -0.080087 0.262825 -0.309776 0.226052 -0.113010 0.452472 -0.584223 0.054097 -0.187375 0.027504 -0.675466 0.222030 -0.369771 -0.106813 -0.063922 -0.219030 0.458550 0.162920 -0.123015 0.043418 -0.001501 0.157549 -0.728788 0.519603 0.244366 -0.091244 0.712698 -0.352400 -0.150893 0.041274 0.624832 -0.799122 -0.081226 -0.165134 0.417553 -0.435335 -0.237298 0.161423 -0.125613 -0.728507 -0.490752 0.536950 -0.413709 0.266384 -0.026971 0.373560 0.155651 -0.272331 -0.245794 -0.300696 -0.439482 -0.255701 -0.088552 0.039944 -0.472758 0.122120
3291 -0.053076 0.132948 0.147900 0.535952 0.381586 -0.737055 -0.234067 -0.287961 0.111522 0.241981 0.113342 -0.002987 0.050323 0.565890 -0.475325 -0.160381 -0.466614 0.235449 -0.386456 0.082182 -0.224944 -0.063880 0.148297 -0.141284 0.206133 0.255157 0.049112 -0.344009 0.130761 0.618834 -0.579625 0.746315 0.179473 -0.244475 0.449838 -0.404722 0.177897 -0.217533 0.581479 -0.543091 0.087365 0.004429 0.510171 -0.049502 -0.365503 0.001607 -0.430198 -0.771748 -0.637759 0.355802 -0.064291 0.040048 -0.065569 0.528054 0.774795 -0.246562 -0.267396 -0.416156 -0.448946 0.051439 -0.072742 0.159382 -1.139782 -0.001212
791 -0.160085 0.379652 -0.019427 0.361105 0.089312 -0.387118 -0.152387 -0.507047 0.021923 0.452296 -0.584257 0.270931 -0.030180 0.404068 -0.685982 0.144419 -0.149534 0.083961 -0.636280 0.301246 -0.372072 -0.139002 -0.109632 -0.085268 0.662526 0.163842 -0.219682 0.102760 0.037757 0.244454 -0.868036 0.493028 0.261821 -0.129489 0.695830 -0.544487 -0.025397 0.062792 0.554881 -0.647773 -0.185675 -0.262101 0.450474 -0.315431 -0.012896 0.121006 -0.155293 -0.507479 -0.667909 0.313345 -0.395131 0.283585 -0.149956 0.376268 -0.028123 -0.191502 -0.116161 -0.262161 -0.544139 -0.198989 -0.130000 0.094957 -0.582588 0.301567
873 -0.192169 0.317663 0.016136 0.515094 0.136709 -0.274172 -0.384792 -0.597035 -0.084058 0.229289 -0.409083 0.138228 -0.098392 0.477428 -0.624941 0.025578 -0.192568 -0.081046 -0.685610 0.335278 -0.644431 0.064191 -0.189107 -0.210137 0.529954 0.191167 -0.148288 0.033664 -0.087093 0.273620 -0.792280 0.515528 0.161403 -0.016715 0.648592 -0.489604 -0.084356 0.055346 0.666973 -0.790454 -0.078976 -0.193224 0.454179 -0.325850 -0.298313 0.086650 -0.169367 -0.711485 -0.527051 0.510856 -0.411096 0.293716 -0.059705 0.333318 0.267408 -0.228899 -0.189905 -0.267194 -0.534824 -0.215954 -0.041181 0.153621 -0.487102 0.228480
173 -0.196395 0.237771 0.107051 0.578400 0.145820 -0.146787 0.028238 -0.177538 0.022744 0.534553 -0.384335 0.204993 -0.091587 0.375307 -0.835325 0.106706 -0.201402 0.294501 -0.638157 0.345716 -0.532323 -0.188797 -0.250769 -0.201007 0.624302 0.006805 -0.203471 0.484062 -0.081227 0.162801 -0.915493 0.629717 0.084455 -0.001579 0.047613 -0.250516 0.334800 0.247744 0.823231 -0.476015 -0.182479 -0.204712 0.458752 0.033834 0.230703 0.290642 0.127853 -0.418978 -0.579879 0.291353 0.073355 -0.138285 -0.064241 0.651940 0.249499 -0.297936 -0.310564 -0.282657 -0.505384 -0.053991 -0.509392 0.154436 -0.689670 0.285872
4851 -0.100229 0.231068 -0.051686 0.507476 0.323864 -0.275728 -0.042124 -0.607156 -0.070932 0.201413 -0.424516 0.232182 0.019720 0.512935 -0.271558 0.063984 -0.239273 0.139388 -0.420753 0.334781 -0.268413 -0.096233 0.162789 -0.271158 0.487026 0.187977 -0.073500 0.285586 0.247311 0.437986 -0.695007 0.421548 0.508881 -0.167999 0.317765 -0.540813 -0.208766 0.015148 0.559251 -0.565467 -0.066613 -0.261660 0.467713 -0.438364 -0.009861 -0.026077 -0.094690 -0.578217 -0.416051 0.494286 -0.177234 -0.162952 -0.202522 0.687119 0.382474 -0.380734 -0.266854 -0.296140 -0.643742 -0.174232 -0.291576 0.306823 -0.745969 0.291910
910 -0.193817 -0.390061 -0.152677 -0.584344 -0.144381 -0.200508 -0.265065 -0.234685 0.158842 0.062329 -0.443080 -0.074516 0.044877 0.474956 0.021924 -0.295356 0.168422 0.009702 -0.356497 0.742788 -0.144771 -0.314404 -0.355649 -0.258027 0.492911 -0.022574 -0.462602 -0.010721 0.095847 -0.002364 -0.333624 0.473997 -0.333708 0.479251 0.387925 -0.630420 -0.939776 -0.176437 0.206555 0.052677 0.186034 -0.460435 0.114897 0.151537 -0.289180 0.285979 -0.376021 -0.757284 0.060189 0.845539 0.418271 0.260922 0.137423 0.424255 0.450470 -0.403371 -0.138560 -0.147321 -0.796977 0.829697 -0.346786 0.070706 -0.341766 0.398341
288 0.162963 -0.454837 -0.375997 -0.145650 -0.282387 0.044854 -0.534269 -0.316049 -0.070200 0.317612 0.046019 -0.062658 0.063920 0.447711 -0.680278 -0.071221 -0.154752 0.089853 -0.045074 1.071018 -0.112457 -0.205166 0.127954 0.121042 0.259638 0.198047 -0.668827 0.197684 -0.123448 0.131986 -0.543007 0.361596 -0.093881 0.121917 0.015831 -0.576175 -0.496390 0.505873 -0.185947 -0.454137 0.383477 -0.562243 0.095560 0.017380 -0.404285 0.552855 -0.315899 -0.590759 0.035225 0.200452 0.295401 0.410779 0.004007 0.470839 0.213811 -0.023954 -0.269751 -0.157645 -0.742093 0.983278 -0.325334 0.090885 -0.112126 -0.076766
678 -0.302430 0.124184 0.002244 0.292080 -0.011905 -0.145452 -0.024686 -0.272290 -0.146675 0.455435 -0.004141 -0.010991 0.099040 0.514774 -0.490841 -0.070859 -0.528828 0.291418 -0.292061 0.462965 -0.412403 0.021410 0.099100 -0.387759 0.440032 0.178453 0.085443 0.300576 -0.071225 0.344041 -0.965568 0.552060 0.408177 -0.082852 0.051294 -0.223711 -0.259025 -0.037075 0.812954 -0.670113 0.014720 0.140862 0.598507 -0.160461 -0.111486 0.260364 -0.002994 -0.518834 -0.487395 0.494169 -0.366108 -0.064448 0.023193 0.687410 0.438116 -0.427924 -0.258683 -0.180409 -0.864598 -0.094025 -0.309471 0.167093 -0.523060 0.079625
395 0.118030 0.294448 -0.009949 0.218500 -0.071638 -0.431172 -0.122639 -0.398646 0.036382 0.524779 -0.811937 0.440818 0.128046 0.287351 -0.226324 -0.266334 -0.023453 0.306821 -0.283618 0.262698 -0.504368 -0.015974 -0.029977 0.084814 0.709061 0.267450 -0.035580 0.387608 0.223110 0.345418 -0.560580 0.451838 0.026262 -0.262938 0.435349 -0.573773 0.114290 -0.109207 0.620275 -0.564051 0.049664 -0.363331 0.168086 0.060919 -0.131607 0.096641 -0.053172 -0.065716 -0.242671 0.623438 -0.341195 0.109475 0.243479 0.452752 0.546290 -0.416730 -0.508722 -0.199688 -0.707874 0.067401 -0.105041 -0.039231 -0.721739 0.252730
301 -0.481106 -0.505328 -0.473832 -0.215695 -0.346855 -0.173746 -0.360731 -0.291985 -0.292084 -0.112907 0.017162 0.088284 0.178797 0.599014 -0.826184 -0.053814 -0.310049 0.414742 -0.028722 0.938624 -0.067999 -0.276237 0.028841 0.364483 0.497865 0.212717 -0.418356 0.170021 -0.045053 0.105419 -0.471956 0.696863 -0.230750 0.037376 -0.063716 -0.503376 -0.511648 0.332769 0.021242 -0.064803 0.324182 -0.632540 0.027493 0.150665 -0.162665 0.250657 -0.125000 -0.695261 0.072001 0.356180 0.483550 0.378543 0.235570 0.441620 0.322963 -0.203297 -0.447200 -0.179478 -0.576770 0.823901 -0.214274 -0.120306 -0.277507 0.138871
606 0.412054 -0.183291 -0.280048 0.526347 -0.132343 -0.134810 -0.492679 0.084737 0.222082 0.913323 -0.074018 -0.323812 0.203354 0.112887 -0.435780 0.479037 0.032589 -0.003917 -0.183919 0.565852 -0.088219 -0.107940 0.726235 -0.074496 0.621135 -0.008256 -0.332019 -0.355501 0.191120 -0.452494 -0.888850 -0.131170 0.156190 0.249779 0.220992 -0.237420 -0.068370 -0.216145 0.333880 -0.505484 -0.135849 -0.641661 0.318675 -0.427457 -0.198368 0.177891 -0.688134 -0.559416 -0.055682 0.130679 0.377058 0.170720 0.560421 0.760331 0.177177 -0.073332 -0.069840 0.279642 -0.554488 0.477504 -0.631292 -0.119542 0.739800 -0.144853
876 -0.131903 -0.222402 -0.437627 -0.115020 -0.040745 -0.056007 -0.363677 -0.166059 -0.117117 0.237221 0.073426 -0.019549 0.013091 0.464263 -0.597061 -0.202422 -0.005264 0.330663 -0.251025 0.850397 -0.126954 -0.288625 -0.018896 -0.041202 0.371390 0.066968 -0.902789 0.313790 -0.090808 -0.060312 -0.467220 0.387294 -0.265611 -0.035844 -0.035045 -0.512952 -0.608154 0.416670 -0.060505 -0.030235 0.337571 -0.576680 0.082125 0.131180 -0.264486 0.462964 -0.379192 -0.720171 0.165624 0.490752 0.464377 0.255266 0.090453 0.226488 0.232208 -0.102655 -0.635319 -0.274112 -0.625860 0.983131 -0.332314 0.162693 -0.196781 0.087043
604 -0.216922 -0.296653 -0.445933 -0.019396 0.168128 -0.426343 -0.108500 -0.269008 -0.021087 0.078210 0.151608 0.130740 -0.068908 0.334142 -0.682016 -0.486138 -0.061113 0.472160 -0.538838 1.150137 -0.079980 -0.236518 0.258507 0.123515 0.165169 0.270845 -0.399279 0.340027 0.069162 -0.149560 -0.344321 0.235646 0.212594 -0.069699 0.112178 -0.514761 -0.206449 0.263668 -0.000172 0.000254 0.227187 -0.297886 0.157663 0.173260 -0.217086 0.463123 -0.412855 -0.850776 -0.041504 0.191973 0.272940 0.464735 0.267720 0.057423 0.582422 -0.036170 -0.697488 -0.037563 -0.667745 1.076107 -0.238681 -0.046926 -0.119415 -0.048278
132 -0.607264 -0.468717 -0.638754 0.112855 0.237881 -0.002718 -0.526155 0.086129 -0.226708 0.776995 -0.342454 0.003763 0.400062 0.439363 0.073766 -0.001770 -0.235402 0.663703 -1.090492 0.006399 -0.291166 0.619130 0.467977 -0.208550 0.598744 0.637245 -0.222484 0.005632 -0.324317 0.041436 0.424199 -1.069202 0.613029 -0.902226 0.061789 -1.062162 -0.260685 -0.354866 -0.639781 0.349961 0.680263 0.087214 0.337130 -0.422258 0.655003 0.414547 -0.527248 -0.791531 -0.762293 -0.263093 -0.891610 0.796549 0.074830 0.800865 0.545475 -0.127661 -0.254068 -0.100162 0.457539 0.549828 -0.736662 0.394606 -0.169686 0.603479
3170 -0.167343 -0.218594 -0.593578 0.104869 0.282266 -0.910430 0.118302 -0.406169 -0.220918 0.404376 -1.075685 0.142681 0.605962 0.294782 0.391003 -0.341374 0.962209 0.396127 -0.102781 0.600731 -0.706505 -0.318304 -0.618903 -0.896683 0.026721 -0.100620 -0.385410 -0.263024 0.379793 -0.109942 0.170106 -0.069371 -0.006997 -0.170709 0.313078 -0.308326 -0.688734 -0.219143 0.349551 0.372337 0.206655 -0.951371 0.487752 0.348729 -0.559190 0.143833 -0.788924 -0.602194 -0.484300 0.265899 -0.247720 0.441746 0.504856 0.512591 0.051035 -0.466950 -0.439421 0.448621 0.150568 0.631210 -0.161173 0.735822 -0.132994 0.352674
1586 -0.308030 -0.215366 -0.635059 0.000313 -0.086343 0.142906 -0.121322 -0.453386 -0.408548 0.508496 0.445909 0.156429 0.155106 -0.215686 -0.523420 0.101410 0.485704 0.366926 -0.075770 0.411550 -0.361133 0.219633 0.220033 -0.110615 0.062596 0.204328 -0.884600 0.488759 -0.333103 -0.212753 -0.468274 0.112157 0.160176 0.010117 0.052417 -0.330018 -0.277769 -0.251935 0.333703 -0.239981 0.737704 -0.673072 0.492561 0.195529 -0.086603 0.253832 0.133595 -0.265126 -0.461437 0.275628 0.791877 0.267171 0.555808 0.442299 0.272980 -0.469919 -0.474530 -0.252779 -0.913949 0.754102 -0.387561 -0.039239 -0.107004 0.001678
3025 -0.259111 -0.468242 -0.429537 0.242198 -0.214964 -0.096671 -0.075121 -0.212680 -0.519362 0.611470 0.461149 -0.280214 -0.113906 -0.002774 -0.476518 0.001436 0.188751 0.493878 0.236702 0.440960 -0.290801 0.203942 0.220424 -0.020627 0.379918 -0.169313 -0.134090 0.584792 -0.272224 -0.129811 -0.945673 0.263175 0.461945 -0.089743 0.309518 -0.413130 -0.278123 0.027040 0.501295 -0.696142 0.482815 0.101457 0.555258 0.147406 -0.380800 0.374413 0.095635 -0.653024 -0.772157 0.162169 0.231953 0.209882 0.251128 0.397384 0.686453 -0.008507 -0.177771 -0.196380 -0.981753 0.235101 -0.394158 0.001235 0.168583 0.001311
143 -0.290227 0.244271 -0.103354 0.352532 0.156596 -0.274592 0.032712 -0.233430 0.016335 0.412626 -0.371817 0.212117 -0.015918 0.557137 -0.722727 0.316601 -0.353990 0.392863 -0.521409 0.420661 -0.386194 -0.223090 -0.148776 -0.123791 0.701326 0.164313 -0.126149 0.496180 -0.083316 0.354077 -0.716087 0.497915 -0.004777 -0.134295 -0.006425 -0.412173 0.094014 0.149518 0.540933 -0.620523 -0.069613 -0.019269 0.441299 -0.192051 0.227146 0.168451 -0.074298 -0.377426 -0.283309 0.543206 -0.248370 -0.204717 0.071874 0.726032 0.266259 -0.187910 -0.358038 -0.284503 -0.670149 -0.104798 -0.440558 0.119955 -0.701443 0.371951
35 -0.420356 0.494147 0.037879 0.352762 -0.350121 0.170568 -0.292750 -0.311825 0.218006 0.770937 -0.086899 -0.107403 0.200885 0.161216 -0.578549 -0.399686 -0.637578 0.379496 -0.057096 0.083454 -0.378018 -0.050825 0.447939 -0.412537 0.763375 0.018178 -0.102108 -0.002172 0.172270 -0.209628 -0.923230 0.794912 -0.372140 0.321135 -0.147333 0.054807 0.166612 -0.085462 0.773436 -0.352832 0.063114 -0.453187 0.251786 -0.222274 -0.134626 0.238784 -0.314951 -0.729208 -0.065073 -0.089305 -0.293282 -0.035089 0.262615 0.203503 0.055623 -0.640229 -0.045353 -0.454749 -0.276024 -0.275925 -0.591294 -0.067410 -0.332556 -0.222442
1369 -0.209945 -0.077876 -0.093046 0.817562 -0.130461 -0.212192 0.114866 -0.349927 -0.120751 0.383900 -0.199571 0.253793 0.075772 0.571358 -0.803919 0.395081 -0.112223 -0.299713 -0.352982 0.587300 -0.504432 0.180086 0.245623 -0.504776 0.308244 0.367443 -0.151353 -0.169723 0.385731 0.445930 -0.682943 0.257014 0.174224 0.135228 0.433884 -0.380164 -0.136263 -0.057286 0.506382 -0.345507 -0.021719 -0.271579 0.393204 -0.378100 -0.257238 -0.115377 -0.089177 -0.662093 -0.117092 0.411993 -0.285915 -0.402364 -0.045096 0.706406 0.403739 -0.200697 -0.109188 -0.359587 -0.587716 -0.217656 0.174232 0.013200 -0.558497 -0.240239
73 -0.316761 -0.365769 -0.104881 -0.011711 -0.067900 -0.015882 -0.995376 -0.013658 0.563124 0.554556 0.021449 -0.202487 0.001209 0.193956 -0.625802 0.067179 -0.192442 0.423001 0.068289 0.437626 0.106510 0.485809 0.448523 -0.613186 1.075623 0.230739 -0.319339 -0.151649 0.329145 -0.001738 -0.969539 0.113083 0.163546 0.177166 0.552651 -0.055115 0.442404 -0.069797 0.100367 -0.436325 -0.163730 -0.361771 0.587681 -0.284750 0.100829 0.234837 -0.529068 -0.412485 0.190881 0.398046 0.130835 -0.494036 0.325674 1.074492 -0.001368 0.082574 -0.474950 -0.433905 -0.284493 -0.115557 -0.633437 0.408601 0.013009 -0.194645
2231 -0.204951 0.126134 0.096495 0.483025 0.123061 -0.431401 -0.210748 -0.362214 0.024374 0.332998 0.056389 0.025529 0.015904 0.611157 -0.843512 0.069786 -0.323854 0.222909 -0.455180 0.511977 -0.314266 -0.088518 -0.060996 -0.373835 0.359576 0.124558 0.083037 0.097005 0.032531 0.391663 -0.781725 0.511678 0.161604 -0.031455 0.073426 -0.180911 -0.222150 -0.171350 0.660487 -0.723872 -0.093694 0.043573 0.373204 -0.247047 -0.084430 0.210345 -0.085155 -0.382038 -0.441091 0.589166 -0.295548 -0.119481 0.004420 0.698760 0.470025 -0.337376 -0.404520 -0.250390 -0.653226 -0.109849 -0.309626 0.268924 -0.658114 0.017430
820 -0.036234 -0.217800 -0.489848 -0.412487 -0.386137 -0.297043 0.071636 -0.721087 -0.782146 0.867755 0.641071 0.226603 0.092956 0.017963 -0.423659 0.306484 0.376734 0.984381 -0.190570 0.293091 -0.105237 -0.310913 -0.048205 -0.277397 0.139922 0.424420 -0.763970 0.214205 -0.292708 0.023977 0.033202 0.128212 -0.193507 0.079022 0.097694 -0.187196 -0.567865 -0.139783 0.329042 0.020327 0.650949 -1.275691 0.053630 -0.028386 -0.363796 0.017351 0.102939 -0.215424 -0.339871 0.379071 0.637090 0.387440 0.329101 0.510172 0.264852 -0.408772 -0.424312 0.206788 -0.030756 0.886584 -0.524992 0.033234 0.135298 -0.122559
3543 -0.349690 0.294556 0.067192 0.299019 0.174918 -0.327615 -0.080835 -0.613875 -0.322523 0.247959 -0.178510 0.148806 -0.019499 0.650724 0.013449 -0.149431 -0.163721 -0.002156 -0.319429 0.563981 -0.138927 0.033578 0.118015 -0.292525 0.452766 0.233927 0.088493 0.267788 0.229316 0.403991 -0.790114 0.346687 0.370623 -0.112176 0.466180 -0.673676 -0.179081 0.072820 0.660876 -0.673966 0.038321 -0.240125 0.379937 -0.421855 -0.324344 -0.042881 -0.024108 -0.681887 -0.336895 0.469134 -0.341944 -0.131746 -0.068054 0.656789 0.557953 -0.478216 -0.556792 -0.355177 -0.750648 -0.188979 -0.221326 0.410924 -0.653088 0.458901
600 -0.113272 -0.446759 -0.495926 -0.183571 -0.161755 -0.209966 -0.410799 -0.199536 -0.222290 0.312159 0.097701 0.026432 0.215221 0.497158 -0.613035 -0.319666 0.009471 0.276064 -0.277505 0.758105 -0.149079 -0.327098 0.213882 0.142121 0.473827 0.108848 -0.622646 0.342117 -0.089069 -0.018581 -0.517715 0.397673 -0.117208 0.082841 0.260646 -0.463308 -0.512892 0.278359 -0.028130 -0.088645 0.323009 -0.596812 0.141549 0.117008 -0.419226 0.667114 -0.500709 -0.685842 0.139406 0.397805 0.667255 0.406465 0.004923 0.212188 0.261191 -0.217383 -0.658571 -0.391180 -0.704047 0.805525 -0.285692 0.180766 -0.293222 0.090535
587 0.347967 -0.476612 0.236052 -0.033349 -0.016380 -0.242666 0.214562 -0.225177 -0.243985 0.600613 -0.074383 0.692020 0.334053 0.103627 -0.199397 0.031778 -0.193105 0.088416 -0.620977 0.729733 -0.060611 0.039299 0.042305 -0.253505 0.628992 0.775814 -0.466314 -0.675485 -0.043429 -0.276050 -0.122379 -0.124771 -0.005420 0.007186 -0.154147 -0.595349 -0.513854 0.273541 -0.624356 -0.506031 1.280584 -1.191779 -0.235407 0.344088 0.249331 0.425557 0.146744 0.010891 0.039196 0.961479 -0.186720 -0.204698 0.258729 0.179672 0.385806 -0.119557 -0.040496 -0.595730 -0.385829 0.647281 -0.633313 0.166789 -0.381915 0.119004
3355 0.140535 0.479136 -0.739199 -0.638415 -0.445488 -0.412973 -0.421701 -0.147037 -0.271963 0.787040 0.194710 -0.208668 -0.074586 0.263256 -0.290093 0.236960 0.731451 0.892095 -0.038628 -0.544517 -0.257369 -0.141075 -0.226923 -0.017053 0.447701 -0.191158 -0.245566 -0.289595 0.263001 0.420674 -0.480535 -0.686489 0.805209 -0.142733 0.125948 -0.366405 -0.597683 0.049553 -0.068738 -0.327986 0.612130 -0.702219 -0.476691 0.447792 -0.121253 -0.112744 -0.125806 -0.727121 -0.971362 0.644590 -0.099710 -0.028425 0.503957 1.087150 0.447661 -0.361803 -0.162421 -0.055179 0.919601 -0.174245 -0.565159 -0.308436 -0.211462 -0.221905
788 -0.251017 -0.535604 -0.601053 -0.380715 -0.171535 -0.066775 -0.428011 -0.147994 -0.198587 0.255807 0.243428 -0.213098 -0.221801 0.481557 -0.550585 -0.198371 0.194340 0.352085 -0.174774 0.988952 -0.069518 -0.402930 0.322151 -0.096914 0.579645 0.073250 -0.618534 0.179051 -0.335698 0.093877 -0.556766 0.474502 -0.058026 -0.000039 0.236324 -0.171593 -0.249626 0.575938 0.273585 -0.145057 0.354144 -0.736961 -0.012946 0.315155 -0.178432 0.608787 -0.188200 -0.690991 0.031768 0.426859 0.357672 0.423968 -0.053122 0.140052 0.215286 -0.378301 -0.515815 -0.597971 -0.483682 0.839292 -0.293956 -0.301868 -0.174897 -0.003024
1611 -0.233476 -0.352434 -0.568135 -0.246947 -0.171153 -0.056576 -0.265829 -0.228355 -0.206899 0.182171 0.090326 0.156400 0.005238 0.445179 -0.727487 -0.242514 -0.024326 0.153648 -0.299764 0.888174 -0.047032 -0.313916 0.170471 0.046983 0.187988 0.091059 -0.861207 0.100194 -0.111261 -0.148832 -0.500960 0.321032 -0.046482 -0.059543 0.088394 -0.502270 -0.420399 0.394709 0.068045 -0.120216 0.374464 -0.633774 0.019735 0.118337 -0.321491 0.464946 -0.460509 -0.635540 0.003664 0.463808 0.446422 0.405540 0.170102 0.116440 0.336774 -0.094560 -0.615341 -0.202246 -0.649592 0.982951 -0.261107 0.070078 -0.252495 0.073484
226 0.507076 -0.424565 -0.436156 0.284896 -0.570708 0.130571 -0.092819 -0.256180 0.046810 0.869154 -0.138473 -0.385798 0.434424 0.107927 -0.202205 0.419407 -0.065986 0.236120 -0.269135 0.399322 0.000404 -0.706001 0.470203 -0.072282 0.662334 0.467399 -0.160994 -0.173765 -0.285479 0.035493 -0.863143 0.162925 0.012436 0.344750 0.080512 -0.206806 -0.170578 -0.433299 0.715828 -0.400204 0.160727 -0.987898 0.060873 -0.182732 -0.017197 0.196279 -0.262345 -0.588800 -0.405492 -0.424238 0.624217 0.470364 0.121589 0.620857 0.409881 -0.404959 -0.215034 0.309733 -0.504210 0.465030 -0.421543 0.033171 0.726452 -0.403949
5640 0.149953 0.073304 0.371117 0.615514 0.083302 -0.111404 -0.007165 -0.384626 -0.464580 0.348191 -0.304133 -0.134350 -0.015634 0.419395 -0.567724 -0.044388 -0.291100 0.269017 -0.467581 0.346917 -0.218066 0.016569 -0.017526 -0.363712 0.198581 0.247046 0.052014 0.188869 0.029495 0.349228 -0.711527 0.751319 0.327991 -0.274207 0.456693 -0.529470 -0.446780 0.345858 0.597472 -0.830729 0.296619 0.007200 0.463924 -0.668507 -0.333147 0.256774 -0.341692 -0.454074 0.020487 0.817844 -0.358521 -0.165759 -0.043876 0.756188 0.630389 -0.420323 -0.317057 -0.479535 -0.298756 0.073639 0.046302 -0.005909 -0.646282 0.105941
1361 -0.288353 -0.488848 -0.683661 -0.345987 -0.274904 -0.157307 -0.499759 0.049168 0.067830 0.147284 0.097503 -0.124784 0.042524 0.475366 -0.602421 -0.169664 -0.233039 0.403941 -0.398822 0.503650 -0.126197 0.070910 0.049363 -0.114923 0.074297 -0.014930 -0.304541 0.215935 0.124847 0.031002 -0.475258 0.285294 0.114562 -0.087770 0.285538 -0.652400 -0.058894 0.270792 0.204183 -0.065507 0.579284 -0.540339 0.103294 0.023481 -0.320488 0.333857 -0.129123 -0.782021 0.095190 0.604914 0.725165 0.203740 0.164563 -0.094452 0.094351 0.010221 -0.597614 -0.459705 -0.960210 1.309608 -0.292815 0.044778 -0.037689 0.187759
883 -0.314221 -0.415575 -0.500039 0.228158 0.295209 -0.195815 0.180734 -0.493463 -0.062027 0.252001 -0.077412 -0.449362 -0.648958 -0.090891 -0.576263 -0.196388 0.065453 0.449089 -0.438818 0.407118 -0.260905 0.216958 0.257966 0.041844 0.455939 0.204470 -0.783042 0.785041 -0.547633 -0.255381 -0.551014 0.558894 0.345511 -0.241149 0.331768 -0.145563 -0.046077 -0.069339 0.404483 0.060192 0.484400 -0.304238 0.199140 0.221082 -0.161272 0.035711 0.017169 -0.515019 -0.791907 0.455818 0.524892 0.115994 0.386975 0.326291 0.166605 -0.139489 -0.526778 0.080662 -0.771280 0.660654 -0.524250 -0.214937 0.017256 -0.020039
745 -0.533961 -0.759273 -0.346382 0.692838 -0.105078 0.044102 0.170718 -0.115513 0.070427 1.201951 0.422959 0.248726 0.353509 0.211402 -0.579645 -0.362714 0.128888 0.056203 -0.529588 0.120336 0.083081 0.101775 0.988731 -0.389211 0.374019 -0.061705 -0.668956 -0.722401 -0.215656 0.309240 -0.347538 0.183807 -0.082630 0.284781 0.066689 -0.484022 0.210932 0.187853 0.101119 0.020933 0.655696 -0.287768 0.031557 -0.220342 -0.451187 0.479969 -0.517089 -0.828767 -0.538040 0.686066 0.344000 -0.440821 0.514282 0.277977 0.142938 0.106291 -0.093429 -0.332543 0.025628 0.421453 -0.580603 -0.358562 -0.887900 0.023947
302 -0.185779 -0.226626 -0.457203 -0.296974 -0.120007 -0.216169 -0.440486 -0.152350 -0.222780 0.274217 0.004563 0.123740 0.156278 0.536621 -0.599352 -0.311062 -0.027345 0.276414 -0.342582 0.720226 -0.256687 -0.464178 0.142833 0.054740 0.328800 0.203661 -0.526603 0.268860 -0.208885 -0.103036 -0.516953 0.378549 -0.277797 -0.235432 0.228530 -0.527431 -0.586765 0.407844 -0.045000 0.006398 0.376693 -0.506045 0.106813 -0.011375 -0.386344 0.568614 -0.374697 -0.682978 0.003223 0.313789 0.653403 0.387875 -0.174255 0.046641 0.375141 -0.351124 -0.592872 -0.340810 -0.670327 0.868921 -0.306924 0.268045 -0.303696 0.042154
3998 -0.260938 0.064523 -0.485256 0.426926 0.494195 0.004135 -0.092650 -0.084895 -0.293635 0.468174 -0.204132 -0.135803 0.279438 0.308660 -1.185999 -0.214091 -0.183204 -0.256539 -0.644676 0.919211 -0.202646 -0.382034 -0.328990 -0.163295 0.518667 0.363418 0.331184 0.043036 0.155336 0.314672 -0.277059 0.180654 0.558442 -0.298117 0.082519 -0.615201 0.179559 0.402036 0.597607 -0.064458 0.101758 -0.370330 0.789834 0.078715 -0.228731 -0.115469 -0.978243 -1.035128 -0.393892 -0.107428 -0.300548 -0.300617 -0.000811 0.473152 0.705525 -0.132465 0.070059 0.360395 0.011184 -0.091234 -0.288286 0.106289 -0.584857 -0.448114
602 -0.344211 -0.299840 -0.678287 -0.344151 -0.816702 -0.239932 -0.335898 -0.142285 -0.327972 0.024264 0.233135 0.200408 0.080958 0.493765 -0.757728 0.116719 -0.246665 0.184516 -0.224059 0.712433 -0.005889 -0.185831 -0.026726 0.288369 0.427919 0.334320 -0.566188 0.321648 0.045118 0.187587 -0.550149 0.695507 0.239676 -0.079886 -0.045811 -0.397175 -0.383366 0.443529 0.031468 0.015101 0.328837 -0.773099 0.179856 -0.037957 -0.322286 0.371238 -0.033761 -0.643186 0.148282 0.278318 0.384189 0.495895 0.155408 0.121450 0.085399 -0.210385 -0.490935 0.127291 -0.597009 0.593081 -0.010615 0.031029 -0.544270 0.006237
4238 -0.373409 0.152777 0.023654 0.643218 0.141702 -0.245758 -0.113569 -0.212367 -0.086504 0.404476 -0.429357 0.554221 -0.074012 0.384706 -0.426218 0.138141 -0.164773 0.345816 -0.209666 0.691176 -0.189467 0.105455 -0.144833 -0.193670 0.850035 0.101181 0.058037 0.481966 0.163625 0.335140 -0.687722 0.670411 0.197447 -0.552856 0.185143 -0.409310 -0.104477 -0.253996 0.708869 -0.380060 0.022663 -0.300242 0.236412 -0.261611 -0.074771 0.015360 -0.304276 -0.252565 -0.602021 0.610126 -0.199555 0.423916 0.173040 0.773951 -0.019016 -0.061818 -0.229535 -0.118755 -0.385089 -0.319894 0.018177 0.208371 -0.747508 0.316734
949 -0.198010 -0.404163 -0.516417 -0.293408 -0.171403 -0.107483 -0.389412 0.026720 -0.146260 0.243355 0.120764 0.041863 0.105437 0.489799 -0.448714 -0.187883 -0.183501 0.295153 -0.402512 0.947826 -0.226601 -0.301582 0.063968 0.020845 0.289271 0.088983 -0.878003 0.260024 -0.062200 -0.112468 -0.391465 0.419297 -0.092476 -0.085286 -0.092512 -0.656265 -0.536992 0.316950 0.084606 -0.085024 0.227014 -0.659170 0.118084 0.194691 -0.206995 0.599855 -0.248662 -0.665648 -0.065161 0.520651 0.489983 0.259224 0.106473 0.057410 0.312422 -0.082698 -0.518337 -0.226035 -0.541938 0.992232 -0.204631 0.023641 -0.172611 0.074240
3087 -0.208367 0.238544 0.197002 0.602814 0.291723 -0.479007 0.081096 -0.171076 0.023216 0.533340 -0.701950 0.141579 -0.296772 0.277055 -0.605962 0.070907 -0.013575 0.072530 -0.617714 0.440691 -0.411556 -0.152399 -0.031261 0.016274 0.762961 0.293602 -0.274717 0.622245 0.091412 0.218198 -0.785943 0.703183 0.273878 -0.205445 0.103831 -0.514735 0.182172 0.202493 0.572876 -0.364311 -0.236132 -0.412032 0.470991 0.030521 0.032581 0.240207 0.172305 -0.380531 -0.646401 0.340956 -0.000570 0.020160 0.036523 0.724299 0.241869 -0.237778 -0.181161 -0.365695 -0.458025 -0.160779 -0.124636 0.201308 -0.585039 0.259723
2118 0.219464 0.156660 -0.715287 -0.689521 -0.226088 -0.312349 -0.230005 -0.137709 -0.343700 0.773055 -0.025845 -0.298694 0.268769 0.107714 -0.175334 -0.310858 0.731443 0.677709 0.024664 -0.046372 -0.267336 0.390101 -0.104573 0.165736 0.339404 -0.429547 -0.006724 -0.326070 0.025220 0.170989 -0.773248 -0.528172 1.079976 0.034933 0.077361 -0.564427 -0.679136 0.011244 -0.204724 -0.558656 0.419863 -0.570884 0.005819 0.774385 -0.454403 0.060175 -0.024768 -0.552282 -1.120622 0.511475 0.157007 -0.045666 0.536618 1.031784 0.558778 -0.055413 -0.236717 0.235308 0.182546 -0.148814 -0.565713 -0.224146 0.436249 0.024236
6 0.189024 -0.434468 -0.514140 -0.113010 -0.955738 -0.500832 -0.145044 -0.265552 0.079282 -0.513476 -0.294650 0.194137 -0.016696 0.273667 -0.609113 0.106831 -0.249055 0.041170 0.325988 0.676280 -0.161386 -0.098724 0.377559 0.282728 0.489484 0.156934 -0.391204 0.040976 0.077150 -0.456461 -0.470348 0.802483 -0.126973 0.026737 -0.329499 -0.511472 -0.038966 0.193364 0.090619 -0.399037 -0.089536 -0.535120 0.323788 0.340872 -0.221432 0.092713 -0.207061 -1.234065 -0.031007 0.522290 0.264607 0.376694 0.111346 0.415981 0.483587 -0.394146 -0.620101 -0.051678 -0.293126 -0.008649 -0.062255 0.411747 -0.238925 0.697877
462 0.171783 0.207385 -0.655523 -0.684611 -0.274184 -0.499174 -0.229528 -0.193000 -0.434071 0.355032 0.227096 -0.638192 -0.366501 0.224425 -0.197546 0.022525 0.526810 1.132145 -0.168653 -0.308110 -0.415921 0.065433 0.012444 0.141554 0.663233 -0.081893 -0.208436 -0.475548 -0.116401 0.232904 -0.419919 -0.614393 1.100863 -0.107552 -0.011883 -0.441340 -0.248284 -0.012916 0.164089 -0.586992 0.266819 -0.840533 -0.611844 0.793755 0.090976 0.034948 -0.144360 -0.804355 -1.220794 0.435333 -0.163596 0.120921 0.575024 0.710122 0.722813 -0.337352 -0.189471 0.334658 0.668857 -0.141800 -0.723665 -0.354083 -0.186259 -0.167061
4064 -0.847201 -0.809328 -0.241402 0.542312 -0.026763 -0.047495 0.084532 -0.065475 0.214849 1.215456 0.058178 0.221160 0.571975 0.001655 -0.445640 -0.385319 0.504525 0.055446 -0.570793 0.262540 0.350691 0.277324 0.836504 -0.447465 0.023403 0.141812 -0.651038 -0.689905 -0.475320 0.179628 -0.528456 -0.126090 -0.285125 0.286007 0.059158 -0.474010 -0.047186 0.186704 0.052696 -0.033025 0.664904 -0.704907 -0.474140 -0.249677 -0.334620 0.368401 -0.385989 -0.867921 -0.587285 0.490333 0.184828 -0.364901 0.619719 0.384377 0.133410 0.253146 -0.065374 -0.415798 0.025759 0.281064 -0.334514 -0.322498 -0.894926 0.075535
1168 0.144796 -0.134843 -0.296644 -0.454697 -0.252073 -0.372606 0.064077 -0.088321 -0.293489 0.669661 -0.337653 0.330972 -0.141599 0.147415 0.240431 -0.299986 0.305918 0.359044 -0.582689 0.420836 -0.350107 -0.199589 -0.225436 -0.038930 0.386485 0.638296 -0.194556 0.065492 0.094270 0.148040 -0.430303 -0.167101 -0.380423 0.307829 0.397650 -0.236063 -0.262510 0.192971 0.428067 -0.767988 0.074151 -0.675078 0.114003 0.213299 0.068156 -0.085155 0.225902 0.021334 -0.359606 0.708689 0.115881 0.115434 0.279034 0.348319 0.670920 -0.528159 -0.375441 -0.346648 -0.820900 0.367873 -0.057485 -0.100896 -0.592160 0.348461
4334 0.116277 0.234189 -0.000333 0.370104 -0.098799 -0.590014 0.085887 -0.518558 0.106360 0.280476 -0.702322 0.313822 -0.090405 0.202433 -0.349069 0.454016 -0.351002 0.158532 -0.344207 0.450215 -0.305583 -0.281687 0.086615 -0.105544 0.949968 -0.048417 -0.209485 0.543709 -0.041685 0.523870 -0.670589 0.695556 0.215457 -0.291978 0.208045 -0.429819 0.040388 0.114099 0.505257 -0.650318 0.049055 -0.517567 0.412491 -0.164728 0.119607 -0.055865 -0.370937 -0.393758 -0.723409 0.432179 -0.456815 -0.233184 -0.127309 0.695701 0.438911 -0.174122 -0.357000 -0.257185 -0.444700 0.041280 -0.188018 0.181864 -0.592312 0.129742
518 -0.090715 0.186910 0.039672 0.386808 -0.061419 -0.454150 -0.306824 -0.296496 0.136981 0.049690 -0.766368 0.293241 -0.046487 0.279145 -0.530540 -0.111437 -0.173485 0.455738 -0.042366 0.631191 -0.359900 -0.126136 0.203939 0.014011 0.634050 0.127552 -0.159368 0.203140 0.059584 0.210626 -0.917533 0.680544 0.238000 -0.093833 0.017585 -0.526810 -0.080212 0.114984 0.518685 -0.562790 -0.182327 -0.156166 0.451055 -0.220930 0.040319 -0.081058 -0.112080 -0.444682 -0.492906 0.457656 -0.145632 0.043377 0.006383 0.575138 0.130676 -0.365498 -0.248134 -0.441131 -0.302996 -0.002132 -0.120857 0.291297 -0.664899 0.297483
3405 -0.229961 -0.437966 -0.573035 0.169116 -0.084171 -0.091293 -0.246831 -0.265977 0.140958 0.454015 0.081802 -0.543589 0.011036 0.183727 -0.485123 -0.291948 0.107974 0.325803 -0.013130 0.364106 -0.200959 -0.205095 0.438215 -0.157518 -0.211904 0.027036 -0.816914 0.025917 -0.228835 -0.430825 -0.242639 0.507037 0.446349 -0.377754 0.072660 -0.585001 -0.035814 -0.045600 0.117302 -0.187555 0.816767 -0.328339 0.593832 0.253336 -0.412456 0.249819 0.250285 -0.561624 -0.841423 0.282998 0.632376 0.048016 0.498404 0.313269 0.357232 -0.145386 -0.368890 -0.092945 -1.128877 0.617552 -0.437492 -0.188169 -0.329718 0.116755
580 -0.033930 0.459952 0.011531 0.396007 0.047330 -0.658642 0.043989 -0.350513 0.038382 0.727781 -0.638285 0.022859 0.154968 0.451280 -0.559837 -0.010218 -0.162210 0.399692 -0.269732 0.703145 -0.143541 -0.046632 -0.110039 -0.119354 0.676492 0.321129 -0.009508 0.371363 0.226515 0.341575 -0.753721 0.561304 0.276114 -0.370332 0.091529 -0.519564 0.140117 0.278676 0.588376 -0.256085 -0.217354 -0.321480 0.392469 -0.443909 0.046985 -0.235451 -0.042364 -0.574637 -0.509838 0.584893 -0.227524 -0.040382 -0.159712 0.585543 0.307710 -0.291168 -0.126456 -0.292597 -0.453266 0.011449 -0.032121 0.073168 -0.620206 0.014214
4806 0.189566 0.310653 -0.601528 -0.834693 -0.199895 -0.313469 -0.245535 -0.132979 -0.580909 0.844586 0.071889 0.070992 -0.080972 0.142193 0.005073 0.194790 0.627905 0.867152 -0.409807 -0.189427 -0.106338 -0.134382 -0.384345 -0.192567 0.328504 0.329462 -0.117090 -0.222533 0.011960 0.486602 -0.358580 -0.493984 0.532760 0.083519 0.167879 -0.506326 -0.341663 0.016785 0.137138 -0.730055 0.630090 -1.015117 -0.664136 0.725202 -0.019562 -0.092418 0.285468 -0.355413 -0.877220 0.690774 0.041440 0.174976 0.524753 0.893233 0.751736 -0.222469 -0.548618 -0.046380 0.500437 -0.109900 -0.548180 -0.467646 -0.111043 -0.107829
438 -0.815783 -0.444234 0.056238 0.036871 0.272057 -0.158208 0.005097 0.008629 0.193278 0.776581 0.014026 -0.040570 0.915538 0.097517 -0.863366 0.019467 0.546044 -0.036560 -0.227799 0.564249 0.574326 0.582930 0.391454 -0.339300 -0.037107 0.348582 -0.826724 -0.210388 -0.706540 0.118466 -0.842133 -0.111582 -0.223994 -0.096794 0.072556 -0.503643 -0.404385 0.333922 -0.043337 -0.099327 0.794669 -1.172257 -0.297873 -0.141754 -0.417933 0.705414 -0.337371 -0.972527 -0.229147 0.211412 0.023922 0.066846 0.400634 -0.028050 0.045587 -0.280266 -0.222960 -0.229819 -0.328315 -0.048659 0.062268 -0.030074 -0.798122 0.067342
897 -0.169793 -0.280214 -0.525736 -0.405822 0.177056 -0.065626 -0.541598 -0.481277 0.230790 0.228257 -0.752468 0.067964 -0.060750 0.645301 -0.999533 -0.186524 -0.220960 -0.134846 -0.302449 0.616860 -0.585850 0.042917 -0.400561 -0.985002 0.708925 0.392684 0.301994 -0.496674 0.300519 0.749860 0.118880 0.615317 0.131600 -0.360419 -0.142703 -0.686487 0.091123 0.897054 0.687818 0.010769 0.638887 -0.469179 -0.021630 0.397146 -0.050567 0.233023 -0.318770 -0.366566 -0.511640 -1.009689 -0.044218 0.393854 0.351845 0.309863 0.029582 -0.733687 -0.144024 0.438431 -0.548419 0.089815 -0.419830 -0.045248 -0.318386 0.011158
1644 -0.154217 0.011533 -0.395785 0.003800 -0.052703 -0.192444 -0.130716 -0.040826 -0.290827 0.234289 0.122592 0.029219 -0.099030 0.275816 -0.442498 0.001092 -0.161834 0.376886 -0.204375 0.925666 0.201908 -0.166570 0.040983 -0.013129 0.380478 0.023906 -0.840948 -0.044051 -0.208037 -0.026269 -0.106727 0.531462 -0.273313 0.026479 -0.092096 -0.305851 -0.641483 0.414653 0.250617 -0.039592 0.668076 -0.790814 0.109545 0.506401 -0.360639 0.466606 -0.504936 -0.597079 -0.100208 0.617497 0.494069 0.202534 0.254890 0.426210 0.455984 -0.018981 -0.409066 -0.426221 -0.693206 0.996406 -0.365688 -0.114215 -0.186272 0.163568
601 -0.026741 -0.245065 -0.444978 -0.270047 -0.248633 -0.231594 -0.340182 -0.074798 -0.285150 0.398167 0.161687 0.102487 0.152518 0.307486 -0.558896 -0.312571 -0.082079 0.328728 -0.313477 0.932183 -0.115207 -0.241411 0.162223 0.145379 0.322895 0.133343 -0.622180 0.201319 -0.133815 -0.019127 -0.378214 0.453907 -0.136895 -0.102516 0.276010 -0.379796 -0.491670 0.432085 0.027337 -0.074024 0.395958 -0.587546 0.151791 0.181562 -0.471685 0.599982 -0.333287 -0.869727 0.121013 0.460135 0.505842 0.468401 0.025773 0.216847 0.179145 -0.131229 -0.617764 -0.371852 -0.697969 0.895533 -0.243534 0.125710 -0.192236 -0.010613
908 0.715166 -0.547078 -0.400460 0.554000 -0.476232 -0.017696 -0.515384 -0.166490 0.219917 0.613649 -0.328970 -0.198853 0.182278 0.189682 0.295824 0.206590 0.143417 0.044488 -0.177874 0.568694 -0.259671 -0.740188 0.219588 -0.038842 1.156549 0.162052 -0.367571 -0.402670 -0.268183 -0.223512 -0.750935 0.287318 0.032781 0.003402 0.181785 -0.131774 0.026245 -0.252281 0.279674 -0.369306 0.323384 -0.876799 0.261962 -0.261932 -0.149781 0.257865 -0.768282 -0.447649 -0.484135 -0.153291 -0.081172 -0.097357 0.288825 0.980480 0.627488 -0.269729 -0.200935 0.431834 -0.390557 0.574921 -0.205477 0.169023 0.501907 0.031492
729 0.057858 -0.030713 -0.653149 0.611998 0.075475 0.096541 0.190467 -0.026306 -0.615756 0.299858 -0.252793 -0.206393 0.095901 0.324557 -1.012735 -0.129206 -0.162219 -0.204252 -0.382286 1.007162 -0.264800 -0.256444 -0.014434 0.018722 0.728314 0.503779 0.418537 0.005675 0.196695 0.379205 -0.331639 -0.108300 0.174241 0.114201 0.255599 -0.611394 -0.122681 -0.184294 0.583683 -0.321942 0.015405 -0.402913 0.821649 -0.128012 -0.331273 -0.293459 -1.028511 -0.985532 -0.246654 -0.133299 -0.119947 -0.356799 -0.130781 0.708966 0.640358 -0.375041 0.069330 0.428482 -0.145684 0.026196 -0.093999 0.108531 -0.203207 -0.298964
1014 0.226078 0.021505 0.040779 -0.371012 -0.115292 -0.098350 0.087784 -0.078520 -0.496563 0.818375 -0.300724 0.623426 -0.255483 -0.015099 0.218911 0.127937 0.126992 0.379752 -0.680378 0.321584 -0.085839 -0.026343 -0.156480 0.058469 0.448044 0.885211 -0.257285 -0.380336 0.203206 -0.069988 -0.207719 -0.142743 -0.310458 0.339733 -0.062269 -0.440480 -0.255108 0.365757 -0.156640 -0.882725 0.988739 -1.101573 -0.105651 0.540667 0.345442 -0.004000 0.324930 0.028146 -0.472775 0.729957 0.157146 0.012773 0.370774 0.570566 0.373480 -0.081326 -0.562804 -0.445517 -0.634880 0.561707 -0.369575 0.144180 -0.397550 0.019700
3606 -0.220297 -0.407087 -0.735512 0.136453 0.178047 -0.044416 -0.006140 -0.181481 -0.254952 0.731861 -0.080824 -0.453991 0.085737 0.004275 -0.658671 -0.314640 0.195867 0.369981 -0.046612 0.298792 -0.254198 -0.047268 0.407356 0.088640 0.268174 -0.412252 -0.486452 -0.305990 -0.114938 -0.404550 -0.651800 0.055582 0.645833 -0.157918 0.089567 -0.430793 -0.296506 0.275949 0.203537 -0.717431 0.332119 -0.506149 0.761507 -0.087592 -0.433544 0.364336 0.130742 -0.579820 -0.516696 0.288085 0.402649 0.060962 0.496787 0.719609 0.371186 0.165376 -0.145445 0.296355 -0.836989 0.566993 -0.338687 0.038775 0.570719 -0.120921
2443 -0.045014 -0.299392 -0.175183 -0.199736 -0.089357 -0.057411 -0.282458 -0.100070 -0.246036 0.136605 0.060774 -0.149833 -0.065751 0.426023 -0.483732 -0.172354 -0.185481 0.370079 -0.461419 0.733498 -0.230537 -0.404954 0.217036 -0.142212 0.075413 0.060381 -0.491960 0.149314 -0.013983 -0.142252 -0.361348 0.436380 -0.201904 -0.154439 -0.011076 -0.503355 -0.591078 0.601453 0.104669 -0.218460 0.689055 -0.449742 0.317321 0.169791 -0.228541 0.815168 -0.438630 -0.794648 0.167776 0.561643 0.471464 0.178907 0.206248 0.159282 0.382061 -0.245904 -0.496675 -0.491050 -0.610763 1.050589 -0.230600 -0.144468 -0.335752 -0.147730
2255 -0.411217 -0.829197 0.339886 0.685883 0.175068 -0.094489 0.300534 -0.034013 -0.063634 0.809030 0.174269 0.628468 0.452445 0.126552 -0.485311 0.066606 -0.001231 -0.251424 -0.296160 0.348735 0.002892 0.482554 0.883195 -0.338300 0.421611 0.262881 -0.364395 -0.798742 0.023159 0.154570 -0.580418 0.376039 0.000772 0.333840 0.102438 -0.352644 -0.129747 0.277495 0.163660 -0.173242 0.514473 -0.478821 -0.266043 -0.192559 -0.483750 0.669045 -0.297797 -0.940454 -0.477910 0.827259 0.167636 -0.380292 0.558519 0.347901 0.143442 0.134188 -0.245813 -0.327885 -0.084600 0.214220 -0.400862 -0.258343 -0.674941 -0.042966
4815 -0.066813 0.233600 0.131167 0.457996 -0.091770 -0.500349 -0.060460 -0.281115 -0.159139 0.283449 -0.515903 0.316996 -0.245593 0.402630 -0.537908 0.021205 -0.021461 0.274427 -0.329786 0.292810 -0.338595 -0.203692 0.206454 -0.204454 0.693842 0.309592 -0.050609 0.338984 0.155771 0.385360 -0.728139 0.704816 0.317944 -0.205662 0.240990 -0.665801 0.099403 0.293211 0.606673 -0.555749 -0.224243 -0.139446 0.404492 -0.347696 0.080165 0.139411 -0.139981 -0.228980 -0.597341 0.518581 -0.309505 0.032950 0.073935 0.535790 0.202730 -0.340804 -0.389424 -0.429998 -0.514888 -0.008555 -0.211465 0.102145 -0.775308 0.142218
3041 -0.229461 -0.342788 -0.569805 0.138379 -0.066965 0.108579 0.315524 -0.323615 -0.221932 0.578312 0.283808 0.014761 0.021629 0.111044 -0.385953 0.145233 0.034639 0.676995 -0.358200 0.574377 0.278181 -0.281255 -0.094406 0.088937 0.145853 0.256274 -0.763123 0.179134 -0.436085 0.059875 0.050286 0.113756 -0.057085 0.502295 0.064682 -0.567665 -0.716129 -0.116137 0.611554 -0.153959 0.947374 -0.811274 0.235704 0.125220 -0.184209 0.089964 -0.358496 -0.513953 -0.369279 0.749586 0.934428 0.062410 -0.044623 0.495012 0.293732 -0.262228 -0.504780 -0.222602 -0.501559 0.680854 -0.107121 -0.041972 0.017707 -0.127590
2390 0.240245 -0.504388 -0.469114 0.299732 0.173115 -0.275692 -0.210064 -0.486746 0.523573 0.665549 -0.721261 -0.256283 0.052792 0.286607 -0.196823 -0.136774 -0.471647 0.449291 -0.224936 0.591741 -0.180009 -0.090423 -0.227684 -0.481727 0.485459 0.185549 0.145843 0.116979 0.050523 0.784144 -0.097475 0.817302 0.129562 0.718749 0.295621 -0.943282 -0.506455 0.321805 0.705069 -0.262247 0.152245 -0.550469 0.005033 -0.485404 0.073081 0.112939 -0.000686 -0.247962 -0.746663 -0.129027 0.228728 0.136360 0.211121 0.206165 -0.208508 -0.087430 -0.607127 0.025724 -0.616363 -0.026402 0.171371 0.088809 -0.428335 0.233127
3228 -0.226400 -0.142024 -0.425439 -0.572283 -0.383138 -0.146471 0.129573 0.050508 -0.308682 0.782427 0.144612 0.900978 -0.316577 0.404210 0.011104 0.024103 0.331030 0.645033 -0.539374 0.016610 -0.198350 -0.053430 -0.219464 -0.289533 0.463124 0.859817 -0.592307 -0.058841 -0.329712 -0.031272 -0.239718 -0.362336 -0.106384 0.406477 -0.038804 -0.512251 -0.436775 0.077333 0.142491 -0.637199 0.763089 -0.553206 -0.246749 0.224365 0.154507 -0.291496 0.380141 0.029100 -0.546884 0.494531 0.338481 0.105003 0.308912 0.862852 0.732454 -0.260010 -0.537062 -0.456338 -0.858378 0.610263 -0.133338 0.297454 -0.431736 0.268503
305 -0.437360 -0.171721 -0.960446 0.216258 0.237386 -0.752325 0.148794 0.054640 0.037845 0.366444 -0.083336 -0.082666 0.116689 0.177555 -0.936054 -0.698546 0.330220 0.459974 -1.196104 1.303021 0.276122 0.024745 0.384318 -0.396487 0.377449 0.458907 0.268405 -0.049625 -0.120391 -0.149236 -0.048764 0.174971 0.188384 0.158386 0.153687 -0.256319 -0.235228 -0.209993 -0.138396 0.211511 -0.232627 -0.064266 0.499133 -0.049364 -0.246059 -0.146936 -0.396881 -0.669246 0.101208 -0.061833 -0.007312 0.246083 0.203528 -0.039580 0.550502 -0.122362 -0.626233 0.355793 -0.232019 0.625091 -0.581092 0.156804 0.071540 -0.153517
337 -0.370265 -0.530765 -0.166922 -0.218509 0.002251 -0.098738 -0.438682 -0.118674 0.042885 0.285622 0.271580 0.085706 -0.040264 -0.383574 -0.753701 0.245077 0.222730 0.252970 -0.266253 0.436303 -0.202289 0.398866 0.067459 -0.682123 0.172990 -0.140028 -0.766959 0.545828 0.149696 -0.175723 -0.707529 0.342052 0.430099 0.105450 0.411500 -0.556012 0.189368 -0.215367 0.149479 -0.136219 0.801410 -0.067938 0.549235 -0.220656 -0.275942 0.380434 0.055661 -0.711948 -0.073693 0.575858 0.884979 0.081920 0.293453 0.538700 0.224104 -0.077674 -0.579186 -0.485340 -0.884936 0.762085 -0.805668 -0.140598 0.136930 -0.068565
1339 -0.048893 -0.008642 -0.616991 -0.252417 -0.395617 -0.742881 0.164711 -0.193014 -0.145306 0.128144 -1.400054 0.015896 0.338554 0.366162 0.053565 -0.335808 0.887735 0.226798 0.055202 0.745781 -0.358207 0.358492 -0.554184 -0.391963 -0.094113 -0.512651 0.098726 -0.286655 0.167920 -0.123050 0.090659 -0.263036 0.410387 -0.430730 0.310281 -0.856832 -0.359815 0.181541 0.212984 0.148434 -0.140343 -0.814346 0.372993 0.348353 -0.593722 -0.078690 -0.398965 -0.951060 -0.323293 0.647685 -0.238207 0.240181 0.610486 0.628847 0.629860 -0.036209 -0.534567 0.278283 -0.063142 0.709698 -0.425692 0.681285 -0.116913 0.821448
2435 -0.228090 0.153404 -0.080546 0.553790 0.319677 -0.390730 -0.087127 -0.302057 -0.163385 0.454440 -0.188564 0.064144 -0.128343 0.527394 -0.395496 0.044119 -0.334825 0.071029 -0.454620 0.480035 -0.293881 0.144254 -0.127173 -0.302036 0.429824 0.183744 0.025206 0.074791 0.308667 0.540691 -0.839574 0.718838 0.247699 -0.116738 0.384669 -0.297541 -0.044523 0.075062 0.598299 -0.557378 0.050638 -0.280815 0.417313 -0.307401 -0.327014 -0.076859 -0.160564 -0.665986 -0.257584 0.572308 -0.353132 -0.162050 -0.182451 0.510842 0.443990 -0.563396 -0.159234 -0.434060 -0.411206 -0.070094 -0.026313 0.187865 -0.570287 -0.018628
4189 -0.202303 0.231679 0.001659 0.457880 0.121708 -0.363711 -0.060455 -0.472363 -0.046310 0.382465 -0.563051 0.250936 0.034692 0.391906 -0.519186 0.082645 -0.164919 0.394275 -0.175612 0.494715 -0.192513 0.005736 -0.142381 -0.087352 0.625693 0.245879 -0.228586 0.321920 0.252185 0.336494 -0.757763 0.690038 0.128743 -0.314214 0.191070 -0.516020 0.116911 0.173485 0.767218 -0.713147 0.008277 -0.240017 0.287931 -0.278546 -0.159602 -0.080974 -0.147118 -0.186426 -0.609177 0.452982 -0.181315 0.111335 0.201769 0.527961 0.255156 -0.049532 -0.249709 -0.387080 -0.580939 -0.169186 -0.218336 0.048977 -0.561245 0.346622
2330 -0.192618 -0.278800 -0.737248 -0.034256 0.033321 0.092316 -0.027814 -0.165786 -0.117402 0.140456 0.426409 0.063253 0.115962 -0.188700 -0.591590 0.002858 0.325606 0.234200 -0.048096 0.809694 -0.403479 0.250835 0.269558 -0.208176 0.157036 -0.015555 -0.778807 0.482200 -0.416815 -0.289456 -0.658620 0.185325 0.388080 -0.121031 0.364281 -0.375337 -0.204469 0.144505 -0.015700 -0.182025 0.799410 -0.301627 0.645589 0.347664 -0.312106 0.696738 -0.142498 -0.450555 -0.425379 0.406054 0.527224 0.294247 0.395798 0.519487 0.286710 -0.420577 -0.551876 -0.313878 -0.818568 0.916687 -0.464731 -0.144223 -0.094956 -0.076620
1151 -0.317502 -0.466710 -0.608610 -0.097705 -0.206677 -0.082931 -0.371217 -0.112460 -0.182955 0.262449 0.169512 0.045721 0.138869 0.064997 -0.469991 0.055468 0.110280 0.069762 -0.307520 0.838542 -0.235893 0.056691 0.087207 -0.092815 0.242057 0.094098 -0.735713 0.520340 -0.197334 -0.208368 -0.549650 0.333555 0.346504 -0.116460 0.272397 -0.286664 -0.248139 0.222674 0.084892 0.090473 0.610308 -0.679361 0.263249 0.409652 -0.398669 0.635458 -0.091224 -0.535029 -0.130395 0.309671 0.483237 0.460761 0.286269 0.196043 0.172300 -0.316394 -0.561256 -0.309568 -0.921351 0.876844 -0.231941 -0.057601 -0.293892 -0.032229
118 -0.124855 -0.018959 0.045957 0.300782 0.128974 0.008776 -0.674221 -0.251039 0.749816 0.698275 -0.161011 0.184376 -0.064190 0.297897 -0.471727 -0.151946 -0.326930 -0.196922 0.081194 0.340655 0.148340 0.271371 0.637952 -0.671153 0.657638 0.434892 -0.207182 0.016850 0.383539 -0.260469 -1.186359 -0.022062 -0.040211 -0.192300 0.083925 -0.046818 -0.183567 0.064107 0.474372 -0.476881 0.102256 -0.507213 0.064698 -0.247356 -0.322755 0.179793 -0.183981 -0.529562 -0.228038 0.460765 0.144545 0.007917 -0.065009 0.420287 0.384288 -0.210742 -0.102437 -0.644977 -0.421348 0.062618 -0.461145 0.111509 -0.225842 -0.151415
87 -0.395468 -0.333401 0.058889 -0.309471 0.406608 0.297279 0.349214 -0.208603 -0.275040 0.254464 -0.719471 -0.193034 0.407176 -0.136671 -0.470140 0.687261 0.756701 0.268295 -0.364806 0.370080 -0.251687 0.008169 0.003450 -1.086257 -0.275837 0.179269 -0.385747 0.032769 -0.161241 0.047766 -0.584401 0.247769 0.478076 -0.285139 0.556344 -0.357409 0.440975 0.345115 -0.450854 -0.053275 1.280535 -1.447203 -1.176834 0.335892 0.011793 0.807397 -0.645136 -2.077158 -0.089491 0.071748 -0.339416 0.459575 0.126714 0.375886 -0.372388 0.067354 -0.322772 -0.570279 -0.385384 0.109798 -0.657732 0.703529 -0.477906 0.019514
209 -0.283833 -0.410066 -0.501558 -0.377279 -0.103201 -0.068578 -0.414749 -0.216445 -0.332774 0.456950 0.136359 0.022766 0.284737 0.181121 -0.680092 -0.014898 0.109931 0.027634 -0.163999 0.934158 -0.025787 -0.083516 0.101334 -0.029488 0.338108 -0.061376 -0.773716 0.232499 -0.326875 0.004364 -0.396724 0.200001 0.254861 -0.177561 0.414057 -0.374545 -0.373305 0.374507 0.024149 0.023323 0.474006 -0.576993 0.224937 0.449505 -0.358467 0.583453 -0.327409 -0.675818 0.052096 0.409675 0.518034 0.379449 0.121381 0.227652 0.018522 -0.242245 -0.650533 -0.325653 -0.796832 0.572380 -0.193768 0.117241 -0.344904 -0.034363
4833 -0.010736 0.056912 0.051098 0.233430 0.504920 -0.402219 -0.053328 -0.329417 0.064793 0.409648 -0.260360 0.032731 -0.002645 0.168671 -0.296028 0.027239 -0.368123 -0.215249 -0.434333 0.546476 -0.222013 0.180565 -0.114975 -0.368951 0.427105 0.398796 0.045538 -0.104980 0.116537 0.463048 -0.988043 0.487360 0.266855 -0.189300 0.435111 -0.659618 -0.435798 -0.191330 0.801841 -0.459855 -0.075516 -0.236500 0.361801 -0.403741 -0.284355 0.163687 0.029736 -0.515858 -0.669518 0.582002 -0.168721 -0.188906 0.092459 0.567220 0.353657 -0.336215 -0.227772 -0.570543 -0.633829 -0.194420 -0.162071 0.136862 -0.620041 0.206226
4970 -0.181152 0.200903 0.353075 0.472678 0.044979 -0.471149 -0.226528 -0.320225 -0.071918 0.438442 -0.228230 -0.076721 -0.196326 0.389894 -0.553249 0.069606 -0.319831 0.273162 -0.441793 0.454899 -0.279995 0.259676 0.047891 -0.322201 0.365107 0.099203 0.017460 0.047711 -0.122762 0.313647 -0.679866 0.526426 0.263710 -0.113546 0.294272 -0.382352 -0.177874 0.002044 0.819628 -0.592184 -0.066255 -0.072362 0.395405 -0.315416 -0.374916 0.068257 -0.090241 -0.511276 -0.496315 0.395970 -0.290002 0.085856 -0.108241 0.551452 0.517578 -0.263722 -0.411121 -0.422876 -0.561808 -0.075067 -0.065901 0.397927 -0.646275 0.076534
1150 -0.340209 -0.226366 -0.518795 -0.330392 -0.225107 0.048878 -0.407243 -0.261755 -0.208381 0.340719 0.115842 -0.093496 -0.049392 0.426444 -0.608321 -0.215450 -0.054756 0.218396 -0.316428 0.908692 -0.125022 -0.317350 0.159920 0.012276 0.397080 -0.081699 -0.726040 0.069363 0.152479 0.112393 -0.412763 0.409670 -0.069558 -0.023703 0.101270 -0.456015 -0.462705 0.387091 0.054707 -0.015006 0.340319 -0.674806 0.140239 0.232893 -0.371024 0.539139 -0.523840 -0.680099 -0.023226 0.550172 0.495700 0.391634 0.200670 0.089997 0.219244 -0.215088 -0.473292 -0.354420 -0.816590 0.847036 -0.354866 0.011026 -0.270248 0.025573
5025 -0.050760 -0.325136 -0.650886 0.088810 0.053232 0.106341 -0.227445 -0.173931 0.093159 0.142850 0.296508 0.278536 -0.083674 0.240747 -0.263770 0.247057 -0.183952 0.287535 -0.160259 0.995450 -0.043834 -0.317697 0.061550 0.085918 0.559361 0.002611 -1.000769 0.310840 -0.412460 -0.185557 -0.180439 0.565247 -0.183001 -0.092638 0.196587 -0.357472 -0.554265 0.202550 0.049917 -0.313176 0.559069 -0.933329 0.281632 0.293758 -0.031403 0.563795 -0.523205 -0.437167 -0.307788 0.598989 0.354826 0.217752 0.025033 0.461035 0.571144 -0.319648 -0.372899 -0.175774 -0.500978 1.105873 -0.429060 -0.004626 -0.067895 0.069451
1548 -0.301704 0.128860 0.007863 -0.120814 0.370971 -0.219533 -0.577630 -0.264999 -0.129137 0.096930 0.126579 0.145231 0.188155 0.210231 -0.688012 -0.263871 -0.177070 0.334346 -0.474789 0.919410 -0.348861 -0.454856 0.501653 -0.074425 0.467932 -0.249913 -0.617906 -0.056776 0.200945 -0.354981 -0.764093 0.116682 0.191672 -0.148071 0.140956 -0.539454 -0.548571 0.294687 0.288697 -0.254144 0.015652 -0.458833 0.155403 -0.081129 -0.659784 0.250059 -0.566531 -0.302185 -0.010006 0.401285 0.527496 0.418083 0.118665 -0.003337 0.174214 -0.351110 -0.464859 -0.420094 -0.803667 0.965507 -0.274649 0.562153 -0.138931 0.318635
133 -0.281532 0.071121 -1.050647 0.445469 0.498090 0.121678 -0.274781 0.305066 -0.366449 0.469064 -0.058314 -0.277437 0.118232 0.636739 -0.833118 -0.019697 -0.297857 -0.226397 -0.641108 1.003170 -0.310174 -0.222391 -0.377377 -0.244985 0.506468 0.322086 0.479542 0.026954 0.503747 0.522055 -0.419299 0.503528 0.642914 -0.126684 0.299764 -0.443931 0.264300 0.174577 0.246307 -0.122081 -0.069637 -0.277978 0.342439 -0.039983 -0.257353 -0.227328 -0.825652 -0.961113 -0.257690 0.317977 -0.620454 -0.389101 -0.056758 0.427045 0.534733 -0.556889 0.016619 0.403269 0.055382 -0.175717 -0.132546 0.239466 -0.426053 -0.035575
14 0.299773 -0.043825 -0.848567 -1.286914 -0.164766 -0.090302 -0.016526 0.297181 -0.573770 0.818309 -0.134543 0.093777 -0.067920 0.050389 -0.133833 0.267351 0.737108 1.052368 -0.303380 -0.491525 -0.397458 0.277026 -0.102851 0.125741 0.245761 0.180216 0.087465 -0.204496 -0.008692 0.585022 -0.296998 -0.336636 0.773791 0.045177 0.196096 -0.574947 -0.633869 -0.020187 -0.009732 -0.589054 0.559496 -1.111281 -0.322931 0.753642 -0.112694 -0.194089 0.106419 -0.924813 -1.054553 0.333375 -0.205750 0.199917 0.465727 0.747870 0.585702 -0.157425 -0.415254 0.015146 0.685041 -0.240214 -0.691269 -0.495050 -0.095763 0.074923
744 -0.676410 -0.764896 -0.223406 0.696389 -0.174540 -0.015585 0.121626 -0.025047 0.176357 0.987831 0.353880 0.381163 0.458038 0.253964 -0.539608 -0.201917 0.279539 0.047706 -0.382483 0.114593 0.026928 0.161133 0.949763 -0.475724 0.369309 -0.058535 -0.690158 -0.872961 -0.141871 0.127504 -0.439066 0.232030 -0.098270 0.507124 0.062319 -0.339860 0.074001 0.027817 0.282635 0.130550 0.558886 -0.444685 -0.079365 -0.194583 -0.266251 0.444076 -0.557934 -0.708358 -0.745381 0.561342 0.183116 -0.322782 0.647146 0.426900 0.327826 0.128723 -0.002655 -0.565124 0.138719 0.181992 -0.582559 -0.443477 -0.738125 -0.004372
3251 -0.365492 -0.392565 -0.963330 0.040183 0.186413 -0.110405 -0.025287 -0.448805 0.001928 0.666682 -0.546101 -0.550190 -0.376996 0.235424 -0.353351 -0.265641 0.008977 0.592307 -0.175709 0.204994 -0.203498 0.221423 0.452624 -0.100073 0.136240 -0.309006 -0.604651 0.159975 -0.153568 0.177267 -0.506883 0.684755 0.381409 -0.335504 0.365433 -0.490495 0.109457 0.415245 0.310151 -0.399646 0.758838 -0.503116 0.328175 -0.021962 -0.284864 0.158218 0.370886 -0.633697 -0.643373 0.291699 0.618344 -0.060475 0.273206 0.232085 0.090134 0.223494 -0.233164 0.140406 -0.726821 0.890144 -0.236950 -0.012221 0.259826 0.200551
515 -0.780903 -0.679902 -0.341959 0.559408 -0.375706 0.156697 0.141889 -0.115220 0.378233 1.062749 0.064870 0.177376 0.214963 -0.018743 -0.750710 -0.611405 0.354713 0.031766 -0.628145 0.078217 0.112882 0.161848 0.786875 -0.645879 0.415601 0.026546 -0.461111 -0.215071 -0.282872 0.247502 -0.561781 0.236325 0.046445 0.532305 -0.004072 -0.301723 0.181363 -0.043553 -0.024918 0.133047 0.545632 -0.381615 -0.334609 -0.668350 -0.314394 0.465674 -0.415303 -0.760480 -0.394999 0.390616 -0.027374 -0.138139 0.428501 0.115528 0.100169 0.139559 -0.063408 -0.476874 -0.163901 0.249945 -0.701107 -0.276209 -0.876714 -0.121162
1476 0.034728 -0.174523 -0.465695 -0.468551 -0.293685 -0.100955 -0.375335 -0.168162 -0.384496 0.746790 0.084340 -0.560693 0.109239 0.151846 -0.479087 -0.222060 0.690123 0.584854 0.213264 0.030657 -0.379026 0.402366 0.437283 0.225865 0.491561 -0.332039 -0.151829 0.162064 -0.216382 0.132783 -0.878072 -0.299112 1.153096 0.118786 0.056557 -0.842054 -0.792488 0.325171 -0.065577 -0.472692 0.441303 -0.246779 0.192895 0.672980 -0.337338 0.211753 0.026384 -0.742739 -1.373084 0.300041 0.277028 0.140675 0.599948 1.143741 0.704859 -0.050198 0.119101 0.221634 -0.084084 -0.065273 -0.738496 -0.143806 0.539543 -0.158674
191 -0.070369 -0.460586 -0.476482 -0.224453 -0.135091 -0.035375 -0.416761 -0.066080 -0.455730 0.100772 0.125002 -0.162094 0.066284 0.392504 -0.781230 -0.175275 -0.214004 0.131862 -0.346273 0.920506 -0.058899 -0.248424 -0.071815 -0.378542 0.193667 0.021491 -0.768228 0.162496 0.127575 0.097765 -0.456084 0.230946 0.204120 0.096601 0.038830 -0.142763 -0.370466 0.270222 -0.088964 -0.139349 -0.042151 -0.774543 0.106142 0.515775 -0.272996 0.627974 -0.610932 -0.521998 -0.020345 0.296183 0.532557 0.353101 0.157885 0.074069 0.221529 0.117177 -0.789505 -0.674448 -0.816333 0.674583 -0.294377 -0.124242 -0.232899 0.032805
1709 -0.164013 0.107820 0.170081 0.553531 0.157462 -0.391028 -0.235240 -0.352129 0.042070 0.407409 -0.365151 0.069297 -0.139186 0.421467 -0.449960 -0.089542 -0.240483 0.130072 -0.400155 0.404668 -0.352328 0.086976 0.121286 -0.305073 0.447035 0.188385 -0.005332 0.081721 -0.076770 0.465564 -0.823665 0.597064 0.175327 -0.186593 0.410956 -0.323316 -0.135955 -0.026075 0.670963 -0.671863 0.004930 -0.164033 0.370353 -0.237903 -0.350040 0.081147 -0.053887 -0.657164 -0.447026 0.372969 -0.311644 -0.118482 -0.073909 0.543473 0.489052 -0.352678 -0.301105 -0.444698 -0.488241 -0.101978 -0.042830 0.333441 -0.667535 0.072084
81 -0.252324 -0.201183 -0.293140 -0.491292 -0.254747 -0.151853 0.088306 -0.242181 -0.580470 0.796859 0.279487 0.436049 -0.347132 0.010168 -0.130187 0.057887 0.224147 0.742763 -0.526568 0.324471 0.063243 -0.125577 -0.121124 -0.035828 0.172497 0.687102 -0.446754 0.100964 -0.286872 -0.117211 -0.382854 -0.054884 -0.283785 0.582361 0.206931 -0.341181 -0.254703 -0.033591 0.212053 -0.557025 0.791290 -0.886799 -0.029609 0.364632 -0.008836 0.072407 0.154987 -0.080140 -0.520791 0.541102 0.670545 0.079152 0.240347 0.500310 0.471948 -0.428285 -0.602568 -0.251740 -0.636032 0.666497 -0.283517 0.231652 -0.124796 0.098810
4910 -0.211872 -0.110818 -0.340591 -0.234335 0.101451 -0.045437 -0.393424 -0.449689 0.258110 0.374609 -0.884586 0.287742 -0.149021 0.715011 -0.763143 0.141271 -0.495567 0.231353 -0.200348 0.862782 -0.291415 -0.046829 0.055063 -0.092119 0.330843 0.120272 -0.187753 0.125393 0.033867 0.890673 -0.317852 0.881644 -0.080472 0.076601 0.040897 -0.663440 -0.498027 0.480185 0.247282 -0.441514 0.493871 -0.450981 0.069920 -0.009415 -0.173483 0.302856 0.018690 -0.341198 -0.275321 -0.161102 0.280514 0.564856 -0.033622 0.074856 0.125918 -0.173287 -0.230350 0.358127 -0.616890 0.444993 -0.111314 -0.084995 -0.601715 0.220127
5563 -0.210588 0.152012 0.128653 0.279654 0.099229 -0.301905 -0.176314 -0.272560 0.046916 0.475335 -0.203290 0.141432 -0.112050 0.682982 -0.469444 -0.036434 -0.234013 0.143279 -0.429104 0.517636 -0.387861 -0.000008 -0.007728 -0.340976 0.459488 0.238563 -0.040283 0.118850 -0.000165 0.377861 -0.818973 0.612938 0.250045 -0.241903 0.383020 -0.546494 -0.142478 -0.143643 0.732844 -0.574052 -0.083189 -0.175293 0.366980 -0.347115 -0.461590 0.029498 -0.122021 -0.472732 -0.381916 0.452589 -0.362502 -0.093758 -0.189779 0.548820 0.383973 -0.273316 -0.309717 -0.329828 -0.572710 -0.003959 0.071748 0.166409 -0.648797 0.110474
2656 -0.337678 0.259547 -0.141493 0.609402 0.136013 -0.419962 -0.220379 -0.323604 -0.278764 0.062827 -0.766000 -0.110929 0.023318 0.619764 -0.736276 0.192741 -0.133912 0.000069 -0.889362 0.171734 -0.654579 -0.366266 -0.586230 -0.121926 0.381588 -0.008045 -0.089166 -0.158706 -0.012848 -0.525167 -0.704032 0.264673 0.469022 -0.361813 0.581574 -0.661424 -0.485867 0.344548 0.703514 -1.230334 -0.240763 -0.254258 0.532022 -0.491097 -0.030294 0.335888 -0.401854 -0.631674 -0.411062 0.227404 -0.432557 0.400109 0.062653 0.291215 0.126456 0.123327 0.032961 -0.504542 -0.521851 -0.118421 -0.113525 -0.168772 -0.428969 0.004895
583 0.690535 -0.475625 -0.151408 0.875501 -0.328060 -0.102204 -0.826706 -0.299331 0.149883 0.812189 -0.230170 -0.535598 -0.207413 0.059743 -0.090937 -0.062616 0.084541 0.330888 -0.579049 0.431341 -0.156626 -0.300777 -0.012995 0.178303 0.789298 1.034825 -0.030177 0.039612 0.081536 -0.069489 -0.819417 0.513902 -0.104597 0.118924 -0.461275 -0.140088 -0.105648 -0.102094 0.616588 -0.218922 -0.312751 -0.049947 -0.338545 -0.493999 -0.273240 0.213334 -0.384550 -1.077292 -0.612544 -0.217647 -0.677278 -0.247630 0.104249 0.736073 0.099574 -0.146595 -0.350158 0.097545 -0.707503 0.283058 -0.726881 0.595518 0.158809 0.557558
76 -0.072436 -0.288147 -0.318980 0.120109 0.044371 -0.869058 -0.186075 -0.725516 -0.152662 0.405122 -0.947203 0.139770 0.427449 0.533185 0.449263 -0.231302 0.558962 0.420918 0.042315 0.271394 -0.853817 -0.408579 -0.484905 -0.801210 0.259555 0.200524 -0.642923 0.050922 0.444412 -0.000640 0.103877 0.125909 -0.448670 0.047194 0.374567 -0.018458 -0.735484 -0.068835 0.205013 0.443594 0.651730 -0.753820 0.638133 0.252181 -0.657245 0.185692 -0.564576 -0.562824 -0.665577 0.484135 -0.352908 0.559958 0.387845 0.254402 0.117525 -0.417931 -0.035721 0.014241 -0.226892 0.593896 -0.147980 0.737531 -0.158080 0.241877
129 -0.361391 -0.229847 -0.170311 -0.507879 -0.184022 -0.438477 -0.746603 -0.428713 0.582650 0.385067 0.351283 -0.087890 -0.667142 0.285217 -0.486163 -0.750617 0.308947 -0.082742 -0.119920 0.353158 0.180434 -0.326528 0.134617 -0.702927 0.483544 0.172720 -0.186057 -0.245209 -0.065019 0.096513 -0.719767 -0.275813 0.156932 0.222426 0.287154 0.400601 0.195572 0.756413 0.560035 -0.030426 0.961496 -0.599292 -0.067753 -0.057402 0.162194 -0.158211 -0.636796 -1.055578 -0.068450 0.915215 -0.469836 0.402215 0.659993 0.649814 0.307513 -0.099530 0.139066 -0.723939 0.060687 -0.218048 -0.466716 -0.274522 -0.188620 0.334409
743 -0.277488 0.072419 0.073844 0.439275 0.261303 -0.301950 -0.017357 -0.512627 -0.089959 0.306255 -0.242803 0.051523 -0.077289 0.413188 -0.480353 0.114647 -0.253344 0.069282 -0.402257 0.461679 -0.442130 0.063344 0.016819 -0.377490 0.456221 0.154898 0.051653 0.078048 -0.070557 0.355809 -0.795907 0.627396 0.161716 -0.265402 0.412567 -0.569472 -0.298550 -0.031023 0.686534 -0.526099 -0.111555 -0.081666 0.280338 -0.352931 -0.531688 -0.066365 -0.284945 -0.600145 -0.385999 0.480040 -0.286043 -0.170283 -0.022306 0.590894 0.480309 -0.222178 -0.374120 -0.369658 -0.562511 -0.092864 -0.070915 0.175473 -0.682053 0.334630
151 0.024359 -0.784848 -0.021097 0.600527 -0.045688 0.553299 -0.234449 -0.543672 0.789593 1.024765 0.289854 0.090426 0.377039 0.873487 -0.415133 0.913756 0.538102 -0.143146 -0.352295 0.339783 -1.539054 0.387266 0.440085 -0.408870 -0.218610 0.464480 -0.319676 -0.409026 0.308417 0.216632 -0.597041 -0.639083 0.120815 0.446875 -0.996464 -0.732509 0.223001 -0.085030 0.575035 0.169226 0.424728 -1.004984 -0.004809 -0.054323 -0.360292 0.497288 -0.461230 -0.898218 -0.524839 0.472157 -0.647566 0.496862 0.731749 1.309841 0.235208 -0.493450 -0.363430 -0.381726 0.171351 -0.577011 -0.359248 -0.443347 -0.592948 -0.448303
303 -0.267343 -0.603678 -0.596764 0.206338 -0.061160 -0.160884 -0.077725 0.049178 -0.233489 0.547434 0.003948 -0.199509 0.202589 0.128179 -0.503244 -0.382205 0.387032 0.172846 -0.076477 0.252049 -0.306699 0.147690 0.486186 -0.226246 0.336599 -0.329316 -0.743037 0.184209 -0.265758 -0.235575 -0.568158 0.547170 0.243143 -0.216135 0.364708 -0.103509 -0.081265 0.310485 0.199949 -0.007738 0.699183 -0.220170 0.318693 0.478978 -0.425767 0.527300 -0.031423 -0.265407 -0.693600 0.364626 0.649999 -0.033125 0.393651 0.289914 0.170240 -0.080317 -0.389455 0.072514 -1.056007 0.706737 -0.519663 -0.012519 -0.067724 0.221220
1521 -0.070767 -0.043208 -0.135395 -0.372689 -0.088532 -0.213102 -0.368783 -0.143069 0.108176 0.070531 -0.072356 0.114276 -0.009160 0.609327 -0.683732 -0.146078 -0.032889 0.683433 -0.317121 0.976198 -0.385667 -0.049652 0.289615 0.006209 0.265032 0.004656 -1.117135 0.484577 -0.322615 -0.400335 -0.475530 -0.170767 0.167431 0.146145 0.001785 -0.577642 -0.617776 0.417044 0.337833 -0.263148 0.313254 -0.476127 0.151432 0.016067 -0.454164 0.473395 -0.415384 -0.908227 -0.170531 0.246497 0.399853 0.270289 0.128364 -0.125312 0.071626 0.008851 -0.756034 0.067906 -0.682714 1.091797 -0.348073 -0.002737 -0.440894 0.058366
1068 -0.412163 -0.098060 -0.481531 -0.347251 -0.273943 -0.294490 -0.140336 -0.315088 -0.014041 1.018351 -0.222166 0.284415 -0.180952 0.370838 0.117023 0.062566 0.629976 0.514959 -0.528461 -0.012951 0.187525 -0.054821 -0.150242 -0.007971 0.000756 0.977133 -0.077969 0.075100 -0.466108 0.084610 -0.487110 -0.469328 -0.399734 0.081609 0.086275 -0.442920 -0.223596 0.310704 0.252765 -0.844419 0.933647 -0.748151 -0.114624 0.474664 0.284262 0.102121 0.532975 -0.102810 -0.371195 0.446703 0.297717 -0.015571 0.466252 0.395231 0.515584 -0.157407 -0.826973 -0.610446 -0.406165 0.636612 0.070140 -0.072840 -0.265983 0.214986
675 0.012294 -0.196233 -0.252660 -0.045259 -1.538017 -0.236857 1.366574 -0.359589 -0.078476 0.375583 -0.513750 -0.119191 0.373483 0.781861 -0.390251 -0.496759 0.549728 0.449524 -1.036632 0.677838 -1.051646 -0.110724 -0.105960 -1.074811 0.218864 -0.224072 -0.337482 0.023007 0.134991 -0.000006 -0.773508 0.578055 0.480510 -1.839642 0.645752 -1.082666 0.498191 -0.190533 -0.187988 -0.401389 0.462610 -0.968673 -0.444790 0.490109 0.147681 0.551429 -0.948561 -0.604022 -0.044717 0.457637 -0.661829 -0.091384 0.743420 0.451417 -0.080473 0.518452 -0.527787 -0.653060 0.500037 0.498843 -1.409019 0.140599 0.201749 1.280068
1233 0.101439 -0.586664 0.368917 0.002903 0.086266 -0.373497 -0.262361 0.030069 0.308106 -0.026614 -0.033305 -0.045577 0.035305 -0.195377 0.109439 -0.429748 0.333028 -0.051612 -0.532829 0.336083 -0.435495 -0.202718 -0.693187 -0.699900 0.548648 -0.123370 0.079377 -0.240033 0.400116 -0.088862 -0.334272 0.416407 -0.064864 0.011062 0.121294 0.146169 -0.336000 0.497806 -0.388159 -0.257811 1.342694 -0.059619 -0.499499 -0.402022 0.706755 0.658924 -0.198070 -1.024078 0.240649 1.282117 -0.140037 0.335352 0.618400 0.862918 0.420966 -0.057855 -0.475794 -0.433518 -0.539124 0.464955 -1.042659 0.109306 -0.385402 0.029285
165 -0.581545 -0.501873 -0.755542 0.012589 0.177434 -0.059910 -0.632794 0.026284 -0.402042 1.060597 -0.537389 0.139400 0.519687 0.207506 -0.087992 0.080565 -0.301521 0.618545 -0.970345 0.075902 -0.113780 0.650359 0.645124 -0.516766 0.974891 0.623378 -0.298373 0.082230 -0.236650 0.073693 0.210850 -1.085483 0.670927 -1.036487 0.156758 -1.134332 -0.199270 -0.388912 -0.524974 0.240653 0.653670 0.219178 0.481800 -0.398622 0.530494 0.503550 -0.526985 -1.002594 -0.852475 -0.248650 -0.993506 0.716348 0.117745 0.972869 0.830273 -0.149812 -0.058865 -0.126305 0.333988 0.423872 -0.757443 0.421851 -0.218144 0.798690
299 -0.282243 -0.266032 -0.419883 -0.298381 -0.461354 -0.457399 -0.342620 -0.465585 -0.169856 -0.143399 -0.050829 0.356252 0.218007 0.426719 -0.894231 0.212500 -0.324332 0.308973 -0.056958 0.813204 -0.032592 -0.295029 0.096272 0.447868 0.300488 0.440667 -0.321295 0.109473 -0.006354 0.241275 -0.395010 0.545878 -0.193988 -0.146413 0.063042 -0.446656 -0.303493 0.183196 0.196429 -0.203009 0.354432 -0.548169 0.090198 -0.015716 -0.241927 0.367855 -0.117091 -0.605892 -0.011891 0.221374 0.410663 0.368666 0.249628 0.272181 0.354367 -0.355130 -0.600376 -0.026307 -0.611811 0.755037 -0.120556 0.169706 -0.606126 0.219271
2813 -0.408737 -0.423565 0.009994 0.503690 -0.040558 0.005337 -0.364467 0.028093 0.417207 0.465323 0.162811 0.105432 0.209164 0.279372 -0.736960 0.575095 0.304865 0.122400 -0.091482 0.376780 -0.220151 0.646382 0.751547 -0.593879 0.799778 0.519819 -0.178017 -0.398095 0.228424 0.102621 -0.680914 0.316506 0.273884 0.586968 0.706907 -0.781876 0.364041 -0.256433 0.190108 -0.425390 0.005603 -0.531433 0.844055 -0.318789 -0.155322 0.183076 0.069845 -0.370901 -0.146686 0.390648 -0.093248 -0.429171 0.242796 0.526702 -0.011494 0.108653 -0.473620 -0.672195 -0.360422 -0.235472 -0.417733 0.004650 -0.259230 -0.123345
3398 -0.298910 -0.305427 -0.634034 0.217547 -0.149551 -0.058737 -0.147979 -0.041305 0.162456 0.975431 0.324485 -0.143437 -0.027201 -0.248486 -0.919341 -0.196398 0.063941 0.203055 0.354549 0.103090 -0.451685 0.113142 0.447784 -0.545051 0.063531 0.225414 -0.725547 0.425020 -0.600024 -0.226036 -0.515953 0.296846 0.403806 -0.535458 0.282102 -0.388718 -0.105427 0.052550 0.037960 -0.403243 0.553796 -0.106761 0.503804 0.203943 -0.141736 0.158339 -0.322403 -0.444053 -0.557876 0.560264 0.661684 0.572843 0.298400 0.398550 0.145509 -0.381708 -0.536390 -0.028902 -1.041191 0.610652 -0.814093 -0.118993 -0.255165 -0.236483
1631 -0.284219 0.261327 -0.135655 0.540247 0.062916 -0.338511 -0.060193 -0.780552 -0.132437 0.157816 -0.589605 0.427344 0.105990 0.678868 -0.927863 -0.097178 -0.281825 -0.035271 -0.893438 0.423276 -0.646364 -0.125337 -0.407219 0.068603 0.341777 0.267625 -0.128527 0.072272 -0.112553 0.044856 -0.639900 0.137727 0.277975 -0.197553 0.969610 -0.393242 -0.104972 0.049210 0.750550 -0.760821 -0.020887 -0.337070 0.613323 -0.191247 0.206232 0.172088 -0.516057 -0.828544 -0.687812 0.377108 -0.476481 0.256545 -0.067744 0.439190 0.199524 -0.355876 0.254022 0.025366 -0.288226 -0.360415 -0.110561 0.102493 -0.401679 0.015386
410 -0.062152 -0.169306 -0.243940 -0.673326 0.027889 -0.445510 -0.819064 0.051940 0.209869 0.372550 -0.495645 -0.021149 -0.278529 0.722016 0.124184 -0.681909 0.363223 0.119072 0.150062 0.818397 -0.394161 -0.442722 -0.292480 -0.683602 0.555201 0.320063 -0.700031 0.272486 0.011789 0.262093 -0.375041 0.576333 -0.439407 0.514449 -0.225824 -0.022708 -0.333889 -0.019581 0.275541 0.155431 0.728225 -0.457685 0.549011 0.096882 -0.412051 0.241008 -0.411138 -0.844703 -0.101333 0.889109 -0.265109 0.441322 0.187047 0.314478 0.375599 -0.588121 0.371808 -0.641277 -0.498905 0.299453 0.101780 0.214187 -0.016579 0.692370
490 -0.324065 -0.257880 0.046985 0.111745 -0.200777 -0.829547 -0.339804 0.181583 0.155467 0.416981 0.121829 0.427603 -0.096855 -0.087825 -0.639013 -0.293476 -0.066387 0.720381 -0.594997 0.998208 -0.609267 0.308354 0.192453 -0.327728 0.543329 0.866723 -0.029161 -0.526936 0.535326 -0.085383 -0.557871 0.266342 0.054193 0.197543 -0.580849 -0.538440 -0.295187 -0.314411 -0.281565 -0.567087 0.348887 -0.097740 0.373807 0.801054 0.736944 0.273177 0.124832 -0.382734 -0.027627 0.738460 -0.041094 -0.195229 -0.360484 0.207390 0.150212 -0.231623 -0.680306 -0.259083 0.158442 -0.292956 -0.487171 0.995337 0.317942 0.628928
4235 -0.222571 -0.202561 -0.285341 -0.114528 -0.018104 0.074595 -0.438560 -0.125783 -0.123914 0.198576 -0.116092 -0.158100 0.126596 0.608761 -0.752234 -0.403310 0.065219 0.313954 -0.406919 0.831527 -0.250770 -0.259404 0.319595 0.092256 0.033886 0.154343 -0.764686 0.237002 -0.112562 -0.257709 -0.664717 0.280573 -0.106184 0.107138 0.079122 -0.734114 -0.577895 0.461060 0.118962 0.072657 0.458535 -0.457260 0.197450 0.069138 -0.221202 0.579148 -0.435619 -0.739294 0.013691 0.458734 0.532736 0.164601 0.067323 0.128062 0.228915 -0.259111 -0.443414 -0.251435 -0.733940 1.231670 -0.410123 0.082147 -0.201039 0.149095
1005 -0.228784 -0.133771 -0.467806 0.046236 -0.221154 -0.157607 0.053773 -0.244794 -0.370295 0.660935 0.366981 0.130823 0.178206 0.186904 -0.528444 0.075803 0.027316 0.604200 -0.451317 0.341876 0.239337 -0.256049 0.239603 -0.088305 0.331623 0.009025 -1.071148 0.032070 -0.427630 -0.243808 -0.155363 0.189734 -0.286839 0.215145 -0.186229 -0.247966 -0.420726 0.096035 0.513076 -0.055437 0.814337 -0.940940 0.170728 0.170392 -0.165846 0.123869 -0.258335 -0.290113 -0.542942 0.544201 0.782113 0.021505 0.501289 0.319178 0.499039 -0.028059 -0.434165 -0.260031 -0.617397 0.784007 -0.128028 -0.125749 -0.200232 0.131666
45 0.339488 0.301740 -0.780927 -0.936279 -0.334717 -0.371751 0.031538 0.095149 -0.733044 0.865248 0.041902 0.205154 0.106933 -0.018562 -0.212126 0.398807 0.796446 0.928954 -0.345021 -0.314182 -0.399805 -0.133354 -0.023271 0.006047 0.230227 0.282263 -0.122911 -0.224086 0.245379 0.595381 -0.275896 -0.220012 0.483632 -0.002261 -0.073939 -0.492563 -0.594342 -0.208288 0.264978 -0.487711 0.510966 -0.995572 -0.518215 0.637720 -0.230087 -0.129331 0.230089 -0.827581 -0.927326 0.581493 0.144847 0.142997 0.557609 0.932236 0.242916 -0.492515 -0.464769 0.081190 0.872836 -0.081771 -0.585228 -0.551575 -0.136628 -0.159126
607 -0.295432 -0.467697 -0.274607 0.360371 -0.368704 -0.122204 -0.796702 0.088164 0.418124 0.598108 0.191552 0.096550 -0.067389 0.065982 -0.586864 0.394543 0.058710 -0.123303 -0.218376 0.420072 -0.373032 0.731278 0.675352 -0.415084 0.721848 0.302802 -0.301478 -0.041113 0.208875 -0.312000 -1.065012 0.037324 -0.137863 0.202072 0.289832 -0.403867 0.484737 -0.446045 0.479768 -0.652184 -0.271713 -0.355562 0.532961 -0.376230 0.014848 0.093988 -0.271182 -0.414765 0.052024 0.462185 0.250980 -0.336035 0.283994 0.915720 0.087517 -0.083483 -0.300031 -0.572273 -0.329638 0.117026 -0.532353 0.187709 -0.116900 -0.307972
1254 -0.267078 0.363851 -0.255351 0.268797 0.447358 -0.292541 -0.343513 -0.115285 -0.208096 0.687078 -0.267453 -0.110345 0.264382 -0.105341 -0.787045 -0.329541 -0.122377 0.029862 -0.534532 0.749403 -0.488414 -0.425353 0.397217 -0.287765 0.388910 -0.602407 -0.282782 -0.399391 0.271574 -0.570798 -0.588904 0.000087 0.458980 -0.307372 -0.049263 -0.860676 -0.491797 0.162696 0.322052 -0.903649 -0.387725 -0.465367 0.432585 -0.346425 -0.522054 -0.019070 -0.609006 -0.379175 -0.181710 -0.244787 0.053954 0.328252 0.577433 0.474995 0.204676 -0.198490 -0.241071 0.246661 -0.735825 0.638376 -0.277314 0.311033 0.374153 -0.305727
109 -0.393249 -0.198685 -0.395059 -0.303237 0.391966 0.088768 -0.393439 -0.494083 -0.018066 0.270815 -0.275510 -0.025806 0.321467 0.199943 -0.924588 0.056255 -0.326022 -0.417161 -0.730123 0.894042 0.006457 -0.351550 -0.196626 -0.592577 0.539534 0.364598 0.644557 -0.023329 -0.075361 0.505962 -0.809492 0.409707 0.312116 -0.440948 -0.007101 -0.164275 0.447496 0.770920 0.534210 -0.259358 0.125234 -0.506716 0.520772 0.120914 -0.152304 -0.054694 -1.152347 -0.443603 -0.363980 -0.611751 -0.433746 -0.279597 0.334273 0.570959 0.554824 -0.257180 -0.428905 0.120866 -0.199945 -0.111590 -0.203252 0.137480 -0.245585 -0.251181
405 -0.120970 -0.563931 -0.544842 0.497819 0.058991 -0.831593 0.167690 -0.709231 -0.290646 0.395370 -0.421012 0.598766 0.508657 0.303262 0.416506 0.230410 0.870544 1.112028 -0.254055 0.444130 -0.888309 -0.229922 0.068355 -1.013738 0.186250 0.476009 -0.530050 -0.192930 0.085389 -0.093028 0.323087 0.024157 -0.149605 -0.121735 -0.081637 -0.202910 -0.822486 -0.316828 -0.034119 0.121213 1.089394 -1.628202 0.389994 0.353750 -0.490425 0.188435 -0.088437 -0.392798 -0.667236 0.356148 0.015173 0.409636 0.262458 0.280056 0.118002 -0.327701 -0.320553 0.130572 0.618748 0.592023 -0.315610 1.047177 0.144887 -0.170815
4591 -0.150524 -0.223139 -0.370960 -0.217277 -0.018494 0.147332 -0.406856 -0.060255 -0.069797 0.190923 0.032386 -0.028306 0.062108 0.466600 -0.785520 -0.355195 -0.059925 0.304923 -0.447682 0.804587 -0.466950 -0.067497 0.248016 -0.023039 0.048248 0.091585 -0.757730 0.359006 -0.103626 -0.299342 -0.697232 0.321138 -0.009170 -0.096850 -0.013930 -0.578248 -0.540550 0.534359 0.116235 -0.003228 0.386647 -0.457511 0.137919 -0.054131 -0.367347 0.559078 -0.341069 -0.731113 -0.200411 0.568006 0.711931 0.135812 -0.048551 0.058847 0.392265 -0.342608 -0.481967 -0.224530 -0.644725 1.183308 -0.411739 0.040146 -0.115264 0.136376
3209 -0.438531 0.291571 -0.035533 0.583224 -0.070240 -0.366149 -0.441922 -0.654430 -0.169117 0.279450 -0.502898 0.447231 0.041285 0.425230 -0.707634 0.024435 -0.114084 0.010173 -0.953870 0.298251 -0.622842 -0.223429 -0.215759 0.046722 0.377018 0.255226 -0.266254 -0.006979 -0.108478 0.068689 -0.742350 0.327207 0.339633 -0.019441 1.018526 -0.387422 -0.128518 0.012564 0.638706 -0.847602 -0.019960 -0.026811 0.750046 -0.343633 0.085407 0.124794 -0.325882 -0.648830 -0.838210 0.371967 -0.505812 0.517063 -0.042160 0.399784 0.016768 -0.250936 -0.140166 -0.198773 -0.264977 -0.330800 -0.209542 -0.022045 -0.329580 0.202473
700 -0.318387 0.035938 -0.172588 0.601522 -0.303604 -0.866283 -0.326389 -0.039546 -0.068981 0.581895 0.084476 0.546781 0.046143 -0.128918 -0.833155 -0.343855 0.169513 1.023511 -0.909264 1.058350 -0.306321 0.054897 0.507203 -0.579888 0.663157 0.716439 0.142649 -0.203064 0.483820 -0.316843 -0.372823 -0.004985 -0.108221 -0.000182 -0.246711 -0.482264 -0.557456 -0.424731 -0.004604 -0.408871 -0.002170 -0.158316 0.561962 0.600595 0.428895 0.010125 0.204578 -0.301441 -0.108806 0.441741 -0.136426 -0.045721 -0.026061 0.104897 0.313379 -0.263846 -0.608335 -0.152134 0.112228 -0.232986 -0.315689 1.015106 0.009429 0.158610
136 -0.491077 -0.770992 0.231636 0.383823 0.189349 0.274598 0.337714 -0.012488 -0.351271 0.894642 -0.106361 0.694566 0.393916 -0.041281 -1.027775 -0.054430 -0.220675 -0.152113 -0.445026 0.474646 0.254248 0.500480 0.818166 -0.059841 0.585985 0.379144 -0.543730 -0.348682 -0.226409 0.234291 -0.564354 0.039316 0.293922 0.101508 0.475468 -0.406240 -0.021408 0.248349 0.315637 0.018831 0.617372 -0.709152 -0.247499 -0.406898 -0.657435 0.510706 -0.021722 -0.917413 -0.481847 0.758814 -0.004288 -0.305003 0.243475 0.231279 0.115333 -0.121928 -0.017165 -0.313494 -0.183123 0.336536 -0.521574 -0.122803 -0.793704 0.031468
1427 -0.560071 -0.751636 -0.220254 0.692666 -0.236180 0.324835 -0.042598 -0.238667 0.000395 1.015829 0.259299 0.352486 0.364220 0.066978 -0.542826 -0.240699 0.181553 -0.022956 -0.308749 0.184434 0.150704 0.331585 1.099027 0.019438 0.193434 -0.082766 -0.786712 -0.487338 0.012048 0.113659 -0.496481 0.434687 0.075127 0.317749 0.075934 -0.341907 -0.059597 -0.006704 0.430224 0.175180 0.555423 -0.498308 -0.428752 -0.265625 -0.493572 0.537977 -0.494209 -0.804653 -0.437987 0.530302 0.233240 -0.391336 0.423932 0.516497 0.349000 0.179723 -0.317727 -0.568737 -0.074133 0.361328 -0.562784 -0.315120 -0.647892 0.185191
727 -0.186533 -0.258066 -0.361645 0.030324 -0.376314 -0.673324 0.271026 -0.678860 -0.591081 0.542229 0.034768 0.310549 0.313229 0.131847 0.186426 0.181659 0.518025 1.160866 0.015583 0.295478 -0.715836 -0.218003 0.126067 -1.051695 0.251091 0.272746 -0.452684 -0.118018 -0.019740 -0.188093 0.239458 -0.110073 -0.268718 -0.055888 -0.021334 -0.184617 -0.686217 -0.150710 0.118484 0.389491 0.748938 -1.443749 0.349702 0.287055 -0.462388 0.349194 -0.088769 -0.252257 -0.623522 0.397323 0.411508 0.329151 0.236292 0.546193 -0.173900 -0.353954 -0.197117 0.008961 0.202249 0.982558 -0.337847 0.916181 0.289554 -0.030619
296 0.072250 -0.499074 -0.365081 -0.384622 -0.359474 -0.654209 -0.720418 -0.071260 0.150028 -0.105275 -0.104546 -0.094098 -0.089220 0.147912 -0.834541 -0.351764 -0.165360 -0.238870 0.027428 0.831786 -0.087929 -0.222478 0.559113 0.044588 0.075693 0.653229 -0.407556 0.271284 0.067638 -0.433402 -0.257587 0.358687 -0.111823 -0.082042 -0.162851 -0.458156 -0.184611 0.807249 0.484716 0.044656 0.491770 -0.487599 0.508642 0.410508 0.248340 -0.113219 -0.216976 -1.087821 -0.184466 0.443416 0.161532 0.375327 -0.311709 0.486126 0.216855 -0.395891 -0.278279 -0.249755 -0.127991 -0.160014 -0.092829 0.486575 -0.453606 0.488746
458 0.000386 -0.324551 -0.450420 -0.156801 -0.753254 -0.118924 -0.605105 -0.207074 -0.329048 -0.313960 -0.246595 0.251132 0.218523 0.319400 -1.088620 -0.249381 -0.290341 0.265914 -0.209258 1.032620 -0.404457 -0.349152 0.534916 0.212991 0.136381 0.260968 -0.190641 0.330048 0.261718 0.289489 -0.693674 0.315944 -0.242367 -0.014050 -0.194636 0.017276 -0.850700 0.356944 -0.010552 0.099224 0.422906 -0.199374 0.736857 0.194146 -0.141641 -0.170988 0.078606 -0.875394 -0.272341 0.426523 0.196765 0.243235 -0.035943 0.460673 0.167022 -0.504046 -0.342469 -0.237936 -0.689713 0.080773 -0.082093 0.167721 -0.435148 0.415387
1199 -0.189114 -0.278591 -0.159224 0.253947 0.284285 -0.728150 0.021765 -0.580505 -0.107790 -0.165419 0.246683 -0.549222 -0.845506 0.183057 -0.267316 -0.047029 -0.011693 0.287854 -0.875824 0.510328 -0.459871 0.229293 0.347799 0.025413 0.507381 0.615130 -0.673226 0.186466 -0.282470 0.310108 -0.605017 0.794753 0.363175 -0.603030 0.402587 0.023328 -0.110013 -0.523303 0.105911 0.023812 -0.034088 -0.156103 -0.198229 -0.072388 0.158306 -0.060329 -0.062098 -1.110187 -0.452773 0.089933 0.184002 0.523311 0.515037 0.797931 0.354626 -0.325225 -0.731394 0.452371 -0.619791 0.321474 -0.599060 -0.134300 -0.278102 -0.263939
251 0.006575 0.232284 -0.586179 -0.864766 -0.148691 -0.718668 -0.400079 -0.377837 0.019627 0.613656 0.508168 -0.403767 -0.378187 0.476897 -0.295337 -0.204555 0.774519 0.579614 -0.147243 -0.171229 -0.066510 -0.417947 -0.171234 -0.430772 0.746130 0.019800 -0.284697 -0.632281 -0.164400 0.541095 -0.617437 -0.604716 0.799839 0.085104 0.348436 0.240381 -0.146528 0.103257 0.019760 -0.285806 0.679684 -0.828525 -0.582298 0.359577 0.154860 -0.008934 -0.473704 -0.973082 -0.677643 0.825271 -0.371351 0.244315 0.717480 1.081916 0.622450 -0.304392 -0.116149 -0.125772 1.024611 -0.464570 -0.725088 -0.577891 -0.269102 -0.074440
481 -0.382059 0.142139 -0.027950 0.420831 -0.198241 -0.242275 -0.482282 -0.776305 0.208127 0.227517 -0.615446 0.205110 -0.222633 0.470555 -0.394273 0.160697 -0.048455 -0.296400 -1.002663 0.381101 -0.651236 -0.348085 -0.388855 -0.015661 0.671139 0.376297 0.059672 0.134262 -0.313982 -0.116437 -0.981511 0.327202 0.387227 -0.377733 0.835256 -0.399243 -0.080978 0.251043 0.567760 -1.013209 0.170460 -0.207190 0.696635 -0.246406 0.202798 0.148895 -0.361157 -0.806648 -0.474251 0.300674 -0.530749 0.269660 -0.123266 0.308089 0.035290 0.172749 -0.112052 -0.211190 -0.380420 -0.346552 -0.122436 0.167402 -0.484977 -0.007605
