4121 16
66 -0.567928 -0.564499 -0.253445 -0.932840 0.332318 1.326463 -0.833900 0.231710 0.193956 0.657624 0.399244 0.036810 -0.265784 -0.679866 0.105469 -0.153720
18 -0.666967 -0.211455 0.081434 -0.341410 0.212287 1.091835 -1.251050 0.729373 0.880488 0.285068 0.048760 0.452681 -0.784920 0.078682 0.191485 -0.063766
189 -0.969328 -0.357467 -0.582585 -0.691524 0.452924 1.272051 -0.536178 -0.110971 0.147815 0.865406 0.789461 -0.114020 -0.631052 -1.130482 0.377209 0.109333
19 -0.261499 -0.255303 -0.108271 0.116236 0.256011 0.623128 -1.493219 0.672176 0.973272 0.413172 0.660520 0.277755 -1.385667 0.057616 0.191298 -0.110599
41 -0.329695 -0.274594 -0.373003 0.093895 0.519551 0.971300 -0.956762 0.483434 0.660579 0.538591 0.334045 0.712917 -0.701619 1.099799 0.245477 0.016128
447 -0.437788 -0.007234 -0.336421 -0.349796 0.263395 1.009150 -1.138697 0.713947 0.543644 0.681828 0.340317 0.955658 -1.177372 0.461478 0.627488 -0.116236
1 -0.252715 -0.757014 -0.205004 -0.600638 0.503950 0.758998 -0.698684 0.428640 0.432169 0.721889 0.085855 0.670371 -0.487164 0.293819 1.301097 -1.008301
327 -0.516653 -0.442389 -0.821298 -1.401337 0.083207 1.502921 -0.748476 -0.087296 -0.178036 0.456446 0.584165 0.161020 -0.328610 -0.693597 0.164421 0.232581
57 0.038706 -0.805273 0.529803 0.350538 0.439553 1.432894 -1.348155 0.843053 1.051188 -0.071165 0.302879 0.264710 0.014901 -0.522925 0.410888 -0.210155
771 -0.230218 0.051546 -0.186901 0.247271 0.562583 0.895877 -1.329628 0.969908 0.879082 0.679077 -0.078885 0.443548 -0.793935 0.489991 0.617482 0.732520
243 -0.694266 -0.000682 -0.171262 0.063574 0.147648 0.920549 -1.420462 0.759181 0.575313 0.715892 0.478340 0.630960 -1.354103 0.428240 0.405973 0.007761
16 -0.956232 0.106403 0.247349 0.391911 0.326674 1.217603 -1.151499 0.562083 0.765702 0.867085 0.614695 0.404809 -0.704266 0.496845 0.449496 0.366748
242 -0.554633 0.053669 -0.159089 -0.278266 0.300140 0.816382 -1.191103 0.838619 0.614052 0.576909 0.355671 0.873511 -1.112614 0.438140 0.426589 0.236223
3462 -0.622917 -0.249819 -0.250304 -0.047936 0.724266 1.071886 -1.193920 0.488545 0.804625 1.046725 0.278008 0.392560 -0.785360 0.993662 0.185938 0.437110
613 -0.910855 -0.410533 -0.256191 -0.089832 0.049704 1.308046 -1.502167 0.242289 0.325860 0.151457 0.541924 0.626618 -0.820687 0.292052 -0.549716 -0.582580
148 -0.681898 -0.330748 0.017593 0.406259 0.434525 1.107064 -1.647329 0.493698 0.554787 0.642783 -0.285755 0.544689 -0.600869 -0.153024 -0.079514 0.377572
295 -0.661665 0.228759 -0.622880 0.311775 0.575428 0.846186 -1.163079 1.092536 0.849578 0.651269 0.162345 0.520324 -0.645789 0.481913 0.282009 0.315274
1479 -0.638661 -0.769425 -0.279513 -0.144593 0.617277 0.932055 -1.036490 0.545832 1.068178 0.793992 0.226342 0.689393 -0.744159 1.040070 0.071431 0.654895
3980 -0.445761 0.126957 -0.095084 0.315193 0.793461 0.880077 -1.254841 1.028597 0.458951 0.773770 0.487777 0.861545 -0.770220 0.324834 0.094974 0.642344
388 -0.704232 -0.881072 -0.259933 0.344277 0.038490 0.966618 -1.473937 0.454310 0.242888 -0.345005 0.361918 0.439040 -0.661884 0.742334 -0.166304 -1.252821
1546 -0.888150 -0.170493 0.396339 0.200730 0.595452 0.826317 -1.283857 0.787665 0.583312 0.966951 0.232739 0.332290 -0.982064 0.378547 0.427504 0.225651
1031 -0.862525 -0.023108 -0.007671 0.555593 0.224599 0.878138 -1.425424 0.708321 0.996825 0.578849 0.531518 0.313993 -0.660041 0.526384 0.096916 0.599500
306 -0.465528 -0.630663 -0.655962 -1.345336 0.122566 1.673479 -0.716187 0.178914 0.126500 0.380520 0.613949 0.150176 -0.451294 -0.704213 0.211256 0.009148
300 -0.468236 -0.820224 -0.693154 -1.003243 0.161258 1.229989 -0.876891 0.543696 -0.082756 0.310600 0.421628 0.510006 -0.815826 -0.459716 -0.406562 -0.123116
1264 -0.652466 -0.590347 -0.274691 -0.215729 0.247053 0.934505 -1.025578 0.772400 0.759290 0.780979 0.151596 0.648393 -0.979177 1.075511 0.122272 0.891245
131 -0.438334 -0.573872 -0.355100 -1.134475 0.367451 1.634734 -0.898830 0.371433 -0.095424 0.271215 0.057840 0.337716 -0.462945 -0.612958 -0.177393 -0.104031
2774 -0.950409 -0.090989 0.342634 0.010709 0.657712 0.732744 -1.243422 0.845702 0.514473 0.968132 0.264466 0.460643 -1.028210 0.563298 0.362622 0.464260
31 -0.522739 0.372721 -0.272041 0.262750 0.311367 1.184940 -1.448393 0.783299 0.816756 0.511877 -0.111294 0.255920 -0.823277 0.640608 0.500605 0.593547
1430 -0.444187 0.270959 -0.414700 0.163142 0.572837 0.969656 -1.445704 0.731284 0.726825 0.821366 -0.351132 0.396939 -0.853338 0.572271 0.712320 0.463326
545 -0.583655 -0.863064 -0.627471 -1.203416 0.079889 1.609810 -0.864667 0.185876 -0.206882 0.464868 0.470912 0.159057 -0.667552 -0.713239 -0.201806 0.123138
1746 -0.729983 0.268654 0.051311 0.286851 0.740888 1.010250 -1.110701 0.737042 0.605398 0.663554 0.427086 0.768882 -0.864044 0.341985 0.198352 0.600626
15 -0.311022 -0.172741 0.375257 0.337341 0.751616 0.915759 -1.673531 0.598953 0.573641 0.638299 0.073023 0.485395 -0.673304 -0.080968 0.178219 0.237360
127 -0.741692 -0.351447 0.063287 0.974176 -0.161003 1.252241 -0.668992 0.462390 1.137402 0.256736 1.431453 0.187905 0.186099 -0.311786 0.851651 0.293997
123 -0.356796 -0.000160 0.447331 0.205058 0.820494 0.957477 -1.330723 0.574738 1.027710 0.244825 0.680181 0.688839 -1.045801 0.093486 0.208390 0.476270
3291 -0.621808 0.222345 0.259005 0.271696 0.981089 0.719446 -0.946652 1.425125 0.645308 0.726312 1.055574 0.113110 -1.019998 0.667809 0.521422 -0.047824
2721 -0.849398 -0.061912 0.354900 0.095412 0.661042 0.687243 -1.372410 0.940506 0.599921 0.759408 0.077561 0.533633 -0.921976 0.560016 0.418175 0.468641
874 -0.492314 0.542509 -0.254013 0.285156 0.452642 1.025956 -1.455296 0.866769 0.709051 0.643092 0.139664 0.201538 -0.950851 0.589684 0.557149 0.454475
791 -0.482839 0.396945 -0.238248 0.219818 0.514630 1.055705 -1.534599 0.850712 0.598460 0.701814 -0.053520 0.245324 -1.034355 0.755608 0.498274 0.623836
873 -0.516442 0.461578 -0.116079 0.239124 0.427517 1.025625 -1.580125 0.890971 0.679721 0.711759 0.172418 0.326411 -0.920942 0.550281 0.563182 0.689896
173 -0.838775 0.020898 -0.178605 0.345661 0.604909 1.333761 -1.275199 0.661563 0.710743 0.726621 0.264906 0.264865 -1.124345 0.366422 -0.064500 0.213303
4851 -0.830545 0.151226 -0.044701 0.152688 0.418386 0.847653 -1.367862 0.803578 0.643340 0.788469 0.338839 0.580892 -1.120236 0.590733 0.401755 0.329764
288 -0.118463 -0.928518 -0.618611 -1.018690 -0.019948 1.831593 -0.868246 -0.000280 -0.095754 0.506826 0.476679 0.227347 -0.290564 -0.529196 0.098497 0.033588
910 -0.255792 -0.711903 -0.440780 -1.331620 0.500228 1.263798 -0.727617 0.401377 -0.114597 0.611753 0.046025 0.641419 -0.492613 -0.303643 0.771869 -0.723311
395 -0.490683 -0.031952 -0.280107 -0.156065 0.322095 0.809624 -1.309392 0.655576 0.720751 0.601187 0.077873 0.882080 -1.117572 0.425213 0.617788 0.134373
678 -0.846430 0.094961 0.184097 0.287705 0.427708 1.237717 -1.587744 0.662141 0.539192 0.783787 0.563414 0.362545 -0.903453 0.402329 0.037594 0.090546
606 0.098344 -0.761386 -0.165295 0.651692 -0.469048 1.225950 -1.599824 0.196351 -0.047288 0.871451 0.870547 -0.443942 0.182972 -0.785565 0.733382 0.111825
132 -0.696012 -0.775322 -1.372478 0.898637 0.305687 1.246915 -1.804009 -0.234750 -1.457253 -1.059673 -0.374880 0.915807 1.402477 0.195689 1.493918 1.439748
3170 -0.469446 -1.179884 -1.515932 -0.008177 1.846563 0.158475 -0.858726 0.627590 -1.141702 0.885937 -0.599910 0.780643 -0.753327 0.006492 1.589944 -0.646443
301 -0.289161 -0.705916 -0.766883 -0.977750 0.180844 1.600979 -0.866904 0.171882 -0.016682 0.379093 0.553394 0.463588 -0.595298 -0.431519 -0.136052 -0.247619
604 -0.478676 -1.008841 -0.676289 -0.965898 0.065551 1.413674 -0.678840 0.668589 -0.354204 0.453091 0.613659 0.249146 -0.749150 -0.710092 -0.281509 -0.120491
1586 -1.129296 -0.818464 -0.883099 -0.871381 0.093409 0.838637 -0.815689 -0.420769 -0.147501 0.828616 0.655885 -0.069486 -0.986317 -1.323949 0.439077 0.355890
3025 -1.256669 -0.474610 -0.311175 -0.186322 -0.123112 0.792093 -1.417861 0.101300 0.061014 1.451426 0.716947 -0.582318 -0.970907 -0.576067 0.273193 -0.052915
876 -0.349504 -0.923895 -0.525525 -1.277259 0.243537 1.630836 -0.592481 0.171864 -0.218559 0.464566 0.632448 0.167243 -0.570392 -0.626580 0.062951 0.009756
143 -0.768286 -0.020656 -0.026353 0.283498 0.535082 1.190281 -1.476745 0.718068 0.588653 0.675470 0.254964 0.492827 -1.128261 0.504243 -0.024822 0.325386
1369 -0.673260 0.070796 0.076660 0.430526 0.294321 0.913892 -1.104707 1.019294 0.526123 0.884565 0.972363 0.752517 -0.391883 0.202352 0.279927 0.555239
73 -0.812283 -0.662734 0.564231 0.266755 -0.456528 0.739509 -2.135903 0.320066 0.891081 0.044582 1.021834 0.339157 0.243335 -0.535235 0.202199 0.292506
35 -0.631563 0.248232 0.087517 0.523924 0.315809 1.563998 -1.716718 0.331112 0.808329 0.305661 0.276536 0.285689 0.249504 -0.282056 0.282728 -0.251034
2231 -0.733497 0.095353 0.126278 0.166663 0.609650 1.231310 -1.454244 0.737343 0.611825 0.707252 0.525818 0.457596 -0.894346 0.487654 -0.024107 0.182516
5640 -0.600236 0.248978 0.516268 -0.150583 0.535943 1.457079 -1.342456 0.712761 0.418013 0.777322 0.755260 0.308491 -0.974933 0.722488 0.281333 0.371461
3355 -1.473558 0.541438 -0.527751 -1.116683 0.204703 -0.100051 -1.540187 0.018362 -1.374606 -0.529213 1.052559 -1.339896 -1.064906 0.268390 1.112925 0.128242
587 0.120417 -0.207809 -0.542312 -1.026641 1.084062 0.915082 -0.902150 -0.188889 -0.195106 -1.044539 0.982016 1.640758 -1.083150 -1.475179 0.965295 0.559362
3543 -0.838737 0.221158 0.014822 0.071810 0.246132 0.981985 -1.446318 0.821182 0.468279 0.912622 0.640432 0.639706 -1.255861 0.593076 0.562926 0.203914
226 0.412374 -0.764747 -0.859364 0.254018 -0.231350 1.080814 -1.565898 -0.339775 -0.145767 1.153976 1.308878 -0.034949 0.090257 -0.463880 0.900744 -0.080910
788 -0.640330 -0.628199 -0.880672 -1.398467 0.061154 1.661350 -0.751257 0.368111 0.328589 0.333755 0.812533 -0.062783 -0.558864 -0.728857 0.026926 -0.078585
1611 -0.471523 -0.925187 -0.582924 -1.316385 0.140450 1.866823 -0.758709 0.238410 -0.133295 0.453554 0.477508 0.304470 -0.489268 -0.627153 -0.013545 0.081923
820 -0.384828 -0.241970 -0.963788 -0.622642 0.634076 0.658146 -0.705326 -0.664185 -1.152653 0.869409 1.280855 0.212941 -0.878908 -0.972753 0.591882 0.323361
600 -0.487889 -0.814159 -0.670478 -1.267412 0.056758 1.841233 -0.753595 0.301793 -0.218210 0.464719 0.557894 0.369347 -0.494978 -0.609697 0.078072 -0.028470
4238 -0.505053 -0.276384 -0.140242 0.406036 0.647267 1.077007 -1.111928 0.614258 0.763014 0.465646 -0.044214 0.792087 -1.256470 0.806389 0.287079 0.649302
883 -0.866231 -1.102209 -0.411773 -0.508470 0.379519 0.760901 -0.620374 0.350764 0.418295 1.015367 0.854905 -0.493117 -1.527717 -0.855964 0.050299 0.237056
302 -0.595354 -0.952898 -0.489368 -1.220738 0.040927 1.793963 -0.785703 0.227159 -0.135152 0.570812 0.485113 0.335654 -0.440584 -0.521608 0.113462 -0.091288
949 -0.397499 -0.882669 -0.636022 -1.298678 0.178332 1.785255 -0.707905 0.306870 -0.131824 0.498640 0.487614 0.307556 -0.629396 -0.616316 0.082298 0.071652
1361 -0.563455 -1.350358 -0.640300 -1.243200 0.253094 1.586434 -0.635621 -0.358775 0.223294 0.325629 0.380822 -0.018637 -0.660386 -0.364834 -0.185087 0.121367
745 -1.500941 -0.074443 -0.378332 0.416395 0.689415 1.378565 -0.188404 0.461758 0.370939 0.309278 1.840339 0.532244 -0.194081 -1.448901 1.239548 -0.103229
3087 -0.887407 -0.170373 -0.185108 0.332856 0.663788 0.972736 -1.186494 0.761243 0.921605 0.802484 0.147601 0.392132 -1.333270 0.417310 0.243881 0.429557
3998 -0.054037 0.072467 -0.885948 0.059505 1.092023 0.429490 -1.745185 2.057043 -0.248769 0.514612 0.937517 0.104806 -0.098820 0.137116 -0.408864 0.421239
4334 -0.157637 -0.328100 -0.252162 0.406875 0.379319 1.055402 -1.391356 0.596729 0.846885 0.899214 0.226352 0.717938 -1.252186 0.537685 0.610578 0.555831
2118 -1.301667 -0.079777 -0.554920 -1.290309 0.229723 -0.241179 -1.810598 -0.022845 -1.063551 0.869067 0.688351 -1.345088 -0.357462 0.210073 1.674718 -0.135175
1168 -0.472948 0.292168 -0.724777 -1.287285 0.230077 0.437378 -1.009511 0.191260 0.432071 0.407893 0.346396 1.090981 -0.978516 -0.023202 1.113997 0.036029
602 -0.392478 -0.687925 -0.935856 -1.046592 -0.046523 1.643036 -0.825086 0.161790 -0.031478 0.318706 0.543703 0.432564 -0.745054 -0.072436 -0.305245 0.030552
6 0.064292 -0.640690 -0.909923 -0.668562 -0.414730 1.165825 -1.594725 0.278704 0.152626 -0.243815 -0.329481 0.052424 -1.205742 -0.151795 0.110658 -0.492365
3405 -1.011944 -1.098927 -0.380253 -0.474488 0.239955 1.096443 -0.558429 0.127279 0.295494 1.031366 0.540275 -0.860294 -1.059410 -0.805652 0.422519 -0.168613
897 -0.807272 -0.373086 -1.694198 -0.511313 1.786407 0.688669 -1.764700 0.477720 0.744921 0.096473 0.693231 -0.292784 0.555221 1.253741 -0.599469 -0.247554
729 0.228398 -0.127323 -0.995800 0.373659 0.369823 0.592960 -1.665249 1.680760 -0.330002 0.999537 1.293972 0.442457 0.018331 -0.040087 -0.016368 0.474372
3041 -0.336361 -0.666850 -1.245010 -1.117175 0.438720 0.867414 -0.563780 0.112311 -0.223387 1.138952 1.087327 0.261397 -0.355668 -1.147900 0.698555 0.500535
601 -0.483411 -0.898743 -0.717853 -1.321840 0.112314 1.673979 -0.782796 0.170098 -0.114442 0.426501 0.449321 0.348836 -0.539812 -0.581657 0.170861 -0.283213
462 -0.802446 0.421766 -0.480108 -1.173968 0.283122 0.108858 -1.881169 -0.568937 -1.307248 -0.354029 1.463494 -1.615529 -0.796022 0.693261 1.390870 0.315588
518 -0.482158 -0.224168 -0.111111 0.172302 0.356889 0.988844 -1.565379 0.602651 0.716312 0.556221 -0.045518 0.612594 -0.959188 0.428481 0.156068 0.357553
4806 -1.028472 0.838156 -1.020221 -1.637365 0.487805 -0.173328 -1.588786 -0.194961 -1.097527 -0.141133 1.394711 -0.688419 -0.941334 0.249153 1.395573 0.410981
438 -1.782800 -0.228527 -0.020451 -0.835755 1.570436 1.650805 -0.390973 0.259812 0.095012 0.280056 1.021385 0.812155 0.623896 -0.961582 0.171569 0.667989
1014 -0.098469 0.236528 -0.665608 -1.369370 0.496197 0.350191 -0.956285 -0.419304 -0.107204 -0.464645 0.627166 1.189139 -1.350590 -0.613485 1.439272 0.686678
4064 -1.622268 -0.100357 -0.414194 0.128372 1.050462 1.198980 -0.189347 0.267421 0.520284 0.109022 1.534862 0.720648 0.299882 -1.352538 1.331008 -0.114776
908 0.914786 -0.923102 -0.677480 0.292717 -0.312970 0.888436 -1.684696 0.071648 0.405258 0.554608 0.845120 -0.006466 -0.233050 -0.530494 1.578167 -0.298106
2443 -0.272218 -0.535739 -0.330950 -1.309867 0.242195 1.963825 -0.720667 0.256288 -0.342930 0.484771 0.535255 0.069842 -0.788718 -0.500672 0.158229 0.019299
4815 -0.781418 -0.054167 -0.201699 0.265608 0.421787 0.910092 -1.272777 0.749545 0.868933 0.687464 0.139412 0.754714 -1.083694 0.595374 0.380399 0.464409
580 -0.622083 0.006410 -0.176359 0.248870 0.506527 0.737880 -1.249636 1.076722 0.491465 0.711253 0.257281 0.612954 -1.109919 0.509503 0.163569 0.531230
2255 -1.075373 -0.410785 0.253076 0.328609 0.926111 1.463473 -0.157196 0.374082 0.340434 0.249664 1.702277 1.173948 -0.300479 -1.076120 1.058806 0.178920
337 -1.283904 -1.193651 -0.103665 -0.298001 -0.156145 1.345953 -1.016942 -0.582607 0.518021 0.577939 0.470447 -0.123447 -0.861035 -1.082228 0.242726 0.107134
133 0.151693 -0.379439 -0.715151 0.199553 0.714788 0.734417 -1.703192 2.071935 -0.511979 0.613024 0.969223 0.236630 -0.165132 0.804087 -0.387892 0.377784
1644 -0.300367 -0.691424 -0.826650 -1.352230 0.328836 1.535825 -0.574009 0.323967 -0.337274 0.567783 0.826297 0.290877 -0.473461 -0.736260 0.249521 -0.160503
2330 -1.248311 -1.063643 -0.615491 -0.784124 0.003430 1.324635 -0.794097 -0.168248 0.103198 0.867247 0.536488 -0.171513 -1.015222 -1.147148 0.256834 0.189016
3228 -0.538864 0.224642 -1.666158 -1.518698 0.011600 0.367965 -1.373379 -0.425630 -0.145854 0.134020 0.356071 1.032741 -0.917663 -0.542566 1.317899 0.792795
87 -0.609599 -0.190179 0.579031 -0.755938 3.293153 3.162389 -0.837818 -0.244114 -0.967808 -0.808639 -0.029111 -0.227803 -0.738277 -0.650039 1.044588 0.947574
209 -0.728801 -0.865801 -0.704774 -1.141011 0.333975 1.579890 -0.677518 0.155836 -0.077537 0.588942 0.514017 0.173487 -0.636193 -0.649944 -0.174419 0.019760
3606 -0.872162 -0.816885 -0.416998 -0.064132 0.187649 0.901676 -1.407519 0.188943 -0.083457 1.534302 0.559632 -1.100809 -0.239644 -0.885938 0.426943 -0.226297
1151 -0.892441 -1.011728 -0.688135 -1.034249 0.039981 1.635463 -0.793213 0.033094 -0.019793 0.651513 0.483176 -0.037947 -0.720314 -0.812932 -0.030668 0.069960
2390 -0.452887 -1.082456 -1.190926 -0.029963 0.592567 0.970443 -0.915702 0.207951 1.158311 1.153319 0.577597 0.676260 0.130298 0.922283 0.437322 -0.106669
305 -0.526615 -1.081708 -1.099462 0.186524 0.273843 0.568978 -1.137504 1.553401 -1.030619 0.485294 0.526624 0.758012 -0.320077 -0.902492 -0.426613 -0.445035
4833 -0.541089 -0.046793 0.133442 0.119728 0.650625 1.018810 -1.209022 0.956076 0.822337 0.921604 0.478253 0.688936 -0.888312 0.381630 0.571185 0.453560
5025 0.026678 -0.916255 -0.803709 -1.008626 0.008916 1.483677 -0.695334 0.080650 0.002301 0.618186 0.655698 0.244193 -0.593747 -0.881301 0.484717 0.104055
4189 -0.700037 -0.137024 -0.161837 0.173686 0.557517 0.978825 -1.364626 0.630142 0.789402 0.674184 0.118428 0.785817 -0.985804 0.713506 0.314620 0.426152
1548 -0.272162 -0.698902 -0.328389 -0.779630 0.283874 1.961475 -1.291199 0.365170 -0.217134 0.916194 -0.046080 0.255714 -0.401436 -0.678205 -0.084506 0.269676
1068 -0.817100 0.017335 -0.789780 -1.576591 0.565538 0.039379 -1.198500 -0.926974 0.427455 0.344436 0.770258 0.765901 -0.760378 -0.424382 1.173014 0.908896
2435 -0.443798 0.113070 0.094273 0.115035 0.673551 0.844845 -1.426955 1.084125 0.505270 0.735130 0.580177 0.482470 -0.811807 0.504747 0.169239 0.301098
1709 -0.651640 0.071374 0.146895 0.180886 0.668571 0.949535 -1.360502 0.847841 0.682409 0.792119 0.523416 0.506775 -0.949563 0.553786 0.330088 0.251977
1339 -0.107160 -0.858687 -1.260763 -0.436807 0.860583 0.649024 -1.325502 0.785364 -1.559342 0.480569 -1.104114 -0.196327 -1.288071 0.155826 1.612934 -0.786647
2813 -1.220788 -0.757744 0.380453 0.703943 -0.552745 0.784706 -1.294961 0.330914 0.948130 0.435587 1.508564 0.676105 0.207629 -0.142988 0.729204 0.669496
744 -1.595585 -0.200326 -0.290253 0.621738 0.622171 1.236915 -0.269340 0.387762 0.351551 0.169180 1.818296 0.594186 -0.148499 -1.453954 1.515108 -0.193007
191 -0.511168 -0.766006 -0.590508 -1.252255 -0.052822 1.777726 -0.868953 0.401910 -0.034655 0.283024 0.840409 -0.009920 -0.276883 -0.382271 -0.277677 -0.114557
1150 -0.447062 -0.892038 -0.707119 -1.266255 0.256352 1.685304 -0.819356 0.169786 -0.058535 0.482952 0.534185 0.301892 -0.589042 -0.730085 0.076774 -0.111289
76 -0.506976 -0.950463 -0.761697 -0.298251 1.933175 0.196541 -0.920966 0.090891 -0.548628 0.827079 -0.337090 1.065309 -0.415424 -0.036304 1.519881 -0.814121
4970 -0.791206 0.166890 0.183448 0.188680 0.544169 1.052860 -1.452368 0.801399 0.747278 0.765371 0.499492 0.577334 -0.923656 0.483325 0.321152 0.287048
118 -0.316753 -0.225304 0.479542 0.176785 0.317234 1.194873 -1.718708 0.209541 1.105149 0.150055 0.591146 0.533027 -0.016854 -0.679587 0.428928 0.246606
515 -1.508130 -0.166844 -0.516212 0.490937 0.554830 1.292173 -0.502014 0.475410 0.730730 0.016060 1.394166 0.593519 0.186430 -1.450319 0.979976 -0.291270
1631 -0.153000 0.783132 -0.520024 0.290845 0.654517 0.980211 -1.998882 1.194857 0.350091 0.744941 -0.086221 0.227564 -0.804386 0.640181 0.594310 1.107453
303 -1.123227 -0.900667 -0.409679 -0.404104 0.453167 1.114331 -0.641979 -0.001629 0.149674 1.225407 0.570850 -0.365576 -0.746370 -1.078622 0.505423 -0.239940
299 -0.404173 -0.591532 -0.781030 -0.967889 0.153321 1.672032 -0.921030 0.087957 -0.018232 0.517581 0.622731 0.703278 -0.774689 -0.063968 -0.246892 -0.114590
81 -0.633488 -0.042133 -0.989019 -1.341475 0.141401 0.421436 -1.125135 -0.524709 -0.256550 0.638845 0.866141 0.645998 -0.903580 -0.978942 0.911789 0.585640
743 -0.635808 0.131403 0.071044 0.162506 0.530484 0.923319 -1.365174 0.716389 0.688401 0.723422 0.474495 0.549553 -1.092135 0.481523 0.386937 0.327910
1521 -0.387093 -1.008763 -0.283986 -1.519274 0.034048 1.897565 -0.852371 0.422009 -0.483135 0.598312 0.502371 0.015050 -0.386286 -0.644838 -0.001326 0.797167
14 -1.043989 0.397397 -0.899981 -1.725928 0.391117 -0.273809 -1.236108 0.381876 -1.408786 -0.045109 1.243799 -1.237633 -1.013761 0.486567 1.895268 0.704142
2656 -0.316267 0.796531 -0.399555 0.169169 0.280131 1.526904 -1.611469 1.284006 0.274599 0.867003 -0.191492 -0.588661 -0.651011 0.623976 0.580555 0.854808
1233 -0.230161 -0.139172 0.599120 -0.921942 1.419423 1.634548 -1.448849 -0.091141 0.353914 -1.273669 1.005609 0.318194 -1.130448 -0.604993 1.204825 -1.637165
4910 -0.525494 -0.764970 -0.836751 -0.810169 0.645838 1.269876 -0.957598 0.057202 0.626270 0.934394 0.244796 0.497977 -0.342358 0.788390 -0.224211 0.204516
607 -0.803618 -0.725848 0.427354 0.510708 -0.608613 0.932234 -1.706512 0.238759 0.833965 0.364823 0.906965 0.386541 -0.017502 -0.603046 0.508256 0.487853
1476 -1.603018 -0.371726 -0.311580 -0.883222 -0.120766 0.028782 -1.989878 0.192350 -1.059796 1.214662 0.918244 -1.594563 -0.262530 0.070009 1.500880 -0.341299
3251 -1.003320 -1.196990 -0.480079 -0.612331 0.923106 0.965329 -0.767566 -0.536105 0.472284 1.508970 0.399860 -0.824734 -0.931757 -0.207618 0.262391 0.226913
3398 -1.516393 -1.015424 -0.490980 -0.095878 -0.078223 1.238127 -1.043256 0.077619 0.403486 0.893204 0.038443 -0.358571 -1.177801 -1.595344 0.465831 0.841041
151 -0.070154 -2.166398 -0.425261 0.688665 0.874563 2.613808 -0.836972 -0.359706 1.534650 -1.117519 2.334794 -0.042482 0.686413 1.045100 0.975726 2.018678
129 -1.246430 0.270654 -0.003541 -1.422649 0.924077 0.334517 -1.857984 0.743305 1.498571 -0.846500 0.862678 -0.384522 -0.367937 -0.790718 0.740839 -0.428160
1199 -0.115340 -1.081449 -0.113662 -0.090301 0.134342 0.444820 -1.184042 0.659239 0.240681 0.305341 1.915390 -0.387754 -2.181217 -0.318881 0.020654 0.200380
675 -0.659940 -2.779529 -1.889467 -0.127613 -1.122262 2.146563 -1.166810 0.759876 -2.981617 -0.908714 0.460373 -0.946463 -0.015936 0.736688 2.735857 -0.098944
5563 -0.707753 0.166919 0.125973 0.160606 0.584062 0.942310 -1.234262 0.903144 0.735160 0.749313 0.576340 0.604321 -0.964808 0.414618 0.441304 0.259381
4591 -0.713060 -1.014945 -0.395749 -1.306746 0.148523 1.882955 -0.709997 0.118133 -0.302150 0.605833 0.561277 -0.084557 -0.611077 -0.629569 -0.017928 0.152936
4183 -0.159728 -0.114556 -0.820383 0.034223 1.203973 0.499378 -1.593347 2.011928 -0.296530 0.530132 1.023481 -0.066909 0.060742 0.044462 -0.482559 0.060314
410 -0.955129 -0.679980 -0.424804 -1.866655 1.408658 0.882480 -1.407536 0.683731 0.456780 0.025655 -0.480007 0.673279 -0.236567 -0.281477 0.681314 -1.065333
583 0.471014 -1.734865 -0.066242 1.338607 0.077801 1.541279 -2.122639 0.405805 0.235972 0.141883 0.514087 0.266956 -0.575845 0.725934 0.844447 -0.866196
700 -0.891088 -1.173210 -0.478355 0.339324 0.578299 -0.164748 -2.562543 -0.012474 -0.411119 -0.339017 0.116264 1.429703 -0.806746 -0.527080 -0.369388 -0.102779
490 -0.927625 -1.275032 -0.562558 -0.035793 0.407231 -0.179677 -2.331162 -0.123113 -0.013182 -1.299036 -0.098139 1.195994 -0.890177 -0.359305 -0.351968 -0.033936
858 -0.936457 -0.898041 -0.256279 -0.746790 -0.278444 -0.229086 -2.210812 -0.065656 -0.303840 -0.499691 -0.018678 1.307804 -0.784057 -0.468689 0.253412 0.010384
109 0.224542 -0.203419 -1.141972 -0.052377 1.010166 0.533724 -2.006191 1.461528 0.853294 0.253536 1.150765 0.013310 0.222415 0.127850 -0.550864 0.212821
165 -0.834481 -0.470670 -1.756636 0.757667 0.859367 1.644792 -2.045386 -0.620022 -1.618851 -0.625361 -0.501483 0.616545 1.464881 -0.073933 1.653408 1.573138
835 -1.484562 0.317705 -1.413287 0.958135 1.060923 1.473728 -2.447016 -0.177580 0.972491 -0.227410 0.633417 -0.416465 0.866245 0.382877 -0.391630 0.092637
136 -1.150409 -0.114195 -0.039076 0.207343 1.094979 1.678403 -0.413981 0.289984 0.496846 0.503538 1.517552 1.381979 -0.436079 -1.239472 0.746165 0.640482
4235 -0.693201 -1.064205 -0.343936 -1.314254 0.152061 1.840785 -0.721898 0.276290 -0.267947 0.569721 0.514692 -0.008569 -0.554464 -0.727392 -0.046758 0.146378
135 -1.391832 -0.094230 0.206129 -0.874248 0.395409 0.515751 -2.140275 0.429668 1.638988 -1.028199 1.584195 -0.132698 -0.239982 -0.930118 0.733517 -0.457595
3996 -0.310090 -0.909055 -0.692106 -0.297262 1.058424 1.059925 -0.849965 0.252836 0.826406 1.024367 0.423813 0.527713 -0.360456 1.164570 0.288242 -0.182503
1302 -0.307990 0.701883 -0.621014 0.241824 0.470795 1.125680 -1.774668 1.146158 0.490341 0.673414 -0.287285 0.107877 -0.837123 0.676730 0.645771 0.991934
296 -0.255765 -0.779149 -0.540921 -1.432065 0.428398 0.810091 -1.983649 1.122026 0.475452 -0.253727 -0.438805 -0.333858 -0.786164 -0.413454 -0.433329 -0.122666
45 -1.202608 0.771089 -1.102562 -1.513409 0.484454 0.398412 -1.294525 0.204654 -1.994405 -0.057045 1.331280 -1.147843 -1.322313 0.278346 1.276316 0.605232
3209 -0.313679 0.802300 -0.543635 0.331472 0.591388 1.147863 -1.785895 1.063048 0.506569 0.789985 -0.170255 0.073817 -0.885841 0.723189 0.848918 1.039059
3100 -0.710420 -0.445033 -1.186720 0.157243 0.514282 0.154282 -1.499952 1.855613 -0.707887 1.067834 0.870788 0.280574 0.522241 -0.541029 0.114945 -0.328389
458 -0.470529 -0.492873 -0.561632 -1.067590 0.101096 1.363968 -1.749435 0.495207 -0.045898 0.270791 -0.092392 0.637313 -0.623874 -0.344457 -0.522376 0.043848
481 -0.332118 0.865980 -0.607154 0.068720 0.370788 0.886696 -2.090766 1.160358 0.855873 0.564310 -0.137494 -0.122109 -0.816319 0.851616 0.838304 0.904528
1118 -0.497223 -0.037183 -0.422502 -0.577966 -0.003456 0.892813 -1.433574 0.585000 0.428946 0.394816 0.420110 1.176167 -1.323611 0.464482 0.689762 -0.532984
842 0.544051 -0.826635 -0.234868 0.071214 0.343358 0.693882 -1.445133 0.103706 -0.220442 -0.192923 2.477914 -0.896314 -2.142658 0.363028 0.655696 -0.177484
787 -0.625691 -0.561468 -0.789243 -1.473028 0.111631 1.786334 -0.869862 0.100950 0.378796 0.206509 0.827869 -0.007791 -0.391818 -0.748699 0.110576 -0.161615
63 -0.802044 -1.419424 0.299699 -1.251616 -0.664114 0.176483 -2.702068 0.396888 -0.360879 -0.017038 0.258679 0.487941 -0.250911 -0.608641 0.428706 -0.129685
1254 -0.570551 -0.564960 -0.815448 0.774920 0.294967 1.322950 -1.605900 0.804797 -0.464477 1.433316 -0.132934 -0.783174 0.022216 -0.393094 -0.018653 0.136383
1567 -0.436363 -1.117184 -0.286077 -1.538299 0.133398 1.840155 -0.858332 0.335814 -0.369879 0.639757 0.657036 0.126216 -0.267024 -0.711007 -0.071149 0.683281
1117 -0.553434 0.144673 -0.386879 -0.687901 0.195030 0.758153 -1.294561 0.672535 0.545924 0.611921 0.516158 1.062489 -1.489011 0.316259 0.779251 -0.229228
251 -1.652083 0.752843 -0.258832 -1.736342 0.710645 0.067285 -1.717213 -0.030350 -0.243406 -1.178138 2.138630 -1.526723 -0.919416 0.310410 1.108352 -0.252916
2918 -1.272429 -0.079839 0.110828 -0.185741 1.454144 1.321432 -0.531125 0.277381 0.578687 0.172310 1.520235 1.428107 0.271291 -0.980353 0.524183 0.860878
2253 -0.916620 -0.956560 -0.587643 -0.343060 0.857801 0.992724 -0.988216 0.137875 0.891855 1.133608 0.061839 0.504325 -0.230937 1.550944 0.317829 0.401462
3253 -0.559920 -0.996196 -0.571955 -1.190984 0.141942 1.946052 -0.590749 0.266839 -0.151603 0.498020 0.666242 -0.025471 -0.677263 -0.760043 -0.026132 0.180637
3960 -0.172180 -1.008910 -0.633638 -1.341577 0.227823 1.840901 -0.752920 0.305327 -0.171154 0.532402 0.537640 0.272479 -0.580699 -0.596078 0.164831 -0.104801
5103 -1.305251 -0.994576 -0.508924 -0.369747 0.235102 1.057838 -0.846243 -0.155109 0.184115 1.164946 0.477896 -0.628522 -0.992136 -1.027108 0.317169 0.053819
2518 -0.328369 -0.155384 0.300200 0.365016 1.356117 0.750029 -0.588011 1.400952 0.388162 0.562613 1.931746 -0.435676 -1.286100 0.937205 1.198223 -0.640008
2450 -1.062371 -1.438092 -1.364271 0.517749 0.460858 0.448549 -2.109230 0.213996 0.166194 -1.890679 -0.364464 0.440412 -1.899937 -0.248846 -0.076204 -0.716900
413 -0.778948 0.670854 -1.785195 0.729362 -0.597693 2.607551 -2.654818 -0.066380 0.138050 -0.789326 0.574733 -0.506702 -1.147622 -1.256471 0.919499 -0.791967
1005 -0.594021 -0.328229 -0.894320 -0.988885 0.337744 1.157903 -0.710382 -0.366844 -0.366405 0.942572 1.043996 0.183687 -0.571716 -1.303143 0.695895 0.296604
3173 -0.203629 -1.252961 -2.102046 -0.055165 2.336491 0.278112 -1.237164 0.578108 -1.021312 0.454071 -0.811341 1.359211 -0.416528 0.210912 1.963804 -0.363528
368 0.192865 -2.253434 -0.730244 0.313602 1.280167 2.435688 -0.867376 -0.371057 1.272067 -1.297441 2.383756 0.017833 0.568464 1.713139 1.096001 2.181975
186 0.920236 -0.803336 -0.638849 0.065807 -1.097763 1.185875 -1.402797 0.513311 0.317707 -0.086736 1.065092 -0.506840 -1.060199 -0.405962 1.609258 -0.005041
286 -1.484149 -0.327148 -0.205211 -1.271924 0.302029 0.140141 -1.634996 -0.313520 -1.817660 0.136264 0.853091 -1.599146 -1.286708 1.350451 1.557966 0.201886
70 -1.216473 -0.976030 0.436120 -0.011674 -0.959724 0.958911 -2.146951 0.950581 0.535304 -0.258426 -0.012665 0.685368 -0.646483 -0.824837 0.329813 0.496859
274 -0.691439 0.417313 -0.636408 -1.622060 0.275794 -0.201155 -1.361593 -0.260886 -0.512422 0.214589 0.828950 0.599684 -1.097398 -0.284452 1.278063 0.493687
3544 -0.433138 -0.991850 -0.600954 -1.303342 0.126598 1.923252 -0.709230 0.225038 -0.250157 0.481052 0.542544 0.193771 -0.418896 -0.684351 0.095480 -0.024497
6152 -1.070124 -0.800468 -0.227806 -0.472619 0.437839 0.718550 -1.334266 -0.120089 0.057678 1.575206 0.839970 -0.950877 -0.413070 -0.858586 0.511761 -0.180990
619 -1.194307 -1.521218 0.791946 -0.862308 -0.495033 0.320472 -2.200016 0.335922 -0.306191 -0.190749 -0.336258 0.833987 -0.713118 -0.245358 0.752620 -0.068890
1059 -0.390127 0.641063 -0.513093 0.205050 0.430078 1.143807 -1.797224 1.225392 0.697938 0.641128 -0.264827 0.015906 -0.842578 0.888597 0.784934 0.838564
1427 -1.201140 -0.414748 -0.201107 0.509146 0.619496 1.774686 -0.133387 0.175575 0.659613 0.191472 1.628068 0.531312 -0.198466 -1.349733 1.172568 -0.129942
727 -0.415859 -0.829396 -0.844180 0.170166 1.586210 0.020701 -0.905442 -0.894837 -1.646659 0.803002 0.689074 0.686459 -1.113942 -1.009596 1.404914 0.346775
225 0.417937 0.098488 -0.712967 -0.408589 0.386888 -0.100877 -2.637276 0.824650 1.519500 0.122244 1.352526 0.020545 -0.271968 -0.139417 0.678939 -0.006330
405 -0.195252 -1.199656 -0.556762 0.324067 2.461819 0.118181 -1.448140 -0.991370 -1.266065 0.598235 0.346995 1.059462 -0.708997 -0.920458 1.865566 0.110557
1973 -1.385365 -0.258393 0.109991 0.609190 1.339419 1.237848 0.016909 1.111857 -0.053853 0.302556 1.704464 0.352915 -0.381463 -1.384283 1.258081 -0.389008
1466 -0.011262 -0.053788 -0.934306 -0.042831 1.123297 0.640351 -1.681660 1.977978 -0.210869 0.416873 1.105221 0.002984 0.035366 0.111552 -0.584467 0.327058
1498 -2.277895 -1.081452 -0.696761 -0.363520 1.860067 0.913292 -1.280524 0.893417 1.118625 0.773478 -0.776887 -0.324251 0.743575 1.962218 1.611615 0.043759
966 -0.093715 -1.276580 -0.449560 -0.084719 -0.063194 0.679642 -0.630221 0.017088 -0.006738 -0.201756 2.861181 -0.362954 -1.792628 -0.219242 0.569360 -0.111038
617 -0.966843 -1.253083 0.457684 -0.899520 -0.735628 0.416590 -2.658329 0.351107 -0.139709 -0.446717 -0.125166 0.528198 -0.962999 -0.596163 0.535856 -0.113362
1329 -0.619044 -1.058738 -0.755917 -0.461748 0.887743 1.014071 -0.742104 -0.242990 0.697204 1.322702 0.091242 -0.158289 -0.910766 1.089338 0.155937 0.456184
1126 -1.899479 -0.113998 -0.115488 -0.598816 1.878716 1.215691 -0.575091 0.176149 0.197032 0.022910 1.406367 0.925863 0.852900 -1.272335 0.577853 0.767884
850 -0.744322 -1.043084 0.424482 0.123664 0.647164 1.222846 -0.643539 0.674185 0.213115 -0.592527 0.491129 0.682835 -0.676933 -0.093396 0.720247 -1.648140
213 -0.796847 -1.327175 -0.757881 -0.412127 0.713033 1.074049 -1.213395 0.106426 0.831571 1.399033 0.444832 0.481909 -0.337321 1.494123 0.233776 0.453511
1272 -0.131178 -0.485898 -1.169442 -0.641015 -0.066798 1.074382 -1.002349 -0.775040 -0.347166 0.882298 1.399856 0.338418 -0.388832 -0.949331 0.697101 0.397765
452 -0.389827 -1.120659 -0.574153 -0.020767 0.211463 0.633956 -0.906671 1.233857 -0.201065 0.566883 1.041224 0.241118 -1.818706 -0.495951 -0.504120 -0.147424
640 -2.407700 -0.122476 -0.439625 0.416919 0.783292 0.874590 -0.621289 0.774861 0.309851 -0.115500 1.118999 0.701214 0.395611 -1.122757 0.942625 -0.729111
672 0.202840 0.206625 -1.189322 0.775441 0.818141 0.524344 -3.019783 1.191162 -1.048625 -2.614432 -0.693098 -0.962124 -0.670976 0.076653 2.881018 1.085175
760 -0.846801 -1.532471 -1.134222 0.099855 0.459919 0.797176 -0.424191 1.540101 1.053464 0.634951 0.500347 0.496070 0.834701 -0.211401 1.277401 -0.295836
812 -0.768261 -1.028338 0.024214 -1.113355 -0.385781 0.626711 -1.943346 0.551913 -0.074717 -0.162095 -0.230638 0.597980 -0.802951 -0.456272 0.050309 -0.295453
1170 -0.878162 0.393898 -1.108544 -1.627941 0.873729 0.040839 -1.308585 -0.214567 -2.007779 -0.033524 1.622039 -0.672147 -1.173839 -0.299237 0.986671 0.582754
2599 -0.506518 -1.071519 -0.678628 -1.448754 0.230996 1.337154 -0.471201 0.333587 -0.042741 0.829148 0.973837 -0.160872 -0.740015 -1.066447 0.339360 0.445630
726 -0.800933 -0.223999 0.607134 0.284880 0.522700 1.740912 -1.854464 0.939294 0.563854 0.453006 0.752507 0.329236 -0.495749 0.595253 -0.499478 0.316626
346 1.561149 -0.198297 -1.441800 0.202551 -0.308525 2.309195 -2.119395 0.174041 -0.440875 -1.257644 1.950991 -0.584974 -0.368810 1.004216 1.762760 0.679858
524 -0.783586 -0.467787 -1.335123 1.309573 0.289063 2.015195 -1.703007 0.585237 -2.661022 -0.514416 -0.186756 1.391507 0.047767 -0.247740 0.495892 0.661636
742 -0.333697 0.762444 -0.379032 0.300621 0.427239 1.206555 -1.779472 0.990188 0.631777 0.700679 -0.175560 0.065759 -0.865747 0.791829 0.903805 0.991902
3501 -0.795088 -0.738426 -0.238305 0.141884 0.760077 1.249625 -0.229183 -0.033382 -0.013033 0.704978 1.521405 0.336624 -0.335540 -1.780733 1.422365 -0.315503
1686 -1.734601 0.653786 -0.219252 -0.965295 0.654889 0.352552 -1.521073 0.940350 1.251495 -0.828743 1.539143 -0.146811 -0.159532 -1.223405 1.025894 -0.414991
285 -0.893187 -0.236998 -0.233445 -1.553017 0.896345 0.041408 -1.142681 0.135796 -1.809015 0.243303 0.781013 -1.765545 -1.118269 0.748847 1.689801 0.174590
643 -0.977393 -0.360582 0.016598 -0.391672 1.226247 1.932113 -0.244174 0.220084 0.236334 0.088165 1.262395 1.407268 0.083080 -0.697932 -0.005482 0.724094
176 -1.402499 -0.347369 -0.363452 -1.163783 0.167084 -0.170115 -1.981626 -0.027726 -1.516478 0.457047 0.811876 -1.782080 -0.741644 0.618661 1.554419 -0.170390
641 -1.981542 0.177263 -0.609289 -0.128359 0.819955 0.631279 -0.821844 0.849166 1.045835 -0.452163 1.707846 0.573012 0.247200 -1.502196 1.164168 -0.474331
1757 -1.184202 -0.934809 -1.178024 0.154722 0.257152 0.720623 -0.493854 1.891331 0.796491 0.544036 0.616293 0.517447 0.819324 -0.213501 1.162310 -0.426134
2282 -0.900551 0.678459 -0.457884 -1.270253 0.926276 -0.545608 -3.006050 -0.165674 -1.578320 -0.079044 1.859139 -1.332790 -1.152313 0.247045 0.821151 1.278714
2713 1.001894 -0.770334 -0.496853 0.556385 -0.491888 1.334165 -1.724717 0.150731 -0.280664 0.461758 1.585954 -0.809827 -0.459138 -0.111888 1.082294 -0.029294
365 -0.441733 -0.372554 0.693555 0.009188 1.195708 1.393304 -0.881470 0.456043 0.956102 0.168325 1.155905 1.455108 0.011824 -0.945539 0.870703 0.685090
345 1.521235 -0.295738 -1.475260 0.210895 -0.348925 2.311916 -2.100769 0.184373 -0.417991 -1.235937 1.914999 -0.670938 -0.290202 0.847594 1.770767 0.728895
1866 -0.638169 -0.332580 -1.740204 0.815670 0.747247 1.483207 -2.077077 -0.462533 -1.409789 -0.835731 -0.614386 0.532052 1.352322 -0.046741 1.689614 1.541086
991 -1.533708 -2.858051 0.261016 0.534645 2.490198 0.693430 -2.302834 -1.563581 -0.130906 -1.372882 2.623409 0.178306 1.275894 0.631036 0.992381 -0.087003
4396 -0.379107 -0.607837 -0.887461 -0.775501 0.425351 0.931455 -0.540313 0.657571 0.158767 0.953863 0.224592 1.129974 -0.278025 0.052103 1.247062 -0.764954
875 -0.348757 0.592210 -0.439133 0.320319 0.569458 1.157966 -1.816915 1.035071 0.615227 0.801372 -0.279568 0.128158 -0.860454 0.821939 0.809166 0.986296
99 0.072798 -2.311057 -0.787122 0.562869 1.311394 2.301870 -0.937528 -0.298532 1.254002 -1.307108 2.310636 0.088008 0.685020 1.725520 1.135227 2.238895
818 -0.578684 -0.880022 -0.160228 0.185987 0.716055 1.188014 -0.293020 0.786924 0.809937 0.647289 2.266340 -1.049799 -1.389029 0.882575 1.610768 -0.941424
37 -0.455140 -0.629793 0.341973 0.544280 -0.334569 1.306695 -1.987605 0.824130 0.791246 0.053456 0.400857 0.604892 -0.427607 -0.769089 0.331858 0.057789
2973 -0.266494 0.524336 -0.547999 0.369121 0.484484 0.948233 -1.873592 1.268347 0.277955 0.826142 -0.178628 -0.063702 -0.890586 1.189463 0.665647 0.860436
2677 -0.691071 -0.167634 -2.252322 -0.947864 2.497990 1.175766 -1.998001 0.443434 0.228633 -0.400077 0.847389 -0.181537 0.743810 1.582369 -0.575996 -0.030301
5631 -1.514286 -0.465473 0.123027 0.403494 1.073063 1.155440 -0.204565 0.529756 -0.186768 0.038105 1.901448 0.512599 -0.098230 -1.581470 1.429101 -0.407496
951 -0.351008 0.740408 -0.384519 0.240766 0.468260 1.190154 -1.865787 1.076560 0.496922 0.661868 -0.217918 0.043877 -0.895107 0.994696 0.757516 0.941793
407 -0.796130 -0.560497 -1.823144 0.781946 0.464163 1.616762 -2.047852 -0.212657 -1.726483 -0.940194 -0.711364 0.840155 1.132445 -0.222008 1.118197 1.364944
943 -0.995520 -1.172011 0.758025 -0.528565 0.604887 1.590714 -0.480624 2.485494 -0.714448 -1.736383 2.753683 -0.587246 -2.737182 2.356823 1.641573 2.633364
2603 -0.880866 0.019781 0.045933 0.425182 1.069875 1.764330 -1.788036 1.463805 -0.182978 0.807800 0.493199 0.537798 -0.700267 0.119705 -0.687976 0.145730
3321 -0.423941 -0.896579 -0.388590 -0.165009 -0.255935 0.759319 -1.997990 0.005684 -0.164471 1.587052 1.091188 -0.837056 -0.098485 -0.761066 0.799288 -0.143393
3518 -1.009938 0.723221 -1.016567 -1.606127 0.625605 0.181054 -1.435562 0.424214 -2.014296 -0.119128 1.287675 -0.993466 -1.118373 0.158541 1.224847 0.512489
2113 -0.790768 0.187216 -0.975692 -1.526855 0.358401 0.118982 -1.325557 -0.628027 0.189132 0.167112 0.518310 1.110178 -0.895756 -0.652505 1.361641 0.668512
3686 -0.300682 -0.725004 -0.649488 -1.312133 0.201764 1.899551 -0.842367 0.215868 0.005061 0.305997 0.682055 0.333633 -0.505948 -0.673358 0.000026 0.001779
947 -1.092729 -1.078335 -0.431027 0.248785 0.136574 0.117547 -2.207537 0.154996 -0.459035 -0.380233 0.384389 1.402471 -0.778945 0.055309 -0.395494 -0.567639
3417 -0.377540 0.762779 -0.515196 0.319370 0.401428 1.190588 -1.812481 1.021836 0.542684 0.666966 -0.150473 0.095946 -0.826383 0.770462 0.727478 0.884245
3269 0.108084 0.308403 -1.417577 0.866347 0.846548 0.625327 -2.783957 0.709477 -1.190372 -2.323076 -0.904342 -0.558560 -0.027692 -0.048225 2.605474 1.337142
2907 -1.064686 -0.941200 -0.325368 -0.620696 0.208651 1.139290 -0.758303 -0.033800 0.168903 1.009894 0.561981 -0.485406 -1.261021 -1.168403 0.427537 0.168490
4675 -0.523789 -1.063763 -0.500327 -1.229487 0.253531 1.840040 -0.656731 0.180503 -0.030764 0.504890 0.504828 -0.148444 -0.578103 -0.651631 0.075826 -0.061091
5604 -0.288664 0.817048 -0.571752 0.237316 0.548226 1.156145 -1.855984 0.927670 0.590823 0.791030 -0.166921 0.075828 -0.893792 0.767318 0.788499 1.011818
199 -2.883329 -1.765554 -2.257628 1.095026 1.658200 -1.391432 -0.656717 1.537133 0.074392 -0.713897 2.647580 -0.773131 0.571269 -0.038215 2.440984 1.971195
1324 -0.915204 -1.148105 -0.692030 0.045839 1.738786 1.194610 -0.509087 -1.174667 -2.424258 0.996702 1.672202 -0.133173 -0.613804 -0.940030 1.051110 1.326211
2744 -2.382863 -1.715430 0.607590 -1.087607 1.389618 2.742800 0.874083 1.083623 -1.116076 -0.158143 1.563836 -2.365225 -1.510173 0.381805 2.629183 1.680405
330 -0.682922 -1.393213 -1.188349 0.237019 1.889575 2.368608 -1.959059 -2.077469 1.434693 -2.328222 -0.479067 0.618585 -0.672574 1.187809 2.629214 0.092022
47 -0.921171 -1.206976 -0.609288 0.380240 -0.015872 1.168710 -0.708240 1.736190 1.414803 0.167823 0.448369 -0.321255 0.679085 -0.208735 1.007635 -0.256311
3406 -0.333068 0.814699 -0.399835 0.361542 0.581922 1.129562 -2.016600 0.928706 0.640366 0.817709 -0.229475 0.003290 -0.883794 0.747028 0.863488 1.004363
2736 -0.255521 0.684016 -0.451365 0.178651 0.409236 1.301571 -1.849160 0.946359 0.514948 0.801640 -0.204054 0.071838 -0.843442 0.739102 0.806176 0.971890
4644 -0.291752 0.802652 -0.577336 0.346177 0.595282 1.216409 -1.804807 1.005047 0.495721 0.799465 -0.195008 0.012727 -0.896752 0.882471 0.822998 0.874290
731 -1.786826 -0.223864 -0.838075 0.308169 0.872413 0.764093 -0.520396 1.394404 0.496104 0.142205 1.198948 0.684109 0.612504 -1.369605 0.999368 -0.463565
1026 -0.400021 0.633167 -0.356748 0.376991 0.523908 1.237821 -1.967719 0.964720 0.521873 0.741015 -0.305462 0.039469 -0.829923 0.881897 0.748798 0.858604
21 -0.954961 -0.230779 -0.637260 -1.536649 0.152355 1.522803 -0.923322 0.468196 1.076972 0.234115 0.554285 -0.061530 -0.063890 -0.658170 0.693742 -0.376463
836 -1.436739 -0.059393 -2.119989 0.795704 0.525857 1.423019 -2.311144 0.398784 0.811313 -0.008185 0.436186 -0.691859 0.755743 0.663058 -0.540834 0.322582
3458 -0.391772 -0.864384 -0.536460 -1.290428 0.382115 1.718804 -0.788094 0.278812 -0.150445 0.536380 0.455239 0.196334 -0.451130 -0.590576 0.036875 -0.129933
2411 -0.227991 0.757558 -0.578038 0.247448 0.707561 1.198051 -1.907423 1.068429 0.621685 0.654491 -0.325654 0.075044 -0.837863 0.714908 0.721922 0.889389
1562 -1.558862 -0.190649 -1.872048 0.752210 0.962139 1.150146 -2.515220 -0.209238 1.117032 -0.444002 0.678780 -0.646283 0.601665 0.599120 -0.674414 0.451314
1240 -0.841537 -1.434308 0.899745 -1.062806 -0.625461 0.221246 -2.468362 0.254001 -0.372814 -0.501079 0.313518 0.499052 -1.126562 -0.414740 0.562505 -0.091970
1171 -1.321495 -0.386449 -1.874642 0.664815 0.949918 1.119519 -2.137303 -0.151456 0.738338 -0.264059 0.615431 -0.450573 0.625221 1.118713 -0.508871 -0.392963
474 -1.318635 -1.281078 -0.096123 -0.963507 2.085125 0.782646 -2.666763 1.230761 -0.312162 -2.498800 -0.563473 0.020086 -0.287112 0.570500 -0.857583 -0.051601
829 -0.428117 -0.210214 -0.524147 0.215627 0.803679 1.152277 -1.608859 1.964194 -0.283535 0.798998 0.978251 0.716754 -0.133043 0.025304 -0.561620 0.446870
790 -0.312373 0.710571 -0.567450 0.348904 0.460215 1.127557 -1.790715 1.066443 0.597687 0.778987 -0.187093 -0.014665 -0.847126 0.766500 0.842383 0.931069
25 -1.527278 0.108161 -2.151878 0.567826 1.269482 1.139716 -2.484153 0.084158 0.865739 -0.226118 0.741920 -0.373677 0.741907 0.994030 -0.439464 -0.058536
1776 -1.593644 -0.281431 -0.123460 0.568061 0.876073 1.593118 -0.191453 0.364817 0.212258 0.430850 1.657692 0.811852 -0.171919 -1.447873 1.584176 -0.187933
1852 0.180858 -1.422292 0.031158 -0.071280 0.640960 0.411205 -1.037694 0.485788 -0.205882 0.136342 2.619049 -0.437544 -2.296680 0.218897 0.902225 -0.303288
2595 -2.044788 0.057856 -2.130038 0.456096 0.963229 1.106663 -2.430464 0.308849 0.987510 -0.659379 0.463797 -0.527424 0.779521 0.649226 -0.566426 0.301426
262 -0.439535 -1.370638 -1.336692 -1.100249 0.436236 0.291911 -0.910199 0.840533 0.090972 1.626533 1.601361 -0.602886 -0.364491 -1.167565 0.689115 1.086974
1135 -1.957247 -0.982803 0.002936 0.639133 0.586355 1.108081 -0.914676 0.657729 0.035897 -0.475080 0.463325 0.206301 -0.690482 0.525470 0.629343 -1.948642
1022 -1.081594 -0.630659 -1.062017 1.341233 0.261923 2.519373 -1.643486 -0.139429 -2.848487 -0.904191 -0.360787 1.531978 -0.917909 0.108772 1.067930 0.672129
1317 -0.244590 -0.335394 0.757479 0.271701 0.329548 1.129283 -1.672396 0.316478 1.258168 0.061416 0.558134 0.482036 -0.087973 -0.750902 0.729935 0.321896
864 -0.440329 0.026138 -0.608643 -0.640216 0.259852 0.764684 -1.298689 0.614855 0.423316 0.554516 0.244146 1.129933 -1.388665 0.245498 0.682195 -0.282341
739 -0.099873 -0.582325 -0.631962 0.350448 2.569885 0.124426 -1.374709 -0.972685 -1.557071 0.631688 1.180906 0.880315 -0.515289 0.062763 2.763556 0.136584
170 -0.877554 -0.416759 -1.236731 -0.081063 0.253012 0.904239 -0.458022 1.619862 0.324864 0.737244 0.390985 1.075382 0.357843 -0.201438 1.363060 -0.646947
2038 -2.249616 -0.854042 0.426074 -0.763210 -0.436613 1.847463 -3.026504 2.017578 -1.262319 -0.826447 0.136099 -1.528304 2.205945 1.156218 1.812478 1.654396
74 -0.016764 -0.630136 0.288361 -0.046630 0.431613 1.650967 -2.169379 1.334841 0.975714 -0.074366 0.980521 0.144595 0.386331 0.527068 -0.309926 0.013327
693 -0.109294 -1.673669 0.605971 -0.520032 0.302207 0.255855 -1.479115 0.284733 -0.168762 -0.280331 2.465257 -0.333835 -2.224360 -0.189819 0.859684 -0.465448
3297 -2.045328 0.057300 -0.536694 -0.216624 1.302088 0.844612 -0.485637 0.548123 0.403931 0.002212 1.315409 1.007757 0.788929 -1.203066 0.809235 0.191938
2280 -0.545749 -0.596062 -0.801157 -0.511640 1.070861 0.669556 -1.095632 0.092227 0.616968 0.932310 0.276278 0.429417 -0.004658 1.514036 0.470669 -0.560481
3915 -1.059659 -3.997832 -1.383630 0.901212 2.591968 2.765302 -0.187263 0.570718 -1.643178 -0.969243 -0.141212 0.617298 -0.853358 0.107067 -0.005499 0.654031
385 -0.013012 -0.091745 -0.806182 0.194282 1.391746 1.482519 -1.525126 1.828798 -0.170009 0.682404 0.894781 0.409598 -0.057127 -0.119760 -0.674952 0.281147
507 -1.399312 0.914289 -0.980536 -1.493871 0.514487 0.120244 -1.842397 -0.441714 -0.848706 -0.803528 1.614949 -1.372494 -1.098142 0.790445 1.369812 -0.018165
82 -0.651453 -0.158094 -0.683619 -1.834383 0.140812 1.302072 -1.240149 0.211073 1.163507 0.002450 0.922246 -0.440199 -0.331129 -1.048578 0.453336 0.295844
1020 -0.695569 -0.523598 -0.924922 -0.870827 0.227534 1.762541 -1.121626 -0.021254 0.138333 0.181890 0.326073 0.854930 -0.689097 -0.035480 -0.623545 -0.077490
56 -1.549692 -1.238083 -0.277704 -1.819347 0.480676 0.007006 -1.636091 -0.188815 -2.061568 0.230636 1.267872 -1.511124 -1.620416 1.923930 1.766262 0.143974
1178 -1.872474 -0.367755 -0.054493 -0.632811 1.946651 1.438432 -0.611820 0.429510 0.259027 -0.070940 1.396368 0.931248 0.848149 -1.288806 0.329715 0.865536
1351 -1.607498 -0.186324 -0.623811 0.626456 0.966822 0.825738 -0.475352 1.408551 0.174057 0.248969 1.288883 0.627300 0.133778 -1.395349 1.159282 -0.628715
2143 -1.817778 -0.691589 -0.479231 0.641772 0.039801 1.242501 -1.367499 0.468399 0.883033 0.624457 -0.508673 0.589760 -0.490647 -1.326409 0.675016 0.596546
758 -0.592028 -0.617930 -0.162319 -0.469793 2.549392 1.173539 -0.794888 -0.353022 -1.083879 0.835241 -1.182047 -0.509356 -1.497306 -0.124491 2.149580 0.466206
2057 -0.277844 -0.597745 -1.516257 -0.806343 0.683414 0.307330 -2.357627 0.732018 -1.321741 0.488446 -1.028695 -0.725217 -0.598769 0.446817 2.092427 -1.091322
1173 -0.050474 -1.483022 -0.181124 0.138445 0.475776 0.362004 -1.206000 0.125038 -0.234069 -0.303201 2.604623 -0.717395 -2.400474 -0.155201 0.501943 -0.064245
55 -1.633882 -1.165594 -0.252398 -1.777250 0.424534 0.066348 -1.591315 -0.136058 -2.157306 0.331271 1.188128 -1.387037 -1.559962 1.873042 1.873460 0.156840
861 -2.025573 0.000244 -0.670613 0.466220 0.930601 0.981208 -0.560669 0.895012 0.517503 0.066172 1.130550 0.759255 0.430274 -1.387519 1.197533 -0.341817
4277 0.016224 -0.038648 -0.910869 -0.040721 1.144014 0.253702 -1.633627 2.187236 -0.142012 0.229154 1.153445 -0.111320 -0.157534 0.328683 -0.348465 0.153996
574 -0.308649 -0.419962 0.371882 0.156727 0.659215 1.551481 -2.218019 0.092271 0.390859 0.701336 -0.069056 0.620354 -0.238046 -0.551852 -0.069343 0.202055
5096 -0.333773 -2.454514 -2.593927 -1.588628 2.250220 0.520518 -1.257865 0.884465 -0.075836 -2.104102 0.387205 -1.623153 1.097689 -1.751212 2.061587 0.832581
1236 0.538262 -2.117219 0.064256 1.269523 0.141938 1.845729 -2.336838 0.142098 -0.102648 0.364683 0.629232 0.009223 -0.425216 0.469358 1.037401 -0.797410
5975 -1.684807 -0.608345 0.519128 0.876957 -0.745813 1.439915 -0.973077 0.632462 0.479482 0.200254 1.971584 0.542799 0.680242 0.260784 1.462726 0.857151
1406 -1.085031 0.283928 -0.475214 -1.581264 0.299459 0.793669 -1.562599 0.461700 1.496344 -0.444710 1.606644 -0.287953 -0.230823 -0.791244 0.705130 -0.302038
214 -1.042460 -0.615407 -1.273792 0.287076 0.411267 0.473017 -0.643126 1.729257 0.041381 0.782143 0.937963 0.961927 0.705137 -0.719105 0.865561 -0.557299
281 -0.232299 -1.061752 -1.600119 -0.001229 1.336064 0.186536 -1.500577 1.474455 -1.788177 0.813622 -0.494606 -0.179343 -0.418412 -0.154527 1.000675 -0.822167
96 -2.787030 -0.196615 -1.102758 -0.935667 0.295125 1.928192 -1.940431 0.014471 -1.027538 -2.779656 -0.816361 -0.524150 0.259743 -0.850506 2.854862 -0.648771
2895 -0.791406 -0.310271 -1.082840 -1.106382 0.437386 0.902453 -0.840094 -0.646720 -0.251749 0.948025 1.137886 0.295237 -0.304435 -1.249494 0.732191 0.686198
1992 0.414749 -0.853686 -0.654499 0.441391 -0.471488 1.143493 -1.966035 0.181029 -0.310003 1.071429 1.302809 -0.565702 0.123814 -0.707616 1.049134 -0.111623
1103 -1.561858 -0.409567 -1.960992 0.748944 0.882579 1.022641 -2.197006 -0.164430 0.815780 -0.118429 0.736480 -0.302646 0.496480 1.004770 -0.422518 -0.386214
4262 -0.591999 -0.201776 -0.819629 -1.481847 -0.040403 -0.120219 -1.766580 -0.430601 -0.299402 -0.069975 0.432659 1.497406 -0.877047 -0.522564 0.852016 0.497347
2743 -0.698688 -0.368429 -1.065858 -1.102345 0.464475 0.847989 -0.947025 -0.731951 -0.351509 0.979318 1.069160 0.348321 -0.531939 -1.263182 0.794308 0.610463
694 -0.329223 -0.882535 -0.385765 -1.151812 0.242536 1.681044 -0.565601 0.690568 0.209282 0.795949 0.252297 0.774868 -0.384366 -0.321970 0.931327 -0.585014
1671 -1.176071 -1.049937 -0.641240 0.987441 -0.456431 0.746247 -0.901303 0.670307 1.101943 0.683799 2.078762 0.860744 0.634277 0.217502 1.051867 0.625514
3997 -0.563591 -1.034090 -0.582550 -0.454076 0.659709 1.160257 -1.081306 0.412249 0.789256 1.142325 0.372919 0.274652 -0.316189 1.481436 0.111472 0.160378
249 1.154148 -0.913392 -0.680284 -0.101268 -0.394962 1.340403 -1.499698 0.207373 0.588155 0.766472 0.828408 0.409081 -0.910651 -0.451231 1.264717 0.574107
3864 -1.148199 -0.845520 -0.297950 -0.443457 0.533724 1.244788 -0.892562 0.020580 0.111005 1.436610 0.736807 -0.903767 -1.109441 -0.853318 0.189127 -0.015869
353 1.602448 -0.318788 -1.450691 0.315647 -0.439225 2.288352 -2.376039 0.067197 -0.506446 -1.211323 1.820105 -0.456125 -0.136529 0.895313 1.765653 0.837836
4764 0.817872 -2.794150 -0.920206 -2.599657 2.624762 1.578247 -1.067337 1.707489 -0.039156 -2.472968 1.407861 0.273800 0.753799 1.090615 1.429343 0.478700
273 -0.958694 0.373304 -0.749618 -1.833809 0.250581 -0.557005 -1.720361 0.029032 -1.007452 0.464533 1.031111 -0.150140 -0.616984 -0.120690 2.068874 0.285307
2884 -1.125224 -0.563774 -0.267109 -0.600469 -0.056281 0.153296 -1.836733 0.107772 -0.522620 1.409969 0.630927 -1.150151 -0.234263 -0.484426 0.797791 -0.198474
380 0.976079 -1.576690 -0.909664 0.026803 0.000539 0.612208 -2.132020 -0.213043 0.636631 0.734274 0.838278 0.090983 -0.028619 -0.217351 1.942065 -0.158753
2684 -0.522025 -0.164274 -1.516484 -0.986405 0.154583 0.971137 -0.911472 -0.738137 -0.528869 0.763201 0.909527 0.342175 -0.482146 -1.152831 0.813493 0.583114
1235 0.694851 -1.459516 -0.419388 1.108483 -0.299306 1.480497 -1.903311 -0.005886 -0.281014 0.732596 1.063666 -0.192025 -0.129552 -0.154087 0.928057 -0.289866
722 0.010702 -0.401688 -1.042529 -0.639345 1.540149 0.247836 -1.897348 1.829683 0.100398 -0.100835 0.551705 -0.322004 -0.046031 0.129725 -0.964762 0.141547
1499 0.004637 -1.406590 -0.067764 -0.070546 0.328174 0.661566 -1.254116 0.196342 0.013029 -0.184594 2.789911 -0.525714 -2.351533 -0.107229 0.472420 -0.039595
478 -1.305047 0.030292 -0.897813 -1.435744 0.832373 0.551513 -0.841050 -0.819923 0.135114 0.679804 1.369296 0.755521 0.060711 -1.107647 1.044702 0.880487
692 -0.079598 -1.451726 -0.020315 -0.074156 0.456446 0.392529 -1.473996 0.264933 -0.070784 -0.236584 2.733988 -0.551006 -2.460994 -0.166891 0.565800 -0.174927
321 -0.811272 -1.257606 -1.257972 1.024099 0.373938 0.739573 -1.436429 1.749855 -0.918857 0.895231 0.009621 -0.363734 0.096808 -0.725903 -0.046303 -0.361921
814 1.623702 -0.344582 -1.456445 0.403388 -0.393152 2.209705 -2.295828 0.106418 -0.500125 -1.228761 1.867554 -0.525033 -0.253325 0.846760 1.729588 0.781883
1003 -1.072019 -0.983392 -0.494727 -0.521903 0.071996 1.151331 -0.839243 0.119863 0.125295 0.904946 0.636137 -0.394674 -1.206955 -1.106386 0.135463 0.085882
391 -1.052489 -1.088768 0.124670 -0.342415 0.047220 0.167824 -2.196529 -0.064535 -0.121019 1.353982 0.757469 -0.636457 -0.007561 -0.845925 0.299028 0.026671
3688 -0.357383 -0.912227 -0.657676 -1.267727 0.238331 1.805807 -0.808350 0.268247 -0.135729 0.571168 0.581274 0.143609 -0.499529 -0.590990 0.039545 -0.043336
2823 -0.401381 -0.309795 -2.007968 -0.833045 2.325402 0.922745 -2.139927 0.681211 0.224220 -0.236196 0.618949 -0.324518 0.806653 1.266927 -0.623084 -0.013248
1875 -2.058687 -1.092933 -0.809721 0.546523 0.156208 1.768499 -1.469944 0.468623 0.654846 0.582551 -0.418856 0.078130 -0.753686 -2.151646 0.632987 1.539753
1881 0.295789 -1.203946 -0.549729 -0.354606 0.492216 0.773014 -0.750912 1.220708 1.178043 1.100386 0.223375 0.389618 0.193669 -0.164647 1.028441 0.553900
2938 0.362436 -2.629184 -1.064552 0.062248 2.893280 2.222769 -0.963442 1.088463 -0.287782 -0.069288 0.271404 -0.343472 0.045514 2.644302 1.477386 -0.798311
972 0.027558 -1.465415 0.031661 0.068671 0.458649 0.447141 -1.461713 0.194323 -0.131001 -0.174513 2.713442 -0.628438 -2.324880 -0.098581 0.516335 -0.053358
549 -0.651675 -0.940418 -0.765896 -0.052639 2.188055 0.315146 -0.679515 -0.383667 -1.038368 0.903230 -0.431763 0.707062 -0.815370 -0.333371 1.815680 -0.250258
164 -0.595443 -0.426395 -1.800560 0.757403 0.714207 1.442488 -2.166806 -0.367384 -1.509320 -1.049429 -0.778550 0.565076 1.211701 -0.183870 1.590490 1.568197
162 -1.884417 -2.571018 1.156431 0.451902 1.242833 0.999331 -0.361430 0.283612 -2.354949 -0.181976 0.873794 -0.133323 -2.100544 2.191928 2.775693 1.942381
767 -0.478349 -2.137471 -1.289717 0.648642 1.752355 -0.483836 -1.816969 0.900924 0.371579 0.252635 0.618531 0.621016 -0.020314 1.745589 2.222335 4.297053
3461 -0.393269 -0.670802 -1.075746 1.005836 0.625147 1.053195 -2.160169 1.240205 -0.868990 1.371635 -0.502714 -1.210187 -0.106899 -0.490808 0.564445 0.145183
2346 -2.974700 0.860858 -3.336524 1.136050 1.952819 1.334893 -0.038528 0.068033 1.028962 -0.772556 1.147839 -0.004487 -0.650741 0.845814 2.466254 1.569537
6031 -3.037813 -2.224005 0.362854 1.087726 1.434537 1.206403 -2.257398 -0.526596 0.341404 -1.470411 -0.906261 -0.199145 -1.567672 1.378492 0.230700 3.083250
1510 -1.507233 -1.417152 -1.029764 -0.244814 1.282485 1.717271 -2.468763 0.854487 -0.285119 -0.449412 1.280204 -0.101995 -0.848890 0.114427 1.806177 0.768557
1618 -1.025449 0.069371 0.192089 0.179293 1.213686 1.608328 -0.543981 0.413229 0.476219 0.308153 1.584769 1.760401 -0.383108 -0.879370 0.707834 1.067414
1080 0.131112 -0.180440 -0.977436 -0.075630 1.107428 0.491796 -1.615072 2.171057 -0.037426 0.173520 1.129185 -0.168701 -0.286115 0.312314 -0.536552 0.232624
1496 -1.853333 0.142684 -0.356074 1.013820 0.568639 1.229737 -1.141300 0.797927 0.591786 0.387548 0.627730 0.666180 0.279318 -1.395533 0.845801 -0.154252
4663 -2.014645 -0.904705 -1.434472 0.843290 1.483480 -0.322597 -1.241104 0.289715 -1.874076 1.390140 -0.124919 1.106687 -0.692325 -0.694749 2.514816 0.524230
571 -0.257108 -0.329314 -1.464869 0.049345 1.177111 1.372285 -0.852542 0.858639 0.859519 0.725338 0.746310 0.367588 -0.273499 0.000213 -0.703064 0.420611
813 0.094416 -1.396237 0.093702 -0.033172 0.479574 0.647758 -1.463956 0.268854 -0.131146 -0.239549 2.714145 -0.576875 -2.369440 -0.163330 0.552180 -0.188223
4499 -0.191154 -2.311521 -1.560289 -0.427526 -0.266771 1.702034 -0.947968 0.820807 -2.656690 -0.366975 -0.415492 -0.369005 -0.700275 0.899940 2.851599 -0.400743
1107 -0.809349 0.069260 0.291865 0.375690 0.629095 1.406015 -0.571634 0.506802 0.550425 0.330060 1.600210 1.333105 -0.123742 -0.583246 0.563874 0.927801
97 -0.796820 0.376968 0.376279 -0.067341 0.644954 1.949450 -1.684116 0.556851 0.241926 0.615426 0.390083 0.143440 -0.716944 0.146519 -0.171595 -0.169217
160 -1.551189 -0.857518 0.424641 -1.667561 2.181384 1.306936 -2.707396 1.040116 0.058092 -1.996139 -0.510904 0.017309 0.209731 0.592907 -0.313728 -0.482211
5420 -2.296286 -1.136150 -1.520892 0.731442 1.656542 -0.275049 -1.281740 0.402008 -1.891848 1.431505 -0.391962 1.218886 -0.692390 -0.404659 2.595367 0.583998
1049 -0.077820 -1.018731 -1.225340 -0.756660 0.344244 1.248359 -0.960333 0.578886 -1.490841 0.401985 -1.130583 -0.427016 -1.342500 0.503248 1.812883 -0.552284
708 -0.980594 -0.114068 -0.926074 -1.477101 -0.098407 2.020142 -0.926793 0.207998 0.824113 0.257438 0.773424 -0.499710 -0.159450 -0.959147 0.710101 0.005579
0 -2.647091 -2.297000 0.675618 -0.914708 -0.978926 2.075591 -1.084116 0.155834 -0.822029 -0.793597 -0.679365 0.719022 -0.461130 0.676809 2.855251 0.941596
1958 -1.937742 -0.399212 -0.453517 -0.930644 0.048516 -0.013540 -2.018419 0.263730 -1.537869 0.880491 1.300367 -1.805603 -0.267284 -0.224103 1.913433 -0.552735
785 0.916501 -0.897610 -0.606107 0.437470 -0.454558 1.110688 -1.842571 0.262949 0.045675 0.682898 1.142995 -0.138205 -0.274603 -0.826861 1.338259 0.162737
217 -1.139631 0.610804 -1.124296 -1.647009 0.653327 -0.185979 -1.912050 0.726486 -1.781405 0.055799 1.511252 -1.488619 -1.524144 0.413354 0.982428 0.884785
1557 1.188655 -1.169962 -0.917055 0.317944 -0.193458 0.750974 -1.966315 0.158973 0.705802 0.516046 0.908912 0.036670 -0.608591 -0.756046 1.811737 0.177979
752 -0.611965 0.595575 -1.000141 0.573760 -0.528648 2.620720 -2.006752 -0.030775 0.764916 -0.034256 0.891107 -0.228519 0.123839 -0.801109 0.864385 -0.409095
712 -0.405829 -1.590392 -0.416481 -0.112296 2.339337 -0.112797 -0.673723 -0.409819 -1.495188 0.719618 0.466271 0.906619 -1.094103 -0.438455 2.079904 0.218513
469 -0.012725 -1.384143 0.007250 -0.105566 0.406748 0.473933 -1.393166 0.240629 0.056756 -0.244853 2.667890 -0.584822 -2.453876 -0.152592 0.552022 -0.046684
2355 -2.058939 -2.811148 -0.413281 -1.604950 1.570578 0.826344 -0.928600 -0.308580 -1.821742 -1.196814 0.056965 0.186600 -2.077892 0.399121 0.130193 3.270369
1506 -0.028535 -1.267395 0.051383 -0.060046 0.488660 0.540192 -1.463107 0.266088 -0.035046 -0.188313 2.704468 -0.663743 -2.310051 -0.195496 0.558038 -0.167319
1801 -0.032227 -0.095917 -0.766309 0.314998 1.079627 0.739371 -1.616766 1.839357 -0.448379 0.955601 0.595498 0.081281 -0.078942 -0.039746 -0.327477 0.480258
996 -0.608037 -0.441739 -1.837657 0.761812 0.704627 1.464995 -2.212443 -0.407207 -1.504534 -1.027003 -0.703209 0.530941 1.277920 -0.155927 1.613199 1.521422
1943 -2.140259 -2.916022 0.205454 -1.343618 0.121718 -0.522235 -2.131687 2.063792 -0.507807 0.045601 1.575024 -1.789549 -0.325759 1.139310 0.498191 2.141142
121 -1.080909 -0.452791 1.114432 -0.341999 0.420468 1.146983 -1.704481 0.692483 0.497426 0.718657 -0.619307 0.317911 -0.065439 0.236063 1.245554 -0.087098
3687 -0.428075 -0.893291 -0.744084 -1.334685 0.213181 1.779336 -0.760678 0.342059 -0.244242 0.480514 0.582506 0.146268 -0.403438 -0.619089 -0.023708 -0.082461
483 0.018332 -0.645595 -0.773837 0.251026 2.412786 -0.013977 -1.257077 -0.704751 -1.271367 0.664253 0.903766 0.942481 -0.376110 0.183236 2.462426 -0.184062
1794 -0.176883 -0.925150 -0.445521 -0.605311 0.486292 0.836075 -0.696108 0.579840 0.807808 1.024814 0.608039 1.174676 0.064242 0.120657 1.154405 -0.283956
1198 1.279118 -0.653873 -0.501438 0.308686 -0.388947 1.326795 -1.651105 0.541846 -0.350800 0.079413 1.675964 -1.040963 -1.211064 0.220609 1.631030 -0.100859
921 -0.708860 -0.580678 -2.057325 0.808373 0.534643 1.609440 -2.362301 -0.363913 -1.571284 -1.044968 -0.637172 0.652874 1.265417 -0.336764 1.318834 1.590148
2759 -1.283265 -1.105911 -0.716326 -1.189131 -0.305131 1.648024 -0.531354 -0.188525 0.164938 0.460242 0.549334 -0.300171 -1.006032 -0.969910 0.300499 0.239641
51 -1.314173 -0.138269 0.444501 -0.397594 -0.290307 1.884133 -2.312547 0.443447 -2.225785 -2.512618 2.428932 -0.349506 0.741253 -1.509782 1.495050 1.191921
166 -0.924786 -0.469866 -1.744537 0.679643 0.886313 1.651334 -1.957652 -0.676629 -1.535229 -0.492558 -0.418988 0.623628 1.530372 -0.038021 1.659680 1.573213
2 0.002329 -0.667755 -0.914322 -0.880000 0.072388 1.065694 -1.126304 0.682521 -0.537958 0.422590 -0.765207 0.205693 -1.311639 0.321576 1.358853 -0.904824
878 -0.566881 -0.951789 -0.570591 -1.256270 0.048374 1.718269 -0.835396 0.335139 -0.211617 0.642547 0.520829 0.542934 -0.309539 -0.553045 0.159192 -0.180937
272 -1.149536 0.789643 -1.214454 -1.523183 0.604072 -0.110094 -1.651949 0.576829 -1.835332 -0.172786 1.460675 -1.241608 -1.345456 0.311278 1.199419 0.736889
396 1.030561 -1.421691 -0.834107 0.175281 -0.030926 0.500376 -2.514647 -0.062089 0.933913 0.471900 0.774400 -0.089059 -0.182907 -0.612556 2.249930 -0.045255
1333 0.049899 -1.498039 -0.108159 -0.015406 0.500844 0.571947 -1.265331 0.229766 -0.082404 -0.282371 2.704791 -0.585334 -2.420023 -0.048766 0.533500 -0.305859
1357 -1.167027 -1.357984 0.622960 -0.687538 -1.050059 0.408625 -2.496086 0.570395 -0.089661 -0.468959 -0.052171 0.552771 -0.724051 -0.609357 0.667896 0.115983
3827 -1.621371 -1.167788 -1.933054 1.716277 0.422718 0.837609 -1.894664 1.465204 1.815888 -0.269017 -0.297507 -1.817888 -0.670581 0.181773 1.021663 0.491877
5208 -0.330075 -1.499415 -0.748103 1.392944 2.533405 3.314811 0.482769 1.235222 -0.926064 0.396869 0.684353 -0.116601 -0.494637 1.171136 1.895383 2.359385
1964 -1.555828 -1.128583 -1.269727 0.463945 1.566369 -0.135836 -1.087561 0.396147 -1.314641 1.346278 -0.541476 1.089616 -0.774816 -0.285967 2.221961 -0.110568
20 -0.427061 -1.177882 0.355378 0.147066 -0.450159 1.010396 -1.453051 1.223195 0.884934 -0.019476 0.592402 0.634382 -1.034999 -0.380008 -0.099156 0.764879
3354 -0.641668 0.262972 -1.043802 -1.638490 0.299132 0.136634 -1.294615 -0.434197 -0.175704 0.113915 0.536143 1.113542 -0.927851 -0.355276 1.238662 0.629596
2182 -0.690768 -1.527768 -1.092416 0.948505 0.197927 1.566724 -1.284068 2.544806 0.788838 -0.216387 -0.074367 -1.240843 0.454701 -0.548024 0.559514 -0.412036
2666 -0.960080 -1.005825 0.097844 -1.158362 2.164075 0.723128 -2.743048 1.940758 -0.671652 -1.619797 -0.414874 -0.458588 -0.113807 0.416091 -0.905543 -0.070948
1726 -2.116287 -0.117697 -0.616047 0.513235 0.872235 0.977508 -0.765100 1.022758 0.551354 -0.043225 1.217330 0.719569 0.439045 -1.478101 0.827074 -0.358196
2294 -1.870948 -0.418070 -0.326549 -0.905927 -0.013071 0.022378 -2.059654 0.176524 -1.159611 1.000303 1.048321 -1.643468 -0.231473 -0.183420 1.637465 -0.400689
3077 0.685802 -1.142683 -2.973173 1.010667 3.153894 1.133093 -0.811570 0.341055 -1.723976 -0.097405 2.959205 -0.940344 -0.871461 1.263299 1.148439 0.352423
1822 -0.284338 -0.131583 -0.924701 0.262008 1.122639 0.519482 -1.755921 2.008917 -0.447766 0.850125 1.021316 0.262057 0.192409 -0.079881 -0.412471 0.263060
3935 -0.909936 -0.364898 -1.159083 -0.934265 0.485932 -0.450717 -2.808533 0.174852 -1.516055 0.578810 -0.067556 -1.365994 -0.641928 0.705313 2.379920 -0.836924
1101 -2.105197 0.053093 -0.802159 0.494119 0.997506 0.923452 -0.626175 1.008919 0.577073 -0.015566 1.146172 0.615195 0.338585 -1.462929 1.001705 -0.286044
476 -2.950392 -0.910846 -0.231294 -0.391152 3.725765 0.478574 0.011142 1.580723 -0.233557 -1.926494 0.549537 -0.283346 -2.466381 0.165569 0.948409 0.372410
3993 -0.337193 -2.419252 -1.616996 -0.196876 -0.650379 1.699968 -0.994758 0.836954 -2.738899 -0.665234 -0.000185 -0.501709 -0.366283 0.891951 2.881150 -0.261060
3323 -0.262901 0.241264 -0.242432 0.037588 1.169219 0.409092 -1.355478 2.476429 -0.175666 0.334244 1.482234 -0.282003 -0.253153 0.666283 0.081630 -0.137047
1295 -1.762420 -0.317089 -0.993712 0.561480 0.707777 0.961856 -0.387384 1.313280 0.415885 0.447183 0.847507 0.846283 0.433380 -1.158097 1.203429 -0.463445
298 -0.581397 0.860594 -2.239385 0.643881 2.799469 2.200410 -1.718009 0.116002 -1.986134 -0.146854 2.556428 -0.407841 1.800333 0.324450 1.453294 0.525741
2401 -1.988109 -0.993676 -1.504346 0.419521 2.928856 1.375585 -0.832230 1.203569 -2.397155 -2.299638 0.546563 -1.222961 1.503370 -0.763573 1.816783 -0.557427
753 -0.686534 -0.711911 -0.439555 -1.334325 0.507509 1.072385 -1.591075 0.855217 0.223711 0.161253 -0.637874 0.464191 -0.873455 -0.505686 0.008399 -0.497287
4133 0.146357 -0.754430 -0.739262 -1.310364 0.353354 1.539305 -0.645384 0.059257 -0.061306 -0.204837 0.518902 0.742667 -0.925122 -1.118866 0.270849 0.240253
2811 -1.688611 -0.585237 -0.341551 -0.796911 -0.154533 -0.028745 -1.965915 0.290731 -1.090782 1.129826 1.089382 -1.659870 -0.261742 -0.194685 1.708549 -0.384345
3422 0.244166 -0.726088 -0.941306 -0.558924 -0.100153 1.225125 -0.938487 -0.530144 -0.482057 0.683301 1.806526 0.259315 -0.968062 -0.460513 0.126247 -0.015574
1024 -0.552362 -1.193750 -1.326166 1.120260 0.554998 1.058951 -1.791489 2.000515 -0.657588 0.846690 -0.282887 -0.912841 -0.062410 -0.797769 0.236231 -0.387786
1560 -0.540406 -0.089614 -0.720134 -0.975323 0.090487 1.509426 -1.362011 0.377993 0.195173 0.324183 0.216735 0.829832 -1.291471 0.014237 -0.054187 -0.295158
3695 -0.773809 -0.149866 -1.117462 -1.076409 0.530474 0.937983 -0.959815 -0.605103 -0.262291 0.979392 1.231676 0.281051 -0.412702 -1.341459 0.659428 0.607795
870 1.481239 -0.166056 -1.684771 0.241273 -0.348195 2.389786 -2.203901 0.219797 -0.370428 -1.531163 1.873508 -0.413594 -0.208223 0.983288 1.747491 0.953715
328 0.031828 -1.268642 0.917939 0.405664 0.736023 1.264702 -1.803439 1.534215 0.927564 -0.491119 0.022873 -0.022516 -0.410978 -0.842207 0.744033 -0.365310
3830 -0.831177 -2.847356 0.126468 -1.060054 2.399831 1.060647 -0.803207 0.821671 -1.496167 -0.391759 -0.473893 -0.765045 1.578014 0.070408 3.430660 1.561243
4807 -0.412615 0.321556 -1.186283 0.053887 0.726542 0.756962 -1.460628 2.619032 -0.107998 0.044460 1.098250 -0.438743 -0.199731 0.330199 -0.412297 0.323641
2981 0.099443 0.070034 -0.951462 0.143777 0.852217 0.419412 -1.654735 2.010762 -0.200536 0.599647 0.902422 0.162578 -0.334467 0.253416 -0.180880 0.701851
2254 -1.210355 -0.439384 0.101950 0.495740 1.043175 1.350049 -0.058801 0.564240 0.059135 0.185678 1.734002 0.633696 -0.474564 -1.412775 1.385807 -0.536109
1957 -2.047099 -0.474826 -0.431601 -0.775502 -0.010170 0.068376 -1.994847 0.114081 -1.480567 0.773020 1.159724 -1.837241 -0.260119 -0.016605 2.006066 -0.763085
482 -0.143887 -1.557248 0.095272 0.014902 0.362510 0.497825 -1.234283 0.154341 -0.035491 -0.237512 2.580259 -0.462129 -2.403413 -0.056419 0.515117 -0.087290
1867 -0.868372 -0.787525 -1.697529 0.446168 0.690683 1.559576 -1.792759 -0.414977 -1.116682 -1.429040 -0.813862 1.036450 1.296121 -0.131248 1.565128 1.629529
1325 -1.066059 0.789962 -0.497165 -1.580546 0.229552 -0.387504 -2.292355 -0.344768 -1.040853 -0.024391 1.028985 -0.023830 -1.041170 -0.186379 1.654224 0.765493
4224 -0.847613 -1.111716 -0.877268 -0.476652 0.656989 1.112437 -1.092123 0.109270 0.740433 1.207331 0.326040 0.474052 -0.437964 1.333266 -0.070067 0.374941
69 -0.761246 -0.454709 -0.302215 -1.964032 0.707576 0.694901 -1.831806 1.165067 1.169797 -0.749092 -0.063923 -0.660443 -0.788175 -0.879678 0.090410 0.210017
2368 -1.248691 0.650590 -0.794440 -1.279290 0.530933 -0.158343 -2.062740 -0.351064 -1.872544 -0.193974 1.609260 -0.989676 -1.116029 -0.059008 0.969747 0.788694
3335 1.524166 -0.166730 -1.608232 0.227209 -0.318711 2.393667 -2.200650 0.227476 -0.494950 -1.405579 1.920344 -0.471599 -0.101900 0.998501 1.765908 0.887217
2242 0.740227 -1.041688 -0.585775 0.766221 -0.358953 1.147032 -1.955109 0.238485 -0.192958 0.873136 1.432076 -0.264072 0.106017 -0.514172 0.973537 -0.042391
2094 0.331012 -0.983282 0.056468 0.301356 0.837211 0.731278 -0.712912 0.900283 0.012512 0.484432 2.303353 -0.453504 -1.563839 0.949238 1.504898 -0.897390
3642 -0.229643 -1.262847 -0.447707 -1.635192 1.729166 0.143549 -1.484806 0.330623 -1.876401 -0.396906 0.095738 -2.329308 -2.173720 0.092469 1.735910 0.659476
2630 -1.103599 -0.740799 -0.386764 -0.381152 0.672412 1.061663 -0.704465 -0.142610 -0.041091 1.363173 0.677700 -0.533723 -0.553835 -1.114692 0.567808 -0.235127
3761 -0.343577 -1.501352 -0.741387 1.402603 2.580841 3.398143 0.495581 1.203682 -0.921801 0.406814 0.661080 -0.120282 -0.534263 1.180624 1.937337 2.322541
12 -0.623932 -1.217910 -0.987940 -0.277905 1.188913 0.174204 -0.502549 0.287439 0.002386 0.891826 0.049252 1.037959 -0.800227 0.219346 1.386619 -1.042050
1160 -1.953552 -0.436907 0.093872 -0.725616 2.089261 1.515683 -0.489657 0.432249 0.040421 -0.150862 1.398581 0.670204 0.860101 -1.403725 0.324804 1.005607
1922 -1.507911 -2.766835 0.273176 0.491284 2.378519 0.673465 -2.258610 -1.532522 -0.115547 -1.333934 2.487053 0.141308 1.299576 0.619224 0.993439 -0.089031
889 -1.170136 -1.169609 0.301517 -0.550378 -0.863024 0.532160 -2.337547 0.472383 0.015170 -0.542122 -0.100637 0.763614 -0.660641 -0.663980 0.441183 -0.051805
2343 -0.657482 -0.587160 -1.745820 0.783859 0.620881 1.436016 -2.137620 -0.371183 -1.485309 -1.071129 -0.603808 0.610075 1.204235 -0.198773 1.342290 1.571321
2777 -0.973318 0.337111 -1.068684 -1.757281 0.512684 0.083591 -1.140516 -0.253055 -1.862791 0.192872 1.414521 -0.205505 -1.299367 -0.443939 1.486741 0.481359
3054 -0.686122 -1.006959 -0.602490 -0.423352 0.674872 1.036951 -1.140815 0.295568 1.072073 0.937756 0.004777 0.451703 -0.558341 1.186434 0.142739 0.173962
3520 -0.226053 -0.881981 -0.827398 -1.414934 0.301057 1.510406 -0.685468 0.345488 -0.149873 0.709780 0.796638 0.213170 -0.519030 -0.815795 0.288876 -0.010477
5583 -0.623861 -0.977491 -0.517465 -0.345670 0.730118 1.130353 -1.009570 0.099905 0.762620 1.149167 0.255020 0.651883 -0.493988 1.331356 0.156952 0.458765
128 -1.634140 -1.937828 -0.814785 0.236543 0.356521 0.834610 -0.523607 1.850346 1.019568 0.007574 0.663218 0.085301 0.961640 0.235712 1.100585 -0.757835
673 -0.417524 -0.063971 -0.433327 -0.715161 0.170332 0.773890 -1.417965 0.741325 0.735337 0.603727 0.614513 1.118648 -1.441622 0.441564 0.633984 0.084626
172 -0.343784 -1.028934 -3.281464 -0.938197 1.909602 -1.412871 -1.633571 1.591062 1.269735 -1.344669 2.090400 -0.190537 -0.867446 0.114708 1.805053 1.188776
1736 -0.922038 -0.247607 -1.017342 -1.557979 0.034309 1.965865 -0.959141 0.059832 0.753126 0.154056 0.876503 -0.412135 -0.137547 -0.857752 0.426837 -0.036510
1180 -0.814859 0.593494 0.008059 0.540767 1.638941 0.885340 -0.416411 1.565678 0.247809 0.632701 1.957094 -0.031181 -0.996923 0.283326 1.129039 -0.470898
923 1.539336 -0.272434 -1.479755 0.201446 -0.502597 2.218238 -2.080549 0.103536 -0.402947 -1.284681 1.950009 -0.466737 -0.419953 0.737689 1.728638 0.950947
1292 -0.899566 -0.889714 -0.565351 -0.740514 -0.721417 2.057737 -1.594200 1.550199 0.206869 -0.293993 1.696515 0.000392 0.096174 0.601996 -0.850197 -0.145335
3275 -0.306008 -1.464571 -0.711664 1.385100 2.595222 3.390086 0.530095 1.240434 -0.884943 0.363304 0.695738 -0.156118 -0.551874 1.205213 1.846816 2.326866
1093 -1.061840 -0.213717 0.631690 -1.034987 3.106020 3.049265 -0.702124 -0.244190 -1.156570 -0.539773 -0.291175 -0.072905 -0.922183 -0.751347 1.012944 1.440046
1029 -1.227950 0.544480 -1.205371 1.939279 1.124619 -0.376566 -2.222690 -0.266264 -1.409978 0.581372 1.452672 0.216802 -0.562214 -0.340834 3.284337 1.176347
1417 0.221497 -0.135400 -0.471993 -1.662974 0.756122 1.196614 -0.881925 -0.112916 -0.177948 -0.918435 1.026076 1.175419 -1.251508 -1.220523 1.059586 0.534973
146 -1.259810 -0.432729 -0.355506 -0.461511 0.802516 0.847956 -1.228452 0.488093 0.791447 0.675652 -1.352955 0.622897 -0.006595 0.116597 1.143409 -0.190764
5105 -1.319573 -0.789321 -0.142991 1.093962 -0.570278 1.181765 -1.018716 0.340681 1.232244 0.271104 1.891834 0.559389 0.423708 -0.059453 1.136747 0.761984
1316 -0.008213 -1.393708 -0.138227 -0.111535 0.604390 0.429395 -1.342668 0.357981 -0.179001 -0.347981 2.677737 -0.795396 -2.378427 -0.257336 0.382280 -0.182606
340 -1.509588 -0.873619 -0.075739 1.068644 0.892721 1.374823 -2.314980 2.125942 -1.617450 0.997837 -0.759612 -2.300605 0.010540 -0.465680 1.471904 2.029752
5818 -1.525233 -0.295920 -0.044817 0.374173 0.997635 1.439910 -0.052499 0.278106 0.127823 0.141290 1.778940 0.608269 -0.461466 -1.568962 1.522512 -0.186531
2157 -1.133938 -0.652798 -0.264833 -0.518962 -0.122761 0.283255 -1.896165 0.135400 -0.390272 1.670236 0.866877 -1.124245 -0.180066 -0.461258 0.733353 -0.180172
320 -2.184261 -1.272896 -2.341742 -0.776694 2.179313 0.635299 -1.365270 1.074887 1.365159 -0.430333 0.210275 -0.783814 1.276428 0.870949 0.173721 0.012377
24 -0.207602 -0.871449 -0.601387 -2.015030 0.542263 1.153318 -0.595331 1.329650 0.239200 1.319098 0.912298 0.923542 -0.570006 0.464618 2.279688 -0.101546
2264 -0.590478 0.043414 0.050756 -0.146135 1.052316 1.440893 -0.420959 0.354276 0.485872 -0.438685 1.464847 1.834479 -0.408151 -1.132460 0.783511 0.895031
110 0.219925 -2.705228 0.649655 -0.063163 2.235000 0.490757 -2.560207 0.962941 1.790786 0.168912 0.559381 -1.943686 0.052296 0.798476 1.428813 1.559240
1445 -0.921010 -1.260236 0.105492 0.216247 0.438655 1.332399 -0.666575 0.514247 -0.154571 -0.728987 0.867292 0.811825 -0.711748 0.892912 0.732762 -1.697265
4623 -0.330355 -2.402913 -2.508488 -1.592094 2.207709 0.510386 -1.204886 0.826402 -0.059221 -2.046936 0.404016 -1.608791 1.065810 -1.722898 2.035471 0.856566
2260 -0.031609 -1.367970 -0.066472 -0.014929 0.486304 0.491669 -1.382187 0.359975 -0.012382 -0.265763 2.629218 -0.648682 -2.461391 -0.129155 0.520409 -0.278738
3031 0.146375 0.191049 -1.166160 0.809128 0.834159 0.468878 -2.857906 1.158161 -1.001818 -2.429786 -0.655335 -0.886625 -0.516997 0.112874 2.755309 1.094249
1021 -2.526149 -2.319177 0.742871 -0.846242 -1.045189 1.978624 -1.185386 0.196739 -0.848892 -0.750096 -0.644847 0.827968 -0.387159 0.620570 2.851625 0.814956
5723 -0.541632 -0.945570 -0.520515 -1.301020 0.293116 1.929864 -0.773102 0.009175 -0.260276 0.566979 0.650591 0.189507 -0.570399 -0.562775 0.044113 -0.054881
685 -1.416238 -0.362166 -1.276335 -1.603107 -0.460015 2.369759 -0.891188 -0.077080 0.876796 -0.072465 0.888605 -0.788434 -0.188913 -1.106634 0.948527 0.132091
963 -0.310849 -1.332454 -0.314253 0.860328 1.735667 -0.148523 -2.481094 -0.810236 -0.922710 -0.242985 0.532483 1.328101 -1.131572 -1.211661 0.102560 0.192924
4720 -0.575048 0.159073 -0.166546 1.774303 1.910894 1.652627 -2.891299 1.432277 0.736351 -0.493175 -0.051868 -0.154970 1.085337 -0.024275 2.181934 -1.064948
2303 -0.035214 -1.330234 -0.162018 -0.102958 0.583150 0.398722 -1.349178 0.259331 -0.323029 -0.201438 2.753265 -0.641295 -2.476209 -0.225859 0.482933 -0.150716
705 -0.864036 -0.749119 -0.722063 -0.362246 -0.200411 1.114011 -1.662228 0.694519 0.323830 0.409099 0.962817 0.843329 -0.753601 0.862242 0.002419 -1.178035
324 -2.725411 -1.740878 -1.873285 0.984084 0.664473 1.571333 -2.099820 -0.953875 -0.286385 -0.308179 1.095254 -0.640783 0.384886 1.822726 -0.920302 -0.115262
192 -1.426798 -1.700902 -2.176049 0.852869 0.745180 0.114199 -1.890502 0.810046 0.456985 -2.455253 0.224143 0.185045 -2.235516 -0.315723 -0.100166 -0.188841
1988 -0.744711 -0.576622 -1.858925 0.739530 0.678371 1.451285 -2.050857 -0.349988 -1.498819 -0.911786 -0.591266 0.716183 1.389126 -0.203093 1.487798 1.523544
2321 -2.024890 -0.345301 -0.153996 -0.547207 1.912393 1.471410 -0.534558 0.400258 0.400034 -0.163401 1.404707 1.069532 0.795763 -1.276295 0.356668 0.877439
651 -0.931430 0.088626 -0.893420 -1.768691 0.524356 0.290242 -1.992500 -1.061103 1.229163 0.224116 0.725080 0.420183 -0.545579 -1.204148 1.853474 1.548429
5069 -1.325650 -0.879986 0.062269 1.014263 -0.510156 1.072398 -0.996895 0.372391 1.128245 0.273839 1.888226 0.630596 0.463924 0.071195 1.159555 0.691194
668 -1.876102 -0.496178 -0.101108 -0.672445 1.961202 1.667675 -0.478533 0.318393 0.282933 -0.179132 1.338323 1.020054 0.892162 -1.204978 0.246120 0.880536
106 0.172004 -1.492910 -1.359164 0.517290 0.630163 2.881684 -1.241064 0.823981 -1.421149 -3.021856 1.978462 0.288222 -1.943451 -0.461898 -0.363682 1.564293
1074 -0.712906 0.325861 -0.980703 -1.527902 0.374163 0.189080 -1.329190 -0.538287 -0.049188 0.174684 0.515787 1.095229 -1.234029 -0.411409 1.183303 0.571291
1353 -0.461321 -1.038358 -0.048049 -0.108717 -0.192830 1.061531 -1.276693 1.719631 0.891783 0.188806 0.686648 0.991109 -0.719467 0.541768 -0.205419 0.933325
1389 -0.123583 -0.392112 -0.733791 0.308671 2.410772 0.214184 -1.383206 -0.942907 -1.572393 0.940561 1.174070 0.850795 -0.551752 -0.210038 2.439788 0.151939
1526 -1.386713 0.594299 -1.797299 -0.030044 0.064225 1.664988 -1.459015 2.560010 0.060986 -0.915834 -0.104600 -0.283277 -0.536000 1.158518 -0.025129 0.477649
670 1.396389 -0.504313 -0.756607 0.398481 -0.597476 1.523849 -1.784378 0.057233 -0.306313 -0.338649 1.758302 -0.764850 -0.793634 0.359411 1.272956 0.423666
2730 -0.768403 -0.329055 -1.211386 -1.004660 0.294843 0.914943 -0.853539 -0.640667 -0.405794 0.925847 1.070229 0.306863 -0.668597 -1.286417 0.726785 0.480826
3399 -1.950103 -0.938378 -0.909672 0.506649 0.203067 1.629545 -1.523394 0.507158 0.704387 0.735911 -0.435583 0.110350 -1.057521 -2.182048 0.729192 1.394977
3140 -1.656847 -0.068183 -2.056169 0.932740 0.895897 1.121067 -2.449120 -0.018370 0.943932 -0.083241 0.531272 -0.482605 0.496076 0.674018 -0.473139 0.182635
1985 -1.333849 -2.057587 -1.856594 -0.593465 1.092203 -0.529671 -0.761951 0.090687 0.063778 0.577291 0.561166 1.145218 -0.875510 0.251098 2.158561 -1.189976
5864 -0.601121 -1.025601 -0.776200 -0.429873 0.646387 0.999758 -1.059396 0.294549 0.894655 1.285674 0.412134 0.396526 -0.450132 1.350546 0.099452 0.482339
2714 -2.101284 -1.072814 -0.896979 0.467955 0.157621 1.392981 -1.549228 0.498114 0.759175 0.739844 -0.307312 0.118323 -0.884397 -1.998643 0.564486 1.452165
3020 -0.642507 0.126348 -0.878691 -1.734595 0.566050 0.073460 -1.423205 -0.632305 0.058648 -0.017845 0.274002 0.976407 -1.151186 -0.400766 1.010751 0.635719
2598 0.109803 -0.339850 -1.293934 0.075987 1.193539 0.748866 -1.583449 1.516540 0.047549 0.761657 0.989710 0.278325 0.030228 0.030185 -0.645627 0.516364
999 -0.575896 -0.382311 -1.777450 0.800349 0.621583 1.430910 -2.127900 -0.255840 -1.393374 -1.102813 -0.720878 0.625203 1.208731 -0.205032 1.594261 1.527236
4613 -1.284169 -0.695841 -0.110266 1.090171 -0.570890 1.065381 -1.019244 0.395087 1.046311 0.341128 1.874871 0.429236 0.453743 0.017398 1.093286 0.684527
3554 -0.100881 -1.275691 -0.120956 -0.067553 0.489525 0.508530 -1.249521 0.308762 0.030875 -0.270497 2.578068 -0.691566 -2.501348 -0.035007 0.503046 -0.134221
4008 -1.155298 -0.969613 -0.519664 -0.639282 0.625870 0.774416 -0.893472 0.164420 0.212650 1.173876 0.365237 -0.781646 -1.229895 -1.128217 0.586826 -0.326541
1356 -0.312608 -1.157238 0.544138 -0.213533 0.268281 1.884817 -2.174921 1.269219 1.030176 0.120005 1.048729 0.201587 0.446284 1.121585 -0.386510 0.200193
3259 -0.897920 -1.060969 -0.515903 -0.894150 0.046936 1.629856 -0.689164 -0.094813 0.072725 0.681171 0.550009 -0.031648 -0.931069 -1.073723 0.305827 0.193546
178 -0.629109 -0.637318 -1.916672 0.874056 0.545870 1.423717 -2.269190 -0.318875 -1.535379 -1.024652 -0.515964 0.699160 1.290144 -0.222707 1.400508 1.628581
659 -0.518769 -1.012893 -0.665906 -0.212667 1.621515 0.754411 -0.716524 -0.899944 -2.156022 1.069139 1.155202 0.481209 -0.849649 -1.030772 0.913215 0.701256
597 -1.271050 0.559958 -1.309946 -0.551339 -0.188776 1.621063 -1.484745 2.197629 0.470317 -0.431408 -0.539726 -0.199448 -1.023840 0.652267 0.228163 1.024698
987 0.046086 -1.440195 -0.075361 0.057738 0.558489 0.522531 -1.346967 0.375588 0.017394 -0.299701 2.663143 -0.573868 -2.512516 0.000552 0.460746 -0.184958
3062 -2.367537 -1.160082 -0.670633 -0.438980 1.759392 1.093584 -1.249928 0.914118 1.094849 0.950005 -0.735069 -0.300250 0.604907 1.767149 1.208050 -0.140020
2382 -0.342583 -0.652240 -0.260893 -1.040894 1.768495 1.203163 -0.846723 -0.286443 -1.031311 0.969169 -1.131718 -0.933806 -1.365507 0.702422 1.468142 0.350632
1609 -0.233140 -1.110289 0.029418 -1.386768 0.847333 0.830790 -1.836123 1.551880 1.200606 -0.681507 -0.278375 -0.782208 -0.908204 -0.885202 0.181917 0.290817
182 -0.926302 -2.429037 -1.838723 -2.226479 0.829182 1.534598 -0.263389 -1.171845 0.454961 -1.106304 1.127059 -0.597513 -1.232473 0.976523 1.113411 0.305936
2123 -1.403885 0.345919 -1.336263 -0.993775 -0.285903 1.779299 -1.586409 2.131181 -0.045057 -0.483584 -0.732501 -0.275424 -0.867323 0.205875 0.003846 0.656738
2241 0.766245 -0.970337 -0.614274 0.694452 -0.359848 1.187047 -1.928292 0.264313 -0.137629 0.778454 1.407296 -0.183908 0.072799 -0.576510 0.992564 -0.080280
65 -1.631010 -1.591714 -0.845095 0.080296 0.834669 0.962310 -0.474326 1.668217 1.277991 0.315564 0.223370 -0.146964 1.265342 0.194568 1.040621 -0.379124
1670 -0.564514 -1.162985 -0.951236 0.254405 0.042822 0.574711 -0.530913 0.986596 0.782551 0.980691 0.777728 0.862525 0.721317 0.031382 1.061382 0.017888
3611 0.069757 -1.359714 -0.041386 0.020983 0.408467 0.532775 -1.443257 0.315954 -0.149032 -0.267683 2.681622 -0.636959 -2.292321 -0.216752 0.477746 -0.157986
92 -1.238047 0.855105 -1.303864 -1.611898 0.484590 0.034899 -1.635023 0.580291 -1.640120 -0.037063 1.381209 -1.316907 -1.310167 0.392656 1.244593 0.637817
2108 -0.374099 -0.888207 -0.516219 -1.334486 0.190369 1.841957 -1.012569 0.250656 -0.309284 0.490138 0.342592 0.125162 -0.342333 -0.718651 -0.098323 0.161464
2392 -1.769719 -0.380713 -0.504412 -0.873155 0.169309 -0.155318 -2.038049 0.258735 -1.508947 0.673306 0.862537 -1.713013 -0.501317 0.100584 1.952465 -0.619422
1190 -1.356426 -1.514184 -0.233976 0.357971 0.143293 1.322001 -0.527909 0.972213 0.482258 -0.575532 0.492507 0.507821 -0.476641 0.731748 0.620305 -1.612267
4358 -0.307099 -1.434137 -0.715996 1.324175 2.495895 3.298926 0.490716 1.188333 -0.858808 0.350003 0.638545 -0.127562 -0.462915 1.180599 1.823918 2.304082
4608 -1.774719 -0.276010 -1.246227 -0.499120 1.839136 -0.662155 -1.360920 0.540906 1.189890 -2.526914 1.088280 -2.066941 -1.229151 0.296834 2.227259 2.708810
1010 -0.749193 -0.533692 -0.652348 -1.232023 -0.141525 1.076167 -1.343223 1.279738 0.234231 -0.069497 -0.618401 -0.193527 -1.076749 -0.540128 -0.033370 -0.000354
3307 -0.551175 -0.364260 -0.945913 -0.954396 0.585499 0.883283 -0.736312 -0.702639 -0.660740 1.018440 1.137932 0.342201 -0.582057 -1.068017 0.643923 0.429565
766 -0.546971 -0.848254 -0.968321 -0.664266 1.299367 0.645357 -1.303259 -0.232346 0.056002 -2.269658 0.756156 1.981356 -1.230862 -1.559800 0.624096 0.524196
1110 0.438089 -2.391709 -0.067530 1.401906 0.097972 1.957352 -2.533674 0.088811 -0.123721 0.522303 0.396033 0.070375 -0.758896 0.711530 1.171533 -0.813424
167 -1.278756 -1.734405 -0.898182 0.166187 0.523829 0.864958 -0.654020 1.955716 1.287931 0.209746 0.534262 0.059490 0.974577 -0.014499 1.257047 -0.406739
860 -1.999447 0.011640 -0.716521 0.574019 0.832042 0.953181 -0.631571 0.994890 0.567977 -0.030312 1.235232 0.690053 0.114583 -1.516871 1.174098 -0.415008
1579 1.504624 -0.166852 -1.657323 0.199112 -0.439660 2.368249 -2.230806 0.200181 -0.476595 -1.405185 1.828060 -0.423217 -0.194954 0.951414 1.841016 0.965936
755 -1.867461 -0.556283 0.271504 -0.654114 1.881935 1.658575 -0.497711 0.335984 0.068507 -0.175214 1.469966 1.034584 0.733383 -1.083370 0.155948 0.776899
3513 -1.360899 -1.793705 -2.081691 0.813264 0.909569 0.254704 -1.999441 0.784998 0.526007 -2.184059 0.095881 0.278051 -2.280960 -0.240185 -0.300583 -0.211646
5534 -0.980074 -0.977590 -0.590039 -0.535446 0.049843 0.123105 -1.763327 0.336269 -0.009391 1.783172 1.017950 -0.882048 -0.014590 -0.853257 0.626753 0.223623
2087 0.849817 -1.010058 -0.734622 0.659517 -0.391171 1.158531 -1.829172 0.327537 -0.243546 0.861095 1.359416 -0.246943 -0.092730 -0.538612 0.946324 -0.002055
508 -1.366687 0.918773 -0.910672 -1.664200 0.651771 0.028326 -1.827200 -0.341186 -0.689774 -0.874446 1.626490 -1.299130 -1.204182 0.599958 1.309837 0.048730
1936 -0.576788 -0.472016 -1.824454 0.793150 0.629291 1.325902 -2.112335 -0.212610 -1.427444 -1.194331 -0.731124 0.587230 1.237713 -0.145017 1.612698 1.504704
1415 -0.849401 -1.717517 0.887903 -0.223942 0.100675 0.860165 -2.188704 1.400800 -0.321362 -0.968641 0.241387 0.636712 -0.615120 -0.900220 1.150321 -1.513492
2050 -1.996736 -0.286016 -0.624254 0.358041 1.140789 0.953042 -0.479763 0.698974 0.327767 -0.017812 1.438342 0.593959 0.481010 -1.692370 1.189954 -0.401587
2446 -2.005046 -0.972038 -0.758819 0.618145 0.179350 1.576803 -1.604687 0.578044 0.691798 0.752090 -0.256573 0.009452 -1.016272 -2.093449 0.614137 1.420088
920 -0.997706 -2.473609 -1.936702 -2.352484 0.930869 1.613952 -0.484708 -1.236170 0.540166 -0.979815 1.062862 -0.537308 -1.470584 1.068196 1.074575 0.217503
3146 -1.335978 -1.288125 -0.609642 0.232105 0.166238 -0.277181 -2.674906 -0.187061 -0.049203 -0.700826 0.330535 1.519074 -0.644405 -0.426966 -0.128802 -0.095647
5 -1.143295 0.129169 -0.830637 -2.028338 0.260355 -0.781898 -1.740024 0.474568 -1.149204 0.520732 1.606701 -0.436659 -0.424760 0.490767 2.498044 0.454366
554 -0.659814 -1.349630 -1.099342 0.190550 1.779956 2.252275 -1.813474 -1.947445 1.395175 -2.214010 -0.528103 0.586071 -0.616422 1.145074 2.478403 0.057138
326 -0.888984 -0.368725 0.280449 -0.881942 2.947119 2.494938 -0.526527 -0.159035 -1.190572 -0.164698 -0.723222 -0.239216 -0.929113 -0.590832 1.143788 0.854289
3404 -2.103518 -1.037783 -0.792324 0.631786 0.144841 1.491755 -1.384934 0.536360 0.725406 0.557203 -0.115622 0.103892 -0.940724 -2.169335 0.514612 1.605515
806 -0.713239 0.040534 -1.064868 -1.127486 -0.133076 2.152791 -0.945957 0.114905 0.609189 0.119329 0.655100 -0.467289 -0.156517 -1.002228 0.541365 -0.212693
2526 -0.354211 -0.850726 -0.672042 -0.245635 1.043078 0.540523 -0.546078 0.317898 0.398869 0.702955 0.504668 0.752074 -0.542728 1.110912 0.827913 -1.083576
1860 -0.996593 -0.633839 -1.830097 0.619850 0.880099 1.535861 -1.745243 -0.773921 -1.562398 -0.424320 -0.296230 0.655613 1.655462 0.068798 1.594960 1.622672
1627 -2.018160 -0.494552 0.138928 -0.768092 2.110600 1.576435 -0.550027 0.316366 0.053095 -0.167972 1.422158 0.773269 0.854290 -1.413150 0.356427 0.900768
3772 -1.964994 -2.879645 0.222838 -1.285929 0.131289 -0.565473 -2.000373 1.994593 -0.540210 0.003143 1.508977 -1.739584 -0.248503 1.082054 0.573767 2.010280
704 -0.575837 -0.867590 -0.597037 -0.155360 -0.185239 1.049230 -1.274172 0.999860 -0.085914 0.295893 1.015417 0.471365 -0.972363 -0.043758 -0.546066 -0.801240
2911 -0.761877 -0.603424 -1.906106 0.712958 0.694781 1.388647 -2.004996 -0.441800 -1.466095 -0.988335 -0.563579 0.601485 1.341770 -0.124711 1.504386 1.624894
420 -0.516992 -0.392825 -0.660001 -0.270925 -0.168620 1.056742 -1.242295 2.149364 0.125302 0.606701 1.033043 1.154152 -0.176896 -0.031026 -0.151247 0.525935
956 -1.265892 -1.609545 -0.843639 0.057323 0.566280 0.916841 -0.631258 1.906829 1.314700 0.227053 0.555624 -0.043398 1.099592 0.123327 1.224554 -0.539627
3833 0.177311 0.197578 -1.119388 0.784250 0.767109 0.468788 -2.742406 1.152071 -0.961395 -2.395546 -0.684976 -0.957528 -0.533915 0.155803 2.711379 1.116583
5061 -1.470343 -0.380734 -0.002942 0.476409 0.995046 1.319572 -0.354089 0.238052 0.216129 0.381080 1.948860 0.552868 -0.182151 -1.502433 1.585595 -0.341351
4236 -1.135716 -0.755608 -0.603670 -0.334440 0.232358 0.151017 -1.801584 0.751100 -0.317587 1.665168 0.985893 -0.744201 0.037882 -0.783229 0.242699 -0.241695
3542 -1.175501 0.267337 -0.123049 0.039876 -0.244709 0.694390 -1.533815 1.207634 0.406865 0.810339 0.879119 0.912171 -1.671589 0.519433 0.943642 0.125321
2464 0.080638 -1.302169 -0.061947 0.044149 0.463708 0.417412 -1.296684 0.220270 -0.081896 -0.183952 2.518195 -0.633652 -2.361535 -0.154920 0.582819 -0.117696
5002 1.514323 -0.296686 -1.727072 0.174067 -0.419412 2.411968 -2.239907 0.159478 -0.386189 -1.426584 1.787996 -0.340111 -0.142318 1.001224 1.841777 0.924714
408 -0.626938 -0.545863 -1.710856 0.919438 0.478683 1.458841 -1.958778 -0.088566 -1.726035 -0.911054 -0.541584 0.809793 1.039534 -0.161775 1.158835 1.302564
4038 -0.426674 -0.529591 -2.372342 0.003262 0.204853 0.884259 -0.502119 1.314450 -0.593803 -2.407869 2.205071 -0.903239 -1.205673 -0.253917 2.549772 -0.969896
3357 -0.673637 -0.339042 -1.690966 0.936840 0.697517 0.837312 -1.756871 0.772853 0.931952 0.666870 0.300665 -0.696456 -0.080289 0.145974 -0.626442 0.417847
2447 -1.801733 -0.951878 -0.852955 0.661780 0.190608 1.540820 -1.587863 0.567303 0.701001 0.721042 -0.252951 0.074638 -1.020272 -2.189742 0.649403 1.340316
1381 -0.741797 0.843088 -0.586673 -1.293802 0.279674 -0.065350 -2.120079 -0.615675 -0.716274 -0.711340 1.863876 -1.151805 -1.329600 0.386900 1.577456 0.137249
4020 -1.819138 -0.103903 0.399969 0.574988 1.511637 1.342235 -3.428965 -0.877195 -2.518514 -0.410509 1.810160 0.725150 1.029857 0.870094 1.379103 -0.809995
747 -1.927267 -0.591788 0.051582 -0.770084 2.105722 1.494926 -0.584828 0.322547 0.053028 -0.281525 1.573659 0.662126 0.860881 -1.436232 0.184495 0.928975
3769 -0.716200 -0.581736 -1.819436 0.740062 0.671199 1.520689 -2.043250 -0.451607 -1.493011 -0.970003 -0.677848 0.634555 1.246463 -0.174204 1.433712 1.551578
1864 -0.894976 -0.659420 -1.844875 0.650326 0.898741 1.450016 -1.831616 -0.713201 -1.430601 -0.431235 -0.272472 0.532529 1.674867 0.082356 1.710256 1.651388
140 -0.359766 -0.850841 -0.058969 -0.426314 1.057849 1.572689 -3.267970 -0.345487 0.072083 0.602871 -0.429191 0.391563 -0.352922 -0.699184 -0.652346 0.403155
467 -1.369025 -1.712384 -2.186758 0.798770 0.746234 0.211775 -1.872561 0.667945 0.466094 -2.315478 0.171452 0.221969 -2.203876 -0.373536 -0.201772 -0.178496
1471 -1.705819 -0.167064 -1.932623 0.517374 0.130667 1.660938 -0.846649 2.383129 -0.232031 -0.700044 -0.166167 0.608431 -0.453949 1.895202 0.350528 -0.225092
264 0.433672 -1.336628 0.588146 -0.521445 1.116749 0.926936 -1.760990 1.624363 1.157564 -0.478934 -0.254538 -0.240043 -0.454489 -0.874347 0.596383 0.207504
3155 -0.585822 -3.385001 -1.225244 0.313776 1.828625 1.175901 0.485692 0.277528 -0.285164 -1.707259 2.546117 -0.832606 0.831243 -0.266768 3.124120 0.435557
3504 -1.115039 0.610480 -0.710954 -1.290859 0.546845 -0.196820 -1.994815 -0.405098 -1.783633 -0.430136 1.355669 -0.943402 -1.100281 0.009636 0.995525 0.742394
3210 -1.988497 -1.075798 -0.787232 0.455427 0.036135 1.413422 -1.554615 0.569167 0.679554 0.735522 -0.162102 0.097472 -0.934471 -2.060544 0.595004 1.408761
52 -0.305478 -1.119693 0.524097 0.280982 0.050770 0.600195 -1.350517 1.108518 0.567063 -0.015681 1.418532 0.422906 -2.062563 -0.393261 -0.208143 0.696525
703 -0.842753 -0.754259 -0.506906 -0.199462 -0.530663 1.626272 -1.720086 1.054105 0.023042 -0.095427 1.329074 0.549572 -0.571257 0.681337 -0.610154 -0.936722
826 -0.740045 -1.238410 -1.114604 -0.840888 1.317968 1.167649 -0.707754 -0.852010 0.458411 1.414145 0.133170 -0.836281 -1.251953 0.767654 0.293905 0.494989
4386 -0.608003 -1.168479 -0.314030 0.623295 0.718655 1.586133 -1.247999 0.258137 0.666064 0.513366 -0.096468 1.540795 -1.198166 1.627764 0.367189 1.152976
2227 -1.501253 -1.269290 -0.342227 0.604644 -0.083742 1.405365 -1.590547 0.730861 0.832468 0.605848 0.024539 0.094370 -1.003529 -2.041223 0.507956 1.379205
1477 -0.918329 -0.049840 0.271582 0.345899 0.560621 1.660200 -1.691136 0.799896 0.438750 0.638416 0.466084 0.492099 -0.963019 0.474324 -0.306453 0.095071
1655 -0.633522 -3.316640 -1.203174 0.400443 1.945750 1.110857 0.526489 0.347489 -0.291838 -1.692979 2.548463 -0.878888 0.745081 -0.179724 3.164967 0.392837
2272 -0.786795 -1.002725 -0.314587 0.221847 0.915650 1.172667 -1.046829 0.113888 0.767456 0.664147 0.019397 1.209859 -0.572050 1.658516 0.356534 0.788888
521 -1.270975 -1.654908 -1.078514 0.068305 0.521096 1.006494 -0.474932 1.919578 1.190503 0.238635 0.585031 0.066074 0.989763 -0.008895 1.206018 -0.525606
2179 -0.661952 0.276701 -1.065073 -1.378310 0.725143 0.421697 -1.018893 -0.295509 -1.879166 0.674095 1.777856 -0.151308 -1.178983 -0.757845 1.031859 0.433593
998 -0.867639 -1.119598 -0.105981 0.102910 0.632482 0.738563 -0.709602 0.517987 0.315124 -0.063179 0.561501 0.451058 -0.771155 0.885120 0.870444 -1.779288
805 -1.909203 -1.389258 -1.621771 -0.530618 1.904073 0.894890 -1.185649 1.127747 1.461666 -0.056234 -0.143989 -0.396700 1.441002 0.811027 0.489121 -0.174609
1515 0.230657 -1.530002 -1.323315 0.507632 0.539630 2.920183 -1.245317 0.788216 -1.430514 -3.047907 1.938779 0.293829 -1.934080 -0.522791 -0.400392 1.551507
3835 -0.505572 0.281813 0.158090 0.231363 1.509821 0.652796 -0.800270 2.051791 0.282114 0.624166 1.819579 -0.261168 -0.919927 0.790196 0.745797 -0.265257
60 -1.744022 -0.089456 0.120063 0.057088 2.948390 0.105539 -1.132709 2.150315 -1.097582 0.423068 0.986610 -0.963011 -1.279654 -0.891433 1.381765 3.362013
2519 -1.142865 -1.118409 -1.057849 -0.111624 1.734522 0.128496 -0.792042 0.133364 -0.719241 1.190299 -0.420896 1.083584 -0.605261 0.078371 1.734438 -0.627905
1914 -1.553386 -2.676022 1.777469 0.972905 2.257035 0.247769 -2.023800 0.545571 -1.827740 0.414768 1.388059 -0.031606 0.032475 0.943783 0.921053 2.091296
2524 -1.094403 -1.299433 -1.117913 0.123356 1.816913 0.118856 -0.930204 0.186523 -1.053316 1.134520 -0.622518 1.125984 -0.694022 -0.086910 1.979947 -0.417921
257 -0.795694 -1.285538 -1.166943 0.399190 2.783717 0.392071 -0.846404 1.493170 -2.073354 -2.488365 1.649973 0.679886 -2.071897 2.012151 0.232105 0.547068
3617 -2.610369 -0.250370 -1.090292 -0.948300 0.168706 1.755128 -1.865383 0.050613 -0.986919 -2.663595 -0.773068 -0.493074 0.407252 -0.810315 2.685320 -0.666796
4066 -1.185464 -0.978382 -0.501181 -0.478531 0.246074 1.034966 -0.874737 0.029648 0.136310 1.067773 0.559741 -0.385798 -1.036467 -1.192747 0.140342 0.232581
2376 -1.495500 -1.395537 -1.931489 1.727785 0.361791 0.933893 -1.680293 1.643975 1.521019 -0.460389 -0.326308 -1.802728 -0.529321 -0.121705 1.266991 0.310923
3512 -1.344240 -1.656420 -2.242042 0.784743 0.742353 0.240252 -2.013749 0.655582 0.541697 -2.278032 0.138414 0.331832 -2.361876 -0.318555 -0.121867 -0.088587
3647 -0.755451 -1.021278 -1.010480 -0.091514 2.015175 0.176249 -0.960382 0.235260 -0.983062 1.015378 -0.550717 1.008199 -0.722432 -0.007861 1.748902 -0.584195
4113 -1.326801 -1.756788 -2.224897 0.670740 0.720264 0.177171 -1.958354 0.736420 0.519805 -2.243286 0.097735 0.254828 -2.307181 -0.246869 -0.262749 -0.174256
1549 -0.317202 -1.683530 -0.800807 -0.367985 2.484205 0.046380 -0.826485 0.714883 -1.041728 0.520928 -0.321319 1.443939 -0.819012 -0.114825 1.843075 -0.346476
2516 -0.747906 -0.935040 -1.035924 0.583892 2.616652 1.522207 -1.685482 1.256523 -0.298027 -1.353615 -0.182149 -3.664606 -0.305623 1.876325 1.356051 0.677703
5244 -1.355785 -3.504683 -1.280456 -0.530986 -0.819218 -0.408829 -1.646192 0.617320 -0.363714 0.154962 0.288138 0.471919 -0.932331 -0.404926 2.173470 3.121860
1206 -0.187227 -1.060107 -1.520839 -0.036666 1.463321 1.204432 -1.040133 0.668446 1.182458 1.182608 0.810419 0.973281 -0.383685 0.799703 -0.168316 0.421809
185 -1.635174 -0.642678 0.017956 0.194608 0.260867 1.379979 -1.326231 0.092255 0.910214 0.368360 -0.891987 0.505037 -0.707413 -0.816219 0.574882 -0.072562
3646 0.578442 -0.972109 -2.524461 0.864628 1.996698 1.577873 -1.017772 -0.972464 -0.993244 -0.841476 0.353924 -1.074766 -1.692098 0.253892 1.470206 3.232520
1632 0.437675 -3.926256 -1.266724 1.648026 1.301646 1.057436 -1.235055 -0.041330 -0.288055 -1.556725 -0.681496 -0.103798 -0.574582 0.640149 2.671125 1.365894
2301 0.157891 -1.028735 -0.513980 -1.572936 1.033957 0.921430 -0.401559 0.589840 0.048487 -1.365357 1.201708 1.068393 -1.860595 -1.637898 1.880743 1.671518
3278 -0.542573 0.086764 -0.337372 1.322870 1.183932 1.787485 -2.460298 1.596324 0.606851 -0.619154 -0.193219 0.770098 1.126060 0.110220 1.836298 -0.907550
1116 -0.108739 0.126802 -0.090729 -0.468581 0.534862 0.601873 -2.069794 0.297318 1.853161 0.109537 1.171185 0.243241 -0.593031 -0.733623 0.669727 0.429723
221 -0.487361 -0.509004 0.552466 0.489077 0.303837 1.345742 -2.119173 0.516834 0.944851 0.269085 0.396605 0.527247 0.005981 -0.706404 0.328482 -0.012660
3401 -2.000376 -1.010197 -0.997469 0.532923 0.018220 1.481969 -1.527823 0.656439 0.700692 0.617130 -0.215795 0.085038 -1.225121 -2.201164 0.712874 1.497036
3657 -1.671497 -4.008341 -1.469071 -0.070028 -0.077064 1.894994 -0.405706 1.594459 -0.430673 -1.878345 0.053810 -0.838466 0.576381 -0.675483 0.899881 2.202217
2672 -1.106304 -1.665846 -0.970107 -0.094029 0.524556 0.097076 -2.585812 0.254805 0.035796 -2.316124 -0.373791 0.298151 -1.100233 0.012037 -0.462364 -0.350510
2771 -1.218779 -0.885750 -0.521820 -0.385513 0.125039 1.015417 -0.730183 -0.020255 0.171597 1.091254 0.669257 -0.444529 -1.116565 -1.129595 0.374890 0.115304
6005 0.972956 -1.746651 -1.132489 -0.454722 1.996944 -0.130775 -2.340886 -0.190607 -0.234385 -1.970442 3.019529 1.826443 -0.472463 1.407877 2.229355 -0.437224
3328 -0.739897 -0.829700 -1.394080 0.638473 0.188498 0.733714 -1.365238 1.519001 -1.504324 0.480627 0.222239 0.392689 0.095547 -0.698858 -0.179987 -0.266536
1456 -0.797513 -1.580740 -1.132582 0.969705 1.716735 1.331854 0.249558 -0.296545 0.293439 -3.045885 1.043316 0.926403 -1.267644 0.534016 3.701708 0.947381
4423 -0.593256 0.060127 -0.914506 -1.581619 0.289716 -0.018437 -1.193060 -0.502832 -0.096312 0.183888 0.624019 0.886983 -1.210530 -0.484334 1.156120 0.671893
1086 -1.424299 -1.253881 -0.958235 -0.370152 1.233999 1.674910 -2.399688 0.875127 -0.151460 -0.444451 1.241926 -0.105387 -0.875450 0.113844 1.661755 0.845477
1283 -0.641853 -0.800000 -0.362829 -1.781137 0.618148 0.851701 -2.267192 1.404417 0.987160 -0.794471 -0.286502 -0.991269 -1.073405 -0.873371 -0.031343 0.275984
2858 -1.453640 -1.772575 -2.102333 0.708544 0.693565 0.281906 -1.881994 0.813474 0.552981 -2.255732 0.133192 0.205429 -2.308433 -0.193337 -0.165888 -0.266358
2497 -0.217048 -0.005805 -0.494239 -0.791122 0.192704 0.850616 -1.181781 0.678816 0.152201 0.694419 -0.028426 0.807994 -1.337297 0.368192 1.079519 -0.578629
5395 -0.734841 1.007287 -0.817237 -0.615834 3.383150 0.918836 -1.440536 2.564872 0.523969 -1.504913 0.085202 -2.036980 -0.912062 -0.361663 2.397436 1.155202
124 -0.193589 -0.852159 -0.221864 -0.062558 0.983056 0.498466 -0.488680 0.573427 0.378033 0.434285 1.147910 -0.159015 -1.274255 0.987858 1.260510 -1.457277
2708 -0.114710 -1.015053 -1.691914 0.724043 1.291118 0.897929 -2.255314 1.474754 -1.171206 1.248594 -1.007792 -1.124622 -0.048029 -0.655197 1.397818 -0.279504
2751 -1.399243 -1.811450 -2.041444 0.873394 0.764675 0.275802 -1.904861 0.719931 0.555124 -2.292580 0.178028 0.224208 -2.180634 -0.246665 -0.205907 -0.279637
80 -1.277504 -0.597541 -1.160921 -0.199589 -0.730478 2.182709 -1.787082 2.170625 0.088673 -0.814233 1.577190 -0.883188 0.321098 0.419610 -1.031245 0.119668
525 -1.243647 -1.241713 -0.760767 -0.244533 1.083008 1.439557 -1.922631 0.636895 -0.416740 -0.346258 1.090662 -0.016995 -0.689561 0.039364 1.448970 0.795781
3311 -1.339647 -1.715220 -2.227728 0.756322 0.688751 0.223533 -2.014024 0.720212 0.547541 -2.209358 0.108872 0.126214 -2.354422 -0.357851 -0.119639 -0.176431
4855 -0.342069 -2.524469 -2.169878 0.272406 1.810627 -0.816095 -2.538032 0.159576 0.145523 -2.287359 1.206991 -0.815920 0.677484 1.737322 2.264950 -0.997050
4338 -0.427905 -0.010744 -1.089670 0.161074 0.911962 0.330125 -1.539530 2.209824 -0.299197 0.536312 1.292661 -0.184750 0.120537 -0.015349 -0.204273 -0.061731
3837 -2.025756 -1.071479 -0.960417 0.637403 0.221152 1.608161 -1.606993 0.575526 0.713997 0.742592 -0.202548 -0.029949 -0.930272 -2.294636 0.558684 1.477696
4287 -0.937533 -0.203627 0.391901 -0.050091 1.151689 1.577063 -0.509818 0.343823 0.533846 0.036142 1.613002 1.605697 -0.263911 -1.002278 0.563054 0.826883
4172 -1.207164 -1.093859 -0.804137 -0.178523 1.101552 1.374629 -1.926572 0.647967 -0.259367 -0.457801 1.000797 -0.074930 -0.623149 0.101495 1.364295 0.653131
2356 0.379028 -1.463155 -0.498697 -0.312855 2.194907 1.929806 -1.021169 0.775724 -0.110993 0.469009 0.224982 0.436651 -0.215554 2.418671 1.228465 -0.913964
1243 -0.434828 0.378762 -2.905957 -1.910610 0.250971 0.645133 -1.722065 -0.033731 -0.230910 -0.066954 0.303735 0.889013 -0.758673 -0.337726 1.615077 1.134216
1377 -0.597363 0.090652 0.967563 -0.664421 0.581786 2.482129 -1.208841 0.827622 -0.054941 0.286506 0.400213 -0.389766 -0.826865 -0.034026 0.537136 -0.617576
6395 -0.662002 -0.986084 -0.758736 -0.392920 0.741014 1.132797 -1.073972 0.119237 1.011306 1.156056 0.290053 0.382506 -0.427254 1.275837 0.171322 0.416518
1845 -1.350826 -1.615517 -2.189373 0.813483 0.852191 0.325570 -1.734953 0.653086 0.520697 -2.260879 0.125669 0.208797 -2.306364 -0.320859 -0.130950 -0.200939
